882
25
4
0.0436878
-0.00393893
0.119962
0.0284543
-0.076816
0.137122
-0.0449955
-0.055954
-0.180297
0.00703977
0.0820928
0.0106601
0.127187
0.127798
-0.0205184
-0.00594084
-0.0910596
0.130235
0.000132374
-0.14392
0.00453061
0.058303
0.093942
-0.00669351
-0.050894
0.000686582
-0.0437928
-0.0267822
-0.0131196
0.0167162
0.0356682
0.0101273
0.0266086
-0.0293189
-0.0282144
0.0571267
0.0417535
-0.0148863
0.00281585
-0.0112008
-0.0264987
-0.019483
-0.0187846
-0.0264889
-0.0295255
-0.00023769
0.0139205
0.0212448
0.0103243
0.00651325
0.0099335
-0.000425563
-0.00898326
-0.0454161
-0.0379
-0.0195726
0.0303352
0.04238
-0.00637746
-0.0262267
0.00567994
0.0442814
-0.0018773
0.041862
-0.0198306
0.00854038
-0.00557582
-0.0469732
-0.0138674
0.0166866
-0.00461863
-0.00217459
-0.0183499
-0.00779586
-0.0219735
0.00534749
-0.0100521
-0.00146413
-0.035165
0.0492699
-0.0304667
0.018064
0.0200618
0.0240443
-0.0273163
-0.00248045
0.0237261
0.00350148
-0.0123289
0.0209337
-0.0289735
0.0392482
-0.0153735
-0.0102773
0.0501633
-0.0204216
-0.0252912
-0.02456
0.0112424
0.0292855
-0.00438629
-0.0213379
-0.0293743
-0.024602
0.00875105
-0.0235625
-0.00346222
0.0681805
0.00258666
-0.0144791
-0.0145174
-0.0170239
-0.0161361
-0.023342
0.0157415
0.0116754
-0.0131706
-0.044295
-0.0263879
0.0417971
0.0282014
-0.0270955
0.00279179
-0.0273429
0.0366854
0.00426497
0.0229581
0.0399956
0.0290084
-0.00861454
0.00654272
0.0300184
-0.00517463
-0.00805821
0.0187338
0.0186657
-0.0306413
0.035787
-0.0205107
0.0339769
0.00334291
-0.0102199
-0.00706798
-0.0264393
-0.0397655
-0.0056106
0.036693
0.00336126
0.00259303
0.0225497
0.0214597
-0.0334227
-0.021455
-0.0097217
0.0117378
-0.0181077
0.00506555
-0.0276945
-0.0227479
0.018999
0.0100351
0.00142775
0.0313009
0.0273398
-0.0196451
-0.0307806
-0.0165469
0.0357287
0.0162296
-0.028162
0.014931
-0.00135698
-0.011609
-0.00903113
-0.00945685
0.0595352
0.0128391
0.0585402
0.0423005
0.0155549
0.0314519
-0.0145098
-0.0751973
-0.0794277
-0.00628881
0.0343896
0.00706478
0.0498136
-0.000220508
0.0233386
-0.0218134
-0.0072787
0.0781983
0.00189105
-0.0144575
-0.0258019
0.0684022
0.0572402
-0.00358178
0.0210838
0.0284029
0.0139864
0.0217921
0.00490484
-0.0312862
0.0523023
0.0218631
-0.0182055
-0.0475638
0.0301172
-0.0264547
0.012058
0.00143007
0.000336595
-0.0149783
-0.0230492
-0.0115199
0.0405919
0.0102386
-0.0413119
-0.0183041
0.0039735
0.0156319
-0.021964
0.0317355
-0.0136142
0.0160665
0.0232519
0.0415521
-0.0221847
0.0515458
0.0331678
-0.00311819
-0.0225292
-0.0331891
0.00299686
0.0292594
0.0422805
0.0246719
-0.0345248
0.0155791
0.016846
0.00177128
0.00352942
0.000723433
-0.00148046
0.0435124
-0.00529733
-0.0119984
0.0263903
-0.0285702
0.0176563
-0.0139469
-0.0163789
-0.0235716
-0.028813
-0.0104261
0.0351755
0.00700975
-0.000320098
-0.0141925
-0.0273124
-0.00433292
0.00140603
-0.00353854
0.0121706
-0.0300386
-0.0255832
-0.0123537
0.0297086
0.0139574
-0.00454381
-0.0301899
0.0288285
-0.0227927
-0.0221127
-0.0055392
0.00419571
0.0281701
-0.0237307
-0.000699862
0.0238092
-0.031891
-0.00434538
0.0126945
0.00436439
-0.0055014
0.0147925
-0.0291938
0.018248
-0.0312969
0.0130079
0.0144414
0.00021601
-0.0191229
0.0178282
0.0153313
-0.0211699
-0.00312897
0.0214959
0.0232007
-0.0242443
0.0334641
0.011265
0.00436713
0.0101347
0.0109596
0.0294623
-0.0346094
-0.0128612
0.0177015
0.0221927
0.0165065
0.00300429
0.0273683
0.0250329
-0.00095833
-0.00802805
-0.00529822
0.00118238
0.00663194
0.0304509
-0.0156396
0.00954246
0.0329065
-0.0219424
0.0181852
-0.00154007
-0.0285327
-0.00598167
0.031776
0.00776455
0.00963416
0.00581563
-0.016909
-0.0263282
0.000753652
-0.00573236
0.0133949
0.015297
-0.0260497
0.0197649
-0.0189859
0.0290564
-0.0123457
0.0109896
0.0193325
-0.0109987
0.033159
0.0171673
0.0209041
-0.021178
0.0968381
-0.0162062
-0.0294018
0.118794
-0.00210282
0.0262077
-0.0902124
0.0143227
0.063938
0.00627908
0.109075
0.0399438
0.00915898
-0.0218002
-0.0512532
0.100409
0.00690969
-0.0730762
-0.00813865
0.0137336
0.031199
-0.0237591
-0.0131068
0.00666375
0.0244216
3.06757e-05
0.0421204
-0.00440368
0.0309293
-0.0256454
-0.0480073
-0.0305057
-0.0140431
0.000804958
0.0103376
0.0184382
-0.0109281
-0.0249761
-0.0242601
-0.0360417
-0.0058399
0.0304894
-0.0294774
-0.0267342
0.0113822
0.00804232
0.0219846
0.0222718
-0.00915072
-0.0217628
-0.00335246
0.0131171
0.0248869
-0.014607
-0.0208145
-0.0410356
0.0132388
-0.021447
0.0210577
0.0174484
0.0215107
0.00853987
-0.0162565
-0.0319712
0.0225022
0.000328576
0.0282012
-0.00265424
-0.025153
0.0148695
0.0111807
0.0107246
0.0424744
-0.0406661
-0.0174999
-0.0263428
-0.0419909
0.00541726
-0.00577794
0.0295601
0.0620403
-0.00896121
0.0114114
-0.0252693
-0.0221322
-0.00304235
-0.00723312
0.00917511
0.0290946
0.0318287
-0.033871
0.015357
-0.00443542
-0.021608
-0.0214725
-0.045824
0.00653914
-0.0213069
0.0156374
0.027064
0.00119484
-0.0355257
0.0333879
0.000505866
-0.00122822
0.0349919
0.0250594
-0.0126518
-0.0228625
0.0247277
-0.0279929
-0.0309556
0.00594867
0.0345575
0.0314786
-0.0311963
-0.0215228
0.014687
0.0228064
-0.0197431
0.00414206
-0.0266535
0.0271258
0.0112664
-0.0126273
-0.000250398
-0.017701
-0.0128761
-0.0194813
-0.0246745
-0.0201886
-0.0229256
0.00186469
0.0171005
-0.00281073
0.0454193
-0.00632353
0.0188693
0.0228511
-0.00116146
0.0183411
-0.0285024
-0.035807
-0.0239017
0.0115376
0.0106642
-0.0103775
-0.0208681
-0.0118722
0.0153819
0.0322753
0.0196282
0.0287953
-0.00329637
-0.0267017
-0.0205122
-0.0185675
-0.0125732
0.0144264
0.0305958
0.0153813
0.00526203
-0.0180978
0.0326391
0.0321798
0.000752917
-0.00289068
-0.0373664
0.0296895
0.0406717
-0.00267661
-0.0292687
-0.00887916
0.0663382
0.00436128
0.0727555
0.0601211
0.00656581
0.0729695
-0.0333264
-0.0732462
-0.021472
-0.00270091
-0.0325171
-0.0208702
0.0511525
-0.00764618
-0.0044179
-0.0177672
0.00465253
0.0791369
0.0226388
-0.0332967
-0.019944
0.0561662
0.0501844
-0.00297375
-0.0123901
0.00840857
0.0254764
-0.0105272
-0.0122884
0.0270132
0.0185161
-0.0232237
0.00899008
0.00615431
-0.0271013
-0.0123241
-0.0292856
-0.00672353
0.00781087
0.0327545
0.00200825
-0.0356817
-0.00989287
0.00907931
-0.031508
-0.024902
0.039276
-0.0090456
-0.0248476
-0.0087921
0.0443911
0.0173584
0.00662994
0.0232869
0.017039
0.0346249
-0.00295381
-0.0179952
-0.0455518
-0.0158846
0.0168674
-0.0212177
0.0521255
0.0317884
-0.00124459
-0.0362746
-0.038297
0.0283268
-0.0239165
-0.0197412
0.00431967
0.0104671
-0.00492767
-0.0212923
-0.0084436
0.00914035
-0.00092979
0.0255134
-0.0344206
0.0199795
-0.0323183
0.0327946
0.0211144
-0.0148866
0.022316
0.0157208
-0.00163858
0.0179663
-0.0227175
0.000376806
-0.0183565
-0.0128254
0.0307963
0.033676
-0.0105204
0.00177388
-0.0144536
-0.0277522
0.00863902
0.0116848
-0.00269957
-0.0153844
0.00590578
0.0479935
0.0194535
-0.000796184
0.0174495
-0.00671798
-0.0324417
0.0232616
0.0134909
0.0283069
0.000304869
-0.00529023
0.0354769
0.0161666
-0.00775498
-0.0158449
-0.000731672
-0.0283437
0.0291094
-0.0153212
0.0239503
0.0293196
-0.0301548
0.0299863
-0.000342177
0.00205203
0.0173049
-0.0275412
0.0119024
0.0110927
0.0200001
0.0178262
0.00600633
-0.0247483
0.0309271
-0.0144117
0.0198715
0.0139497
0.0160555
0.00212731
0.00561795
0.00430007
-0.00401466
-0.0264482
-0.0223742
0.0197071
0.0157218
0.0157209
-0.0312329
0.00658538
0.0152123
-0.0227774
-0.0244695
-0.00772746
0.0222404
-0.0211063
-0.00811641
0.00917399
-0.0257092
0.0173731
0.0162563
-0.00496927
0.0215509
-0.00988093
0.00282572
0.0219486
-0.0164736
0.0324492
-0.0296045
-0.00845345
0.0231735
-0.0192569
-0.0323809
-0.0061547
0.0421599
0.0408095
-0.00207356
-0.0132426
0.0690183
-0.0387452
0.0238747
-0.0455725
0.0133789
0.049987
-0.0010464
0.0538389
0.0575457
0.0102253
-0.000172738
-0.0187898
0.0437394
0.00778088
-0.0675013
0.0315171
0.0189233
0.0104452
-0.00461715
-0.0479015
0.00240405
-0.0277136
0.00787126
0.0100012
-0.0197674
0.0517658
-0.0250164
-0.0396641
-0.037574
0.0198452
0.00181546
-0.0108809
-0.0172131
-0.010958
-0.00522091
-0.0284738
-0.0279866
-0.00927364
-0.0276522
-0.0268168
0.0199506
-0.00984984
0.00368247
0.00970979
0.0347255
0.0217756
-0.025563
0.0226576
0.0059641
-0.0118124
0.0349712
0.0107658
-0.0163289
-0.000351847
-0.017621
0.0189474
0.0310448
7.63934e-05
0.00508005
-0.0108544
-0.0291377
-0.0121058
0.0241467
0.0257707
-0.0255679
-0.0241271
0.0359045
0.0162499
0.0386279
0.00940249
-0.0290906
0.0256895
-0.00819764
-0.0353837
0.0382082
-0.0433841
-0.0290731
0.0146662
0.0465562
0.0187121
-0.0262121
0.00754386
-0.0324462
-0.0130685
0.0016456
-0.0237806
0.0140015
-0.00040577
-0.00477124
0.0323818
-0.0155665
-0.0383095
0.00822607
0.0287532
0.02659
-0.0095568
0.0192555
-0.0228825
0.0111306
0.0161173
-0.0232555
0.0177468
0.0197568
-0.0142885
-0.0246611
0.0279684
0.0123967
0.00700429
0.00891187
0.0139388
0.00803253
-0.0302589
-0.0232642
-0.0100868
0.045195
-0.0155134
0.00398778
-0.0180162
-0.0294586
-0.00673383
0.0230878
-0.0101405
-0.0194759
0.0150892
0.0171281
0.0392792
-0.0195986
-0.00411271
0.0237128
0.0165374
-0.0273483
-0.0217453
0.00789823
-0.0282249
0.026176
-0.0226451
-0.0179517
0.0117281
-0.00732809
-0.0170051
0.0130427
0.00154445
-0.00723377
-9.2975e-05
-0.0158613
0.0395474
0.0203866
-0.00912287
0.0126745
-0.00436071
-0.0117131
-0.0218037
-0.0469122
-0.0399063
-0.00841706
0.0176635
0.00477936
0.024353
0.0221484
-0.00259396
0.0245348
-0.0263739
-0.00395495
0.0220675
-6.97958e-05
-0.000622012
0.0499172
0.00764791
0.00357338
0.023447
0.0529839
-0.028207
0.0264102
0.0671316
0.0156303
0.0617782
0.00072561
-0.0851919
-0.0331064
0.0255456
0.0229552
0.0254215
0.0474229
-0.0181904
-0.0146203
0.0186555
-0.00544128
0.0739664
-0.0309424
-0.0584812
0.0270801
0.0852321
0.0645803
-0.0278155
0.0142886
0.00265209
-0.0322579
-0.00724871
-0.00439062
-0.0239981
0.0573919
-0.0263414
-0.0147211
-0.036408
0.0159688
0.0089974
-0.00661541
0.036878
-0.0171308
0.00485112
0.00553322
-0.0360215
0.0440657
0.0153016
-0.0439754
-0.014251
0.0186774
0.00488814
-0.0153241
0.0136056
-0.0117735
-0.0310092
0.0308373
0.0195793
0.0109404
0.0541107
0.0246169
-0.0332982
-0.0630753
0.0151268
0.0124577
0.0377518
0.0438246
0.00859427
0.0128374
-0.03587
0.021754
0.0333119
0.0239365
-0.00973444
-0.0151344
-0.00954231
0.0286293
0.014378
0.0165158
-0.000685149
0.0375914
0.0237526
-0.00399221
0.0128411
-0.038602
-0.0158006
0.00294065
-0.00477444
0.0102193
-0.0128229
-0.0307896
-0.0369313
-0.00105968
-0.0194245
0.0225718
-0.000519026
0.00342168
-0.0262558
-0.0273938
0.0294479
-0.0378659
-0.0139308
-0.025113
-0.0315265
-0.0160636
-0.00563761
0.00782998
0.0292027
0.00688314
0.0270345
0.0304506
-0.00791428
0.0116343
-0.0300214
0.0251501
0.0232199
-0.00980492
-0.0122692
-0.0248141
0.000570723
-0.0318481
0.0186302
0.00218639
-0.0316354
-0.0108033
0.0299298
0.0195258
-0.000326478
0.0274382
0.00446665
-0.00132887
-0.0369366
-0.0310384
0.00412642
-0.00416614
-0.0137247
0.00366462
-0.00573932
-0.0304025
-0.0333898
-0.0350063
-0.00865284
-0.03189
-0.0113888
0.00808981
0.00618862
0.0010436
-0.00700867
0.0311147
-0.0178054
0.0151898
-0.0181022
0.0304589
0.028666
-0.00987033
0.0205078
-0.0250197
-0.0347914
-0.0116284
-0.0318284
0.0197323
-0.00868296
0.0225268
0.0299339
0.0156294
-0.0114573
0.00814267
0.00948468
-0.0340136
-0.0120483
-0.0155989
-0.00332135
0.0215995
0.0344549
-0.011486
0.0160874
-0.0128589
0.0313725
-0.0146504
0.0297158
0.00042014
0.040083
-0.0099535
0.00415647
0.00199339
-0.0138962
-0.0126206
-0.0417296
0.0240161
0.0166282
0.0148775
0.000448934
0.0358138
0.0211268
0.032298
-0.014089
0.0305753
-0.0328499
-0.0108873
-0.0131767
0.0309217
0.0151504
-0.0364592
0.0107891
0.0131065
-0.00714581
0.0307783
0.0106121
-0.023103
0.02782
-0.00691639
-0.000808104
-0.0138504
0.00425459
0.00810933
-0.00584912
0.030072
0.0452517
-0.0297462
-0.00790828
0.00627124
-0.0115077
-6.00581e-05
0.0216173
-0.0138968
0.0418483
0.0334179
0.0217994
0.017173
0.0124895
-0.018367
-0.00159104
0.0240586
-0.0180414
0.00520944
-0.0224889
0.0311283
-0.0361688
0.000434286
0.0224217
0.0428813
0.0126092
0.0326443
-0.030433
-0.00279334
-0.049144
0.0156677
-0.0100648
-0.00443503
0.00172022
-0.0220171
0.0140497
-0.00778024
-0.0122075
0.0244812
0.00975159
-0.00322039
-0.00478967
0.0405287
-0.0294211
0.0188808
-0.000557778
0.00773039
0.0153852
-0.0305663
-0.0145723
-0.0347808
-0.0329765
-0.00807553
0.0234526
-0.00643393
0.00427318
0.0149718
-0.0142825
0.035356
-0.0255332
-0.0254675
0.0313102
-0.00117274
-0.0187965
-0.0154754
-0.0296476
0.00535792
-0.00187598
0.0135406
-0.0123231
0.0169244
0.029138
0.0252545
-0.00654487
-0.0357627
-0.0275339
-0.0295029
0.0293599
0.00745055
-0.0220769
0.00342784
0.0163896
0.00134386
-0.0350393
0.0127094
-0.0484005
0.0230139
0.0202288
-0.0213976
-0.000838128
-0.0271958
-0.0207364
-0.0113976
-0.0286734
-0.00952186
-0.0144335
0.0279841
0.0146534
0.0167063
0.00684933
0.0358705
-0.0225128
0.004
0.00123704
0.00622647
0.0359071
-0.0256716
-0.0261028
0.0190673
0.00880531
-0.0175772
-0.00411865
0.0195762
-0.0124001
0.0309014
0.0296075
-0.0102554
0.0225582
-0.015166
-0.0103893
-0.0395648
-0.000354169
0.0240194
0.0227508
0.0122158
-0.0048698
-0.0109491
-0.0317272
0.0291742
0.02108
0.0298193
-0.00548974
0.00325705
0.00888203
-0.000100021
0.023082
-0.0247864
-0.00485963
0.0541917
0.0160649
0.0344244
0.0528186
0.0227329
0.0375325
0.0235463
-0.0184273
-0.035836
-0.0302756
-0.0277315
0.0216159
0.0622929
0.0302727
-0.0197455
0.00596798
0.00365159
0.0363706
-0.000706457
-0.0363498
0.0014191
0.0783256
0.0545737
0.0192843
0.0251605
0.00651598
-0.0102016
-0.00664742
-0.00960205
0.00535129
-0.00339644
-0.0014977
0.0104593
-0.0454382
-0.0243553
-0.0220858
0.00219626
0.0176821
0.00646927
-0.0297554
-0.0326055
0.018295
0.00418509
0.0326448
-0.0210772
0.0106313
0.000706766
0.0123823
-0.0207698
0.0169632
0.0348169
-0.0297668
-0.00280746
0.01637
0.0296559
-0.00165081
-0.000448473
-0.0175252
-0.00909746
-0.028053
0.00649693
0.0343829
0.019882
0.0448614
-0.0405816
-0.0290706
0.0018964
-0.0142777
0.0158229
-0.0303411
0.0117622
0.0403781
0.0458487
-0.032083
-0.0116655
0.00799414
-0.0183446
-0.0331123
-0.0268713
-0.0117649
-0.0225958
-0.0270638
0.0126118
0.0169334
-0.0227589
-0.0214577
0.00761548
0.00405032
-0.038785
9.4233e-05
0.0195486
-0.00580045
0.0179354
0.0217533
0.0315437
-0.00627086
-0.048001
-0.0111827
0.0322535
-0.0151469
0.0270556
0.00635007
0.00924354
-0.00417941
-0.0196151
0.000297837
-0.0324221
-0.0255904
0.00122007
-0.0178811
-0.0195464
0.028077
0.0247283
-0.0128422
-0.00687398
-0.000376613
-0.00282245
-0.0254598
-0.0217161
-0.00643549
-0.0316936
0.0039714
0.00135251
0.0260818
-0.0173597
0.0136467
0.0225045
0.00431017
-0.0212128
0.0221827
-0.0142331
0.0142594
0.00748561
-0.00417153
-0.00413713
-0.030607
-0.0264799
-0.0173999
0.0207236
0.0122992
-0.0181022
0.01773
-0.0100241
0.00401406
-0.021769
-0.00233634
-0.0435722
0.0179195
-0.0293951
0.0174206
0.0216396
-0.027559
-0.00163577
-0.0241739
0.00481021
0.0115654
-0.0209844
-0.00038489
-0.00500157
-0.029352
-0.0369718
0.0129217
-0.0292135
0.0214526
-0.00908118
0.0166042
0.00930951
-0.0136014
0.0123234
0.0101934
0.0100989
-0.0214811
0.00133396
0.0130086
0.0286454
0.0160405
0.0041839
0.0338348
0.00370903
-0.0451265
0.0480545
-0.0478887
-0.00137475
-0.0452146
0.0388995
0.0133329
0.0032289
0.0431909
0.0188454
-0.0169378
0.0190029
-0.0485627
0.016028
-0.0136167
-0.0683895
-0.00799313
0.00520234
0.00275459
-0.0359434
-0.0214968
0.0182093
0.01442
0.0277797
-0.00230316
0.023932
0.0307966
0.00503519
-0.0347847
-0.00777401
0.0175608
0.0353381
-0.00140982
0.00626787
0.03507
-0.0165678
-0.013639
0.0149964
-0.00948057
0.00200866
-0.0404061
0.0136684
-0.00453197
-0.00122264
-0.00108494
-0.0145201
0.0225328
-0.0423899
0.0370407
0.0185559
-0.0192921
0.0102558
-0.0221631
0.00981318
-0.0386515
-0.015958
0.0102043
0.00186638
0.00204123
0.00433125
-0.0461406
0.00427959
-0.0420742
0.0355933
-0.0229225
0.0133996
-0.0240178
0.0267917
-0.00423091
0.0385659
0.00326266
-0.00219587
-0.0158427
-0.0349442
0.00784737
0.0118057
-0.0236347
-0.0292608
0.0345742
0.0476147
0.0344524
0.00868995
-0.0133379
-0.0478332
-0.000263255
0.00244252
0.0252143
-0.0245189
-0.0233523
-0.0191094
0.0340292
0.0280346
0.00564686
0.00161275
-0.0144335
-0.00381715
-0.0337466
-0.020079
0.014013
0.00425444
-0.0239687
-0.0301003
0.000478114
-0.00300815
-0.00821593
-0.0158252
-0.00800456
0.0260893
0.0163213
0.00371583
0.0374158
0.00431081
-0.00140539
-0.0269987
-0.0024758
0.0434343
-0.017588
-0.000232161
-0.00305995
0.010777
-0.0288887
0.0111013
-0.0168965
-0.00107022
0.045431
-0.00632637
0.0239173
0.00127912
-0.0238438
0.0353165
-0.0137101
-0.0166755
-0.00178645
0.0197254
-0.0382589
0.0287406
0.0163909
0.00278252
0.0145528
-0.00415108
-0.0334891
0.00757457
0.0340768
-0.0014771
-0.00955496
0.0189846
0.0319898
0.00896897
0.0131429
0.0125045
0.0199378
-0.013787
0.0127557
0.0144457
-0.0358214
-0.0271854
0.0108196
0.00152476
0.0196752
-0.0294379
0.0251689
0.0272517
-0.0309787
0.0113156
-0.0215448
0.0158033
0.0135391
-0.0143961
-0.0184373
0.0271253
0.0121067
0.0404069
0.0223089
-0.00215142
0.0468379
-0.0103839
0.0344119
0.0142243
-0.0272235
-0.0456944
0.0254825
-0.0122382
-0.0184876
0.00152249
0.0266955
-0.0315629
-0.0355
0.0139143
0.0100537
0.0182618
-0.00725601
-0.0296024
0.0193069
0.0228403
-0.0277372
0.0265623
-0.00658822
0.0162646
-0.00995193
0.0404007
-0.0178513
0.00948667
0.0109446
-0.0352754
0.00374009
-0.00611979
-0.00340227
0.0199332
0.0273253
0.00728713
-0.0222895
-0.00153489
-0.00302658
0.0363158
-0.0262358
0.0203838
-7.87478e-05
0.00280261
-0.0016211
0.0154919
0.00397196
0.0422803
0.00493632
0.00164905
0.0330376
0.0183969
0.00611138
0.00410331
-0.0301179
-0.0459561
-0.00368076
0.0376484
-0.0137718
0.0244833
-0.00579619
-0.045678
-0.00894212
-0.0376185
0.0339506
-0.019295
0.000559368
-0.00164043
0.00128661
-0.0130525
-0.0132364
-0.00918348
-0.00346296
0.0247465
-0.0284319
0.0152619
-0.00301029
0.00253159
-0.0129473
0.023871
0.0412492
-0.0239673
-0.0165116
0.00790637
0.00903234
0.0162475
0.00624229
0.0175803
0.0110932
0.00445945
-0.0134247
0.0252756
-0.0238251
0.0113072
-0.0163806
0.0274524
0.00509088
0.0137127
-0.0128897
0.0176042
0.0212012
-0.0156796
0.00620029
0.0212025
0.0256845
0.0287919
-0.0273216
-0.0391014
-0.0281829
0.0226989
-0.0175028
-0.0358283
0.00356494
0.00467373
-0.0245027
-0.0133484
-0.00697911
0.0119393
-0.000452044
0.0049342
0.0233828
-0.0130381
-0.0136409
0.0344707
-0.00373374
-0.016533
0.000989528
-0.0391405
0.0341976
0.0243113
0.0247642
-0.0183216
-0.0113892
-0.0182791
-0.0457006
0.0154544
0.0104801
0.0128813
0.0416506
-0.00246467
0.00419611
0.0303841
-0.0226042
-0.0340722
-0.0267737
-0.00919611
0.0297561
-0.0297644
0.0026871
0.0144978
0.00152684
0.035348
-0.0371389
0.00483762
0.0352186
0.039329
0.025222
-0.0234771
0.00408431
-0.0218418
-0.00579717
-0.0277564
0.00833476
0.00978275
0.0128398
-0.0225566
0.0094288
-0.00202069
0.00959027
0.0227794
-0.0253405
0.0246446
0.021594
0.0139185
0.0549148
0.013288
-0.0345254
0.0160526
-0.0131994
-0.0042137
-0.0340343
0.0275054
0.00627224
-0.0507943
0.04212
-0.0173306
0.0409466
0.0203151
0.012959
0.0516542
-0.0420465
-0.00490051
-0.0121874
0.00799807
-0.00718655
-0.0154995
-0.0244986
-0.00453434
0.0206227
-0.0178115
-0.00868888
-0.00949465
0.0464736
0.00983959
-0.00993898
-0.0246669
-0.0236013
0.0227088
0.0314264
-0.00508815
0.040193
0.00433522
-0.000525743
0.000259104
0.0249629
-0.00391228
0.0185078
-0.0247771
0.0120322
-0.0117345
-0.0265997
0.0184104
-0.00139685
-0.00716064
0.0337817
-0.0160774
-0.0386526
0.0355656
0.0350508
0.018925
0.00792359
0.0119418
0.00431795
0.0111421
-0.00271434
0.0254108
0.0114894
-0.0405307
-0.0283739
-0.0104292
-0.00519541
-0.0169254
0.0215443
0.0105648
-0.0273801
0.0197787
-0.00433017
-0.0162039
-0.000744991
0.0179484
-0.0399105
-0.00136229
-0.0344541
0.00563107
-0.017466
0.0382111
-0.0258788
0.0123584
-0.0027233
0.0161367
-0.0226584
-0.0248608
-0.0125474
0.0332322
-0.0148367
0.00226053
0.0372204
-0.00603523
-0.00868533
-0.0238255
0.00493893
-0.00719115
-0.0350848
-0.0185525
-0.0251451
-0.000444363
-0.0136742
-0.0405358
-0.026537
0.018868
0.0317822
-0.0266074
0.00609113
-0.0163537
-0.0246072
-0.003787
-0.014706
0.00283543
0.0349673
-0.0300851
0.0238402
0.029914
-0.0221168
-0.054836
-0.032143
-0.0187936
0.00740226
-0.00862916
0.0207162
0.0156865
-0.00198674
0.0181733
-0.0291416
0.0134915
-0.0108628
0.044404
-0.00822456
-0.0156389
-0.0444556
-0.000392309
-0.0524531
-0.00198368
-0.0150959
0.0365267
0.0124008
-0.0134811
-0.0412191
-0.0171244
-0.00823873
0.0376905
-0.00738339
0.0303747
-0.00744829
-0.0236486
0.0396933
0.016221
0.0199054
-0.0176673
-0.0124593
-0.020707
0.00864122
0.0266038
0.00536253
-0.0112887
0.0180997
0.0212298
-0.011102
0.0337138
-0.0119957
0.0343879
0.0274719
-0.00739279
-0.0302401
0.00636164
0.0267312
-0.0208686
0.018821
0.0389331
-0.0173993
0.0542359
0.0119381
-0.0163249
0.0310976
-0.0235227
0.00616436
-0.0477288
0.0173056
0.0194798
0.0394191
-0.00515431
0.0302744
-0.0295131
-0.0146947
0.00819865
-0.00442031
-0.0295899
-0.0232006
-0.0102327
0.00332319
0.0474557
0.0152285
-0.00301939
0.0296031
-0.0161274
0.0423423
-0.0164845
0.000579877
0.0324263
-0.00352547
-0.0143348
-0.0455134
0.0166769
0.00657486
0.00650521
0.00954167
-0.021393
-0.00551336
-0.0239808
0.0284143
0.0406406
0.0177357
0.0246621
-0.0258285
-0.00429098
0.0222659
0.01558
-0.0133609
-0.0163843
-0.043836
0.0426975
0.00431
-0.0170723
0.0164933
0.0131549
-0.00423751
-0.0509386
0.0197744
0.0174869
0.00735887
-0.00107922
0.0562457
-0.0395774
-0.0134205
-0.0344416
0.0281222
0.0292085
-0.0284835
0.00816647
0.0308882
-0.00732736
-0.0288435
-0.00716568
0.00728996
-0.0159734
-0.023342
-0.00816097
-0.00576878
0.0276611
0.0268826
-0.00947774
-0.00268912
-0.0159001
-0.0115481
0.00557513
0.0318995
-0.0153845
0.00132376
-0.00921707
0.0321338
-0.00537078
0.000723636
-0.00434801
-0.00163213
-0.000237451
0.0029087
0.0106398
-0.00371454
0.0222486
-0.0205422
-0.0370929
-0.00483968
0.0269118
0.0231247
-0.0226199
-0.0256109
-0.0186908
0.0291897
0.0270153
0.0108414
0.0118075
-0.00491788
0.0244478
-0.0308264
-0.0151086
-0.0344567
0.00413747
0.0157035
-0.000288517
-0.0187422
-0.0313915
-0.00546737
-0.00952323
-0.00225682
0.0280668
0.0117474
0.0055993
0.00771215
0.000903105
-0.0251079
-0.00436509
0.0147782
-0.0243973
-0.0293793
-0.00953362
0.0077842
0.00163322
-0.0282305
0.0196994
0.018158
-0.0025442
0.00346789
0.0162495
-0.0293004
-0.036741
0.0101851
-0.0220514
-0.0200298
0.0282136
-0.0214514
-0.0133391
0.00169663
-0.0167741
0.00248911
0.0137256
0.0369953
0.00216572
-0.00776892
-0.0396259
-0.0349728
-0.0479776
-0.0226886
-0.00592703
-0.0212642
0.0406468
-0.0266943
0.0306842
0.0250871
-0.0127574
-0.029786
0.0169731
-0.00253431
-0.0164658
0.0118111
-0.020467
0.0171852
0.0539117
-0.0054429
0.0476793
-0.0371882
-0.0119363
-0.0380705
0.0312304
0.0287458
0.0199846
0.0268835
0.0373717
-0.0227626
-0.0125924
-0.0332551
0.00583532
-0.0211766
-0.0412946
-0.0121817
0.012075
0.0149245
-0.0229026
0.0171425
2.07964e-06
-0.02581
0.0110876
-0.0194711
-0.0288758
0.0303288
-0.00425675
-0.00514452
-0.0240365
0.0146265
0.0381264
-0.00613996
0.0289577
0.00375214
0.0211892
-0.0161505
0.0140821
-0.0127706
-0.010661
-0.00467666
-0.00111913
0.00332415
-0.00820019
-0.0224786
0.0109029
-0.000156388
-0.0303909
9.82725e-05
-0.034317
-0.0270843
-0.0311928
-0.0045968
0.0282633
0.0263122
-0.0228013
0.0314533
0.0309338
-0.00585704
-0.0204757
-0.00284468
0.0224787
-0.034172
0.0114755
-0.00253464
0.00986427
-0.0213206
-0.0317704
-0.010576
-0.0141861
0.00691614
0.00328471
0.0226871
-0.0318383
-0.0253679
0.0132618
0.0100023
-0.0119182
-0.00318393
0.0232031
-0.0275039
-0.0145125
-0.0245173
0.0145206
0.0190547
-0.0153247
-0.018985
0.00671856
0.0218228
-0.0196738
0.030085
-0.0280797
-0.0342935
-0.0149947
-0.00587482
0.0302071
-0.0225274
0.00131084
-0.0354694
0.0265602
-0.00151191
-0.0103218
0.0116208
-0.0188396
0.0479916
0.00912462
-0.00323923
-0.0329689
-0.0412593
-0.0185336
0.000347964
0.0241699
0.0159374
-0.00794083
-0.00055377
-0.0203083
0.00834236
-0.0506237
0.00843598
-0.0242611
-0.0121958
0.00653228
0.0284404
0.0389437
0.0478341
-0.0187369
0.0285487
0.0280868
-0.0459044
-0.024616
0.0295608
0.00304513
-0.00744763
0.0164459
0.00595112
0.0501826
0.0292381
0.0524415
0.0253156
-0.0179947
-0.0115947
0.0305899
0.0174615
0.0325554
0.02991
0.0192836
0.0300035
-0.0238174
0.0287534
-0.00521292
0.0212821
0.0138772
-0.00253317
-0.0226051
0.000477848
0.00780483
-0.00973488
0.0251237
0.0106885
0.0187741
0.0300871
0.0346987
-0.0100103
-0.0228223
-0.0297647
0.00818016
0.00160528
0.0295312
0.0229961
-0.0187108
0.00208093
0.0312718
-0.00292076
0.0451618
0.0107466
0.0122267
0.00939667
0.0177559
-0.0290585
-0.03087
-0.00166275
0.0270225
-0.0111845
0.0464955
0.0131604
-0.0315411
-0.0117023
-0.00123196
-0.00729848
0.0068563
-0.0303893
0.00313096
0.0355123
0.0195732
-0.0257245
-0.0225472
-0.0181546
0.0086019
0.0108227
-0.00611707
-0.00853313
0.0529704
-0.0276813
-0.0354486
-0.0307913
-0.0312673
0.0104053
0.00514676
0.00464157
0.0345867
-0.0261182
0.0198396
-0.0088141
0.0331137
-0.0159197
0.0101809
-0.0334463
0.0306479
0.0186808
0.0114313
0.0291358
0.036877
-0.00315711
-0.0153896
0.0342856
-0.0102833
0.0101693
0.00255276
-0.00797447
-0.020044
-0.00713944
0.031289
-0.00960227
0.0124204
0.0493728
-0.0152068
-0.0479027
-0.0382333
-0.0141827
-0.00902979
-0.0155976
0.0122131
-0.00275376
0.0346201
0.0339499
-0.00430465
-0.0212561
0.00578306
0.0235969
0.0351014
0.0124421
-0.0158713
-0.0197889
-0.0227048
-0.0147498
0.00580129
-0.0143584
0.0290256
-0.0171129
0.0126592
-0.0153946
0.00560124
0.0103147
-0.000545521
-0.000170413
-0.0371009
-0.00816406
-0.0226817
-0.0237437
0.0313642
-0.00647041
-0.0393425
0.00377666
-0.039676
0.0066758
0.0128564
-0.0432884
-0.00376098
-0.010907
-0.00496469
0.0144312
0.018628
-0.0282395
0.0126812
0.0173061
-0.0203668
-0.00211361
0.00892795
0.00496911
-0.0241274
0.00453734
0.0295794
-0.0361624
-0.00937917
0.0214119
-0.0217732
0.000692707
-0.0219874
-0.0327934
-0.0290614
-0.0185003
-0.0442602
-0.0191391
-0.00697516
-0.00162325
0.00181646
-0.0133071
0.0177818
0.0170177
-0.0400239
0.00715165
0.0134843
0.00674713
-0.00617156
-0.0268652
0.0289672
-0.00919661
-0.0374839
-0.0195007
-0.0247007
0.0176936
-0.0249483
0.00346476
0.0067343
0.00283441
0.0376565
-0.0170184
0.0226394
-0.0154581
0.0359489
0.0325998
0.00653294
0.0251178
-0.00796993
-0.0102463
0.00289553
-0.0176782
0.0398332
0.0033272
-0.0210123
0.0217012
-0.00476802
-0.0238995
-0.0446879
-0.0314317
-0.00288793
-0.00185055
-0.00817312
0.00752455
-0.0172615
-0.0680515
-0.0124638
0.00215506
0.027234
-0.0097698
0.0114089
0.0505373
-0.0150351
0.0134093
0.0239129
-0.0102674
0.00969035
-0.0520036
0.0150573
-0.0124585
0.034557
0.0484358
-0.0380418
-0.0133724
0.00983148
-0.0200556
-0.00229989
0.00994053
0.00954681
-0.0124553
0.0237964
0.0137385
0.0205096
0.023128
0.012472
0.0278576
0.0135547
0.00873976
0.00764156
-0.00154454
-0.0267471
0.0102896
-0.00532995
0.0255749
0.00519885
-0.0232012
0.0327201
0.0226276
-0.00186884
0.0256717
-0.00644145
0.0206943
-0.0237695
-0.0114685
-0.00847036
0.0324309
-0.00771612
0.000390423
0.0244965
0.0283992
-0.0140002
-0.00172654
-0.0205063
-0.00646747
-0.0121176
0.00987559
0.00143548
0.0313098
-0.0295915
-0.00668979
0.0230276
-0.0412731
-0.0530704
0.0120422
0.0383357
-0.0198412
-0.00372576
0.0494144
0.0215232
-0.0278203
-0.0255224
0.000191268
0.000353738
-0.0196084
0.0305984
-0.00275175
0.0456592
-0.00601428
-0.0265936
0.01993
0.0420556
0.027313
-0.0106938
0.0168572
-0.0118081
0.0170887
0.0184089
0.0108354
0.00740899
-0.0350923
0.0159297
-0.00833705
-0.011752
-0.0212135
0.0350427
0.0024077
-0.0247708
0.00211367
0.0218904
0.0218013
0.00232055
0.0187854
-0.0296268
0.00322811
-0.0555893
0.0114171
-0.00957959
0.00657289
-0.00647221
-0.00881884
0.0296778
-0.00911072
0.0238818
-0.00663757
-0.0081766
0.0266644
0.038813
-0.00902938
0.00640558
0.0505613
0.0104229
0.0194749
-0.0116046
-0.0778131
0.0279612
-0.0176388
-0.0398842
0.00137672
0.0367076
-0.0500681
0.0345124
0.0346629
0.0168613
0.0245411
-0.00925788
-0.018864
0.0270201
0.0294631
0.0359723
0.0237949
-0.0183265
0.00429291
-0.0129967
0.0233981
0.0123472
-0.0260176
0.0121025
0.0160291
-0.0302265
-0.00750006
0.0123767
-0.0179022
-0.0353022
-0.0245738
0.0249454
0.0285025
-0.0148179
-0.0274902
0.0180732
0.0306005
-0.0278391
0.0250835
0.0186709
-0.0166723
-0.0045503
-0.0276817
0.0257347
0.0028406
0.0115545
0.0278619
0.0174844
0.0086524
-0.00647156
-0.00508279
0.000485717
-0.000360685
-0.00435311
0.0207481
-0.00868309
0.00249173
-0.0486454
0.00948475
0.00773106
0.0132567
0.0291474
-0.0122918
-0.0056373
-0.00406295
0.0444686
0.00652985
0.00979576
0.0133247
0.00045498
0.00179025
0.0288484
-0.0037152
0.0108036
-0.024573
-0.0244824
-0.0205508
-0.0339159
-0.00756087
0.010711
0.0401212
0.0262361
-0.0191151
0.0320462
-0.0051053
0.0289631
-0.0209846
0.00271031
-0.0126142
0.0135112
0.01239
0.0257669
-0.0285308
0.00238395
0.00205868
0.0295656
-0.00363604
0.0250191
0.0204878
-0.0241779
0.0300068
-0.0484328
0.0305936
-0.00543321
-0.00205887
0.0146446
-0.00641492
-0.00665923
-0.0100899
-0.0123221
0.0328164
-0.0304131
-0.0191598
-0.0315458
0.0404207
0.0131477
-0.0103725
0.012483
0.0218916
-0.013732
0.0327546
0.0443238
-0.00248054
0.0355385
-0.00355366
-0.0271794
0.0045535
0.028616
0.0253721
-0.000674241
0.0185266
0.00742789
0.0324486
-0.023215
-0.00693287
-0.0133736
0.00989389
-0.00862207
-0.0143647
0.0247211
0.0328686
0.0112618
0.0197922
-0.0297302
-0.0270516
-0.0325686
-0.0316686
0.010963
0.0131797
0.00916963
3.36462e-05
0.00149828
0.00108688
0.0117119
-0.0164313
0.00677307
-0.027479
-0.0168596
-0.0106426
0.035538
-0.0262499
-0.000516629
-0.006473
-0.014076
-0.0485562
-0.0123377
0.0286216
0.0125557
-0.0291547
0.0134292
0.0188629
-0.0371096
-0.00132416
-0.0294579
0.0156006
-0.0226795
0.0171919
0.00516064
-0.000158446
-0.03057
0.00415112
-0.0184204
-0.00995267
-0.0174767
-0.0123499
-0.0398172
0.0132772
0.0289255
0.0264869
0.00128437
-0.0202782
-0.012039
0.00607657
-0.0138062
0.00525626
-0.0126709
0.019398
-0.0187227
-0.00254498
0.000335211
0.0227438
0.0357815
-0.0332973
-0.00453257
0.0304604
-0.0394261
0.000171887
0.0328499
0.024102
0.0371257
-0.0171523
0.00316661
-0.00143741
-0.00607307
-0.0263677
-0.0148372
-0.0025049
-0.00101106
-0.0231634
0.0142841
-0.0386655
-0.00711694
-0.0360632
-0.0130809
-0.0280987
0.0158143
0.0363594
-0.00724882
0.000435329
-0.0192288
-0.0378702
-0.0118952
0.0348966
-0.00364139
0.00967764
-0.00469349
-0.0154782
0.00669082
-0.00132151
0.00326719
-0.0180881
-0.0259113
0.00804029
-0.0383522
-0.000906137
-0.0340732
-0.0218575
0.00779801
0.00981378
-0.0199313
0.0168969
-0.0395665
-0.0213556
0.0229083
-0.00627754
-0.00438661
-0.0169767
0.0159214
-0.0299429
-0.0202582
-0.00607039
-0.00423638
0.0381438
0.0165468
-0.0343027
-0.0270887
0.0331588
0.0065576
-0.0485389
-0.0512517
-0.0241144
-0.0526349
-0.0327785
-0.0200453
0.0417295
0.0557908
0.00716714
-0.0121189
0.0322986
0.0455346
-0.0414972
0.0405788
-0.00293875
-0.0344943
0.0048207
-0.00598749
-0.00556228
0.00454728
-0.00466728
-0.0667941
-0.0571718
0.00976199
-0.0265057
-0.0322447
0.0107657
-0.0363502
0.0240811
-0.0234117
-0.0473342
0.0305831
-0.0348166
0.00515409
-0.00253867
-0.0218293
0.00258785
-0.0201309
-0.0229701
0.0213568
0.00754932
-0.0319954
0.00805016
0.0279207
-0.013581
0.016577
0.00174333
-0.0190476
-0.01644
-0.0314651
-0.0216809
0.00640236
0.00711839
-0.00124229
0.0288084
-0.00527607
0.0319719
0.000512318
0.00846486
0.0170024
-0.00363734
-0.0100236
0.0172686
-0.0240436
0.0276732
0.0303601
-0.0251065
0.0295054
0.00909139
-0.013689
0.0307574
-0.0101659
0.0263627
0.0227986
-0.00719927
0.0145412
-0.0113518
-0.00592515
0.102325
0.0351367
0.0243991
0.00914483
-0.0881767
-0.0100641
0.0306262
-0.0222856
-0.0238566
0.0171566
-0.0124255
0.0400346
-0.00502216
0.0150781
0.0438165
-0.00531418
-0.00661235
0.0335944
0.0592752
0.0636138
0.0275623
-0.018885
0.0128968
0.0341551
0.0166454
0.0130468
0.0144359
0.00511146
-0.0136983
0.0132858
0.00737609
0.0197986
0.00132384
-0.018383
0.0039324
-0.0218395
-0.0209273
-0.00346812
0.0190006
0.0115487
-0.0125531
-0.0336477
-0.0139217
0.032243
-0.00615043
-0.0252405
-0.00498094
0.0160172
-0.0441675
-0.0215381
-0.00410718
0.00426307
0.0432323
0.020814
0.0069652
0.00506979
-0.00211397
0.00966831
0.0144111
-0.0088966
0.0147202
-0.00762194
-0.045478
-0.00387103
0.00387255
0.00122432
-0.0281714
-0.0291723
0.0025038
-0.00250308
0.00888998
0.0161245
-0.00709827
-0.00547374
0.0231062
0.0169142
-0.0284727
0.0199808
0.00471822
0.0147761
-0.030219
0.0113849
-0.0182937
-0.0289675
0.00573921
-0.0197802
0.000530848
-0.00399084
0.0220027
0.00966091
0.0169122
0.0128872
0.0130067
0.0194344
0.00787555
-0.022503
-0.0101879
0.00778844
-0.0367573
-0.00590935
-0.0428973
-0.0133066
-0.0106831
0.00377227
0.035783
-0.0418587
0.0252661
0.00311021
0.0431993
0.00138473
-0.00280103
-0.00767992
-0.00823494
0.00683366
-0.0135334
0.00822884
0.0268283
0.0155431
-0.0315641
0.0120205
-0.0135673
0.0214872
0.0019335
0.0400081
-0.0110722
0.0272881
0.00841433
0.0422491
-0.0130447
-0.0279873
-0.017335
-0.00667545
0.0213906
0.0157362
0.0131896
-0.0364312
-0.0196617
-0.00448176
-0.00781949
0.0159678
-0.0145066
0.0194489
0.0130625
0.0055323
0.0242213
0.0272886
-0.0321554
-0.0387678
-0.00267064
-0.0475762
-0.005356
-0.00280142
-0.023354
0.0198168
0.0542294
0.0157843
-0.0107383
0.00461735
0.0127585
-0.0471989
0.0344907
-0.0222286
-0.0350528
-0.0179516
-0.0447663
0.00355512
0.0411553
0.0184856
-0.0309021
-0.0416384
0.0217635
-0.019805
0.0117215
0.000166666
-0.00218584
-0.00836123
0.000514467
-0.00304965
-0.0284202
0.00630409
-0.00548183
0.0274126
0.023174
0.0078229
-0.0282601
0.0134915
0.0156904
-0.0284357
0.0413102
0.0104259
-0.0192443
0.00235129
-0.026608
-0.0187539
0.00778435
0.019453
-0.0108846
-0.00980376
-0.0330288
-0.0348504
-0.0347732
0.0377431
-0.0255285
-0.0105445
0.0346713
0.020263
0.0145806
-0.0256173
-0.0251123
-0.0334889
0.00788411
0.021145
-0.0201689
-0.00270665
-0.0206579
0.0294165
0.0283687
-0.021435
0.0197508
0.000459557
0.0303661
0.0144709
-0.0279678
0.0432061
-0.00946704
-0.00923791
-0.0183397
-0.0168448
-0.000757988
0.0435069
0.00754394
0.00448282
0.0533163
0.000306265
-0.0131135
0.0377916
0.0323294
0.057729
-0.0290252
-0.0507646
-0.0304905
0.0514847
0.0500543
-0.0243473
-0.055074
-0.0170279
0.0113428
-0.0182889
-0.04192
-0.0256064
-0.0226399
0.00499297
-0.00143112
-0.0220468
0.0369259
-0.0378965
-0.00217523
0.0106737
0.0064412
-0.0353642
0.0132566
0.00912187
-0.0104958
0.0127584
0.0134437
-0.0175108
0.0191474
0.0269946
-0.00768188
-0.006652
-0.0310717
0.0233238
-0.0212206
-0.00587217
-0.00683624
-0.0728127
0.0397329
-0.0359316
0.0090908
0.0559431
0.024893
-0.037074
0.0117986
0.0290621
-0.0116273
0.00165332
-0.0056558
-0.0496689
-0.0313305
-0.0333986
-0.0027467
-2.09466e-05
-0.0256449
-0.0404408
-0.00932898
0.0172469
-0.0161705
0.024496
0.0349528
0.0160982
0.013387
-0.00815221
-0.0458982
0.0285094
-0.0403547
0.0545925
-0.0244164
-0.0161632
-0.0251595
-0.0298653
-0.0294807
0.0230308
0.00296099
0.0160557
-0.0160813
0.0208278
-0.00825616
-0.00927079
-0.00350689
0.0257593
0.00580277
0.0235567
0.00655842
0.00497772
0.0252067
0.00939634
-0.027818
0.0266615
0.0207973
-0.0161811
0.00433489
-0.0167863
0.000247286
-0.0137873
0.0242639
-0.0104693
0.040066
0.00568012
-0.00582574
-0.00378818
0.000584204
-0.00834415
0.0145011
0.0128089
0.0312964
-0.0257961
0.0328213
0.0258793
0.0439511
0.0229926
0.077761
-0.014959
0.0443291
-0.0207286
-0.064019
-0.024331
-0.0294604
-0.0311324
-0.0380716
0.0506857
-0.0257537
-0.0160424
-0.015891
0.00307675
0.025227
-0.0101791
-0.0387989
0.0253933
0.0628415
0.0487432
-0.0209388
-0.0206804
0.00621144
0.00476848
-0.0016215
0.00342179
-0.0304852
-0.00910497
-0.00778058
0.034041
-0.0172539
-0.0257378
-0.0275564
0.00723404
0.0342552
0.033053
0.0291046
0.0318689
-0.0064795
-0.0226326
-0.0158797
-0.0113822
0.00255161
0.0226235
-0.0278649
-0.0319289
-0.0184571
-0.0131733
-0.0229376
0.0307345
-0.0155732
0.00510191
-0.0143721
-0.01727
-0.00616907
-0.0180689
-0.0124021
0.0126855
0.0322174
0.00874224
-0.000102316
-0.0121559
-0.0256985
-0.0224237
-0.0213925
0.0138838
-0.0146984
-0.0287619
-0.0332243
-0.0348366
0.00850437
-0.0071
-0.0351655
-0.0241593
-0.00843383
-0.0297721
0.0131564
0.00736014
-0.0262304
-0.0244132
-0.0144089
0.0127213
-0.0229377
0.00574431
0.00370546
0.0188824
0.00272761
0.0176769
-0.00575542
0.0287217
0.0324393
0.00174355
-0.00713909
-0.0167088
-0.0216105
-0.0231557
0.0342119
0.0217293
-0.0365311
-0.0232317
-0.014265
-0.0115971
-0.0172054
0.00408099
-0.0183918
-0.0333045
-0.0217941
0.0184744
-0.000718398
-0.0180879
0.00805267
-0.00574534
-0.0164354
0.0242296
0.0162062
0.0293338
0.0179133
-0.0135711
-0.0224617
-0.0341903
0.0120804
-0.0219793
-0.0150054
-0.0243321
0.0485375
0.0478244
-0.01739
0.0489547
0.0158573
0.00191742
-0.00171568
0.0165588
-0.0177485
0.00461211
0.00697068
-0.0216731
0.00302272
0.0362829
0.001204
0.0339386
0.0175361
-0.0350709
0.0267657
0.00065538
-0.0047925
0.0108554
0.011072
0.00156814
-0.00606188
0.0013055
-0.0375017
-0.0267318
-0.0221535
0.033462
0.0424529
0.0193842
0.0198739
0.000182606
0.0380483
-0.0570419
-0.00841506
4.42474e-05
0.0174874
-0.0301324
-0.0067089
0.00707123
0.0488106
0.0146615
-0.0583047
-0.000936451
0.0310912
0.0240646
-0.0249482
0.026419
-0.00134835
0.0211983
-0.0240794
-0.0277048
0.00792378
-0.00109645
0.0203763
0.000475054
-0.0331589
-0.0272301
0.0274443
-0.0214898
-0.0192998
0.022409
0.0310529
-0.0295278
-0.0111885
0.01553
-0.0179126
0.00825387
0.0178861
-5.22014e-05
-0.0189328
-0.0194378
-0.0192522
-0.0302193
-0.0319703
-0.00853269
-0.0113183
0.00951608
-0.032623
0.00286605
-0.00689273
-0.0150455
-0.00559781
-0.0171567
-0.0124798
0.00621102
0.00720393
0.0331027
-0.0360356
0.00381871
-0.0108523
-0.0085862
0.0179014
-0.0115486
-0.0315644
-0.0212356
-0.0524732
-0.00431051
-0.0148779
-0.0330576
-0.01185
-0.0446676
-0.0138988
0.0126095
0.0307116
-0.0158945
0.0237136
0.0173868
-0.0374613
0.0021185
-0.0111974
-0.0186948
-0.025682
-0.0673897
-0.0356728
0.0786686
-0.000660285
-0.0352181
-0.0293547
-0.0182691
-0.0306696
-0.0299451
-0.0270626
-0.0442181
-0.0191777
-0.0158254
0.0139153
-0.0206061
-0.00635595
0.0233752
0.00290679
0.000496424
0.015071
-0.0395979
0.0408688
-0.0291473
-0.0388948
-0.0468343
-0.023812
-0.0137701
0.0210284
0.031965
-0.0212739
0.0228199
0.00984544
0.0308906
-0.00371109
-0.00909896
-0.0105104
-0.0300771
0.017994
-0.017737
0.0108287
0.0557086
0.0102717
0.00302901
0.00705863
0.0292743
0.00383669
0.0175218
-0.0363236
-0.0346065
0.0191692
-0.0174958
-0.00254511
0.00687216
0.0109592
0.000109065
-0.036875
0.0125245
-0.0101739
-0.0428298
-0.00156764
-0.0323212
0.00943335
0.000769925
-0.0583254
0.0178457
-0.0360541
0.0108995
0.0122464
0.00918173
-0.026159
0.00361492
-0.00942783
0.04351
0.00898341
-0.0449687
-0.0287497
-0.0306356
0.0173011
-0.0182336
-0.0261741
-0.0366959
-0.0262041
-0.0175015
0.0110277
0.00862118
-0.00956456
0.0198198
-0.0268475
-0.0382111
-0.00335525
-0.0217482
-0.00934784
-0.005762
-0.0263043
0.00470095
-0.00656941
-0.00495424
0.010849
0.00604143
0.0300737
0.00142644
-0.0258254
-0.0229093
-0.0262268
0.00171874
-0.00413251
-0.0074775
-0.00220799
0.054085
-0.0159441
0.0163291
0.0545126
0.00509836
0.0305877
0.00454006
-0.0691769
-0.0200916
0.0307872
-0.0672332
-0.0263131
0.0582787
-0.0150795
-0.0147078
0.0326202
0.0459463
0.0172284
-0.0293491
-0.0402843
0.0156111
0.0674892
0.0668862
-0.0272395
0.00329068
0.0285102
-0.00911123
0.00471113
0.0188143
-0.0309945
0.000309827
0.0212832
-0.0193124
0.0113715
0.0275521
0.0322377
-0.0155618
0.00971425
0.00335465
-0.0176022
0.0371858
0.00564735
-0.0222232
-0.0076541
-0.0141541
-0.0304561
-0.0202844
0.0282577
0.0256076
-0.0130091
0.00908381
-0.0392512
-0.0184228
-0.0252018
0.00516933
0.00103216
-0.0299766
0.0285163
-0.0233395
-0.00586947
0.0208533
0.0320811
-0.0269671
0.0133269
-0.0179348
-0.0374618
-0.0360377
-0.0172627
-0.0242942
-0.0123606
-0.00154239
-0.0412013
0.0108809
0.000449765
-0.0327132
0.00805114
-0.029605
-0.011837
0.0105426
-0.00888262
-0.0277527
-0.0268288
0.00823863
0.021896
-0.0244847
0.0252052
-0.0168824
-0.0162324
-0.0159039
-0.0283723
0.00585904
0.0199106
0.0256271
-0.0118458
0.0175425
-0.0127308
-0.0165635
0.0162155
-0.0224441
0.00415299
-0.0403456
-0.0420381
-0.026418
-0.0303995
0.00538072
-0.0127527
-0.0214488
0.00460566
0.0153355
-0.00867041
-0.012413
0.0464598
-0.0115069
0.00448023
-0.0296193
-0.0396702
-0.0407788
-0.0351181
-0.0121993
-0.00535128
-0.022723
-0.0152643
0.00204148
-0.0323104
0.0152947
0.0101479
0.0258542
0.0262007
0.0448583
0.0443809
-0.00492342
-0.0124912
-0.0549881
-0.0204733
0.0136561
-0.0290766
-0.0348192
0.0111695
0.0220619
0.0382955
0.0189152
-0.00826071
0.0466453
0.0148475
-0.0246341
0.0178398
0.0490532
0.0465079
0.0237402
0.00992808
-0.0541359
-0.0390817
-0.0238788
-0.0209507
-0.0375849
-0.0131001
-0.0213364
0.0326621
0.0185464
0.0266798
0.00107166
0.0139125
-0.0180902
0.0343538
-0.00828766
-0.00743362
-0.027779
-0.0286548
0.0222599
0.0452139
0.00054912
-0.0704558
-0.0111544
0.031805
0.0217565
0.0178392
0.0170368
0.00190014
0.00481985
0.0143391
0.01074
-0.0151455
-0.0229863
-0.00456653
-0.0284536
-0.0379868
-0.0279813
0.0110096
0.0222247
0.00368148
0.0102767
0.00130212
0.00446906
-0.0106245
-0.0079494
0.00907904
-0.0158621
-0.0297601
-0.0223344
0.00733131
0.0215167
-0.0251301
-0.00317533
-0.0219792
0.0245312
-0.021934
-0.0067372
-0.00782054
0.0248687
-0.000195347
-0.0180603
-0.0102
0.000451117
-0.0113979
0.0077181
0.0220885
-0.00199599
-0.0327221
0.00640866
-0.0048298
0.0197341
0.0117687
-0.0330952
0.0308679
0.00651201
0.0215243
0.02512
-0.0554028
-0.00395855
-0.0394477
-0.00426116
-0.0308882
0.0288488
0.0238264
0.0418368
0.0190166
-0.00827343
-0.0297103
0.0181983
0.030996
0.00680241
-0.0354093
-0.0395096
-0.00295611
0.0265427
0.0350013
0.00930928
0.0122026
-0.0473261
-0.0395714
-0.0393159
-0.0255022
0.00238518
-0.0128788
-0.024951
0.0180793
0.00756556
0.0150857
0.0104268
-0.0272234
-0.000763727
0.025242
0.0144021
-0.00599087
0.00729534
-0.0243311
-0.00241838
0.0207857
0.00959198
-0.00239944
-0.019783
0.0120544
0.0187951
0.0197675
-0.0326817
-0.050749
-0.0277718
0.010591
-0.0166457
-0.0357514
0.0219433
0.0163789
0.0384268
-0.0237954
0.0161544
0.0318335
-0.00469541
0.0127099
0.0135044
-0.0465131
-0.0204082
-0.00548437
-0.0186581
-0.00170099
0.0379626
0.00988875
-0.0539089
-0.0459502
-0.010591
0.0281512
-0.00836507
0.021741
-0.0120867
0.00618807
0.00334935
-0.0264726
-0.0308366
0.0135972
-0.00070112
0.00805955
0.0380653
-0.0417356
-0.0186945
-0.022741
0.0132724
0.0215232
-0.0184841
0.0246356
-0.00682607
-0.00190238
-0.0237238
0.0173172
-0.0253602
-0.0336584
0.0217511
0.0228345
0.0286327
-0.0178713
0.0489088
-0.0245167
-0.00436228
0.0286035
-0.0304444
0.0176081
0.0231707
-0.00214476
0.0242075
0.0459618
-0.0240294
0.0285992
0.0116476
0.00532427
0.0082409
-0.0152561
-0.0408472
0.0161658
0.0335496
-0.0202392
-0.0206472
0.014358
0.0550158
0.0274653
0.0327451
0.05341
0.0495466
0.0203657
0.0227581
-0.066488
-0.0424748
0.0126051
-0.0453292
-0.0179978
2.80017e-05
-0.0256099
-0.0138113
0.0372476
0.0284496
0.0346107
-0.00597765
-0.0132311
0.0270533
0.0987201
0.0523867
-0.014627
0.0154988
-0.0300779
-0.0208522
-0.0258103
0.00829775
0.00540427
0.0181785
-0.0211264
0.00756076
-0.0149696
-0.00599928
0.0348568
-0.0163649
0.0270605
0.031804
-0.00919819
0.0376059
-0.0154123
0.021327
-0.0276884
-0.00546376
-0.0107705
-0.0353278
0.00834407
0.0333015
-0.000868469
0.0086719
0.0157136
0.0213875
0.00372048
-0.0383833
-0.0169657
0.00929056
0.0448405
-0.0216485
-0.0110238
-0.010463
0.00829799
-0.0120291
-0.00677203
0.00637682
-0.0116142
0.00199302
-0.00435267
-0.0193831
0.0298388
0.0249729
-0.00514895
-0.000365118
0.00547912
0.0200677
-0.0246371
0.0292088
-0.00358363
-0.00423066
-0.00801942
-0.0067245
0.0242967
0.0193726
0.0214265
0.0193726
-0.00317739
-0.0310676
-0.00056851
0.0115434
0.0219382
0.0183191
0.0139278
-0.012506
0.0178315
0.0208365
0.00147465
-0.0289563
-0.0287759
-0.0259661
0.0271331
-0.0155307
0.0151865
-0.000457078
-0.0109682
-0.0359999
0.031377
-0.00318972
0.0243833
-0.0222693
0.0245198
0.0372717
0.0195175
0.00396623
-0.00535647
0.0134775
-0.0435496
-0.00413168
0.0246116
0.030973
-0.002323
0.0184818
-0.00184852
-0.00958105
0.00387871
-0.00407243
0.0388986
-0.0295539
-0.0125633
0.0527315
0.0276388
0.0142004
0.0293281
-0.0426165
-0.0337976
0.00765484
-0.0434149
0.0314737
0.0199864
-0.00253642
0.01926
-0.00688611
-0.00494585
0.0389926
0.00872449
-0.0305909
0.0191164
-0.00172007
0.0351864
0.0187149
-0.0264477
-0.0229748
-0.0348168
-0.0393392
-0.0629489
-0.03199
-0.0106812
0.031045
0.0512753
0.010133
-0.0049469
0.00326969
0.0281496
-0.00155248
0.00196842
-0.00964156
-0.0343216
-0.026552
0.00617064
0.00674675
0.0504662
0.0146888
-0.0392861
-0.0340824
0.00644104
0.0122514
0.0116502
-0.00713648
0.018321
0.0296606
0.019023
-0.0109914
0.00306494
-0.0164194
0.0198579
-0.0219241
-0.0222463
0.0270353
0.00513079
-0.0402301
-0.0140215
0.00595777
0.0448091
0.00314222
-0.00450547
-0.028171
0.00292049
-0.00558043
-0.0170335
9.97e-05
0.00196713
0.0182551
-0.0230969
-0.0419412
-0.0199838
8.92692e-05
-0.0317154
0.0159005
-0.0270317
0.0450164
0.0104003
0.00603725
-0.00662626
0.00472308
-0.00620842
-0.0272624
-0.00538836
0.0169318
-0.00574819
-0.0300294
0.0110552
0.0209228
0.00997585
-0.028957
0.0289172
-0.0312088
-0.017611
0.0287173
-0.0331016
0.00463858
-0.00726019
-0.0523835
0.0103285
-0.0337345
0.0358755
0.0470501
-0.0106256
-0.0463775
-0.0754139
-0.00191387
0.0330808
0.0202936
-0.0158975
-0.0419629
-0.00138794
0.0494981
0.00304983
-0.0248658
-0.021699
0.0046901
-0.0362026
-0.0332578
-0.00368777
-0.000100144
-0.00486866
-0.0411523
-0.0230401
0.0195959
-0.00892953
0.00627997
0.00505714
0.0310762
0.0219351
0.0234967
0.0362951
-0.00318595
-0.00992701
-0.0443984
-0.0192372
0.0149255
0.000926046
-0.0298049
-0.0413054
-0.0381127
0.0139565
-0.0164096
-0.0101235
0.00639253
-0.0285436
-0.0465197
0.0060662
-0.0149501
-0.0147429
0.0641297
-0.00385959
-0.0102201
0.0340686
0.0376647
-0.0322253
0.0192786
0.00456705
-0.0321041
-0.0552972
-0.00910226
-0.0105885
-0.00541255
-0.0323663
-0.0114345
-0.0439279
0.0403945
0.0369447
-0.00615003
-0.00447292
0.0134806
-0.0178686
-0.0358139
0.0142456
-0.0110707
0.0130989
-0.0126905
0.0221957
-0.0142902
-0.0204945
0.00567925
-0.00757697
0.0539937
0.0438
0.0118093
-0.0145009
0.00295701
-0.0077965
-0.0272428
-0.0209591
-0.035163
0.000463689
0.00576361
0.0142797
-0.00894613
0.00507515
0.0019351
-0.0164005
0.0258
0.0154942
-0.0127652
-0.00187013
-0.0118564
-0.011981
-0.0262386
0.0336515
-0.0376688
0.00919244
0.0120077
-0.00535662
0.0409238
0.00145294
-0.0386657
-0.0120491
0.0440461
-0.0128074
0.00586739
0.0329351
0.0339828
-0.0177534
0.0131326
0.090642
0.0449013
0.0194184
-0.0197861
-0.0849065
-0.0232392
0.0248504
-0.0870347
-0.0387858
-0.00153809
-0.00840966
0.0163011
0.000789323
0.0331757
0.0464374
-0.0240475
0.00834179
-0.0178711
0.0479308
0.0632211
-0.0300079
0.012868
0.0231049
0.0382293
-0.018955
0.0372461
-0.0103015
0.0123706
-0.0271988
0.00156659
0.0216025
-0.00940316
0.0246484
0.0203621
0.0169326
0.00889111
-0.0192526
0.0371987
0.0012216
-0.00635309
-0.0291193
0.0145973
0.0194494
0.00296352
0.0088777
0.0088655
0.00975134
-0.0163869
-0.0171334
0.0106479
-0.0436271
0.0143375
-0.0323821
-0.0247647
0.0548224
-0.0239365
0.0092116
0.0474013
-0.00567571
-0.0321721
0.0528643
-0.0352874
0.000696979
-0.00767734
0.0207812
0.0130116
0.0380894
0.00878033
-0.0105021
-0.050389
0.0247805
0.0148645
0.0154291
-0.0178435
-0.0199115
-0.00875847
-0.0157538
-0.0157928
0.00843897
0.0192818
-0.0152133
-0.00878985
0.00592798
-0.0183948
-0.0332727
0.0278004
0.0309819
0.0127782
0.0200704
-0.0247712
0.0247539
0.0282884
0.0210484
0.0184282
-0.0378421
-0.0109596
0.00977379
0.00204113
0.0153117
0.0126737
-0.00781797
-0.0257758
0.00455996
-0.0111323
0.0352538
-0.0263408
-0.0103113
0.0472168
-0.0140937
0.0208246
0.0526907
-0.0306538
-0.0234084
0.00975954
-0.0387983
-0.0114154
0.041805
-0.00278235
-0.0304925
-0.00101729
-0.0231448
0.0237066
0.0185233
-0.00306737
0.0347948
0.0239784
0.0305595
0.0464572
-0.0286465
-0.0339189
0.00403655
0.0320225
-0.0424637
0.0161448
0.0391165
-0.0358812
0.000943618
-0.0259852
0.00768413
0.0219177
-0.028214
-0.0264299
-0.0102737
0.0436908
-0.00194117
0.0275445
0.0160054
-0.0488245
0.0241005
-0.0455512
-0.0371639
-0.04594
-0.0245756
-0.0290155
0.0376017
0.0456084
-0.0197202
0.0375084
0.0205679
-0.0404197
0.00150229
0.0302908
0.0190115
-0.0410187
-0.0379419
0.00727058
0.000870803
-0.0149499
-0.0240639
-0.0274582
-0.0083343
-0.00997038
-0.00777416
-0.0152753
0.0106972
-0.0246247
-0.0165827
-0.0117611
-0.0125633
-0.0336361
-0.0139493
0.0192661
-0.0137934
0.0100555
-0.0156839
-0.0441012
0.0036635
0.00489929
0.00544003
0.013484
-0.0120112
0.000276555
-0.0150936
0.00656305
0.00376914
-0.0302604
0.0140028
0.0206174
0.0203629
0.0187153
0.0234958
-0.00822831
-0.0282291
0.0108359
-0.00457265
0.0448278
0.0166994
-0.0422138
0.030284
-0.0411014
-0.0368216
-0.0266324
-0.00883456
-0.0082422
-0.0237256
-0.0189581
0.0222348
0.0212922
-0.0159436
-0.0298926
-0.0264445
0.00631084
-0.0366851
0.079842
-0.0421524
-0.0511138
0.00743478
-0.0611705
0.00302942
0.067971
0.0347984
-0.00947358
0.019327
-0.0635805
-0.0351899
0.0295338
0.0505732
0.0468316
-0.00690252
-0.0527088
-0.0387269
0.0294867
0.0306722
-0.0309083
-0.0529842
0.013471
-0.0307766
-0.0533777
-0.0204503
-0.0170186
-0.0177259
0.00824911
-0.00986156
-0.0289934
0.0463606
-0.0195293
-0.0253463
0.0506251
-0.0211478
0.0195954
-0.0130622
0.0183719
-0.0364872
-0.030011
0.0230023
0.0216036
0.0398086
-0.0277613
-0.000199831
-0.012848
0.00997411
0.0274361
-0.0146617
0.00117741
0.00470199
-0.0265023
-0.0311953
0.0107512
0.0145755
0.00478996
0.0393395
-0.0266748
0.0642386
0.0090389
0.00152197
0.0233156
-0.0491094
0.0103202
-0.0579072
-0.0403751
-0.00748563
0.0151137
0.0233902
-0.00704159
-0.0155558
0.00413143
-0.0156292
0.00943594
0.0257973
-0.0094541
0.0341035
-0.00792374
0.036992
0.0268683
-0.0206273
0.0150878
0.00271701
0.0366929
-0.034955
-0.00445874
-0.0082743
-0.00594102
0.036587
-0.0330839
0.0172199
-0.000156049
-0.0110774
0.0360046
0.0292483
-0.0167605
-0.0308979
0.0131148
0.0151426
0.0114311
0.0264575
0.0802591
0.0456721
0.0264135
0.0112524
-0.0760195
0.0231766
-0.0120591
-0.00559329
-0.0271018
0.00889636
-0.042929
-0.0198875
-0.00506037
0.0162527
0.00530743
-0.00535889
-0.0377171
-0.0135535
0.0467401
0.0313595
-0.0108785
0.0166174
0.080472
-0.00915589
-0.000377548
0.0704169
0.0664747
0.0548247
0.0155621
-0.0799897
0.0154875
0.0167177
-0.0321374
0.00295202
0.0185036
-0.0275834
-0.0195032
-0.0131865
0.032984
0.0131671
-0.031037
-0.00303047
-0.0110762
0.0657461
0.0767292
-0.030229
-0.0149546
-0.0277603
0.0361081
0.0124977
-0.00629244
0.00417522
-0.00726843
0.0337064
-0.00586061
-0.014513
0.0303357
0.00647815
-0.0222839
0.0303701
-0.00844947
-0.0189346
0.00105058
0.00272799
0.00837131
-0.00941892
-0.0342259
-0.00414072
-0.0226667
0.0253322
-0.0132728
-0.021113
-0.0219829
-0.0296401
-0.0455212
-0.0747798
-0.0440334
-0.0174624
-0.020511
0.0564374
-0.00610276
0.0316285
0.0249174
0.015
-0.0189574
0.0508298
0.0208269
-0.00882629
-0.00953267
-0.00499825
-0.0253486
-0.00402651
-0.0105042
-0.0686135
-0.00234124
-0.0170599
-0.00446496
-0.00595731
-0.0185849
0.000103342
-0.0161834
-0.00174554
-0.0284801
0.0152461
0.0220744
-0.00495157
-0.0156276
-0.0125266
-0.0228562
-0.00913979
0.0246795
0.00312808
0.0304284
0.0214726
0.00326062
-0.00745372
0.0258848
-0.0281828
-0.0308695
-0.00635468
0.0186684
-0.00563292
-0.0474081
-0.00179094
0.0243997
-0.0250377
-0.0268776
0.0304286
-0.0134606
0.0410729
0.0267299
-0.0156939
-0.00113937
-0.00660837
-0.0103666
-0.00385267
-0.0422243
0.00965299
-0.0315949
0.00686454
0.0150012
0.035962
0.0187255
-0.0247608
-0.0127881
-0.00490845
0.00164103
0.0531999
0.000196971
0.0351931
0.0311627
0.0383483
0.0329645
-0.0163239
-0.00722159
0.003871
0.0272056
-0.0445205
0.00608762
-0.00253081
0.0072511
-0.0202982
0.0315152
0.0194462
0.00996102
-0.00446866
-0.046758
0.0279656
0.0103919
0.0530199
0.0100318
0.0248191
-0.00782368
-0.00176815
0.0117445
-0.00396146
-0.0261484
-0.0296637
0.0261787
0.0585129
0.00854656
0.0242834
0.0255688
0.000126235
-0.0486229
-0.0321793
-0.0196393
-0.0274226
-0.0336408
-0.0298582
0.0160503
-0.00945952
0.000151194
-0.0254996
0.00112505
-0.00700552
-0.025544
0.0431416
-0.0109331
0.0149597
0.0377746
0.00973652
-0.031717
-0.0172492
0.0149475
-0.0173698
0.0153258
-0.0435355
0.00424106
0.00174799
-0.0107945
-0.00474468
0.0322882
0.0344767
0.0221609
0.00421415
0.0182386
0.00598231
0.012376
0.0381031
-0.00331917
0.0199085
0.0103318
-0.00298533
-0.00906395
-0.0242478
0.0308346
-0.0393795
-0.0311344
0.00435064
-0.00312481
-0.00213156
-0.0358494
-0.00254231
-0.0247137
-0.00847044
0.00736155
0.0314691
-0.00827869
0.0072487
-0.0298668
0.0218059
0.00798133
0.00277175
-0.000237126
-0.0324751
-0.0289643
-0.00446234
0.0628091
-0.0671018
-0.0174616
0.0109431
-0.036045
0.00089036
0.00518697
0.0822272
0.0376121
-0.0304531
-0.0119719
-0.0385206
-0.0524251
0.0620783
0.0346306
0.0047083
-0.0452194
-0.00405794
0.00111596
0.0120904
-0.0482272
-0.0325252
-0.0454504
-0.0349027
-0.053403
-0.0227637
-0.0317897
-0.0575086
-0.0434659
-0.0328017
-0.013189
0.0230384
-0.0170983
-0.00046886
0.0388288
0.0214961
-0.0220366
0.0180469
0.000553685
-0.0330783
-0.0183778
-0.03835
0.0315811
0.0293427
0.0227328
-0.0412095
-0.0164796
-0.0262726
0.0267458
-0.0288351
-0.0159084
0.0193886
-0.0743609
-0.0585828
-0.0182837
0.0183597
0.0663033
0.0141095
-0.0207002
0.020405
0.00385552
-0.040546
0.0384971
-0.0374718
-0.00679321
-0.0592351
0.00825249
0.0256107
-0.00742161
-0.0147607
-0.0540949
-0.0566238
0.037858
-0.00436764
-0.00349187
0.043297
0.030718
0.0195409
0.00343299
-0.0170932
0.0110342
0.0057795
0.0049157
-0.0151952
0.00863903
-0.010749
0.048705
-0.018787
0.03612
0.0295457
2.66779e-06
-0.010577
0.01542
-0.0407607
-0.0214865
-0.0144025
0.0300146
-0.00383958
0.00631078
0.00663717
0.00248258
-0.0114108
0.0672946
-0.00998577
0.0407183
-0.00638995
-0.0686597
-0.0297033
-0.00886294
-0.0118603
-0.0319113
-0.00371862
-0.0288404
0.0306512
-0.000822985
-0.00717846
0.00987381
0.0194906
-0.0560259
-0.0323108
0.0553323
0.0366456
0.0106719
-0.0173199
0.0640174
-0.0106785
0.0215852
0.0706293
0.0265459
0.0424481
0.0104737
-0.0690596
-0.0368437
0.005383
-0.0322568
-0.0402338
0.0215944
0.00677501
-0.0121181
0.030145
0.0897869
0.0484675
-0.00177652
-0.00501094
0.00776224
0.100177
0.0288814
-0.00619436
0.00513843
-0.0356823
-0.0221977
-0.0209795
-0.00904009
-0.0364132
-0.00822651
-0.0130417
-0.00567623
-0.0095563
0.013334
0.022477
0.0266433
0.0369331
0.0181885
-0.0142185
0.0412536
0.00120533
0.0261686
0.0331135
-0.0279078
0.0266784
0.0173261
-0.0265394
-0.0120992
0.0240141
-0.00076694
0.0274407
-0.00433606
-0.0380695
0.00482329
0.00471325
-0.0236742
0.0365944
0.0348858
-9.32804e-05
0.029563
0.0164358
0.00125126
0.0109761
-0.0360111
0.0337302
-0.0180294
0.0171175
0.0259325
0.0440704
0.0115176
-0.0443852
-0.0197211
-0.00701684
-0.00912321
-0.019033
0.0247431
0.0137204
-0.0379339
-0.0283505
-0.000860643
0.0353699
0.00741117
0.0244113
-0.0291971
0.0298347
0.00205211
-0.0222888
-0.0190949
0.0325758
-0.0162094
-0.0164125
0.00560366
0.0322514
-0.0123264
0.00684211
-0.0136696
-0.0164286
-0.0250826
0.0245433
-0.0419771
0.011839
-0.0276416
-0.0392799
-0.00231466
-0.00234886
0.0152538
0.0310901
0.0226296
0.0159188
0.0322578
-0.000872978
-0.0257985
0.0241272
-0.032994
-0.0160598
-0.0195886
-0.0284777
-0.0303623
0.028211
-0.0251389
-0.0448424
-0.0153549
-0.0157854
0.0150773
0.0458028
-0.00933968
-0.0105934
0.00799078
0.0184566
0.0486098
0.0286983
-0.0167699
0.00678662
-0.0143986
-0.0286815
0.0205988
-0.0200669
-0.0165858
0.010839
-0.0169897
0.0303866
-0.0197635
-0.000559638
-0.030815
-0.0257911
0.0192808
0.0370266
-0.0117451
-0.00897123
0.00404814
0.0351117
-0.0411208
-0.027515
-0.00118967
-0.00310577
0.0238616
0.00583148
0.0478474
0.000600988
-0.0018906
-0.00160055
-0.0207411
0.0295816
-0.0212599
0.0184578
0.0024752
-0.0120781
-0.0172305
0.000193843
-0.0214287
-0.0375196
-0.00270689
0.0138896
-0.000206698
-0.0164687
0.0195519
-0.0184549
-0.00331075
0.0284065
-0.0282034
-0.014647
-0.0350723
-0.00799987
-0.0109822
-0.00101332
-0.0287839
-0.0284882
0.0184087
0.00209357
-0.0226896
-0.0003765
0.0281024
0.00614802
0.00645324
0.0132863
0.032375
9.91239e-05
0.0167532
-0.0313712
0.0232322
0.0260534
-0.0371923
0.0153696
0.0191627
0.0263492
-0.0245778
0.0185961
-0.00717901
-0.00563573
-0.0419464
-0.00153314
-0.0224552
-0.0265121
0.0167809
-0.0304573
0.0258274
-0.0131824
-0.0179028
0.00828113
0.0260276
0.0388509
-0.00608377
-0.00680434
0.000515037
0.017597
0.0770946
0.00296947
-0.00159522
-0.0105004
-0.0188557
-0.0262967
0.00573234
0.0206358
0.0127824
-0.00560273
-0.0586086
-0.0253429
0.0106289
0.0641628
0.0495016
0.0339233
0.0003939
-0.0296765
0.0091937
0.0144806
-0.0106947
0.00125638
-0.000696508
-0.0400466
-0.0280385
-0.0252837
0.0300406
-0.0088503
-0.0285966
0.0243014
-0.0240429
0.00994432
0.0161363
0.0248865
0.0151166
-0.0187554
0.0186892
0.0459015
-0.00407139
-0.0220991
-0.0651291
-0.00877263
-0.0116131
-0.0321284
-0.0324783
-0.0398518
0.0123188
0.0123273
0.00597439
-0.0274673
-0.0106266
-0.00607807
-0.0291277
-0.0146074
-0.0152429
-0.0159903
0.0442658
-0.00928484
-0.00507044
0.0294649
0.00496649
0.00916699
0.0386036
-0.00586583
-0.0470986
-0.0312312
0.0181401
0.0255377
0.00065548
-0.0269621
-0.0738171
-0.0490746
0.0127025
0.0302465
-0.0201069
-0.00612239
-0.00478521
0.0227323
-0.0311961
0.000142711
0.0305275
-0.0118569
0.0117334
0.0095849
-0.00191385
-0.0390194
0.00473219
-0.00930726
0.0481143
0.0343478
-0.0306254
0.00137556
-0.00508143
-0.00860531
0.0293056
0.0277203
0.0244211
-0.0265012
0.0174642
0.0189292
0.0293756
0.0425835
0.0175729
0.036389
0.0341907
-0.00441937
-0.0680914
-0.0138875
0.00915428
0.0117087
0.0109383
0.00204192
-0.028957
0.00696041
0.0233021
0.0455448
-0.00219905
0.00859869
-0.0390892
-0.0290235
0.0221399
-0.00151442
0.0306739
-0.00870122
0.0581362
-0.00788535
0.0112769
0.062844
0.0455342
0.0116556
0.00111818
-0.101113
-0.0229762
0.0143261
-0.0817708
0.000285168
0.0341001
-0.00850004
-0.0166234
0.0260989
0.0414968
0.0177605
0.0318429
-0.0318
-0.00680206
0.0734377
0.0921182
-0.00310869
0.0250557
0.00180094
0.0138626
-0.00588758
-0.0102644
-0.0474316
-0.017108
0.0111662
-0.0056855
-0.0298694
0.0180618
0.0399275
-0.0275133
0.0310805
0.009217
-0.0180433
-0.023554
-0.0245011
0.0285215
0.0128318
-0.0249462
-0.00560969
-0.0467239
-0.0176378
-0.0096647
-0.0327322
-0.0486884
0.0193373
-0.0283554
-0.0183992
-0.0430839
-0.0392036
-0.0324837
0.0254091
-0.017477
-0.006119
0.0211443
-0.0215749
-0.0113033
0.0208334
0.016146
-0.00689543
0.00273716
0.0106295
0.0118032
-0.00842092
0.00208087
-0.0260563
-0.0272471
0.0226597
0.0279201
0.0111045
-0.0127931
0.0220049
0.00716874
-0.0255537
0.0186785
0.0015197
0.0261409
-0.005518
-0.0177339
0.000401067
0.0258371
0.012255
0.0134638
0.000247539
0.0164884
-0.0200419
-0.0299656
-0.0179399
-0.00535475
0.021599
-0.0398617
0.0143976
0.0147195
0.0145649
0.00760239
0.0117037
-0.0135867
-0.0265808
-0.00926448
-0.021551
0.017263
0.0153932
0.0183586
-0.00778058
0.0197017
0.017016
-0.0151323
0.030335
-0.0136516
-0.0271925
-0.0328282
0.0159198
0.0275856
-0.0198258
-0.015852
-0.01827
0.00180687
-0.00638443
0.0186383
0.035704
-0.0246469
0.0294141
0.0262336
0.0194297
0.0164163
-0.0102926
-0.0565894
-0.0192483
0.0200517
-0.0441927
-0.0170787
-0.0189758
-0.00585591
0.0278015
-0.00920515
0.0306327
-0.0128066
-0.0113189
-0.0255117
0.00138508
0.0335479
0.0311627
0.0249808
-0.00899153
-0.0509407
-0.0209956
0.012754
-0.0361228
-0.0177423
-0.0451753
-0.0294753
0.0538341
0.0173259
-0.00353806
0.0417843
0.00107669
-0.0280831
0.0316074
0.0244094
0.0104425
-0.0519776
-0.00587903
0.011499
-0.00729781
0.0054515
-0.0310443
-0.043209
0.0153323
0.0300308
0.0100687
0.0163006
-0.0122733
0.0125358
0.0205472
0.0094433
-0.0100709
-0.0185142
-0.0171096
0.0215604
0.00291481
0.0236237
0.0187821
-0.0399603
-0.0117108
0.0213869
0.00118956
-0.0159436
-0.026923
-0.0193508
0.0161693
0.0203925
0.0238958
-0.0101148
-0.00931285
0.0123705
0.0265175
0.0330798
0.0321619
-0.0154068
0.0248601
0.0203867
-0.0184933
0.0185625
-0.0050955
-0.00644698
3.66214e-05
0.0220064
0.0166396
-0.0234682
-0.0279745
-0.0144314
0.00546793
0.0310697
0.0077295
-0.00727258
0.0335196
0.0448561
0.0155865
-0.00695641
-0.0169869
0.0481958
-0.0395422
-0.023679
0.00655634
-0.0183275
0.0115345
0.0346916
0.0516986
0.0274026
0.0329471
-0.0489678
-0.0298246
-0.00273934
0.0128807
0.0520075
-0.0198018
-0.0307941
-0.0298535
0.0070884
0.0387216
-0.0288055
-0.0187141
-0.0295828
-0.0262395
-0.0511095
0.0138113
0.0148375
-0.0170796
-0.00124519
0.0298104
0.0151299
0.0184234
-0.00632748
0.0110568
0.0604044
0.00527303
0.0136629
0.0259839
0.0278005
0.0200779
-0.0131298
0.0240577
0.0213828
0.0148043
-0.0091998
-0.00562019
-0.0360915
-0.00176465
0.0344706
0.00619944
0.00594116
0.00988116
-0.0278995
-0.0325755
-0.0173153
0.0318281
0.0401903
-0.036691
-0.039306
0.0747627
-0.00829744
0.0310832
0.0382697
-0.0255518
-0.0145599
-0.0187505
0.0354409
0.00546773
0.0151584
0.00705135
-0.0318661
0.00858077
0.0415649
0.0172788
0.00868789
0.0147319
-0.000201915
0.0331995
-0.0203619
0.0363829
-0.0241057
-0.0459105
-0.0117405
0.0345568
0.0109202
0.0100674
0.00695052
0.0249634
-0.00487426
0.011783
0.00388794
0.0329042
-0.0255376
-0.022915
-0.024394
-0.0275458
0.0203202
0.0218826
0.00131181
0.0468907
-0.0190674
0.0176668
0.0508756
-0.0184548
-0.00119408
0.00732862
-0.0556258
0.0164945
0.0201343
-0.0299378
0.0196692
-0.00742419
-0.0227236
0.022657
0.00770043
0.0152664
0.0309581
0.029101
-0.0270217
0.0122882
0.0637428
0.0428145
0.00534658
0.0335282
0.0724487
0.00923746
0.023199
0.068603
0.0128154
0.0476854
-0.0319084
-0.0721629
-0.0549517
-0.0289786
-0.0438952
0.00261688
0.0331258
-0.0124961
0.0144484
-0.00129892
0.088365
-0.00572131
0.0320243
-0.000866
0.018419
0.0798037
0.0858211
0.0214878
0.0271828
0.0167403
-0.0186608
0.0270848
0.00829457
-0.0357835
-0.00749792
-0.0186979
-0.0110476
0.0238808
-0.0279267
0.00653537
-0.00762046
-0.0148801
0.0312402
-0.0221365
0.0224999
-0.0341053
0.0223579
-0.00944353
-0.0128077
0.0220279
0.0100964
0.0212933
0.0279805
0.0211427
-0.0203512
-0.0181849
0.012788
-0.0604714
-0.0568559
-0.000118212
-0.023219
0.0190406
-0.0161701
0.0190967
0.0208459
-0.0107925
-0.0102061
0.0165438
0.0141927
0.00947391
-0.040179
-0.0322629
-0.0170662
0.0360708
-0.0189644
-0.0140604
-0.0604249
-0.00602957
-0.0128992
-0.00595045
-0.0120422
0.00479969
-0.00686503
0.0101536
0.0237391
0.0195627
0.0241225
0.0308692
0.0323626
-0.0128014
-0.0344892
-0.0288181
0.0212816
-0.0219272
0.00159811
0.0159655
0.0257336
-0.00328006
0.0198382
0.00708185
-0.0415428
-0.0358032
-0.0129895
-0.0165043
0.0147917
-0.0369295
0.0115859
-0.0104662
0.0207134
0.0274293
0.00242256
-0.00678641
-0.0238886
-0.00137047
0.00165586
-0.0224934
-0.0201353
0.016022
0.0188267
0.0118401
0.0243059
0.0253755
-0.00767027
-0.00324331
0.000360545
-0.0236184
-0.0346928
0.0311936
0.0167894
0.0532481
-0.0327268
-0.0073278
0.0337032
0.0159384
0.0514524
0.0239154
-0.0137133
-0.000177596
-0.0101079
-0.0127252
-0.0193717
0.00531575
-0.0176134
-0.0128253
0.0216684
0.0227417
0.00645948
0.00883385
0.019408
0.0205091
0.0642061
0.0263697
-0.0187908
-0.0172189
-0.000351206
0.0201713
-0.0378808
-0.0281612
-0.0419067
0.00258819
0.0237739
0.0172648
-0.0225819
0.0175611
0.00986954
0.00127715
-0.000412111
0.0154043
-0.0164114
0.00214497
-0.00316299
-0.0121872
0.026096
-0.000922662
-0.0138879
-0.0459339
-0.00655825
-0.0171424
-0.00436901
-0.019141
-0.035058
-0.0207584
-0.0265279
-0.00843466
-0.0374527
-0.026684
0.00641864
-0.0235776
-0.0249418
0.00620732
0.0267814
-0.00831347
-0.00560127
-0.0100639
-0.0210192
0.014377
0.0215161
0.0229697
0.0189632
0.0120904
-0.0133483
0.00568589
0.00891423
0.0142179
0.0168005
0.0227695
0.00177439
0.000206791
-0.014032
0.0286367
0.0295234
-0.0406623
0.00983277
-0.0247083
0.0188542
0.018605
0.0186883
-0.00741756
0.0175897
-0.0118069
0.0195855
-0.0181918
0.0252314
0.00237023
-0.0261647
-0.00300284
0.0330651
-0.0309584
0.0303988
-0.00894538
0.0210384
0.00373257
0.0240861
-0.00508425
-0.0117105
-0.0175927
-0.0114661
0.0194371
-0.00579756
-0.000494128
-0.000422929
-0.00344378
-0.0164389
0.041055
0.0282911
-0.0148836
-0.017446
-0.0432709
0.00235808
0.0313309
0.00379029
0.0118168
0.00794215
-0.026442
-0.0266303
0.0370767
0.00544859
-0.0368421
-0.0220741
0.0291969
-0.00563148
0.0239648
0.00134859
0.0288194
0.0430817
0.0095645
0.0406346
0.014595
0.010527
-0.0226698
-0.043509
0.0161237
0.0183995
-0.0143861
0.0127859
-0.0393775
-0.00113379
-0.0302827
-0.0258194
-0.0316732
0.0135779
0.0342805
0.0311124
-0.055784
0.0444565
0.0119419
-0.0355086
-0.00537875
0.00248556
0.0547838
0.0134854
0.0373595
0.053234
-0.0189241
-0.0317152
-0.0660608
0.0292018
0.0350206
-0.0352771
-0.00232003
0.00780855
0.0204951
0.0176179
-0.00172109
0.0315473
0.00280177
0.0333606
0.0201031
0.0273181
0.0101751
-0.034147
-0.0547313
-0.0215577
-0.00914771
-0.028736
-0.01268
0.0353411
-0.024938
-0.00438844
-0.0164259
-0.000251085
-0.00565488
0.0112135
-0.011318
-0.0200419
-0.0046353
0.00740433
0.00247976
-0.0225854
0.0357987
0.020222
0.046291
0.0415686
0.0033562
0.0430562
0.00392909
-0.0836227
-0.0359522
-0.00820537
-0.0518245
0.00946368
0.0224692
-0.0368329
0.0392707
0.0253297
0.0135422
0.0558601
-0.0180265
-0.044949
0.00956379
0.0366104
0.0196333
-0.026982
0.00240697
0.0706663
-0.0129948
0.035971
0.0804472
0.0294538
0.0301407
0.00634283
-0.0721594
-0.0275831
0.0236989
-0.061705
-0.00793857
0.0492998
-0.0246723
0.0269242
-0.00741213
0.051636
0.0250565
0.0133584
-0.0417005
0.0331444
0.10574
0.0316211
0.0243578
-0.0225046
-0.0118272
0.0131681
-0.0201919
0.0180012
-0.0344185
0.0112063
0.0296612
0.0247196
0.0234419
-0.0278428
0.0318567
-0.0166276
0.0254356
-0.019045
-0.0150683
-0.0237514
-0.0078018
0.0256872
0.0297174
-0.0380611
0.0309073
0.00965193
-0.0295266
0.00125629
0.0334679
-0.0073182
0.000566231
0.0278415
-0.0605021
-0.00102289
-0.000101959
0.00415637
0.0660295
-0.00816212
0.0216252
0.00781413
-0.0102036
-0.021502
0.0124833
-0.02326
-0.00968151
-0.0507643
-0.0366782
0.00372925
0.0019616
-0.02111
-0.0622412
-0.0265313
-0.00646364
0.00412044
-0.0323997
-0.00887279
-0.016074
-0.0242616
-0.00875631
-0.0203121
-0.0238274
0.0250566
0.0238988
-0.0196987
-0.0213902
-0.00624178
-0.0164678
-0.0293116
-0.0196792
0.0109312
0.0165145
-0.0037495
0.0257551
-0.018907
-0.0233661
0.00790706
-0.0160784
-0.0203368
0.0193292
-0.0162661
0.0181279
0.0270013
0.0178547
-0.0220751
-0.00319207
0.0235853
-0.0228337
0.00426536
0.00508636
0.0057546
0.00575737
-0.0158013
0.0276826
-0.0255828
-0.0125181
-0.0372048
-0.0163959
-0.0174464
-0.0301161
-0.00992288
-0.00533165
0.0238419
-0.00867274
0.0172223
0.00191862
-0.00167679
0.00637442
0.0617464
0.0399038
0.034967
0.012954
-0.0654038
-0.0114763
-0.00343135
-0.0449702
-0.00141485
0.0364603
0.0166935
0.0138929
0.0255431
0.029609
-0.006449
-0.0257521
-0.0318294
-0.00456839
0.012569
0.0137214
-0.0243792
-0.014049
-0.0181607
0.000766704
-0.0236413
0.011542
0.00735401
0.022731
0.0164797
0.0321761
0.0234897
-0.0246231
-0.00518563
0.00455608
0.0208314
-0.0146696
0.00994125
0.0198559
-0.0533622
-0.0243142
-0.0247362
0.0311564
0.0233872
-0.0401265
0.0224686
-0.0300234
-0.022228
-0.0284158
0.0288032
0.00608823
0.0134387
-0.0217236
-0.0435943
-0.01008
-0.0066596
-0.0140373
0.00742422
-0.000795296
0.0104577
-0.0228604
-0.00643684
-0.00883774
0.0281878
0.0363802
0.0217561
0.0203342
-0.00979713
0.00944156
-0.0362864
0.00517397
-0.0131867
-0.0180947
0.0244304
-0.031186
0.0200348
-0.0140153
0.0218497
-0.00133244
-0.0150153
-0.0334124
-0.0278895
-0.0181337
0.0135976
0.0182402
-0.0268756
-0.033591
-0.0125079
0.00607842
-0.0230388
0.0331783
0.0037125
0.0262849
-0.00528056
-0.0102354
0.041183
0.0295951
-0.00816201
-0.0415523
0.0521881
-0.0215571
-0.046067
-0.0232689
-0.0626298
-0.0198349
0.0370491
0.0180203
0.0165938
0.0490836
-0.0331503
-0.0297111
0.0273845
0.0497074
0.0242596
-0.0223744
-0.0121702
-0.0343834
0.0166084
0.00217218
-0.0465008
-0.0342007
0.00225623
0.0164596
-0.0114167
-0.0137621
-0.0234383
0.0292657
-0.0366314
-0.00327648
-0.0118751
-0.0335463
-0.00731328
0.00681582
0.0163825
0.00377393
-0.0205707
-0.0203322
0.0118942
-0.0205014
0.0103429
0.0162264
-0.00397909
-0.0185787
0.015646
0.00412731
0.0209502
0.00594514
0.0157185
0.027462
-0.00741873
0.00431833
0.0413461
-0.0372341
0.0302513
-0.00323901
-0.0552773
-0.0412338
-0.0305537
0.0386336
-0.0286343
0.0295375
-0.016004
-0.00208262
0.00799521
0.00156554
0.0105596
-0.0205507
-0.0438805
-0.0252343
0.00129551
0.0328154
0.0274297
-0.0144073
0.0243369
0.00900544
0.0177264
0.0197229
0.0120763
0.0385812
-0.0260095
0.0102226
0.00358461
0.0147409
-0.0323451
-0.0230415
-0.0244368
0.0191359
1.24487e-05
0.0198475
0.026926
-0.0342962
-0.0213623
-0.00125986
0.000472512
0.000736269
-0.00394518
-0.0296117
-0.00689423
0.0174334
-0.00827627
0.00137461
0.0863106
0.026814
0.0224858
0.0121918
-0.04678
-0.0445711
0.00675299
-0.0359019
0.00189311
0.0106725
0.0104295
-0.00997632
0.00383566
0.0522656
0.0251199
-0.0250338
-0.0340482
-0.00785436
0.0701061
0.0154652
-0.00332795
0.00521208
0.0691576
-0.00190728
0.0397926
0.0636852
0.0344096
0.0130044
0.0118564
-0.0757084
0.0211562
-0.0221554
-0.0149771
-0.015075
0.00748989
-0.0434671
-0.0219114
0.00206738
0.046769
0.0314163
0.0171247
0.00658682
0.0308843
0.048333
0.0357865
0.0296017
0.024441
0.00321256
0.031083
0.0275876
0.0247116
0.01078
-0.00699578
-0.0152995
-0.00813955
0.00628929
0.0184808
0.00169159
0.0263665
0.0448988
0.0122577
0.0334969
0.0140187
-0.0438534
0.0347777
0.0339597
-0.0244148
0.0259962
-0.0152821
-0.0230921
-0.0256836
0.0174912
-0.0550879
0.00771785
0.000862046
-0.0299219
-0.0229071
-0.018071
0.0216409
0.0287436
-0.0150417
0.0213194
0.0121778
0.030517
0.00300775
0.0461364
0.00659115
-0.00792971
-0.045992
-0.0322769
0.0250846
0.024514
0.000217952
-0.0322303
-0.00266199
-0.0107207
0.00149412
-0.0310903
0.0158869
0.000465796
0.0235879
0.0234954
-0.0184633
-0.0281671
-0.00512087
0.0165882
-0.0265699
-0.00686664
0.0124651
0.0296073
-0.0118158
0.0205098
-0.0160515
0.00560187
-0.0159401
0.0237179
0.00044783
0.021864
0.0121266
-0.0220936
0.0268365
0.00585771
0.0399264
-0.0145907
-0.0240703
0.00772212
-0.0160899
-0.023774
0.0276723
0.0119423
-0.0313437
0.018315
-0.0157621
0.030159
-0.00555355
-0.0177046
0.00304302
-0.00912409
0.015979
0.0278254
0.027375
0.0260048
0.00797257
-0.00721478
-0.0211339
0.025491
0.00161196
0.00638159
-0.0260165
-0.00973684
0.0280721
0.00153187
0.0391967
-0.0193665
-0.0143427
-0.0250094
-0.0317766
-0.0189862
0.0344466
0.0426679
-0.00269103
-0.0296016
0.00711712
0.0379343
0.0455414
-0.0304414
0.00537368
-0.0263161
0.0143639
0.0645202
0.0295824
0.0290518
-0.00308255
-0.0298505
-0.0294764
0.00524685
-0.0118366
0.00390781
-0.0282878
0.00795051
-0.0138224
-0.0132728
-0.00181371
0.00743961
-0.031489
0.0257423
-0.0040021
-0.0323343
-0.00853955
-0.0024034
0.0335147
0.0145461
-0.0297896
-0.0197116
-0.0147278
0.00424672
-0.0151261
-0.00813531
-0.0229051
0.0110977
-0.0236847
-0.0289661
0.00299155
0.00864304
0.0474155
-0.00460754
-0.0234363
0.0229661
-0.00212018
0.00348119
0.0369256
0.0124427
-0.0338773
-0.0254086
-0.0248908
-0.0295106
0.0187159
0.0182788
-0.0140846
-0.0433581
0.0164911
-0.0241548
0.0365166
0.0169461
-0.00950229
0.0260332
0.0295804
-0.0237731
-0.0130434
-0.0447589
0.0239258
-0.00448103
0.00462603
0.0119198
-0.0312518
-0.00414587
-0.00207006
0.0115205
0.015382
0.0283013
-0.00362903
0.00390933
-0.0219759
0.0488693
-0.0024798
0.0337529
0.00456667
-0.006796
-0.00643644
-0.0118422
0.021958
-0.0485577
-0.0258307
-0.0237579
-0.0187999
0.0148259
-0.0193757
0.0152922
-0.018521
-0.0162447
0.00140224
0.0286794
0.0158476
-0.0250817
-0.0317404
0.0106664
0.0132425
0.0127474
-0.0159026
-0.0201472
-0.0211066
-0.0435483
-0.0185997
-0.0181118
0.0104993
0.0116232
-0.0368441
-0.0247294
-0.0103916
0.0120194
0.0282277
0.0224717
0.0286421
-0.0257678
-0.013892
0.0135639
0.00150412
0.0224422
-0.0157502
-0.00996625
0.00459587
-0.0300242
-0.0309224
0.0254836
-0.015886
0.0321528
-0.0151918
0.0209344
0.0123946
0.0189301
0.00243831
-0.0304732
0.0520531
-0.00468213
0.00879113
-0.0126313
0.0185377
0.00912635
-0.0304225
0.0492007
0.00128745
0.0143841
0.0132952
-0.00788095
0.0491753
0.0177544
-0.0349897
0.00883052
0.0292096
-0.00284216
0.0350693
-0.0261149
-0.00478646
0.0041644
0.0288864
0.0151105
-0.0205117
-0.0160147
-0.00145588
0.000427531
-0.0273992
-0.0162936
-0.0325842
-0.0340801
0.00598743
-0.000688692
-0.0202592
0.0376185
-0.000191976
0.0202566
0.0134077
0.00435939
0.0272055
0.012839
0.00408661
0.00950129
-0.00172218
0.0200511
0.00152506
0.0171335
0.0565395
0.0341369
0.0241325
0.0220249
-0.0259182
-0.017662
0.00841436
0.00128355
-0.0312205
0.0347515
0.00950475
-0.00187345
0.0357941
0.0254439
0.0476242
-0.030659
-0.0343654
0.0307945
0.00569935
0.028512
-0.0102949
-0.0162659
0.0114534
-0.0171991
-0.0163708
0.0781509
0.0166995
0.0226227
-0.023611
-0.072167
-0.0106187
0.0227457
-0.0627442
0.025596
-0.00633929
0.010734
0.0361766
-0.00957891
0.0233416
-0.00703375
0.0313745
-0.0439424
0.0305035
0.0771855
0.0530504
0.0207425
0.0255058
-0.00692796
-0.00371442
0.00906729
-0.0321325
-0.00670386
0.018318
0.0148974
-0.00102133
-0.0253803
0.00559092
0.0338825
0.0077187
-0.00241967
0.0392932
-0.014558
0.0132122
-0.0498038
0.0214194
-0.0146314
-0.00837953
0.00576086
-0.00701777
0.00853272
-0.0164145
0.00477641
-0.0349252
-0.021171
0.0313979
-0.0122088
0.0102745
-0.018611
-0.0149092
0.0179261
0.0242753
-0.00733142
0.0249816
0.0322903
0.00777092
0.031391
-0.0239129
0.0141908
-0.0275403
-0.00996855
0.0329617
-0.000963844
-0.0295203
-0.0241653
0.00899223
0.0140714
-0.00811469
0.0291298
-0.0147194
0.0321066
-0.0139045
-0.0306868
-0.03309
-0.0180578
-0.0213035
0.0290664
0.0266437
0.0133066
-0.0138
-0.0208844
0.032663
0.00491848
-0.028194
0.0319132
-0.0288011
0.0143825
0.0153199
0.0145026
0.0285671
0.0108892
-0.0263908
0.0294008
0.016845
-0.0338407
-0.0253408
-0.00781104
-0.00705133
0.00392408
-0.0299424
-0.0397687
0.00940387
0.0222916
-0.0210892
0.0293691
-0.0216538
0.0362096
0.0099958
-0.012253
0.0124771
0.0137617
0.00868664
-0.0313189
-0.0235248
-0.00180471
-0.0147982
0.0151688
0.0293366
0.0172635
-0.0111163
0.00267562
0.0689232
-0.0114452
0.00851055
0.00804579
-0.024855
0.00487013
0.0134869
-0.0527947
0.0165972
-0.00146176
-0.0232018
-0.00127334
0.00214645
0.0552793
0.00488307
-0.0211747
0.0143299
0.0102098
0.0458515
-0.000977585
-0.0180436
0.0208356
-0.0208746
0.0244012
-0.0347957
0.0206827
0.00186857
-0.0027758
-0.0195266
0.00627661
0.0226391
0.0143171
-0.019216
-0.0208543
-0.0144301
0.0279819
-0.00462318
-3.93748e-05
-0.010343
-0.0228779
-0.010096
-0.0206959
-0.0183592
-0.005462
-0.0282499
0.00705749
0.0125883
-0.012579
0.0155925
0.0171187
-0.0158928
0.0220702
0.00492689
0.0318296
0.0222243
0.0121703
0.0236935
0.020172
-0.0193096
-0.00319083
0.022637
-0.0356288
-0.0167239
0.003257
0.00486259
-0.0245469
0.0174479
-0.0234849
-0.0431508
-0.0486402
0.0238944
0.00343107
-0.00769485
-0.0346624
0.00366162
0.0356215
-0.0171039
-0.0132458
-0.0014977
0.0163734
-0.0385678
0.0124493
0.0223562
0.0191549
0.00896853
0.0274953
0.0207795
-0.0384832
-0.00410018
-0.0294006
-0.0272398
-0.0341514
-0.0293631
0.0063247
0.0290294
-0.0160598
0.000391137
0.0126068
0.0135358
0.0164668
0.0139514
-0.00937993
0.0115982
-0.0293298
-0.0152374
0.0134085
-0.0177777
-0.00487563
-0.047444
-0.00701661
0.00770032
0.00714389
0.0281924
-0.00989038
0.0120469
0.0175834
-0.0151139
-0.00486361
0.0154331
-0.000245596
0.0102515
-0.00896489
0.0299273
0.00284866
0.0288931
-0.00928171
0.0121134
0.0249947
-0.00292394
-0.0181557
-0.0157777
0.0277171
-0.0203707
0.0194954
-0.0229152
-0.0291083
0.0199149
0.0188875
0.0173592
0.0208038
-0.0161386
-0.0271367
0.026031
0.0117753
0.0196145
0.0159377
0.030382
0.0125523
0.0125888
0.00485867
-0.00735198
-0.0169301
-0.00156551
-0.00751114
-0.00204269
0.0173754
-0.0142861
-0.00629417
-0.0217605
-0.000807282
0.0400875
-0.000464371
-0.0105665
-0.0290009
-0.00222725
0.0272001
0.0203228
-0.0338512
-0.0245518
0.0202486
-0.00573355
0.0277758
0.0180586
0.0211691
-0.00505008
-0.000726888
0.0205725
0.0321002
-0.0314837
-0.0624848
-0.0202359
0.0136652
-0.0383191
-0.0235081
-0.027485
-0.0106838
0.0139686
0.0326299
0.0590246
0.0308957
-0.0172304
-0.00877719
-0.00950649
0.00051587
0.00227381
-0.0213763
0.025249
0.010515
0.0245302
0.0165148
0.0303176
-0.0109997
0.00825239
0.0276169
-0.0121826
-0.0305561
-0.00128916
-0.0269025
-0.0299397
-0.0150202
0.0210546
0.0341127
0.0201867
0.033553
-0.0124867
-0.0147061
-0.0256696
0.0124719
0.0452387
0.0070859
-0.0240043
0.029281
0.0124108
-0.00564263
0.0181578
0.0389518
0.0270585
0.0470907
0.00741955
-0.0201759
-0.0233101
0.00658669
-0.0554726
-0.0197516
0.0523414
0.0154126
0.00239171
-0.00218197
0.0519112
-0.00413882
-0.0297253
-0.0327513
-0.0275556
0.0310286
0.000522107
0.0140716
0.0035516
-0.0310391
0.0358988
0.028471
-0.0432512
-0.0442964
-0.0177563
0.022225
-0.0127012
0.00703819
-0.0198159
-0.000130725
-0.00057622
-0.00308071
-0.0146522
-0.00122297
0.00111947
-0.0408018
-0.0182699
-0.0026675
0.00723008
-0.0222934
-0.0228044
0.0171271
-0.00902545
0.00255197
-0.0455501
0.0323087
-0.00652168
-0.00365729
-0.01316
0.019649
0.00941313
0.0016233
-0.0144791
-0.0163828
0.0402057
-0.0048621
-0.0281495
0.0242282
-0.0266994
-0.0148903
-0.00335535
-0.0231245
-0.0230716
-0.0013728
-0.0291797
-0.0223607
-0.0455791
-0.0188143
-0.0298765
0.017452
-0.00871807
-0.0262424
-0.0110869
0.0108026
-0.0238843
-0.0319265
0.00386501
-0.0105582
0.0191089
0.0267981
0.0250729
-0.00143823
-0.00293055
-0.030323
0.0105463
-0.0302487
0.00246288
-0.0149542
-0.0152008
-0.0280563
-0.0263971
0.010395
-0.0164182
-0.0179675
-0.0134088
-0.0204025
0.0246212
0.0040432
-0.0243098
-0.000825813
-0.00307563
-0.0296202
-0.0148876
0.013309
-0.00165986
0.0376641
0.0188256
0.0202002
-0.0110097
-0.040118
-0.0113156
-0.0106869
-0.00402716
0.00154518
-0.0123124
0.0307534
-0.00266913
-0.0115524
-0.00502206
0.0251963
-0.0155001
0.00503443
0.000225543
-0.00436216
0.0292824
-0.0203579
0.00275847
-0.048355
0.0270111
0.0110411
-0.00196142
-0.00348089
-0.0125895
-0.018048
-0.00328983
0.0266888
-0.00589555
0.0207315
-0.0141853
-0.0180414
0.0512038
0.0256315
0.000230486
0.0195451
-0.0240905
-0.0152264
0.0247056
-0.0174349
0.0088102
-0.0139027
-0.00355318
-0.0187425
0.023144
0.00483004
-0.0137597
-0.0272321
-0.0193144
0.0230682
-0.0342108
-0.0265483
0.012359
0.0284853
-0.0297927
0.0119255
0.0194523
-0.0299298
-0.0239154
-0.026756
0.0312473
-0.0515066
-0.0175402
-0.0198945
-0.027685
-0.0240987
0.00224587
-0.00389716
0.0544387
0.00302508
-0.00780937
0.0161529
0.00184036
0.0134756
0.050823
-0.0226977
0.0227576
-0.00899085
0.0131835
-0.0206498
0.00586634
0.0244851
-0.00739975
-0.0101301
0.0217615
-0.00191444
0.00225609
-0.031101
0.0107741
-0.0183232
-0.014194
0.0145391
-0.0170826
-0.0410733
-0.0194277
-0.000906838
0.0249564
0.0382628
-0.000668624
0.0130913
-0.0353664
-0.0172147
0.0309672
0.00252054
0.0110914
-0.0115941
-0.0171401
0.0194677
-0.0157056
-0.0296146
-0.015026
-0.00934114
-0.00237021
-0.00583334
-0.0148102
0.00836594
-0.0335914
-0.032773
0.00291481
0.049851
-0.00755839
-0.0099271
0.0112073
0.0142267
-0.0424418
-0.00483542
0.034257
-0.00962258
0.00621952
-0.0120002
0.0140432
0.0306824
-0.00574899
-0.00790938
0.00781602
0.0205608
0.0257825
-0.0236863
-0.0314353
0.0400811
0.0154629
0.0201798
0.0115445
-0.0649308
0.00561726
0.0268948
0.00054067
-0.000412155
-0.0272442
-0.0317584
0.0314517
0.0229376
0.0315997
0.0175102
-0.0180645
0.0219243
-0.00468903
0.00342926
-0.0101841
0.012045
-0.0234548
0.0145002
0.0141823
0.0463922
0.0234952
-0.0171977
0.0369946
0.00130424
-0.00966612
-0.0221619
-0.0324991
-0.00779477
-0.0339489
0.0394724
0.0016346
0.0212502
-0.0104777
0.00192797
0.0351715
0.0156986
-0.035336
0.0043655
0.0519705
-0.00761499
0.0278315
-0.018742
0.0379637
-0.00555468
0.0269947
0.0495885
0.0562561
0.0048761
0.00808799
-0.000385536
0.00927888
-0.0272042
-0.0298844
0.0218487
-0.000643984
-0.0283311
-0.00475586
-0.0133095
0.0652069
-0.00634367
-0.0035698
0.0221589
0.00971049
0.0069722
0.0496391
-0.00923667
0.0237282
0.00671881
-0.0217988
0.00570582
0.0232842
0.0318265
-0.0139873
-0.0201385
-0.014865
-0.0111964
-0.00187209
-0.0304982
0.00271494
-0.0111433
-0.0284561
0.0262264
0.022435
0.0299064
0.0219188
0.0188646
0.00882092
-0.00558893
0.0179483
0.0266076
0.0283639
-0.00532224
0.0439761
-0.00402617
0.0276634
0.0555158
0.0276621
0.0523695
-0.0205885
-0.0384882
-0.0301367
-0.0192646
0.0218907
0.0252209
0.0471184
-0.000355521
-0.00633949
0.0241138
-0.0163448
-0.00965173
0.00293719
0.00775446
0.0198719
0.00730276
-0.0025036
0.0294159
0.001481
0.0155108
-2.67442e-05
0.0105924
-0.000883949
-0.0309995
0.0279917
0.00736476
0.000567976
-0.00660022
0.032734
0.0345713
-0.0113071
0.0220637
-0.0175935
-0.0115223
0.0331067
-0.0226769
-0.021964
-0.010851
0.0278201
0.0330589
-0.0361957
-0.00474873
-0.0287414
0.0193197
-0.0186227
0.0196583
0.00655558
-0.000613359
-0.0299818
0.00213375
0.00736464
0.0229021
-0.0295954
0.0191502
0.0472417
0.0344538
0.030824
0.0243176
-0.00837874
0.0209401
-0.0245967
-0.00594323
0.0058609
-0.0325574
-0.0293856
-0.0472883
-0.0123846
0.0111147
-0.0110521
0.027132
0.00719248
-0.028302
0.00138784
0.0106089
0.0257889
0.0319335
-0.0311746
0.0209678
-0.0279544
-0.010855
-0.000383165
0.0127425
0.0328849
-0.0010289
-0.0042669
-0.00635207
-0.00116204
0.0266663
0.00848539
-0.00640211
0.018882
0.000995853
0.0194555
0.0260741
-0.00188513
-0.0161386
0.0286108
0.0329667
-0.0177816
0.0252279
0.0272126
-0.0245186
0.0108868
0.0287245
-0.0374806
-0.0193519
-0.000547275
0.0173803
-0.035027
-0.0076041
0.0402701
0.00710207
0.0140357
0.00640012
-0.0326182
0.0463337
0.0314155
-0.0325834
0.00675748
0.000707482
-0.0129487
-0.00115519
0.0335158
0.0258196
0.03436
0.0206443
-0.049968
-0.0406304
0.0209568
-0.0413784
-0.00198262
-0.0101709
0.0127072
-0.0247701
-0.0302614
0.0165488
0.0338832
-0.026562
0.0245475
0.0297753
-0.00427863
0.0305133
0.0324462
0.0233355
-0.00204345
-0.0077402
2.42437e-05
-0.00464527
0.00286576
0.0136859
0.0231541
0.0399057
-0.00316528
-0.0258969
-0.0185888
-0.00717172
0.0265009
-0.00710087
0.0236008
-0.023928
0.0186775
-0.00920273
-0.00161486
-0.034128
-0.0281114
-0.0248895
-0.0278562
0.0326011
0.0194328
-0.0660867
0.0222798
0.0221744
-0.031147
-0.026013
-0.0191371
0.0184151
0.0780632
-0.0125824
0.0267641
0.071336
0.0394836
0.00908845
0.0524004
-0.00474717
-0.0141606
-0.0292738
-0.0176262
0.0206029
-0.00200136
-0.0129711
-0.0745816
-0.0548903
0.0116928
-0.0307527
0.0166123
0.0111026
0.0143441
0.0151758
0.0187589
0.0083372
-0.0128595
-0.0268041
0.0196759
0.0079772
-0.0305929
0.0181098
0.0275999
0.0354548
-0.0368245
0.0141461
0.030161
0.00344542
-0.0324126
-0.0125749
0.00523003
-0.0025278
0.034784
0.0276785
-0.0229461
-0.0215619
-0.0524756
-0.0367529
-0.047124
-0.0189689
-0.00340395
-0.0314952
0.0660176
0.00196823
-0.00384937
0.0205283
0.020254
-0.0107775
0.0211466
-0.000920544
-0.0459704
0.00106861
-0.0183175
0.00441468
0.0179888
-0.015732
-0.0250895
-0.0410744
0.00422788
-0.00799902
0.0584595
-0.00956956
-0.0155907
0.0278829
-0.00287966
-0.0053969
-0.0260401
-0.01289
-0.0130975
0.000664491
-0.0162682
0.0163027
0.00667344
-0.0241626
0.0300311
0.0298305
0.0504358
0.0230985
-0.00488898
-0.0161422
0.0148979
0.00647725
0.0535868
-0.0128838
0.0167276
0.0172395
0.0151293
0.0241737
0.0572618
0.0299091
-0.00902632
0.0026586
-0.0209964
-0.0236656
0.0197832
-0.0227383
-0.0347699
0.018762
0.0271989
0.00864552
0.0467216
0.0406479
0.0379856
0.00472437
-0.0161944
-0.0283365
0.0676943
0.0325744
0.0344774
0.0238337
0.0208808
0.0189554
0.033726
0.0700391
0.0226637
-0.0211637
0.00352999
-0.0454258
0.0383724
-0.0199601
-0.0604811
-0.00839473
-0.0203754
-0.0218544
-0.00799535
0.0166026
0.048499
-0.000965225
-0.02759
0.0202243
-0.00549251
0.0377972
0.0172804
-0.0237927
-0.0227828
0.0347097
0.0349434
0.0252336
0.054735
0.0250645
0.0130419
-0.0183884
-0.00659808
0.019757
-0.0246724
-0.00825536
0.00442359
0.0311677
-0.00526452
-0.00868339
0.00423204
-0.0129384
0.0233614
0.00803379
0.00234192
-0.00939053
0.0384221
0.0153427
0.0268381
0.0213591
0.0147548
0.0155704
0.0526687
-0.00802541
-0.010581
-0.00853555
-0.00559299
-0.0288175
-0.0412779
-0.0199425
-0.0122743
0.00973799
0.0132216
-0.0193807
-0.0298024
-0.0337624
-0.0392492
0.0388155
-0.0143726
-0.00496948
0.0318967
0.0231622
0.0267545
-0.0274348
0.0200811
-0.042756
0.0114529
0.012382
-0.0334313
0.00651805
0.0246615
0.0183782
0.0150924
0.018013
-0.00343124
-0.00297274
-0.0160916
0.0329272
-7.69261e-05
0.0170806
-0.0192821
-0.0531492
0.0210218
0.0334529
-0.0324084
-0.0131365
-0.00960269
-0.000495488
-0.0246197
0.0249004
0.00490915
0.00610353
0.00312278
-0.0103012
-0.0346389
-0.0131257
-0.0272945
0.0250161
-0.0104261
-0.0231416
-0.0156807
-0.0165487
0.0288333
0.0200528
-0.001444
0.0227257
-0.0281283
0.0284748
0.0172013
-0.0167635
0.0321533
-0.0229421
-0.0263079
-0.0198561
0.022911
0.0207415
-0.000636989
-0.00259471
0.00424371
-0.0297155
-0.0100192
-0.0188845
0.00710108
0.0137666
-0.0172074
0.000993527
0.0101327
-0.00725344
0.00684184
-0.0323018
-0.0331511
0.00663007
-0.0134675
-0.00254426
0.0189766
0.015327
-0.00923904
-0.0243984
-0.022021
-0.0263277
0.0299605
-0.0346002
0.0296524
0.0435309
0.0132361
0.0308414
0.0292336
-0.0508624
-0.0288378
-0.00760943
-0.045547
0.00185709
-0.0227542
-0.00298221
0.0102995
-0.0171609
0.013866
-0.00215717
-0.0175447
0.0104346
-0.00624899
0.061837
0.0581131
-0.0232708
-0.0169605
0.0312816
-0.0104283
-0.0173183
0.00337806
0.0122586
0.02998
0.0180827
-0.0322727
-0.00207728
0.0256561
-0.038057
-0.00135671
-0.00235339
-0.00906737
-0.0244159
0.0110332
0.030457
-0.0155448
-0.00826146
-0.00825679
0.0264247
-0.000473398
-0.0107299
-0.0125701
0.00188172
0.0295911
-0.0235517
0.0201495
-0.0248205
-0.00339672
-0.0218998
-0.0250928
0.0334915
-0.0299219
0.0024267
0.0246026
0.0309063
0.020866
0.0135929
-0.0324541
-0.023559
0.00944823
-0.0286888
0.00315896
0.0311307
-0.0184723
0.0152488
-0.0129999
-0.00932929
-0.022293
-0.0495632
-0.0185579
-0.00980221
-0.0523534
-0.0505277
-0.00543159
0.0303886
0.0400201
-0.0132357
-0.0115792
0.0551962
0.0317089
0.0243245
0.0549247
0.001438
-0.035573
-0.045539
0.0264717
-0.00977391
0.0384676
-0.0270517
-0.0735902
-0.0259931
-0.0225147
0.00881877
-0.0115459
0.0183522
0.0264869
0.0382626
-0.000346205
0.0177767
-0.0188607
-0.0462451
-0.00288926
-0.0184088
-0.0465519
-0.0241932
0.0115652
0.0225259
0.0187743
-0.00508744
0.0256137
-0.0138955
0.0336183
-0.0282059
0.025348
0.0546209
0.0134405
-0.00752524
-0.0108257
-0.00297545
-0.00158287
0.0163888
0.0361295
0.0146472
0.0299725
-0.0296801
-0.0523696
-0.0328834
0.00777221
-0.0362689
0.0261445
0.00606483
0.0082187
-0.0453555
-0.0240822
0.0373189
0.0353826
0.00696118
-0.0131422
0.0185434
0.0196472
0.0333338
-0.0109988
-0.0245422
0.0470426
0.0253018
0.00447236
0.0153403
0.00913135
-0.000281949
0.0325666
-0.0612558
0.0371433
0.0324357
-0.0191212
0.0274934
-0.0311423
0.00646319
0.0340258
0.00393229
0.0243185
-0.0281331
0.0133922
-0.0292411
-0.0133605
0.0485861
0.037058
0.00507793
-0.016945
0.0120046
-0.00754191
0.0255024
0.0276869
0.0053465
0.0172109
-0.0261974
-0.0535216
-0.0321488
0.00677077
-0.0522515
0.00332768
-0.0183263
-0.0413776
-0.0186201
-0.0177674
0.027418
0.0117105
0.0142732
-0.0238323
-0.0308375
0.0523577
0.013429
-0.0171271
0.028384
0.0188863
-0.0192252
0.00766085
0.0557181
0.0353458
-0.0189851
-0.00152643
-0.0399172
0.0353418
0.000630136
-0.0394311
-0.0269207
0.00469748
-0.0290823
0.048522
0.0338327
0.0340086
0.0115035
0.0284465
-0.00303624
-0.0122047
0.00538082
0.0436709
0.0252784
0.0171342
0.035109
0.0469104
0.0451496
0.0545008
-0.0146661
0.0370906
0.0187429
-0.0472843
0.026468
-0.0200056
0.0123158
-0.0260873
-0.00782304
-0.0294549
0.0178853
0.0254075
0.0271324
-0.000165781
-0.0140985
0.0166202
-0.0128194
-0.0130106
0.00194456
0.0349839
-0.00286613
0.0104595
-0.0181144
0.0220011
-0.0233357
-0.00579102
0.0354672
-0.00783246
0.00713997
-0.0038822
-0.0127606
0.0496505
0.0115402
-0.0100878
0.0221543
0.00520227
0.0150966
0.009548
0.01101
-0.0318798
0.00286985
-0.00140214
0.0177247
0.030849
0.0221904
0.0335654
0.00179677
-0.00962302
0.0072797
-0.0387383
-0.00831611
0.0263241
-0.0085861
0.0405834
-0.0255262
0.0329694
0.0293509
0.00968627
-0.00561813
0.0244679
-0.0190307
-0.00969128
-0.0414938
0.0143135
-0.0151383
0.0197552
0.0191713
-0.0143241
-0.0316308
0.0158333
0.00870113
0.0200758
-0.0238228
-0.0111632
0.0122186
0.0222392
0.0221724
0.00890592
0.0208006
0.027342
-0.0156174
-0.00360177
0.0300932
-0.0238205
0.0241488
-0.00759937
-0.0293321
0.0136684
-0.018188
0.000147654
0.013708
0.0166283
-0.0268673
0.0207249
-0.005885
-0.000761381
-0.0140146
0.0144534
0.00993011
0.0399678
-0.00380905
-0.0137317
0.0262288
-0.0347307
-0.00105225
-0.0185303
0.00689344
0.0294141
-0.00445607
-0.0151203
0.0252329
0.00967312
0.00985479
-0.0113232
-0.0120496
0.0218303
0.0132804
0.00366169
0.0208262
-0.00398929
-0.00213348
0.0341962
-0.0306904
0.00701364
0.0534192
0.00469656
0.021395
0.00182486
-0.0131104
-0.0223349
-0.00010231
-0.029514
0.00443589
0.0252277
-0.0222585
-0.000739051
-0.0312842
0.0122401
0.00295439
-0.0302039
0.0219308
-0.00752895
0.0235143
0.0628987
0.0109566
0.00258284
0.0235707
-0.0115873
0.0365624
-0.00485721
-0.00825972
0.0410731
-0.0013837
0.00637892
-0.00344748
0.0202144
0.00828479
0.0246549
0.0279934
0.0320153
-0.0301758
-0.0137617
-0.0195828
-0.0213697
0.0187849
-0.0302382
0.0136101
-0.00377751
-0.0212488
-0.016363
-0.000756812
0.00540621
-0.0299769
-0.0220119
-0.0173239
0.0314561
0.0239381
-0.0123351
0.0281987
-0.0243605
-0.00836726
-0.0367538
-0.0166925
-0.0105715
-0.0258836
-0.0157616
0.0087639
0.0133493
0.0109633
0.0029983
-0.031212
0.0185523
-0.00745961
0.0184297
-0.0056928
-0.0202586
-0.0206095
-0.027336
0.0079821
-0.0556489
-0.00211521
0.00611893
-0.0330564
0.0580328
0.0226992
0.000552683
0.0746588
-0.0197629
-0.0131348
0.0329391
-0.0119211
-0.0212937
-0.0681919
-0.0302574
0.00627274
-0.0178158
0.0315081
-0.0266202
-0.0461807
0.00999059
-0.0100572
0.0456438
0.0203365
-0.012999
0.0221257
0.00663433
0.0110681
0.0270417
0.0107151
-0.00221182
-0.00841876
-0.0357331
0.0225744
-0.00578853
0.0231906
-0.0308281
-0.0140462
0.043052
-0.0129957
0.0141287
0.0248402
-0.022608
0.0558834
0.0241397
0.0186664
-0.0316953
0.0217508
-0.0214558
0.0244602
0.0158257
0.0357352
0.0351417
-0.0120441
-0.00370374
0.00265862
0.00292563
-0.029637
0.0495115
0.0297087
0.0263214
-0.0518858
-0.0355618
0.0471239
0.0188644
-0.0307642
0.0164153
0.0421107
0.041628
-0.0077651
0.0103034
-0.0210207
0.0551202
0.0314966
-0.0359571
0.0288639
0.0527306
0.00623819
0.0245833
-0.0171255
0.0438301
0.024372
-0.0330301
-0.0248063
0.00895172
-0.0540241
0.0112857
0.00988825
0.0411494
0.00234356
-0.00751998
0.0281118
-0.0186225
0.017354
0.0324903
-0.0294193
-0.0256626
0.0470804
0.0136045
0.00126623
0.0491916
0.0664197
0.0282674
-0.0153917
-0.0180262
-0.0106718
-0.00981869
-0.0791941
0.0273622
0.0206973
-0.0136042
0.00123305
0.015429
0.0441018
0.0116151
0.0256481
-0.0416244
-0.0168994
0.0511245
0.0366458
-0.00246654
0.0223654
0.063261
0.0211285
-0.00677291
0.0869998
0.0115042
-0.0118688
-0.00963032
-0.0407955
-0.00364787
0.00141686
-0.066733
-0.0230383
0.0126277
-0.0357637
0.0312692
0.0285168
0.0576827
0.00960463
0.0331601
-0.00961447
0.0147281
0.0429188
0.00223352
-0.0135383
-0.0319912
0.0399541
-0.0119656
0.00649154
0.0445322
0.00884404
0.0249367
0.0180879
-0.0465631
-0.0157168
-0.021277
-0.013094
-0.0269481
0.0113297
0.00777847
0.0385456
-0.0196181
-0.0240541
-0.0091093
-0.0120183
0.00171153
0.0317983
0.0170255
0.0330814
-0.0183041
-0.000831948
-0.00654665
0.0235118
0.026525
-0.0209145
-0.0121049
0.0253
-0.0185004
0.0390101
-0.00813124
-0.0304397
0.0698723
6.68298e-05
0.00274177
-0.000650126
-0.0230842
-0.00454515
-0.0621352
0.0472352
0.00671388
-0.0106862
-0.00757072
-0.0331673
0.0215403
0.011187
-0.00281962
-0.0505517
-0.0121234
0.00237842
0.0126357
0.0054438
0.0232241
-0.0295325
-0.00122256
0.0134636
-0.00537807
-0.00722109
0.0106587
0.012959
0.000608285
0.00198431
-0.0121172
-0.0329781
-0.00592241
0.00166496
-0.000239426
0.00368683
-0.0543632
-0.0439834
-0.0285212
0.00868447
-0.00585153
-0.00753078
0.016997
-0.0134176
-0.000158342
0.017408
0.000190702
-0.00641798
-0.022301
0.02886
-0.0176409
0.0162319
0.0317146
0.00339978
-0.0205441
0.0227758
-0.0133622
-0.0317216
0.00352407
-0.00941749
-0.00692748
0.0120042
0.0108569
-0.0152411
-0.0149143
0.0254187
0.0229227
0.024161
0.0314145
-0.00488189
0.0369682
-0.00673556
0.0126387
-0.0201101
-0.0104111
0.0240522
-0.0343138
-0.0061603
-0.0215898
0.0189213
-0.0124269
-0.00803414
-0.00201674
0.0203262
0.0122093
-0.0210127
0.0245436
0.0161552
0.0155546
0.0194104
0.0129767
0.00131867
-0.03584
0.0203094
0.0652438
0.0318972
0.0335037
-0.0585893
0.00515902
0.0249701
-0.0464605
0.0126873
0.0159095
0.0104473
0.0227185
0.00519143
0.0754767
-0.00416555
-0.032233
-0.0310056
0.0134426
0.0731485
0.028648
-0.026242
-0.0223178
0.00838768
0.0203038
0.031476
0.0108386
0.000985524
-0.0117591
-0.0121922
0.0195869
-0.0302834
0.00339949
0.0131452
-0.026187
-0.0226152
0.0276451
0.0161537
0.0270417
0.0235907
0.0350164
-0.0168681
0.0230777
-0.00996664
0.0274578
0.0206571
-0.0114057
-0.00414698
0.0378678
-0.0363652
0.0199284
0.0174891
0.0234648
0.0406651
0.0260723
0.0275926
-0.0193736
0.0112757
-0.0128243
0.003424
0.000387746
-0.0177727
0.0150227
0.00345931
0.000934129
-0.00836861
0.00970133
-0.0259897
0.00982007
-0.0129817
0.017357
0.00491849
-0.0101625
-0.0469949
-0.00195561
0.0214667
-0.0374052
-0.0480012
0.0137212
0.00520091
0.0765785
-0.00502781
0.0234291
0.0498511
0.03591
0.0172536
0.0274508
-0.0117401
0.026266
-0.0464473
0.0254092
0.0283968
-0.0136561
-0.0231066
-0.0475357
-0.0585986
0.00124721
-0.0248974
0.00448466
-0.025727
-0.0190564
0.00636026
-0.000757674
-0.021291
0.0162594
-0.0406449
0.0181022
-0.00209786
-0.0612901
-0.0291071
0.00376375
0.0124605
0.00336172
-0.00820806
0.00987043
0.00420343
0.00879291
-0.0162072
-0.00617516
-0.00342768
0.00671409
0.0192606
0.0316467
0.0316504
-0.0227052
0.0224881
0.0318831
0.0749853
0.0138101
0.0273309
-0.02754
-0.0405775
-0.0102765
-0.0823333
0.0512166
0.0182247
-0.0410051
-0.051539
-0.0290189
0.0526945
-0.00241253
0.0320152
0.0399096
0.0052908
0.0794247
0.0660225
0.0236905
-0.0299247
0.0582646
-0.00609835
-0.0345027
0.0583222
0.0219803
-0.0316724
-0.00502306
-0.063798
-0.0235986
-0.0266761
-0.0951274
-0.0306668
0.0288791
-0.0268564
0.0309878
0.0185677
0.0695139
0.0190522
-0.0249338
0.0123312
0.00970939
0.0618657
0.0295862
0.0312962
-0.0302804
0.0348158
0.00670724
0.0234899
0.0530462
0.0641596
0.0403328
-0.0299965
-0.0448967
-0.00214993
-0.0116864
-0.0565207
-0.0322816
-0.0145195
-0.0166349
-0.0182596
0.00676974
0.0602446
-0.0191269
-0.00491732
0.0168212
0.00703379
0.0616646
0.0684919
-0.030435
0.0157708
0.0437525
0.0247291
0.0150009
0.0568191
0.00222801
0.00213167
0.021438
-0.0494393
0.0197404
-0.0110466
-0.0150144
-0.00115471
0.0189008
-0.0664934
0.00855914
0.0378076
0.0217289
-0.0138307
-0.0281328
-0.00731072
-0.0290057
0.027393
0.04891
0.015009
-0.00577679
-0.0048867
0.00995063
-0.0283452
0.0364754
-0.00933007
-0.0180621
-0.0256451
-0.0447342
-0.0216332
0.00865632
-0.0194104
-0.0161266
-0.000135281
-0.0221459
0.0304086
0.000607173
0.0113452
0.00228737
-0.0226476
-0.00482899
-0.0137751
-0.00187017
0.011193
0.0168868
0.000545058
-0.0526862
0.012203
0.015409
-0.0245297
-0.0280518
0.0413764
-0.00593941
0.0225181
-0.0192102
-0.0129105
0.0653355
-0.0112778
0.00609417
0.0268328
0.0169667
-0.0385858
-0.0652051
-0.00284582
-0.0331985
-0.0121682
-0.000285841
0.00524535
-0.00405264
0.0336623
-0.00215062
-0.0641287
-0.00162636
0.0292848
-0.0489767
-0.0249634
-0.0138529
0.0170466
0.0486288
0.0343356
0.0182444
0.0574139
-0.016812
0.0160278
-0.00315113
-0.00212854
-0.0239669
-0.0255545
-0.0259096
0.0293863
-0.0329178
0.0272768
-0.0374067
-0.0541988
0.0139217
-0.0330658
0.0306249
-0.027339
0.0202976
-0.0338342
0.0110944
0.0255097
0.00568602
-0.000265626
0.00457407
0.0209135
0.00057251
0.0115697
-0.0275122
-0.00529202
-0.0395077
0.0163446
-0.0260391
0.0280731
0.0036012
0.0270857
-0.0209924
-0.0266872
0.00354412
-0.0159835
0.00194549
-0.0215689
0.0134232
0.00319422
-0.0140087
-0.00292131
0.00486068
0.00879883
-0.0433149
0.0220274
0.0116166
0.00603543
0.00796334
0.0203882
0.0121735
-0.011583
0.0067762
-0.0130793
-0.00330791
0.0110203
-0.00335629
-0.00571015
-0.019841
-0.0178542
-0.0134093
-0.027717
0.0582991
0.0233207
0.00864487
0.0225974
0.0642825
-0.0105421
-0.0276877
-0.0620663
0.00861057
0.0166843
-0.0783587
-0.0130178
0.0246398
-0.0352273
0.00179466
-0.0340799
0.0643566
-0.0158971
0.0237861
-0.0188774
-0.0285492
0.0935552
0.0774435
-0.00151635
-0.0249738
0.0265316
-0.00836913
-0.0198877
-0.0130919
-0.0228678
0.0243823
-0.024448
-0.00103553
-0.0164363
0.0131054
0.0111331
0.0112242
0.0231718
0.0413358
0.0219108
-0.0345612
0.00508748
0.0145932
-0.00343681
-0.031045
-0.0158535
-0.00358978
-0.0238931
0.00284751
0.0261623
0.044114
-0.0293656
0.0204416
0.0346558
-0.0113135
0.0400074
-0.00821043
-0.00745773
-0.00248339
0.0322394
0.0002288
0.0271847
-0.0271298
-0.0038118
-0.0167234
0.0179835
0.0466295
-0.00490223
-0.0272314
-0.00784837
-0.0136229
0.0253351
-0.0133314
0.0291384
-0.0276339
-0.0399105
-0.0202974
-0.0201426
-0.0380918
-0.0578492
0.00408034
0.0179279
0.0544175
0.0170525
-0.0212905
0.0943498
0.0285437
0.00743287
0.0363867
0.0276223
-0.00298946
-0.0358199
0.0248889
-0.0235541
-0.0139912
0.0103474
-0.0272708
-0.0221094
-0.0276159
0.00336727
-0.00163219
-0.0121007
0.0162303
0.00968517
0.0388746
-0.00548485
0.0277812
-0.060317
-0.00862196
0.0160475
-0.00591178
0.000801449
-0.0310606
0.00175247
-0.0110223
-0.0233442
0.0333226
0.01645
-0.0160696
-0.0232832
-0.0196088
0.0468553
0.0510788
0.00367916
0.0282723
0.0705443
-0.0426052
-0.0302905
0.029318
0.0626847
-0.00961077
0.00609541
-0.022867
0.0131394
-0.00386502
-0.0815465
-0.0106955
-0.0286353
-0.0709858
-0.0168301
-0.0121218
0.0914664
0.00302723
-0.036535
0.0567172
-0.00974183
0.0512142
0.0567155
-0.0139609
0.0341389
0.0450574
0.0146214
0.0135413
0.0941963
0.0259055
-0.0203307
0.00388168
-0.0797642
-0.0194772
0.00378753
-0.0795583
-0.00180232
-0.0262916
-0.0426817
0.0131786
0.00623242
0.0524431
-0.0285898
-0.015302
0.0281496
0.00308849
0.0470976
0.0256506
0.0298919
-0.0127422
0.0713937
-0.0142613
-0.0225301
0.0650927
0.045877
-0.0103425
0.0158202
-0.0569671
-0.0331733
-0.0337767
-0.070121
0.00151642
0.0131939
-0.0426243
-0.0256504
-0.016441
0.03605
0.0184221
0.0226475
0.00827269
0.0190593
0.0787811
0.0521112
0.0329793
-0.0285922
0.0237326
0.0497585
-0.0205444
0.0284739
0.0520806
-0.0198507
-0.0239686
-0.0217439
0.0275426
0.00183002
-0.00218043
-0.0387163
0.00299405
-0.0255086
0.0257631
0.0371051
0.0274444
-0.00967914
0.022641
0.0124597
0.0115015
0.0438649
0.0378685
0.017331
-0.0151916
-0.0154078
0.0148427
-0.0232525
0.0380851
-0.0322787
0.0113276
0.00356701
-0.00834127
0.00613593
0.0272998
0.00430578
0.0109947
-0.0271516
0.00788527
0.0375773
-0.0190541
-0.0273266
-0.01811
-0.0099994
0.025617
-0.0187668
-0.0290221
0.0269784
0.0207877
0.0281818
-0.0121981
0.0197663
-0.00145331
0.00341304
-0.000795887
0.0253994
-0.0172985
0.0555382
-0.0398987
-0.0222885
0.0195378
0.0385145
-0.0116949
0.0613339
-0.0164434
-0.00285073
0.0102516
-0.0152948
0.0140133
0.0116431
-0.0271327
-0.0245933
0.0144063
0.0210988
0.00860551
-0.0411913
-0.0226969
0.0166552
-0.0423204
-0.0344702
-0.0314402
-0.0206159
-0.000141567
-0.0256556
-0.0219027
0.0296582
-0.0261679
0.031182
0.0318607
0.0028676
-0.0180093
-0.0428689
0.0246904
0.0241895
-0.0169641
0.0193889
-0.0275566
-0.00392241
-0.000849092
0.0147678
0.00254918
-0.0327144
-0.032495
0.0196422
0.0272053
0.0164536
0.00102899
-0.0118764
0.0138613
-0.0207485
0.00769942
0.00389588
-0.00768846
0.00352327
-0.00465955
-0.0347958
0.000236833
-0.0163233
0.0332258
-0.0117311
-0.0229986
0.0160872
0.0141636
0.032935
-0.00275119
-0.00132564
-0.0153772
0.0330381
-0.0228434
-0.00927245
0.0161448
-0.0246394
-0.0127206
0.00789238
-0.0057957
0.0107408
0.0231136
0.0316905
0.0103301
-0.022015
-0.0272742
-0.00794074
0.0152244
0.0334709
-0.0185226
0.0145329
-0.0245422
0.0201139
0.0305157
-0.0310663
0.019754
0.0037565
0.0085684
0.0300088
0.0150798
-0.0195845
-0.0283323
-0.0634134
0.00172233
0.0174903
-0.045028
-0.0207671
-0.00633771
-0.017191
-0.00623128
0.0214156
0.0354931
0.0182982
-0.0165495
0.0214355
0.0294506
0.0840235
0.0518021
0.00630176
0.0248958
0.0219523
0.0188962
0.0350571
-0.0393571
-0.0201118
0.00844503
0.0106503
0.0387845
-0.00587378
0.0221204
-0.0252545
