float weightIH[883][25] = {
	{-0.0141148, 0.0303722, 0.0105105, 0.054472, -0.0292718, -0.0499022, 0.0168034, 0.0226812, -0.00107954, -0.00513978, -0.0248307, 0.00594778, 0.069262, -0.00222782, 0.0268333, -0.0295829, -0.0193736, 0.0246972, 0.00624938, 0.0473704, 0.0124026, -0.0388474, -0.000501764, 0.0367602, 0.0167628},
	{0.0263542, 0.0335967, 0.0343335, -0.0108002, -0.0149106, -0.0382982, -0.0198187, -0.0185924, 0.0124879, -0.0147243, 0.0309608, 0.0245984, 0.011698, -0.0154049, 0.0329317, 0.0345128, 0.0253777, -0.00804728, 0.0430233, -0.020667, -0.00883295, -0.00755648, 0.0437882, 0.0116014, -0.0302814},
	{0.0153101, 0.0219546, 0.0426267, 0.0193425, -0.0219963, -0.0278332, -0.0304191, 0.0107401, -0.00431381, -0.0366418, 0.0294273, -0.0075028, 0.01872, 0.0131028, 0.0123503, -0.0296498, 0.0278062, 0.0565505, -0.017625, 0.0448165, -0.0386223, -0.0123254, 0.000693259, -0.0235079, 0.00104411},
	{-0.0251983, -0.0253585, -0.0180662, 0.00144963, 0.000317578, -0.0325374, -0.0240854, -0.0137117, -0.0249161, 0.01392, -0.0371715, -0.0276324, -0.0137452, 0.0162751, -0.00798946, 0.0224376, -0.03079, 0.0247958, -0.0320816, -0.00188154, -0.0210331, 0.0146419, -0.0379394, 0.0134405, 0.0283978},
	{0.0142959, 0.0280091, -0.018068, 0.0285917, 0.0340061, -0.0321051, 0.0230365, 0.0280271, -0.0308379, 0.00878734, 0.00431363, 0.00128735, 0.0540832, 0.0284824, 0.0335704, 0.0225878, 0.0115706, 0.00863361, -0.0301299, -0.0118467, 0.0227334, 0.00801548, -0.024276, 0.001514, 0.0388466},
	{-0.0143267, 0.0154326, -0.0174619, 0.0308064, 0.00445242, -0.0191709, 0.000427216, 0.0271208, 0.0229559, -0.009179, -0.0307065, -0.00462032, -0.00354422, -0.00720583, -0.0305026, -0.00315869, 0.0157564, -0.0148722, -0.0374073, -0.0147035, 0.00492217, 0.0018279, -0.0165174, 0.00641886, -0.0130438},
	{0.00557656, 0.00578587, 0.000820318, 0.0239664, 0.0330149, -0.0283063, -0.0112916, 0.0331522, 0.0194974, 0.0156915, 0.0118219, 0.0307966, 0.00525634, -0.0195893, -0.0149462, -0.0218637, 0.00121937, 0.0182213, -0.0150814, 0.0134964, -0.0365867, 0.0209581, -0.0144752, -0.00401582, -0.0224872},
	{-0.0040578, 0.00709538, -0.0307906, -0.0293584, 0.0186525, 0.0298507, -0.0134953, -0.0245336, 0.00778639, 0.0312821, 0.00277716, -0.017436, 0.0064283, 0.0334122, 0.0280037, 0.00102623, -0.0307408, 0.00254924, -0.0167752, -0.0274875, 0.0168052, 0.00399425, -0.00965128, -0.0309264, -0.0366764},
	{-0.00470047, 0.00212018, 0.0173234, 0.0325603, 0.0349702, -0.0104789, 0.0171042, 0.0374445, 0.00838038, 0.00576343, -0.0325794, -0.0217438, -0.0190855, -0.0200117, 0.0107424, 0.0187312, 0.0178989, 0.0202986, -0.0193697, 0.0181707, 0.00951677, 0.00229437, -0.0192063, 0.00763863, -0.0299951},
	{0.0135861, 0.0115811, -0.0297719, 0.00914232, 0.00718864, -0.0257185, 0.0261049, 0.0259293, 0.0196181, 0.0248621, -0.00740356, 0.00242075, -0.0130055, 0.0188854, -0.0194261, -0.0174328, 0.0146807, 0.0277825, -0.00249722, 0.00780384, 0.009301, 0.00347048, 0.00922765, -0.00609089, 0.0292142},
	{-0.0172245, 0.0317502, -0.0409749, 0.0211936, 0.0145817, 0.0159271, -0.0244046, -0.0222576, 0.0191542, -0.0280547, -0.0281939, 0.0113414, -0.0072393, 0.0295576, 0.0115483, -0.0110789, -0.0276483, -0.0297858, -0.0111353, 0.00939875, -0.0168965, 0.0283411, -0.0254351, -0.0114598, 0.00741061},
	{-0.0105974, 0.0101913, -0.0342878, 0.00726513, -0.00723282, -0.00385824, 0.0215877, -0.0168722, 0.0160881, 0.0313544, 0.00650729, 0.0272705, -0.00523381, -0.029136, -0.00962599, -0.000213059, 0.0131173, -0.00858151, 0.0263693, 0.000305827, -0.00575078, -0.00475699, -0.0159989, 0.0300216, 0.0146087},
	{-0.00602761, 0.0148016, -0.00239316, -0.0239586, -0.00904822, 0.0288185, -0.0272693, -0.0218148, -0.0107397, 0.00577809, 0.0224027, -0.0271164, 0.0159036, -0.0338773, 0.0248059, 0.00555138, 0.0342001, -0.0225334, 0.00409828, 0.0115861, 0.00506835, 0.0316635, -0.0244479, -0.0150673, -0.0190433},
	{-0.016838, -0.0261231, -0.0257239, 0.0179699, -0.00594839, 0.0092851, 0.0140886, -0.0269905, -0.0167525, -0.0289992, -0.0253236, 0.00712736, 0.0359357, 0.0314202, 0.0331737, -0.0255845, 0.0247994, -0.0115798, 0.0280895, -0.00656814, 0.0186405, -0.0374881, -0.0116764, 0.0013384, -0.00254858},
	{0.00087248, 0.0155479, -0.044409, 0.0319076, 0.0306134, -0.0477377, 0.000363999, -0.0123351, -0.0204198, -0.0204347, -0.0262079, -0.0194758, 0.0452096, 0.0359556, 0.018706, -0.0255434, -0.0202316, 0.0169275, -0.0394075, 0.062782, -0.00522724, -0.0567987, 0.00278581, -0.0241156, 0.00606925},
	{0.0138617, -0.0089456, 0.00723128, -0.0420128, 0.000623996, -0.0375017, -0.0251509, -0.00800454, 0.0357099, -0.0257248, -0.0140098, -0.0209615, 0.0039958, -0.00267863, 0.0122763, -0.0241961, 0.0138324, -0.0121108, -0.005903, -0.0129236, 0.00395151, 0.0232292, -0.00684195, 0.0344104, 0.00122739},
	{-0.00789658, -0.0184674, 0.0313391, 0.0111965, 0.00936895, -0.0312964, -0.0208155, -0.00763164, 0.0188643, -0.036766, 0.0172695, 0.0367253, -0.0119251, 0.0183283, 0.00638921, -0.0259617, -0.0281847, -0.013547, 0.00673968, -0.0123292, -0.0267918, -0.0379194, -0.00421952, 0.00154355, 0.0379885},
	{0.00883325, 0.0163825, -0.00931348, 0.0225499, -0.0259482, 0.0106235, -0.0111397, 0.00940929, -0.000523832, -0.00821085, -0.037317, 0.0127614, 0.0494616, 0.0339464, 0.0263745, -0.0120559, -0.0182127, -0.0224425, 0.0228374, 0.00141406, -0.0278124, 0.0109291, 0.0207194, 0.0316844, 0.0314896},
	{0.001595, -0.0149245, -0.0270605, 0.016006, -0.00761641, -0.00304945, -0.014416, -0.00376676, 0.00125201, 0.0290077, -0.00867364, -0.00493875, 0.0119145, -0.00471525, -0.0182298, -0.03032, -0.00674491, -0.0117605, -0.0102042, -0.0130051, -0.0143672, 0.0137784, 0.0258926, -0.0356732, 0.0249508},
	{-0.0264368, 0.0172153, -0.0100923, -0.0215641, -0.0187671, 0.0103218, 0.0125873, -0.00621381, 0.0228956, -0.00913846, -0.0265905, 0.0291791, 0.0287837, -0.000670907, -0.00247392, -0.00334503, 0.0166077, -0.0261397, -0.0386786, 0.00267851, -0.0162616, 0.0117644, 0.0160349, -0.028843, -0.0166689},
	{-0.0251261, -0.0192667, -0.0402163, -0.0079625, 0.0106027, -0.0208052, 0.0330116, -0.025144, -0.03466, 0.0348205, -0.0357039, 0.037226, 0.0447924, 0.0376327, -0.0246568, -0.0182529, -0.0220405, -0.000479589, -0.0143495, -0.0103331, 0.0148147, 0.0261129, -0.0222406, 0.0124225, -0.0178792},
	{-0.0171885, -0.0466696, 0.0122841, -0.00118222, -0.0130709, -0.00304763, 0.00518762, 0.0354166, 0.00577842, 0.0527695, 0.0102117, -0.00988627, -0.00906156, 0.0164454, 0.00605262, -0.00827948, 0.0193679, -0.0023232, 0.00645347, -0.0184262, -0.00675484, 0.0390342, 0.00600466, 0.0278011, -0.0366278},
	{-0.0244646, -0.0251866, -0.0143741, 0.0256432, -0.0160334, -0.0265231, 0.0147053, 0.0300418, 0.0242305, 0.0143299, -0.0116607, 0.0130702, -0.0175168, -0.0225413, -0.022632, -0.0197495, 0.0142352, 0.0084034, -0.0142816, 0.0388193, -0.0148933, -0.0143151, -0.0284631, 0.0290839, 0.000496031},
	{-0.0165439, 0.0109422, -0.00700037, 0.0243056, 0.00878499, 0.0132407, 0.0155571, 0.00802385, 0.0289223, -0.0145578, -0.00998363, 0.0285079, 0.019266, -0.0040908, 0.00115542, -0.0069958, 0.033821, 0.0315749, 0.0141766, -0.00329563, 0.0116716, 0.00659573, -0.0236078, -0.0319048, -0.0242094},
	{-0.0192502, -0.00996813, -0.0366049, -0.0312272, 0.00876282, -0.01379, 0.027017, -0.0282325, 0.0198694, -0.00430238, 0.0209807, -0.0225966, 0.0217476, -0.00528808, -0.0230231, -0.016892, 0.0231556, 0.0233697, 0.00716167, -0.0324126, 0.0219691, -0.0239538, 0.0345414, 0.0239989, 0.0312783},
	{-0.0185289, -0.0133396, -0.0241788, 0.00368996, -0.00989196, 0.0159747, 0.00753815, -0.0241979, -0.0176381, -0.0190285, 0.028518, -0.0269981, -0.018718, 0.00336816, -0.00118594, -0.0271059, -0.0114753, 0.0182906, -0.0106664, 0.013985, 0.0265059, -0.0080771, -0.0296026, 0.028549, 0.00200026},
	{-0.0162645, 0.0246749, 0.00921134, -0.0189705, 0.0285742, 0.0243549, 0.0008524, -0.0178396, -0.0316604, 0.0203441, 0.02017, 0.00472398, 0.000794107, -0.000426085, -0.0148885, -0.0287128, 0.0149516, -0.0154383, 0.0126723, 0.00844598, -0.00222726, 0.00592123, 0.0141348, -0.0191129, 0.027407},
	{0.025673, 0.011528, 0.00183636, 0.0267846, -0.0270468, -0.00456522, -0.0282824, -0.0229976, -0.0165407, -0.000514604, -0.0270065, -0.0222734, 0.0167213, 0.0278261, 0.0272722, -0.0314399, -0.0236651, -0.0217769, 0.0242295, -0.024496, 0.0322164, 0.00535631, 0.000849312, 0.00210594, -0.0250981},
	{-0.0457847, -0.00496592, -0.00752381, 0.0518233, -0.0140905, -0.0410554, -0.0303405, -0.0156823, 0.00415565, 0.0035686, 0.000524922, 0.00621529, 0.0678551, -0.00602571, 0.0165087, -0.0129662, 0.014872, 0.0405072, -0.0595345, 0.0584448, -0.0263081, -0.0162127, -0.0348544, -0.0201436, 0.0247612},
	{-0.000925032, 0.00159357, 0.00489974, 0.0045344, -0.0302566, -0.000934508, 0.0029026, -0.0295028, -0.00342748, 0.0019887, -0.00263482, 0.00220049, 0.0123457, 0.0108443, -0.0117271, -0.0146114, 0.0049263, -0.0109086, 0.0315155, -0.044046, 0.0124748, 0.00100006, 0.0239473, -0.0136872, -0.0110639},
	{0.0283514, 0.0188212, -0.00408497, 0.0356914, 0.0202948, 0.00118767, 0.0328399, 0.0255471, 0.00336764, 0.0387601, 0.0203355, -0.0188229, -0.019, 0.0279709, -0.0210521, -0.023206, 0.0259018, -0.00389496, -0.00640511, 0.0233678, -0.0202243, 0.0130694, -0.0338455, -0.00609283, -0.00814909},
	{0.0122066, 0.0205679, 0.00959791, 0.00320858, 0.0336423, -0.0218109, 0.0294042, -0.0166717, -0.0363334, -0.00768134, -0.0189916, -0.0148562, 0.00186603, 0.00412708, -0.0290556, -0.0340172, -0.00321357, -0.0150179, -0.0356498, 0.0200889, 0.00600121, -0.0103035, -0.00721772, -0.0292994, 0.0334127},
	{0.00923824, 0.0199775, -0.0442274, 0.0149468, 0.0222525, -0.0225078, 0.0281437, -0.0113264, -0.0274586, 0.0248164, 0.0138792, 0.027899, -0.0026848, 0.0144596, 0.0097306, -0.0199397, 0.0195276, -0.00265512, 0.000790311, 0.00659974, -0.0267438, -0.0120239, 0.0174909, -0.0297931, 0.02546},
	{0.0120542, -0.0237369, -0.0283243, 0.0245507, -0.012736, 0.0260744, 0.0119798, 0.00920974, -0.0114649, 0.0235837, 0.0103485, -0.0118188, 0.0253798, 0.0275241, 0.00770174, 0.0309099, -0.0238874, -0.0156949, 0.00962262, 0.0203962, 0.0120186, -0.00655142, -0.0344766, 0.0048201, -0.0122782},
	{-0.0357229, -0.0118224, 0.00702846, 0.0283755, 0.0136678, -0.0141136, 0.0318674, 0.0147958, 0.0103044, 0.0473033, 0.0247875, -0.0211891, 0.0130182, 0.0112657, -0.00191914, 0.00753759, -0.0218616, 0.010748, -0.017101, -0.0146557, 0.00849768, 0.0125616, -0.0056839, 0.0242917, 0.0291972},
	{0.0038608, -0.0181269, 0.0246864, 0.0247078, -0.024769, 0.0290083, -0.00209573, -0.025401, -0.0262057, 0.0475906, 0.00926284, 0.00994947, 0.00781341, 0.0427229, -0.00824697, -0.0263229, -0.0202784, 0.00484976, -0.0263283, 0.016784, 0.00630724, 0.00161885, -0.0189835, 0.0253076, 0.0086281},
	{-0.0126521, 0.0179649, -0.00191491, -0.015485, 0.0316436, 0.014651, 0.0264939, -0.00818149, 0.00771241, -0.0222457, -0.00769331, 0.0180827, -0.00194661, 0.016714, -0.032861, 0.00420344, 0.0159426, -0.00915208, -0.0159148, 0.0225938, 0.027768, -0.00760807, -0.0232866, -0.00906551, -0.0157951},
	{-0.00393175, 0.00276864, 0.0134915, 0.0240666, -0.0117305, -0.0298064, -0.0280763, -0.0165917, -0.0114701, 0.0291288, -0.0215431, 0.0230919, 0.0135313, 0.00744817, 0.0111214, 0.00670733, -0.00627685, 0.0314826, 0.0256676, -0.0103201, -0.0297464, -0.0209239, -0.021328, 0.000710554, -0.00733701},
	{0.000534244, -0.0217344, -0.0225746, -0.0272792, -0.0232127, -0.00394413, 0.0123075, -0.0165872, 0.00972135, -0.00666723, 0.00650988, -0.0139007, -0.0219589, -0.00824246, 0.0255944, -0.00392621, 0.0305322, 0.0205684, 0.025936, 0.00867838, 0.0291328, 0.0267205, 0.0263669, -0.028776, -0.0278949},
	{0.0055304, -0.00337071, 0.00388997, -0.00208962, 0.0316915, 0.00407195, -0.0160588, 0.0114917, -0.0141082, -0.0284064, -0.00438227, 0.000971618, 0.00042791, -0.00824445, 0.0114766, 0.0288523, 0.0169026, 0.00259587, 0.000251182, 0.0196841, 0.01519, 0.018851, -0.0182491, 0.0165144, -0.00448464},
	{0.00957503, 0.0281063, 0.0220445, 0.00533226, 0.00342055, 0.00497545, -0.00294919, 0.00318309, -0.00961935, 0.0240327, 0.0316353, 0.00265224, 0.0280399, 0.0152449, -0.0170126, 0.0313238, 0.00947385, -0.00954083, -0.0094034, 0.0066483, 0.0305265, -0.0268217, -0.0106531, -0.0167582, -0.0215416},
	{0.0232853, -0.0144273, 0.0151018, 0.0233883, -0.00592025, -0.0343642, 0.0122918, 0.0033814, -0.012409, 0.00738379, -0.00665347, 0.00914586, -0.00703682, -0.000669662, -0.0323558, -0.018295, 0.00624517, -0.000828377, 0.0315715, -0.00471626, 0.0138127, -0.00602874, -0.00804363, -0.0258476, -0.0164427},
	{-0.049737, -0.0254019, -0.0202967, 0.071634, 0.0207186, -0.0428297, 0.00175325, -0.00031341, -0.0108918, 0.0159226, -0.0259734, -0.00249014, 0.0346188, 0.0390403, -0.0178434, 0.00328721, -0.0428435, 0.0327094, -0.0442972, 0.0400913, 0.0311126, -0.0256161, -0.0374745, -0.0314358, 0.0534798},
	{0.00390096, -0.00927325, 0.00839635, 0.00875801, 0.0229265, 0.0235824, 0.0163658, 0.00350113, 0.00993144, -0.00965869, 0.0278871, -0.0333236, 0.00494202, -0.0345108, 0.00251691, -0.0185969, -0.00880413, -0.0317393, 0.00342844, -0.0466219, 0.0224869, -0.0180826, 0.0139926, 0.031982, -0.0149672},
	{0.00947807, -0.0272916, 0.0370747, -0.0161443, 0.00102934, -0.0226692, -0.0167896, 0.0366004, 0.0234263, -0.00206003, 0.0147524, 0.0238052, -0.00797298, 0.0346804, 0.0195669, -0.0142314, -0.0140855, 0.0138618, -0.0199951, 0.015065, -0.0226472, 0.00509435, -0.0029203, -0.00118464, 0.00462163},
	{-0.0141933, -0.0143278, 0.0176606, 0.00248726, -0.00837325, -0.00858993, -0.000164041, -0.0217854, -0.0282918, 0.0350607, 0.0245914, 0.0336534, -0.0076649, 0.0192035, -0.0132205, -0.00153552, 0.014235, 0.0254213, -0.0198366, 0.0246993, 0.0258443, -0.0253811, 0.00502601, 0.0208837, 0.0306726},
	{-0.025787, -0.00133952, -0.00730255, 0.0371027, -0.00579011, 0.00318926, 0.0080465, 0.0258096, 0.0137737, -0.00426644, 0.00779811, 0.0102121, 0.0252755, 0.0355655, -0.0131046, 0.0261386, -0.0386893, 0.00153044, -0.00648421, 0.0306145, -0.0289492, -0.0346588, -0.00149565, -0.0266437, 0.00452617},
	{0.00254136, -0.0227234, -0.0359479, 0.00421852, 0.0156495, 0.00491305, -0.008318, -0.023767, 0.0316663, 0.00404374, 0.0197909, 0.0258747, 0.0386243, 0.00216309, 0.0252677, -0.0283662, 0.0088645, -0.010214, -0.0211385, 0.0358029, -0.00215568, -0.0299553, -0.00339102, -0.0329641, -0.0207659},
	{0.0184454, -0.0201691, -0.00826583, 0.00579354, 0.00655404, 0.0116993, 0.0125721, 0.0326595, -0.0152627, -0.0184709, 0.00572646, 0.000151318, -0.0078663, 0.0235247, -0.0283067, -0.0194246, -0.020265, 0.0250091, -0.000204507, -0.0180372, -0.00583984, -0.00367617, -0.0109526, 0.0193642, -0.0104998},
	{-0.00755359, -0.0126024, 0.0180843, 0.00994103, 0.00563001, -0.000848851, 0.0289261, 0.0219838, -0.0109128, 0.042427, 0.00385037, 0.0329356, 0.00420792, 0.0339946, 0.00687098, 0.00108732, -0.0135624, 0.0131691, -0.0122903, 0.0255455, 0.00890741, -0.0044167, -0.0363692, 0.0144431, -0.0226043},
	{-0.0226887, 0.0104644, 0.0152224, 0.00967767, 0.0178917, 0.0191158, -0.0326431, 0.00109158, 0.0229338, -0.012828, -0.0173514, -0.00421029, 0.0144085, 0.0186164, -0.0351569, 0.0217958, 0.013399, 0.0272646, -0.00585409, -0.0128043, 0.0301358, 0.00590498, 0.00959497, 0.0295747, -0.0289879},
	{0.00795853, 0.0125975, 0.0223233, 0.0277852, 0.0330993, -0.00758641, 0.00453313, 0.00143143, -0.00899718, 0.00164604, -0.0150547, 0.0211255, -0.0288184, 0.0357178, -0.0133611, 0.0140743, -0.0255389, 0.0245088, -0.0106009, 0.0284008, -0.0219992, -0.0274915, -0.0103244, -0.016562, 0.0355087},
	{0.00863787, 0.033423, -0.033504, 0.0151956, -0.028275, -0.0110981, 0.030065, 0.0320618, 0.0156979, -0.0024483, -0.0152496, -0.0151669, -0.00515216, 0.0250778, 0.0131759, -0.00251361, -0.0267262, -0.031756, 0.00719022, 0.00542977, 0.0268868, -0.0262165, 0.023799, -0.024931, -0.00688179},
	{0.0208366, -0.0307688, -0.0179952, 0.0213208, -0.0032059, 0.0259094, 0.0200014, 0.010128, -0.0110216, 0.0197513, -0.0275628, -0.000593385, 0.0153226, -0.0146642, 0.0228548, -0.0283402, -0.00901484, -0.0160127, -0.0110288, 0.0332904, 0.00681466, 0.00650883, -0.0323845, -0.0158913, -0.0142195},
	{-0.0194477, 0.00333711, -0.00723351, -0.0130789, -0.0162845, -0.00219117, -0.0198016, 0.0148729, 0.0149749, -0.0096146, -0.0278321, -0.0180386, 0.0137913, -0.0338714, 0.0126956, -0.000914797, -0.0324996, -0.017716, 0.0372715, -0.0287862, 0.00644841, 0.0321854, -0.00411583, -0.011066, 0.00778453},
	{-0.00790419, -0.00709443, -0.0245121, -0.0190457, -0.0225802, -0.00279588, 0.00632912, -0.0102601, 0.0194261, 0.0263642, -0.0150204, 0.0322554, 0.0144674, 0.0284444, -0.0288949, -0.0133001, -0.0213557, 0.0179976, -0.0184955, -0.00120306, -0.00447674, 0.0223947, -0.00349956, 0.0023066, -0.0206636},
	{-0.0561046, -0.0522267, -0.0387138, 0.0300623, 0.0120829, 0.00126611, -0.0314663, -0.00856438, 0.00777861, -0.00343592, -0.0386429, 0.0138889, 0.0570782, 0.00615201, 0.0173922, -0.0158, -0.0503427, -0.00641762, -0.0342821, 0.093453, -0.0349819, -0.00591516, -0.0233409, -0.0189479, 0.0125887},
	{0.0358448, 0.0354898, 0.0441036, -0.0014409, -0.0141568, -0.0198083, 0.0138252, 0.00215745, 0.0382943, -0.000811897, 0.00966882, -0.00108833, 0.0150441, 0.00789264, -0.025208, -0.0110765, 0.035571, 0.024804, 0.0221592, -0.0354395, -0.0286538, -0.00743158, 0.0269346, 0.0267373, -0.0332567},
	{-0.0203534, 0.00880788, -0.012629, 0.00521347, 0.02862, -0.0468397, 0.000274154, 0.00977801, -0.00885808, 0.000581717, -0.0237971, -0.0119473, -0.0131659, -0.0185235, -0.016803, 0.009527, 0.0111136, 0.0118824, -0.0105618, -0.00213969, 0.00563184, 0.0111119, -0.0271915, 0.0272426, 0.00259245},
	{0.0115329, 0.0160058, 0.00221622, -0.011334, 0.00107897, -0.0434512, -0.0224712, 0.0257955, -0.0329284, 0.00783513, 0.00645855, -0.0257713, 0.0527685, -0.0295155, -0.0179434, 0.0224338, 0.0140791, 0.0310262, -0.0108318, 0.0446361, 0.00234725, -0.0357307, 0.0254173, -0.0289614, 0.00311067},
	{-0.0412776, -0.0308812, -0.00157165, -0.00514833, 0.0258418, 0.00670322, -0.0135295, 0.0157629, -0.0150697, -0.0170589, -0.000160188, 0.0262012, 0.0427005, -0.0183112, -0.0106972, 0.0174045, -0.00178145, -0.0269953, -0.025678, 0.038298, 0.0262786, -0.0286292, -0.0124507, -0.0286537, 0.00368804},
	{-0.0117061, -0.0364042, -0.00123543, -0.0106714, -0.0254793, -0.00996986, -0.00239097, 0.0173774, -0.0235401, -0.0177515, 0.0301611, 0.00421153, 0.0216514, 0.00038046, 0.00401629, -0.0302531, -0.0151113, -0.0355456, 0.0131773, -0.0127292, 0.0187671, -0.00324059, 0.00652255, -0.0315655, -0.0335487},
	{-0.0173975, 0.0122178, -0.00298412, 0.0176255, -0.0285884, -0.00414174, -0.00697691, 0.0184516, -0.0250861, 0.0309675, -0.0162359, 0.0347141, -0.0145036, -0.00929831, 0.0244123, -0.0301508, 0.0201666, -0.0224286, 0.0166773, 0.0156622, -0.0225234, 0.000798363, -0.0295119, 0.00812057, -0.0255539},
	{0.000197004, -0.0426731, -0.00734236, -0.000410287, -0.0228112, -0.0220622, -0.00546039, 0.00243457, 0.0242471, -0.0116064, 0.0246821, -0.0293098, 0.0326454, -0.00638729, 0.0155195, 0.00249915, 0.0145739, 0.0321332, 0.0272448, -0.0116052, -0.0238853, -0.0167294, -0.013946, 0.0301297, -0.00774121},
	{0.0143514, -0.00571678, -0.0281128, 0.00196327, 0.0246281, 0.0383602, -0.0273019, 0.0166848, -0.0309555, 0.00381219, -0.0296931, 0.00529279, 0.0204445, -0.0215733, -0.0302703, -0.0133166, 0.0317438, -0.0318449, 0.0352469, -0.0304243, -0.00420159, -0.0138147, 0.022173, -0.0236396, -0.0203007},
	{0.0226757, -0.024281, 0.00914112, -0.0326371, -0.000832799, 0.0280367, -0.0141542, -0.0171979, -0.0193483, -0.0123051, 0.00405498, -0.0192712, -0.0217995, 0.0307589, 0.00748075, 0.0153781, 0.0305916, -0.00791908, -0.000467871, 0.0238235, 0.0207694, 0.00634285, 0.00822952, -0.00615274, 0.0241457},
	{-0.0111148, -0.0243641, 0.0178026, 0.0141671, 0.0313269, 0.036021, -0.000845259, -0.00408994, -0.0302911, -0.027198, -0.0195257, 0.00100615, 0.00225595, -0.00778086, 0.000144272, 0.00566707, -0.0259019, -3.53822e-05, 0.0158815, -0.0199065, 0.0271688, -0.0246865, -0.0184555, 0.0258542, -0.0327447},
	{-0.0247404, 0.018889, -0.0168082, 0.015962, 0.0174303, -0.0148217, -0.0206063, -0.00506635, -0.0288629, -0.0286008, -0.0134898, -0.0297642, 0.0247548, 0.00885234, -0.0168516, -0.00865097, -0.0200368, -0.0101315, -0.0061966, 0.0115479, 0.0191239, 0.0258109, -0.0292029, -0.00210684, 0.0153081},
	{0.0312265, -0.000356685, 0.0119987, -0.0257913, -0.0163873, 0.0244468, -0.0105047, -0.0330733, -0.0164477, 0.0245128, -0.00993102, -0.00347968, 0.0235362, 0.0119676, -0.0210543, -0.00204612, -0.0206951, 0.0238017, -0.0291893, -0.0298865, 0.0200196, 0.0223132, -0.00519565, -0.00285006, 0.00403288},
	{0.0247562, -0.0254593, 0.0190551, 0.0113565, 0.000955438, -0.0270577, -0.0172964, 0.030708, -0.0134684, -0.000847082, 0.018996, 0.0240091, -0.0152315, -0.0121684, -0.00500475, 0.00836149, -0.00869081, -0.0183944, 0.0109112, -0.0196025, -0.00520177, 0.0174671, -0.00983541, -0.0051812, 0.0100106},
	{-0.0734181, -0.0266903, -0.0510711, 0.0637476, -0.0208139, -0.020151, -0.0395801, -0.0292189, -0.0168935, 0.0518369, -0.0216036, -0.00823018, 0.0851263, 0.0379384, 0.0173801, -0.00802182, 0.00774297, -0.019248, -0.05177, 0.0450594, -0.0154548, 0.0097815, -0.056714, 0.00799913, 0.0114723},
	{0.0438148, 0.0127662, 0.00113321, 0.00669343, 0.027655, 0.0249243, 0.0288123, -0.0346447, 0.0333775, -0.018584, -0.00494694, 0.0254372, -0.020052, -0.0358784, 0.0182154, -0.0260657, -0.0114977, 0.00934162, 0.0416374, 0.010547, 0.0123663, 0.0220134, 0.0443245, -0.00968106, 0.0135902},
	{-0.0183041, 0.0165617, 0.0187079, -0.0224437, 0.00822734, 0.00221676, 0.0349874, 0.0138991, -0.022308, -0.0549236, 0.000159131, 0.0160611, 0.0243777, -0.00826673, -0.0132134, -0.0204448, 0.0420632, 0.017607, 0.0293457, 0.0234495, -0.0246453, -0.0416397, 0.0146255, -0.00892834, 0.0312823},
	{-0.0296579, -0.0304986, -0.0509218, 0.0396506, -0.0129141, -0.0317056, -0.0248258, 0.00683295, -0.00219531, 0.0032476, 0.0173368, -0.0254166, 0.0416758, 0.000921555, 0.0152202, -0.00431789, -0.0299984, -0.00365108, -0.0299704, 0.0181326, -0.00583947, 0.0189022, -0.00831064, -0.0316928, 0.00435737},
	{-0.0426194, 0.0158439, 0.00912207, -0.00892197, 0.0349886, -0.0118871, -0.0211355, -0.00810919, -0.0344389, -0.0230794, 0.0305738, -0.0140963, -0.0151465, 0.0257952, 0.0341551, 0.0106501, -0.0289748, 0.00744996, -0.0280479, 0.0214278, -0.00922219, -0.0202401, 0.00768591, 0.00937626, -0.0298883},
	{0.00182134, 0.0175884, -0.0140517, 0.00156847, -0.0316334, 0.0164598, 0.00744054, 0.0138395, 0.0130451, 0.0429328, 0.0204609, -0.0149391, 0.026927, 0.0183092, -0.0319358, -0.0146321, -0.0312173, 0.0196029, 0.00767384, -0.0156576, -0.0194702, -0.0187131, 0.0135297, 0.0311338, 0.0208374},
	{-0.0236014, -0.0217856, -0.014637, 0.0199709, -0.0202121, -0.00371735, 0.015768, 0.0246584, -0.0193148, 0.042633, -0.0192241, 0.0222895, -0.000841354, 0.0259177, 0.0131997, -0.0321842, 0.0230405, 0.0185472, -0.00466462, 0.0317137, -0.0235431, -0.00101866, 0.015777, -0.0204084, -0.0348387},
	{0.0334622, -0.0297414, 0.0344781, -0.0153546, 0.00232041, 0.0109602, 0.0220698, -0.00554244, -0.00153474, 0.0147019, 0.00259451, 0.00938779, -0.0193113, -0.0031362, -0.0393587, 0.000404584, 0.0274521, -0.0141405, 0.03666, 0.0134489, 0.00221961, 0.00401596, -0.0299242, 0.0165469, 0.0143819},
	{-0.0309428, -0.0253269, -0.0227472, -0.0207626, 0.00626841, -0.0203039, 0.0176027, 0.0117845, -0.0208379, -0.0177515, -0.026273, -0.0231713, -0.0141887, 0.0261689, 0.00870703, -0.0241703, 0.0266222, -0.00359631, 0.0125242, 0.00592338, 0.024109, -0.00258, 0.0080405, -0.00930787, 0.0293759},
	{-0.00140996, 0.0114654, 0.00861347, 0.0126193, 0.0301848, 0.0152748, -0.0166728, -0.0312593, 0.0048305, 0.00190139, -0.0123917, -0.0184721, 0.0161516, -0.0122729, -0.00536099, -0.0162997, -0.00811338, -0.00877853, 0.0281949, -0.0278655, -0.0237346, 0.00823198, 0.0199628, -0.0263718, 0.0078693},
	{0.0010861, -0.00161256, 0.0273502, -0.00886463, 0.013103, 0.0326913, -0.0150175, -0.028954, 0.0244255, -0.0193403, 0.000919489, 0.00685536, -0.0299791, -0.00654967, -0.0228782, 0.0327251, -0.0257297, 0.0270334, 0.00718732, 0.0102636, 0.0339563, -0.00489292, -0.0247133, -0.0138482, -0.00757307},
	{-0.0113413, 0.00161575, -0.0297172, 0.0224787, -0.00403364, 0.0145306, -0.0333251, -0.0269571, 0.0262623, 0.0181852, -0.0266079, 0.00740446, -0.0185206, -0.0178712, -0.0113958, 0.00945354, 0.0321212, 0.0319837, -0.0330688, -0.00157825, -0.0314062, 0.0170414, -0.0258024, 0.0267413, -0.00218494},
	{0.00145304, -0.0326733, -0.0281815, 0.0204237, -0.0195198, -0.0237025, -0.0213142, 0.030673, -0.0101368, 0.0156305, -0.00150051, 0.00226906, 0.00393348, 0.0180929, -0.0326466, -0.0257403, -0.00545621, -0.0346487, -0.0229798, -0.000947982, 0.00288012, -0.00821996, 0.0245631, -0.0267296, 0.000413823},
	{0.0219649, 0.00381775, 0.0270943, -0.0229213, 0.0101182, 0.0102238, -0.0254634, -0.0225338, 0.00798981, 0.00117496, -0.0032666, -0.0309526, -0.00154553, 0.0268863, 0.00903505, -0.0307862, 0.00876059, -0.00367939, -0.0124465, -0.0150787, 0.0286906, -0.0153526, -0.0132894, -0.00157861, -0.026134},
	{-0.0555061, -0.00797977, -0.0518577, 0.0498815, 0.00818807, -0.00737629, -0.0209041, 0.0199375, 0.0240756, 0.00513251, -0.0340009, 0.0122184, 0.0269335, 0.0249036, -0.00302043, 0.0231078, -0.0455814, 0.0346584, -0.00644716, 0.015623, 0.016494, -0.044795, -0.0102317, -0.00896042, 0.00426123},
	{0.0217606, -0.00970068, 0.0210993, 0.0167527, -0.0225672, 0.00700824, 0.0182402, 0.0141251, 0.0356405, -0.0144831, 0.0219768, 0.0271736, 0.018227, -0.0385018, -0.0195642, -0.00100561, 0.0111234, 0.0115289, 0.015657, -0.0419535, 0.00189656, -0.0204807, -0.00026717, 0.000909011, 0.0307193},
	{0.0284777, 0.00866102, -0.00739904, 0.0396062, 0.0361868, -0.0156094, 0.0050736, 0.0353084, 0.0199604, -0.00884378, 0.0199278, 0.0136422, -0.00384814, 0.0326308, -0.00493709, -0.0142718, -0.00341589, 0.0181897, 0.0105793, -0.0149606, 0.00293827, -0.0252811, 0.0234515, -0.0232108, 0.0337008},
	{-0.00734607, 0.00107787, 0.00186711, 0.0418356, 0.00209434, -0.0440951, 0.0146484, -0.00602683, 0.00832308, 0.0149736, -0.0018762, -0.0109082, 0.0404471, -0.00222238, -0.0118766, 0.0284901, -0.0186471, -0.0246815, 0.00175487, 0.0187377, -0.0256601, 0.00738465, -0.0107429, 0.0158821, 0.0269605},
	{-0.0440596, 0.0242379, 0.0122741, -0.022037, 0.031688, -0.0277298, 0.0193991, -0.00738482, -0.0290195, 0.0258807, -0.0304904, -0.0107868, -0.0122652, 0.00852028, 0.00601245, -0.0157737, -0.00859559, 0.0291289, -0.0278994, 0.0110481, 0.0271984, 0.00528861, -0.017474, 0.0194475, -0.00588986},
	{-0.0464656, 0.00199759, -0.0493943, 0.0370016, 0.0290163, 0.0482602, -0.0136433, -0.00773068, 0.0264292, 0.00352868, -0.0339568, -0.0295112, -0.0272028, -0.0182978, 0.0300787, 0.0109628, -0.0385283, 0.0189017, -0.0142739, 0.0176571, 0.0154654, 0.0346858, -0.0023507, 0.0283072, 0.0197637},
	{-0.0399763, -0.0428807, -0.0336414, 0.0267899, 0.0353775, 0.018652, -0.0202659, -0.0192713, -0.017162, -0.0124748, -0.0312357, -0.00658283, -0.0180458, 0.0128808, 0.00274515, 0.0162261, -0.0112667, 0.00152791, 0.00657644, -0.00398637, -0.0301252, 0.0248391, 0.0174746, -0.0134738, -0.00641365},
	{-0.00194333, -0.0420448, -0.0018852, 0.0344806, 0.0209704, -0.0217625, -0.0329045, -0.0145278, -0.032531, 0.0279153, 0.011704, -0.00654863, 0.0184244, -0.00974007, 0.0158016, 0.023355, -0.0263713, 0.0158649, 0.0224648, 0.0368517, -0.0193346, -0.0097572, -0.00676434, 0.0107517, -0.0194485},
	{0.0291908, 0.0212422, -0.0253347, 0.00882601, 0.00185164, 0.014414, 0.0204602, -0.0169117, 0.020682, 0.0242609, 0.00711737, -0.0106604, 0.0222279, -0.0118096, -0.00647533, 0.00535134, -0.0271379, 0.0192356, 0.0079221, 0.00711986, 0.0285828, -0.00514304, -0.033109, 0.00606889, -0.0164539},
	{0.00992292, 0.0146266, 0.0374586, -0.0157717, -0.00882119, 0.0273704, -0.0158102, 0.00460824, -0.0207183, 0.0127639, 0.0023418, -0.0251897, -0.00207941, -0.0213599, 0.0290556, 0.0308413, 0.0149166, -0.010728, -0.0136503, 0.0171097, 0.0167062, 0.0194983, 0.0236873, -8.6217e-05, 0.00158471},
	{0.018146, -0.00859827, -0.0228974, -0.010324, -0.0211564, -0.00366708, 0.00384679, -0.00107972, -0.00997919, -0.0219331, -0.00440722, 0.0151842, 0.00646334, 0.00717096, -0.0126419, -0.00232015, -0.00316019, 0.0221713, 0.0196649, -0.0192619, 0.00695774, -0.00711094, 0.00943214, 0.00489086, -0.00928946},
	{0.00890005, 0.0171202, -0.00833267, -9.45639e-05, -0.0170566, -0.0175935, -0.0088986, 0.0203793, -0.0139191, 0.022574, 0.0191268, 0.00742335, -0.00734649, 0.002614, 0.0175966, -0.00735996, -0.0124236, 0.0356866, -0.0208757, 0.00567577, -0.0269247, -0.0235102, -0.0269304, -0.00588745, 0.00697801},
	{0.015746, -0.0146549, -0.0294043, 0.0050529, -0.0133164, 0.000894364, -0.0040174, -0.0248665, 0.0096932, 0.00432242, -0.0004582, -0.00889067, 0.00322857, 0.00835597, 0.0195748, 0.00048211, 0.0112801, -0.0185816, -0.0183354, 0.000691354, -0.00682691, 0.0249259, -0.0245134, -0.0290258, -0.0168794},
	{0.0128043, -0.00237064, 0.00541664, 0.00199136, -0.0156789, 0.0227708, 0.0293643, 0.0048571, 0.000308206, 0.00527935, -0.0292919, 0.0126597, -0.0108398, -0.0174314, 0.00182861, 0.0155005, 0.0173931, 0.0205046, -0.0275183, 0.0161754, -0.00188676, 0.0271139, 0.0153299, 0.016854, -0.025254},
	{-0.00881975, 0.0305108, -0.0133908, 0.0076752, -0.0344492, -0.0341964, 0.0163693, 0.0121003, 0.0302614, -0.0156028, 0.0172654, -0.0316228, 0.00350725, -0.0139015, 0.0090526, 0.0129329, -0.0155635, 0.00382158, -0.0280221, 0.0201365, 0.00735236, -0.0534762, 0.0275798, 0.0386997, -0.00572644},
	{0.0208441, -0.00899867, 0.0368903, -0.0418411, 0.0123019, -0.0284528, 0.01695, 0.00951906, 0.0226297, -0.0127107, -0.0136836, 0.0100865, -0.0418545, -0.0116718, -0.0233844, 0.00113671, -0.00943534, -0.0195017, -0.00473662, -0.037671, -0.00636428, 0.00491311, -0.00868099, -0.0184375, -0.0204475},
	{-0.0163974, 0.0059047, 0.0196206, 0.011569, 0.0355826, -0.0356675, -0.0306703, 0.0268333, -0.0422054, -0.00334382, 0.0239054, 0.00824857, -0.00710638, 0.0172842, -0.0252019, -0.00116881, -0.00795534, 0.0494282, 0.0257937, -0.0153167, -0.0200202, -0.0282296, -0.00654793, 0.0239467, 0.0120686},
	{-0.0119482, -0.0100732, -0.00626719, 0.00108049, -0.0268457, 0.00603113, 0.0112425, -0.0311514, 0.00963223, -0.0514474, 0.0238298, -0.0197525, 0.000188238, -0.0105152, 0.0292406, -0.0207818, -0.0315274, -0.015234, 0.00808171, 0.00638223, 0.00900125, -0.0348635, -0.00933304, 0.0204969, -0.00746436},
	{-0.0100704, -0.0169031, -0.0379294, 0.0157591, -0.016711, 0.022796, 0.0214095, 0.00236232, 0.0147409, 0.0255161, -0.0134022, -0.0115348, 0.0191626, -0.00410098, 0.0288042, 0.0212358, 0.0199306, 0.00213255, 0.0124715, -0.0178741, -0.0300243, 0.0126181, -0.0303324, 0.0206239, 6.28448e-05},
	{-0.00653539, 0.00729388, -0.0421319, 0.0268056, 0.0182987, -0.000181195, 0.00740302, -0.00200675, -0.0293801, 0.0266762, 0.0299312, 0.00242592, -0.0142409, 0.041488, -0.0198533, -0.0256527, -0.0274005, -0.0360562, -0.0391468, -0.0105374, -0.0078333, 0.0294378, -0.00137209, 0.0207544, -0.0248938},
	{-0.0339229, 0.0134958, 0.00210028, 0.0304763, 0.0304932, -0.00491218, -0.00749878, 0.00318286, -0.0226768, -0.00806378, 0.00478857, -0.000167001, 0.0393566, 0.00846271, 0.00371571, 0.0186484, 0.0195565, 0.0350049, -0.0128807, 0.0134272, 0.027162, 0.00270708, -0.00478608, -0.0254438, 0.0312732},
	{0.00117394, -0.0367797, -0.0231274, -0.00823065, 0.00331233, -0.0138725, 0.0228966, -0.00919791, -0.00516943, -0.0111846, -0.0268829, -0.0202536, -0.0122244, -0.00877725, 0.0293096, 0.000169103, 0.0174058, -0.00020579, -0.00240854, -0.0208469, 0.0250775, -0.0054624, -0.00234169, -0.00716752, -0.0169964},
	{-0.00596585, -0.00581111, 0.0334479, 0.0259108, -0.0263631, 0.00106697, -0.00919879, 0.0120747, -0.00757673, 0.00678555, -0.00987097, -0.00955926, -0.00874981, 0.0368555, -0.0260782, 0.0327994, -0.0193012, 0.00853902, 0.010513, 0.00111502, -0.0330756, -0.0177847, 0.0255368, -0.0114376, 0.00359501},
	{0.0291752, 0.0105032, -0.00855712, 0.0299271, -0.0202428, -0.0329968, 0.00966059, -0.00696047, 0.0235571, 0.00855664, -0.00266163, -0.0305087, -0.00476638, 0.00286637, 0.0191026, -0.000127895, -0.0171271, 0.0118843, 0.0371593, -0.00462165, 0.0282001, -0.0352856, 0.0327424, -3.56946e-06, 0.00642629},
	{0.0129197, 0.0319045, 0.0315872, -0.0157158, 0.0240335, -0.0032148, 0.0331789, -0.00949247, 0.0037405, -0.0296998, 0.022816, -0.00546506, 0.0108289, 0.0147244, 0.0167844, 0.00993181, -0.00310475, 0.00491346, -0.0252031, -0.037573, -4.1989e-05, 0.0399407, -0.0111498, -0.029029, -0.00733175},
	{-0.0265217, -0.0148708, 0.0204313, 0.0347466, 0.00318406, 0.0231149, 0.000775198, 0.0213019, 0.0180906, 0.0091245, 0.000105237, -0.0160976, 0.00899906, 0.00228638, 0.0218149, -0.00977844, 0.00799418, -0.0133837, -0.0187153, 0.0282204, -0.010586, -0.0405647, -0.0253204, -0.0233825, 0.0347308},
	{-0.00836076, -0.0267722, 0.00675309, -0.00738875, 0.0337402, 0.0311818, 0.0195143, 0.000666499, -0.0288555, 0.00632367, 0.0171015, 0.0179823, -0.013249, 0.0141308, 0.00819491, -0.0205247, -0.026987, -0.00141556, -0.0010548, -0.0319687, 0.022103, 0.0184573, -0.0335159, -0.0309546, 0.0085725},
	{0.0305865, 0.0248745, 0.00720921, -0.034043, 0.00746605, -0.00974552, 0.0226626, -0.0176095, 0.0230779, 0.0264788, 0.0177873, 0.0292122, -0.011108, -0.0176842, -0.0114761, 0.00191781, 0.0108602, 0.0277058, 0.0149144, -0.024167, -0.0214078, -0.0063194, 0.0267833, -0.0330213, 0.010193},
	{0.0205837, 0.0211107, 0.0226247, 0.0105113, 0.00131699, -0.0479961, -0.0112836, -0.00734137, -0.000372722, -0.0218438, 0.0118822, -0.0184024, 0.00390664, -0.00394803, 0.0144432, 0.013807, 0.0161582, -0.0233863, 0.00600025, 0.0364094, 0.0290838, -0.0287695, 0.0371381, 0.0183337, 0.00210381},
	{-0.00676187, 0.00376835, 0.0254127, 0.019644, 0.00314864, -0.0177271, -0.0305903, 0.0112082, 0.0123121, -0.0225928, 0.0132398, -0.00650169, 0.0148542, -0.0438848, -0.017737, 0.0140488, 0.0142062, -0.00644588, 0.0335439, -0.0280029, -0.0143586, -0.0235397, 0.0147567, 1.81427e-05, -0.0031644},
	{0.0138019, 0.0174007, 0.0214299, 0.0373438, 0.0345218, -0.0375184, -0.000823666, 0.0311637, -0.0122196, -0.0255433, 0.0228394, 0.0141196, 0.0447886, -0.0212803, 0.00619471, 0.0189141, 0.0128981, 0.0508078, 0.00688884, 0.0345098, -0.028714, -0.0122479, 0.0324498, 0.0173364, 0.0424204},
	{-0.0182858, 0.0189728, -0.0234107, -0.0121553, 0.0215198, 0.0153307, -8.07544e-05, -0.0372031, -0.0293333, -0.0151919, -0.000642499, -0.0214456, 0.0113298, -0.0337615, -0.0170849, -0.0202932, 0.00172753, 0.017465, -0.0273296, -0.0198015, -0.000296553, 0.00712038, -0.00561814, -0.00795046, -0.0172509},
	{0.00589459, -0.023792, -0.049904, -0.00277499, -0.00493313, 0.0162994, -0.00512375, -0.0124923, -0.0205411, 0.035216, -0.0197739, -0.00744929, 0.0189356, 0.00261295, -0.030007, -0.00998844, -0.00122295, 0.00821725, -0.0291354, -0.0137809, -0.0272043, 0.00134675, -0.0210025, -0.00787797, -0.000773049},
	{-0.00323398, -0.0319072, -0.0266341, 0.0424219, -0.0138703, 0.0581676, -0.0172571, 0.0141744, -0.0186403, 0.0478131, 0.0101166, -0.00303933, -0.005001, 0.0282987, -0.00695849, 0.03343, -0.0329848, -0.00028947, 0.00825515, 0.0332057, -0.025178, -0.0117713, -0.00937882, -0.0313189, 0.00395628},
	{-0.00102107, -0.0341244, -0.00589978, 0.00171101, 0.0083145, 0.00145851, -0.0317057, 0.0141328, 0.00128484, 0.00245291, -0.0190867, 0.0188279, -0.0141023, 0.0233525, -0.00416978, -0.0333789, -0.0139658, 0.00474104, -0.0125115, 0.044576, 0.000898654, -0.0074068, -0.0148744, 0.0134012, -0.0230242},
	{0.0225838, -0.00548567, -0.0169852, 0.0393577, 0.0156462, 0.000331169, -0.00389979, -0.00903239, 0.0163052, -0.0170633, -0.0191843, -0.0259, 0.012831, 0.0373847, 0.0171591, 0.016019, 0.0168661, 0.0381758, 0.000977414, -0.0203955, 0.0204585, 0.007343, -0.0294955, -0.0210075, 0.0285663},
	{0.00638097, 0.019942, -0.0360582, 0.0290975, -0.0106002, 0.0313546, -0.00624922, 0.016798, 0.01787, 0.0335303, 0.0146979, -0.000895397, -0.0254037, 0.0183014, 0.0118224, 0.00213188, 0.0264208, 0.0285691, -0.0342897, 0.00830715, 0.0242159, 0.00110972, -0.0371067, -0.0331002, -0.0248108},
	{0.0167202, 0.0017765, -0.0174549, -0.0242389, 0.03215, -0.0364574, -0.00882672, -0.0118934, 0.00976947, 0.0217806, 0.0105418, -0.019059, -0.0190302, 0.0161518, -0.00787396, 0.00700785, -0.0163972, -0.00533643, -0.0168966, 0.0109116, 0.0259596, -0.0228535, 0.00812443, -0.0281522, 0.0287394},
	{0.00209257, 0.00993448, -0.0210742, 0.0279038, -0.00876438, 0.00416187, -0.0134326, 0.0114626, 0.00655152, 0.0377988, 0.0173606, 0.00962856, -0.0244724, 0.0023594, 0.00230736, 0.0131231, 0.0038751, -0.0199222, 0.0280882, 0.000913908, 0.0136617, -0.0102697, 0.0102027, -0.0143507, -0.0397474},
	{0.0027129, -0.0204, -0.013798, 0.0151395, 0.0155543, 0.0107293, 0.0234775, 0.0319305, -0.026394, -0.00712827, -0.023885, 0.00885822, 0.00423204, -0.000609083, -0.0209507, -0.027197, -0.00968319, 0.0183539, -0.00356589, -0.0199902, -0.00677608, 0.00470768, -0.0186047, -0.0254021, 0.000234254},
	{-0.00479418, 0.027828, -0.00468368, 0.0221751, -0.0189344, -0.0213375, -0.00717076, 0.00118077, -0.0154995, 0.0310191, 0.0151169, -0.00134333, 0.0223943, 0.0270105, -0.0158113, 0.0237908, -0.00984707, -0.0101323, 0.00221739, 0.0247613, -0.0218974, -0.0126986, -0.0178399, 0.0291167, -0.0245533},
	{-0.0305937, 0.000939838, -0.0212875, -0.0128994, -0.001008, 0.0259741, -0.00862508, -0.000820851, 0.0321028, -0.0087143, -0.0232975, 0.00185589, 0.0336262, 0.00977893, 0.0232431, 0.003889, -0.0315038, -0.00892533, 0.0339318, -0.0125776, -0.0259525, -0.0290332, -0.0235306, -0.0116597, 0.0282333},
	{0.0297194, 0.0430753, -0.00561324, 0.00882329, -0.0363772, -0.0377477, -0.0184651, -0.00759395, 0.0458911, -0.0202194, -0.0179413, -0.0276939, 0.0125355, -0.0407838, 0.0272921, 0.0357648, 0.00767512, -0.0411721, 0.00568295, -0.0103882, 0.0477401, -0.00933316, 0.0186961, 0.00922043, 0.0184355},
	{0.0184639, 0.0406208, 0.0560658, -0.0356142, 0.02111, -0.000553027, 0.0269124, -0.0026488, 0.017869, -0.00785427, -0.0204463, 0.0197379, 0.0185867, -0.00644485, -0.00493928, 0.0273325, -0.000542867, -0.0271914, 0.0225377, -0.00657402, 0.011658, 0.00363133, 0.036555, -0.0131659, 0.0203873},
	{0.0259714, -0.012772, -0.0211091, 0.00386686, 0.0354878, -0.0648862, -0.00127206, 0.0464541, -0.00893583, 0.021423, 0.00250058, 0.0106783, 0.00487343, 0.00947116, 0.00898848, -0.00740803, 0.00679209, 0.00308194, 0.0268043, 0.0446724, 0.0117059, -0.0600583, -0.0107855, -0.00943961, 0.0130484},
	{-0.034759, -0.016609, -0.039274, 0.00903926, -0.023618, 0.0205325, 0.020049, -0.0243036, 0.0341446, -0.032702, 0.0316724, 0.0262021, 0.0156516, 0.0125271, 0.0119224, 0.0111457, -0.0032418, 0.00838435, -0.0325983, -0.00676878, 0.027643, 0.0110202, 0.0047568, -0.00632059, 0.0233839},
	{-0.0525538, -0.0292973, -0.0378243, -0.0133716, 0.00715794, -0.0208885, 0.028362, 0.0293851, -0.012015, 0.0448649, -0.0173989, 0.0030974, 0.0284671, 0.00156128, 0.00341629, 0.0268839, 0.0059225, -0.0132055, -0.0319973, 0.0232217, 0.024593, -0.0261773, -0.00620001, -0.0187658, -0.0150291},
	{-0.043576, -0.0198523, 0.00996835, 0.000933306, -0.0183312, 0.0304361, 0.0241799, 0.0339649, -0.0329109, 0.0376872, -0.0232219, 0.0224829, -0.0115951, -0.00553017, -0.016678, -0.0257281, 0.00934311, -0.00348674, -0.0214632, -0.00984093, -0.00919324, -0.00466752, -0.0582514, -0.0263675, -0.0231169},
	{-0.0261459, -0.0363161, 0.00582279, 0.0459345, 0.00758823, -0.0288561, -0.0285442, -0.0272382, 0.0224564, 0.00192155, 0.0140634, 0.0106501, -0.00563514, 0.0336142, 0.0125559, 0.021946, 0.00133353, 0.0334575, -0.0264689, 0.0317127, 0.00566585, -0.0222139, -0.0210404, -0.0309236, 0.0149591},
	{0.0251487, 0.033917, 0.0145233, 0.0116657, 0.0204651, -0.00167258, -0.00463163, -0.0287244, 0.0179327, -0.00785473, 0.00617487, 0.0156561, 0.00352041, -0.00110879, 0.0343876, -0.00141852, 0.0264961, 0.0204291, -0.00159677, -0.00192424, 0.0109762, -0.0141898, 0.0230219, -0.0311715, -0.0151408},
	{0.011577, 0.0102825, -0.00633854, 0.0394167, 0.0107377, -0.0249823, 0.0223948, 0.0374369, -0.0292725, -0.0206874, 0.027743, -0.0216695, 0.03363, -0.0175695, 0.0176196, 0.00119372, 0.0119541, 0.00593297, -0.0120588, -0.00648826, 0.0162088, -0.013371, -0.0225485, -0.0310387, -0.0201287},
	{0.0137118, -0.0176067, 0.0264757, 0.0321121, 0.0117041, 0.00575643, 0.00501871, -0.000942832, -0.00822705, -1.82211e-05, 0.0067708, -0.0191776, -0.0103393, 0.0185756, 0.0152487, -0.023693, 0.0300137, 0.0251978, 0.0359485, 0.0306861, 0.0242661, -0.0459114, -0.0242926, 0.010562, -0.0201827},
	{-0.0173343, -0.00425335, 0.00283884, 0.0096593, 0.0185706, 0.0294331, 0.0208519, -0.0261496, 0.0160767, 0.0224197, 0.0290612, -0.0139227, 0.0259629, -0.00628688, -0.00210147, -0.00708151, -0.00910146, 0.0248598, 0.0156287, -0.0123952, 0.00111106, -0.0143391, -0.00928585, -0.00283545, -0.032407},
	{-0.00698799, -0.0125953, -0.0126754, 0.020689, 0.00225045, -0.0260624, 0.0317975, -0.0182611, 0.0295687, 0.00917172, 0.0121619, 0.0148906, -0.000428246, 0.022904, 0.01997, 0.0126727, 0.0160165, -3.80601e-05, 0.0085198, -0.0181244, 0.0291923, 0.0191899, -0.00366169, 0.0328829, 0.0144088},
	{-0.00671811, -0.00225315, 0.0169729, 0.0211609, -0.0163377, -0.0017465, -0.0235182, -0.0205745, 0.0231854, 0.030678, 0.0205853, 0.0223783, 0.0148816, 0.0045228, 0.0206566, -0.0165018, 0.0303002, -0.0300374, 0.00478411, 0.0115237, 0.0332629, 0.0324151, -0.0011879, -0.0124906, -0.0162388},
	{-0.0225651, 0.0021159, 0.0236811, -0.0128147, 0.0254545, -0.0255493, -0.0158089, -0.00692617, -0.0282017, -0.0135055, 0.0064557, -0.00121986, -0.0296184, -0.00342991, -0.00726624, -0.00216697, 0.00851203, 0.00753153, -0.00312939, 0.0232194, 0.0289389, 0.017734, -0.0211017, 0.011741, 0.016899},
	{0.000675683, 0.0697664, 0.00309921, -0.00541853, -0.0265451, -0.00474149, -0.0252915, -0.0527319, 0.0623226, -0.0731416, -0.00410077, -0.0211824, -0.027819, -0.0697633, 0.031881, 0.0378278, -0.0188814, -0.0134977, -0.0180067, -0.00373155, 0.00617122, 0.000472931, 0.0722007, 0.0280806, -0.00997582},
	{0.00908369, -0.0022639, 0.0193854, -0.0273029, 0.0219173, -0.0155399, -0.0149748, -0.00587719, -0.0248362, -0.0431741, -0.0302618, -0.0308557, -0.0345693, -0.00218484, -0.0182299, -0.00444728, -0.0227612, -0.0214283, 0.0347935, -0.00707202, -0.0182653, -0.0251257, 0.0446391, -0.00831796, 0.0430377},
	{-0.011211, 0.0229062, -0.0325287, 0.0149603, 0.0276808, -0.0488697, -0.0272816, 0.0111984, 0.00258681, -0.0390379, -0.0162145, 0.00466206, 0.0306191, 0.0337046, 0.0233634, 0.0175844, -0.0087823, 0.042083, -0.0419092, 0.00542845, -0.0194887, -0.0155931, 0.019328, 0.0130934, 0.0489511},
	{-0.00297653, -0.0220598, 0.010281, 0.0258316, 0.00415858, 0.00861161, -0.0284765, 0.020245, -0.0230064, 0.0199209, -0.0313625, 0.0159725, 0.000219849, -0.0250597, -0.0119728, -0.0310787, 0.0112245, 0.00721654, -0.00516655, 0.0110038, 0.0223296, -0.00588695, -0.0220043, 0.0208874, -0.015136},
	{-0.00986658, 0.0121321, -0.000203667, -0.0115451, -0.0185011, 0.0345105, 0.0207505, 0.0176251, -0.000185642, 0.0247291, 0.0139319, 0.0162355, 0.0492267, -0.0119542, 0.0163909, 0.0228819, -0.000257293, 0.0160876, -0.0492314, 0.010038, 0.0266506, 0.0228699, -0.0484429, -0.00539072, -0.0377553},
	{-0.033667, 0.00350737, -0.00872936, 0.00898741, -0.025738, 0.0441885, 0.0102079, -0.0165061, 0.019923, 0.0686249, -0.0338201, 0.0338153, -0.00232977, 0.0491943, -0.0229805, -0.00207957, -0.0302751, -0.0247426, 0.0134014, -0.0248624, 0.0104245, 0.0405585, -0.0484353, -0.0328306, -0.0151653},
	{-0.0469672, 0.021377, -0.0267577, -0.00248231, -0.0247911, -0.0286493, -0.0324682, 0.00393478, 0.0084915, -0.0154691, -0.0128791, 0.0184642, 0.00894907, -0.0231, 0.00419269, -0.0052846, -0.0319865, 0.0217418, -0.0437747, 0.0291372, 0.015983, -0.0414533, 0.00789229, -0.0152116, -0.0282777},
	{-0.0188814, 0.00798435, -0.0118964, -0.022044, 0.0324102, -0.0614169, -0.0260784, 0.00363549, 0.00393412, -0.014125, 0.0216957, -0.0260117, -0.0129167, 0.0172841, -0.0176704, -0.000520737, -0.0262652, -0.0186015, -0.00104943, 0.0115099, 0.0140028, -0.0403429, 0.0199434, -0.0287026, 0.00678948},
	{-0.00762571, 0.0129917, -0.0347277, 0.0240109, -0.0150433, -0.0298356, -0.00631705, -0.00381894, -0.0245114, -0.0258572, -0.00785961, 0.0251956, 0.0296409, 0.0237951, -0.0120211, -0.0149113, 0.0077176, 0.00988671, -0.0183202, 0.034679, -0.0278743, -0.0320141, 0.0192023, 0.00397084, -0.00519818},
	{-0.0233327, -0.0152968, 0.00560409, -0.00617217, 0.0111319, -0.0415782, -0.00207141, 0.0129271, 0.0141706, -0.0296974, -0.00690208, 0.00943429, -0.0228973, 0.025102, 0.0363104, 0.00908749, 0.033343, 0.0328766, -0.0168341, 0.0208536, -0.00624185, 0.00751305, 0.0277309, -0.0329109, 0.021339},
	{0.0282264, -0.01122, -0.012487, -0.0273571, -0.0270336, 0.0406116, -0.0317124, 0.013017, -0.0195396, 0.0525547, -0.00154838, -0.00379259, -0.0207669, 0.0206784, -0.0333746, 0.00937585, -0.0132149, 0.0256925, 0.0125865, 0.0269238, 0.00368032, 0.014127, 0.00737708, -0.0347039, 0.0179258},
	{0.0152344, -0.00737046, 0.023417, -0.0149939, -0.00554189, -0.0245275, -0.0311663, -0.0018615, -0.0127041, -0.0402535, -0.0183744, -0.0107469, 0.00605504, -0.00426447, 0.0205642, 0.00969748, -0.00810364, 0.0102805, 0.0239366, -0.00833623, -0.00561987, -0.0289377, -0.00171216, 0.0168844, 0.00386251},
	{0.0217703, -0.0118265, 0.021319, -0.00508083, -0.0287883, -0.014966, -0.0260891, -0.0296178, -0.00991314, 0.0299261, 0.0208189, -0.0152674, 0.0210094, 0.0113033, -0.0234816, -0.0217646, -0.00585639, 0.00506519, -0.0300326, 0.0136634, -0.0317048, 0.0126368, 0.0266347, -0.0020876, -0.0314948},
	{-0.0269961, 0.0238274, -0.0291725, 0.00201998, -0.0171174, 0.000987675, -0.0328161, -0.00672834, 0.0196113, -0.0232638, 0.0267514, 0.00822131, 0.0256958, 0.0151123, -0.0228253, -0.0146286, 0.0232214, -0.00906699, 0.0138422, -0.0260197, 0.00738627, -0.0291062, 0.00951871, -0.0113093, -0.0292589},
	{-0.019088, 0.0246962, 0.0280171, 0.0175544, -0.0284278, -0.0446868, 0.00580925, -0.0426094, 0.0503675, -0.0511574, -0.00328044, -0.00566119, -0.0101077, -0.00374367, 0.0345123, 0.0297978, -0.0129858, -0.0471283, -0.00575177, -0.0403573, 0.0391091, -0.0223371, 0.0320022, 0.0288472, -0.00477927},
	{0.0323925, -0.00284327, -0.00573279, 0.0246813, -0.00555159, -0.00773926, -0.0261406, 0.0261131, 0.00389386, -0.0405467, 0.022728, 0.00421921, 0.00257662, -0.0176765, -0.00863508, 0.00825605, 0.0278177, 0.0372302, -0.00244498, -0.0172805, -0.0286243, -0.0253977, 0.0534781, -0.0127278, 0.00673367},
	{-0.0450402, -0.00963308, 0.0123664, 0.0326743, 0.0214913, -0.0719284, 0.0292767, 0.00943872, -0.00729148, -0.00193008, -0.0175177, 0.0175627, 0.0117602, -0.00915088, 0.0245924, -0.022738, 0.0251156, 0.000231566, -0.0137582, 0.0263946, 0.0168274, -0.0160152, 0.00440881, -0.0126743, -0.0113488},
	{-0.0106017, -0.0169098, -0.0450917, 0.0118973, -0.0224731, -0.0315516, 0.00760064, 0.00274005, -0.01883, 0.0206349, 0.0326882, 0.0211925, 0.0292611, 0.00725385, 0.00847307, 0.0307941, -0.00905124, 0.00756063, -0.0454772, 0.00385376, 0.0328387, 0.00556289, 0.00835066, 0.0185706, -0.0247839},
	{0.00718198, -0.029196, -0.0441516, 0.0461493, -0.0276802, -0.0107843, 0.0262664, 0.034268, 0.00874139, 0.00742311, -0.0150298, -0.00876193, 0.0476814, -0.00432052, -0.0220071, -0.01284, -0.0100623, -0.0126111, -0.0325112, 0.00331684, -0.0107831, -0.0188012, -0.0387693, 0.0197877, -0.02233},
	{-0.0368536, -0.0139248, -0.0270108, 0.0256217, 0.0288991, 0.0326956, 0.000268453, 0.028399, -0.0296661, 0.0409237, 0.0293866, 0.0157406, -0.0166019, 0.0456654, -0.00511538, 0.0310737, -0.0236784, 0.00648123, -0.035041, 0.030158, 0.00542236, -0.00633552, -0.0106417, 0.0147617, -0.0449412},
	{0.00179237, 0.0109395, -0.0307366, 0.03421, -0.00378342, -0.0326985, 0.0308714, -0.00929996, 0.0240423, 0.00760706, 0.0236415, 0.0281597, -0.0115364, 0.0173549, -0.00763169, 0.0159316, 0.00995325, 0.00553392, -0.0246428, 0.00584347, -0.0205708, 0.0184307, -0.0166194, -0.0182153, 0.00751436},
	{-0.00798907, 0.0351056, -0.00817211, 0.0285566, 0.00600477, -0.0504935, -0.0148309, -0.0114175, -0.00814053, -0.0454693, -0.0162365, -0.0204974, -0.00181251, 0.00671418, 0.027522, 0.0155596, -0.0164368, 0.00189625, -0.0133192, 0.0407517, -0.0282096, -0.0299015, -0.00557697, -0.0171557, -0.0142834},
	{0.00272938, -0.0335972, -0.0232503, -0.00104513, -0.0192283, -0.00339344, -0.00353736, 0.0280256, 0.0183496, -0.00361221, 0.0167406, -0.00295874, -0.0025148, -0.0149379, -0.0263806, 0.0112609, -0.0126427, 0.0018909, -0.014833, 0.0380089, -0.00271015, 0.00812001, 0.0109227, 0.0210906, 0.0132073},
	{0.0289308, 0.0171333, 0.00451212, -0.00732417, 0.0095125, -0.00998203, 0.00920109, -0.0242277, 0.0224652, -0.0355951, 0.000479028, -0.0126524, 0.0398071, 0.0098014, -0.0266455, 0.0181826, 0.0322122, 0.014018, -0.004614, -0.00375294, -0.00106411, -0.05252, -0.00187682, -0.0169441, -0.000694061},
	{0.019409, -0.0404931, -0.0053004, 0.00943094, -0.0225384, 0.0224651, 0.0303843, 0.0329273, -0.001139, 0.00780378, 0.00439736, 0.019418, -0.00880684, 0.0343711, 0.0146216, 0.006709, 0.0138713, 0.0335768, 0.00284985, 0.00367676, 0.00199006, -0.0194691, -0.0106941, -0.0134414, -0.00320069},
	{-0.0408831, 0.0259289, 0.000360379, 0.00871061, 0.0205806, -0.0392614, 0.00197192, -0.014089, 0.0116476, -0.0105323, -0.00309289, 0.0281335, 0.0207676, -0.0273636, -0.0201944, 0.0319183, 0.0129312, -0.00042488, 0.0105478, -0.0148591, -0.0275787, -0.00948961, 0.00660946, 0.00496921, 0.0230372},
	{-0.0281702, -0.0262449, -0.0165096, -0.00481141, -0.0212545, 0.0435927, -0.0153427, -0.0157333, -0.00932426, -0.0160775, 0.00867957, -0.0211245, -0.000925029, -0.00731274, 0.025889, -0.00751785, -0.030396, 0.0292703, -0.0168381, -0.00171127, 0.0287324, 0.0293427, -0.0281514, 0.00645453, 0.00907344},
	{-0.00341032, 0.022212, -0.0111675, -0.0183719, 0.00335941, 0.01174, -0.00603527, -0.0131519, -0.0135095, -0.0106637, 0.00538387, -0.00208904, 0.0250051, 0.035146, 0.0151303, 0.0076051, -0.0073905, -0.0240098, 0.0134147, 0.031885, 0.00304312, 0.00820291, 0.0199068, 0.0240693, 0.00630213},
	{-0.0227606, 0.0197231, -0.0758255, 0.0452639, -0.0372364, -0.00456332, -0.0094902, 0.0146943, 0.022869, -0.0283543, 0.0246656, -0.00831653, 0.00640925, 0.0205157, -0.011527, 0.000316151, 0.00302124, -0.0414942, -0.0434504, 0.0508256, -0.014131, -0.0328179, -0.00307909, 0.0310189, 0.00651321},
	{0.0147104, 0.0245715, 0.0206399, -0.0350276, 0.0117555, -0.0117832, 0.0020995, -0.00740493, 0.00285544, -0.0308514, -0.0240373, -0.0264805, -0.0112232, 0.0129657, 0.0371233, -0.00507945, 0.00896684, 0.000657252, 0.0378965, 0.027045, -0.00526027, 0.00276001, 0.020284, -0.00554051, 0.0102482},
	{-0.0394714, -0.0272963, -0.0433908, 0.0361859, -0.00366891, -0.0326777, 0.00254941, 0.00107243, 0.0204302, -0.0440635, -0.0117736, 0.00462667, 0.0387196, -0.0120088, 0.00739623, -0.0139777, 0.00413486, 0.0287984, 0.00198391, 0.0374964, -0.0154492, -0.0626756, 0.0357173, 0.00754892, 0.036131},
	{-0.0285791, -0.0212843, -0.0076329, 0.0308098, -0.00998541, 0.00305098, 0.00114145, -0.017428, -0.0191171, 0.0215709, 0.000484046, -0.0310505, 0.00593893, -0.0214454, 0.0215797, -0.00210745, -0.0155005, 0.00209387, -0.050013, 0.0280298, 0.0234904, 0.00313064, -0.0258797, -0.0338534, 0.014903},
	{-0.00219104, 0.0101838, -0.0283424, 0.0279832, -0.0104576, 0.0247107, -0.0199497, 0.0183575, -0.040215, -0.00824668, -0.0302245, 0.0172311, 0.00115682, 0.00332228, -0.0193209, 0.0270867, 0.00986654, 0.0183974, -0.0465907, -0.00686792, 0.00238466, 0.0245828, -0.019191, -0.0148825, 0.00869454},
	{-0.0358191, -0.0118769, 0.0224334, -0.0123192, -0.0328533, 0.0385534, -0.0303093, -0.0326343, 0.018446, 0.035311, 0.0264288, -0.0264899, 0.00366371, 0.034389, -0.0341203, 0.0344893, 0.0173239, -0.0216308, -0.0334177, 0.0237914, 0.000524989, 0.00723415, 0.00192737, 0.0138219, -0.0268017},
	{0.009988, 0.00271014, -0.017398, 0.0365906, -0.0216988, -0.0177891, 0.0329133, -0.00372841, -0.0229193, 0.0152735, -0.0260966, -0.0128173, 0.0335139, 0.0205452, -0.0274469, 0.0176132, 0.0217853, 0.0212531, 0.00741457, 0.0164247, -0.0370134, 0.00732943, 0.0212353, -0.0259242, -0.030304},
	{-0.00123371, 0.0204424, -0.00441693, 0.0240699, -0.0303445, -0.0475947, 0.0164801, -0.0222533, 0.0164369, -0.0159058, 0.0272644, 0.0167428, 0.0136692, 0.00592884, -0.0243132, 0.0264245, 0.017012, -0.0178465, -0.0119225, -0.0061959, 0.00136814, -0.0528145, -0.0135257, 0.0185111, -0.0113633},
	{-0.00074461, -0.00228477, -0.00266947, -0.00790758, 0.00300807, 0.00136455, -0.0259287, 0.0246582, -0.0255995, -0.0200551, -0.00820039, -0.0233072, -0.0227609, 0.000125432, 0.0127057, 0.0154456, 0.0094699, -0.00464364, -0.0318491, 0.00194832, -0.0318141, 0.00123906, 0.0276913, -0.011303, 0.0284727},
	{0.020598, -0.0213525, 0.0208764, -0.0129215, -0.0275655, -0.0125257, 0.00370274, -0.0289925, -0.0154969, -0.00371269, 0.0217548, 0.0210496, -0.0120078, 0.00514395, -0.0134377, -0.00746124, 0.0213039, -0.0180828, -0.00870616, 0.0417139, -0.0332723, -0.014825, -0.0208944, -0.0040028, -0.00214252},
	{-0.00516656, -0.0412215, -0.0240783, 0.000346143, -0.00821709, 0.0149172, -0.0156036, 0.0134809, 0.0189342, 0.00945829, 0.023307, -0.00575196, -0.0126109, 0.046287, 0.00922891, 0.0149692, -0.0132511, 0.00683823, 0.000462098, 0.00180746, -0.028426, 0.0178462, -0.035283, -0.0229751, -0.0239454},
	{-0.0330805, -0.0128966, -0.0225184, -0.0117308, -0.0224523, -0.0151002, 0.00846936, 0.0113494, 0.0306524, -0.0122676, -0.0363574, -0.0187736, 0.0356409, 0.0119944, 0.033082, -0.0344687, 0.0111847, -0.00708359, -0.00306191, 0.00872594, 0.000721869, -0.00423982, 0.0338517, 0.00444546, 0.0293822},
	{0.0167882, -0.0260183, -0.01712, -0.0311293, 0.0312601, -0.000613814, 0.00780609, 0.0200439, 0.0340509, 0.0184405, 0.0237434, -0.0341946, -0.00117106, 0.0232185, 0.0289649, 0.00445013, 0.0195702, 0.0286114, 0.0305938, 0.0124165, 0.0078339, 0.0278201, 0.000532594, 0.000381725, 0.0284621},
	{-0.0287634, -0.0111568, -0.0326943, -0.0167197, -0.0104694, 0.015981, 0.0190125, 0.0290293, -0.0194297, 0.012607, -0.00971354, 0.0311819, 0.0305215, 0.0345869, -0.00538845, 0.0165886, -0.00781326, 0.0323397, 0.00913074, 0.0296516, 0.0075374, -0.0313953, 0.00618448, 0.0265465, 0.0231913},
	{-0.0812553, -0.00762042, -0.0771693, 0.0395246, -0.0193031, -0.0613236, 0.00735509, 0.0151929, -0.0152803, 0.018202, -0.030409, -0.0277048, 0.048202, -0.0166046, 0.0248204, 0.000922035, -0.0369531, -0.0228394, -0.0465741, 0.0474375, 0.015096, -0.0177104, 0.0072758, -0.0142168, 0.036735},
	{-0.00951308, 0.0409878, -0.00950651, 0.00348098, 0.0159115, 0.0199958, -0.0167998, 0.0272755, -0.0147688, -0.0301664, -0.0166422, -0.0355821, 0.00386517, -0.0487707, 0.00128452, 0.00145871, -0.0250456, 0.0310834, 0.0195162, 0.0112795, 0.00428132, -0.031, -0.000364125, -0.00428084, -0.0192639},
	{-0.0265921, -0.00375049, 0.0150581, 0.0129184, -7.8346e-05, -0.0207038, -0.0142199, 0.00648498, -0.0349516, 0.0106546, 0.00419421, 0.0243001, 0.020743, 0.0157706, -0.0134557, -0.00852227, -0.029801, 0.0264295, -0.0225171, -0.00192976, -0.0340057, 0.00278197, -0.0190597, -0.0364922, 0.0360947},
	{-0.00130781, -0.00529938, -0.0301476, 0.0271571, 0.00365254, 0.0246711, -0.0352466, -0.00919812, 0.0181742, -0.00308618, 0.00186725, 0.0322441, -0.00359718, 0.0236672, 0.0316749, 0.031114, -0.0157745, -0.034144, -0.0133179, 0.0421121, -0.0280031, -0.0106783, 0.0136927, 0.0152785, -0.00404325},
	{-0.00855627, -0.00134476, -0.00201593, 0.0167365, -0.0117294, 0.0131685, -0.0324466, 0.0246899, 0.00392223, 0.0547699, -0.0130771, 0.00169075, 0.0098692, 0.0425122, -0.0330695, -0.0223191, 0.0154284, 0.0357208, -0.0120369, -0.0170272, -0.038618, 0.0349382, -0.0244186, -0.000770187, -0.0128594},
	{-0.024812, -0.0332765, -0.0133812, -0.0282723, 0.0190159, 0.0482576, -0.00574697, 0.00916806, -0.0329346, 0.0292119, -0.00213206, 0.0314566, 0.0118194, 0.0362906, 0.0166837, 0.00735915, 0.0270552, -0.0332894, 0.0337322, -0.00463214, -0.0251146, 0.0212263, -0.0442636, 0.00845279, -0.0234949},
	{-0.0209358, -0.0033639, -0.00994901, 0.0135877, 0.0259976, -0.0341974, 0.0115713, -0.0113495, 0.00142628, 0.0220035, 0.0173934, 0.0159412, -0.0134844, -0.0239438, -0.00457959, 0.00822406, 0.00808729, -0.0112596, -0.015987, 0.0255023, -0.022019, 0.00240349, -0.0235031, -0.0197411, -0.0323628},
	{-0.00601558, -0.0138172, -0.0271746, 0.0418821, 0.0110618, -0.0542335, 0.0183974, 0.0343291, 0.0266263, -0.038566, -0.0139787, -0.0194538, 0.0354935, 0.00841069, 0.0302542, -0.0323301, -0.0271685, -0.0201298, -0.00361738, 0.0303984, -0.0137831, 0.0116474, 0.0197801, 0.00677258, 0.0286746},
	{-0.0186257, 0.0142552, -0.0195518, -0.00969693, -0.0247246, -0.0220754, 0.00647291, 0.0343659, -0.00802985, 0.0077402, -0.0108113, 0.0285499, 0.015086, -0.00570331, 0.0069879, -0.0282274, -0.0138497, 0.00281382, -0.0189277, 0.00276476, 0.00331833, 0.0285839, -0.010966, -0.00782826, -0.00617213},
	{-0.00481636, 0.0192269, 0.0187769, -0.004846, -0.012374, -0.0254733, 0.0115709, -0.0057793, 0.0280284, -0.0130076, 0.00499437, -0.0217479, -0.0123689, 0.0217513, 0.0294198, 0.0277983, -0.0142025, 0.0343941, 0.0205258, 0.0101376, -0.00399721, -0.0255428, -0.0125953, -0.0279801, -0.00836753},
	{-0.000214485, -0.0271987, -0.015494, 0.0275596, -0.0155533, 0.0124012, -0.0210135, -0.0266503, 0.000889803, 0.0365363, 0.0313788, -0.0236769, -0.0075465, 0.0285951, -0.012279, -0.0163221, 0.0276726, 0.0136648, -0.0173457, 0.010424, 0.0152353, -0.00745173, -0.0117013, 0.0232955, -0.0376205},
	{-0.000521344, 0.0185443, 0.00419674, -0.0047045, -0.0269195, 0.0053318, -0.0323508, 0.0262988, 0.0256037, 0.02055, 0.0215822, -0.00330312, -0.00636921, 0.0201276, 0.028374, 0.014082, 0.0234106, 0.0239756, 0.0128285, 0.0293059, -0.0332426, -0.0108586, -0.0165997, -0.0212998, 0.0213734},
	{-0.00600849, 0.00847472, -0.0113282, 0.00486612, 0.0314051, 0.0374337, 0.0131077, -0.00829299, 0.0146743, -0.0207319, 0.0125924, 0.012806, 0.0245988, -0.00657462, 0.0103356, -0.00909047, -0.00866746, -0.0118884, -0.0107281, 0.0154118, -0.0252748, 0.00586374, -0.0042688, -0.0110985, -0.033697},
	{-0.0352766, 0.0250631, -0.0411292, -0.0154759, 0.0289636, 0.00847444, 0.0156669, -0.0049391, -0.0226328, 0.0394504, 0.0304079, 0.00254142, 0.00696591, 0.0264169, -0.00807186, -0.0155761, -0.0191429, 0.00379138, -0.0374326, -0.0216504, -0.014306, 0.00633312, -0.0079021, 0.00470923, 0.011681},
	{-0.104526, -0.0625768, -0.0751428, 0.0451419, -0.0234063, -0.00660393, -0.0254965, 0.0144141, 0.0231449, 0.0469441, -0.0399922, -0.021441, 0.0586618, 0.0417348, -0.0256843, 0.0278707, -0.0660459, -0.00157812, -0.0673617, 0.109972, 0.0161931, -0.00952145, -0.0585968, 0.0236284, -0.0100836},
	{-0.0143763, -0.00537566, 0.0193379, -0.0253188, 0.0277931, -0.000777038, 0.027311, -0.020001, 0.0296448, -0.0291139, -0.0192367, -0.0226902, 0.016215, 0.0107545, 0.00769605, -0.0237918, -0.0208805, 0.0183607, 0.0408643, -0.00376559, 0.0104595, -0.0264883, 0.0304327, 0.0213869, -0.0063546},
	{-0.0166422, -0.0190005, -0.0156889, -0.0140036, -0.00892043, -0.00823567, -0.0112479, 0.0394499, -0.0123976, -0.021851, -8.69025e-05, 0.00280487, -0.0247518, 0.0295598, 0.0158884, 0.0131356, -0.0201786, 0.0420091, -0.00780621, -0.023363, -0.0112145, -0.0182884, -0.0107758, -0.0211236, 0.00775753},
	{-0.0533783, -0.0055838, -0.0303388, 0.0470528, 0.0101605, 0.0197573, 0.00568373, 0.023972, -0.0252852, -0.010828, 0.0181251, 0.0191444, -0.00275164, -0.0203657, -0.014726, -0.0243543, 0.00859069, -0.0327006, -0.0372858, 0.0210021, 0.0219301, 0.0227384, -0.012961, 0.00675256, -0.0139366},
	{-0.0314304, -0.0232134, -0.0409594, -0.014238, 0.0298565, 0.0339513, -0.00388244, 0.027317, -0.000380731, -0.00453149, -0.00384197, -0.0163485, 0.0302655, 0.0465236, 0.0310066, 0.0277095, 0.00639905, -0.0231397, 0.00477207, 0.0286174, 0.0206793, 0.00820095, -0.0175815, -0.000612611, -0.007989},
	{-0.00575559, -0.00654751, -0.00642753, 0.00850818, -0.0238635, 0.0529359, 0.00327898, 0.0307984, 0.00479001, 0.0437415, -0.0114268, 0.0144016, 0.0324883, 0.0185424, 0.0116281, -0.0168938, -0.0338647, 0.00383737, -0.0161067, 0.0163954, 0.0144217, 0.0308897, 0.00833596, 0.0137086, -0.000822111},
	{-0.00342139, -0.0364757, -0.0206847, -0.00828755, 0.0173122, 0.0245072, 0.0243212, -0.00254609, 0.0240571, 0.0103294, 0.0274433, 0.0133408, 0.00050599, 0.00138825, 0.0164074, 0.0245088, -0.0361357, -0.00886866, 0.0181655, 0.0131092, 0.0195564, -0.0144079, 0.0118887, -0.0198548, -0.0031968},
	{0.00811184, 0.00603152, -0.0110883, -0.0157422, -0.00297247, -0.0174861, -0.00621677, -0.0147138, 0.00414701, -0.0413306, 0.012205, -0.0278616, 0.0200422, -0.0151548, -0.0220487, 0.0229662, 0.0250165, 0.0331581, -0.0352183, 0.00272365, 0.00559156, -0.00207327, -0.0253977, -0.000842492, 0.0186734},
	{-0.00783747, 0.0235888, 0.0070543, 0.0039385, 0.00475871, -0.0255587, 0.00833083, 0.00335491, -0.00120674, -0.00700038, -0.00900502, -0.0141227, 0.0211314, -0.00964553, -0.0086945, 0.000642406, -0.00265173, -0.00696359, 0.00902307, 0.0180108, 0.01557, 8.18244e-05, 0.00289905, 0.0272989, 0.0346574},
	{-0.0196216, -0.0131373, -0.0171684, -0.00417662, -0.0185379, -0.0253522, -0.0262615, 0.00892647, -0.00202398, -0.0201886, 0.0217488, 0.0211864, -0.0155339, 0.027858, -0.0303366, 0.0104691, -0.0153154, -0.00421239, 0.0217087, -0.00886492, 0.0271324, -0.0343917, 0.0308981, 0.0320472, 0.0364983},
	{-0.02334, -0.0194559, 0.0318142, -0.0217819, -0.0258114, -0.0133136, -0.0121105, 0.0329337, -0.03367, 0.0107959, -0.00577399, -0.0167397, 0.00145483, 0.0261044, 0.0159383, 0.0201168, -0.0016537, -0.0125841, -0.0234199, 0.0110936, -0.0221729, -0.0202769, 0.00309615, 0.0168665, -0.0178979},
	{-0.0153575, -0.0161276, -0.0116882, 0.036934, 0.0130073, -0.0473738, 0.00599548, -0.0156905, 0.0126064, 0.00381554, -0.0111838, -0.0110468, 0.0162018, -0.037152, 0.0384414, -0.025705, 0.0166264, 0.00523053, -0.00700261, 0.00927706, -0.02267, -0.0314118, 0.0280508, 0.0208711, 0.0397367},
	{-0.0123022, 0.0260294, 0.0147075, -0.0293647, 0.011174, -0.00368203, -0.0260125, -0.021337, 0.00470159, -0.0209526, -0.000130318, 0.000657272, 0.0127139, 0.0142228, 0.00265437, 0.0159126, 0.0295033, 0.0211045, -0.00874261, -0.0050429, -0.00427073, 0.0377256, 0.0199498, 0.0133201, -0.035659},
	{0.0220014, -0.0180654, -0.0248071, 0.0349084, -0.0069343, 0.0362089, 0.0203205, 0.00419008, -0.00520173, 0.00437341, -0.033129, -0.017767, 0.0241198, 0.00492639, -0.0151058, -0.0280837, -0.0215226, 0.0215822, -0.00870079, -0.0113483, 0.016924, 0.00742537, 0.013828, -0.0104769, -0.0321309},
	{-0.0837355, -0.00908126, -0.0472456, 0.0253602, -0.0282283, -0.0408778, -0.0293727, -0.0356154, 0.0261118, 0.0580851, -0.0184312, -0.0335819, 0.0703129, 0.0650084, 0.0127851, -0.0281785, -0.0234645, -0.0221129, -0.0936675, 0.0721289, 0.0378862, 0.00205322, -0.0426514, 0.033817, 0.00679435},
	{-0.0111219, 0.0289582, 0.0110057, 0.0174203, -0.00593695, 0.000347129, 0.0277722, 0.0251075, -0.00761219, 0.00421907, -0.00162369, 0.0222369, -0.0363532, -0.0154333, -0.00170864, -0.0263705, 0.0106583, 0.021337, -0.0198523, -0.0152443, 0.0303879, -0.0126223, 0.0392619, 0.0126661, 0.00263651},
	{-0.0231539, -0.00157389, -0.0171607, -0.0115015, -0.00135163, -0.0423525, 0.0277362, 0.00529918, 0.00352756, 0.00436023, -0.0286993, -0.00284105, -0.0111984, 0.00466414, 0.0376115, 0.0330206, 0.0100637, 0.0255079, -0.0232708, 0.0122697, -0.0101668, 0.000822661, 0.0114787, -0.0192398, 0.0344499},
	{-0.0293117, -0.0173017, -0.0381957, -0.00746364, 0.0293808, -0.0340756, 0.0280858, 0.000368075, -0.0274264, 0.0326599, -0.0202942, 0.00574534, 0.00556311, -0.00927, -0.0156191, 0.0277547, 0.0148549, 0.0293392, -0.00165077, 0.0275694, -0.0246497, 0.00511738, -0.0253728, 0.00628133, 0.0295311},
	{-0.0228414, -0.0375074, -0.035191, 0.014912, 0.00968029, 0.0083855, -0.0155123, -0.0178489, 0.00679722, -0.00298818, -0.00653053, -0.0168878, 0.0131755, -0.00645631, -0.0284156, -0.0269095, -0.00900339, 0.028023, -0.0348992, 0.0318264, -0.0314138, -0.015881, 0.0020656, -0.0127238, 0.0186937},
	{-0.00140642, -0.00990956, -0.0223422, 0.0205673, -0.00758503, 0.013356, -0.0206053, -0.016419, -0.000154726, 0.067352, -0.0249664, -0.0312463, -0.00392919, 0.04418, 0.00145717, 0.0188887, -0.00323198, -0.0335326, -0.0133222, 0.00797299, -0.0112168, 0.00306851, -0.0039966, 0.0108874, -0.000226566},
	{-0.00282328, 0.00356597, -0.0200258, 0.0356231, -0.0257164, -0.0264563, 0.0251266, -0.00308849, 0.0280897, -0.0236389, 0.0226474, 0.00788957, 0.0212964, -0.0149213, 0.0250067, -0.00181135, 0.0240854, 0.0134801, 0.0195123, -0.000458156, -0.0263034, -0.0102653, -0.0230185, -0.0070738, 0.0118955},
	{-0.0122021, 0.0262768, -0.0184556, 0.0103454, 0.00476165, -0.0371679, 0.000929316, 0.00172139, -0.0274236, -0.0162615, -0.00118121, 0.0283032, 0.00143916, 0.000325456, -0.0131249, 0.00476988, -0.00461867, -0.0267734, -0.0266856, 0.0260365, 0.0236111, -0.0434173, 0.00998824, 0.0177093, 0.0329585},
	{-0.0173424, -0.010832, -0.00449986, 0.0205248, 0.0108206, -0.00951747, 0.0130325, 0.00529562, -0.0191162, 0.0376595, 0.0317072, 0.00513404, -0.00994149, 0.020947, 0.022761, -0.031773, -0.0233967, 0.0108618, -0.00145933, -0.0164662, -0.0240601, -0.0146387, 0.00624778, -0.0251315, -0.0229202},
	{-0.0215196, 0.0213057, 0.0163962, -0.0203728, 0.017295, 0.00603694, -0.00217018, -0.0258855, -0.0121732, 0.0179752, 0.0088262, 0.0220932, -0.0197764, 0.0350716, 0.0158924, 0.0127987, 0.00650589, 0.020396, 0.0179917, 0.0349032, 0.0235343, 0.00515488, -0.000862659, -0.000433263, 0.00118727},
	{-0.0319912, 0.0138487, 0.00762948, 0.0306165, -0.0302243, 0.00323123, -0.00275066, 0.0224337, -0.00582333, 0.0301352, 0.00601132, 0.00481087, 0.0164972, -0.00717077, -0.000925766, -0.0139258, 0.0314862, -0.0288921, -0.0236974, 0.012193, 0.017683, 0.0278249, -0.0380986, -0.0198198, -0.00647728},
	{-0.00466388, 0.031086, -0.0319354, -0.00513291, -0.0220578, -0.0111668, 0.0156557, 0.00603424, -0.0354228, -0.00896693, 0.0113573, 0.0137528, 0.0104644, 0.00673594, -0.0115347, -0.006889, 0.0036875, 0.0228671, -0.0384054, 0.009043, -0.0267621, -0.03675, 0.0311769, 0.00463331, -0.0184881},
	{0.0277097, 0.000782323, 0.0180813, -0.0297873, -0.0178401, 0.000455987, 0.000868431, -0.0139047, 0.0203541, -0.00517166, -0.00976092, -0.0196039, 0.010257, 0.0333523, 0.00903343, -0.0292318, 0.00735605, 0.00189051, 0.0252231, -0.0217515, -0.0285039, 0.0306052, -0.0112516, -0.0304834, -0.0319709},
	{-0.040971, 0.0208902, 0.0223684, 0.0244654, 0.0345048, -0.00200647, 0.00131575, 0.00555463, -0.0153585, 0.0150732, 0.00699363, -0.00246755, 0.0276171, 0.00821917, 0.0114849, -0.0272264, -0.0135159, -0.0128127, 0.00978521, -0.0178831, -0.0153415, -0.023535, -0.0358482, -0.005004, -0.00251012},
	{-0.0314664, -0.013325, -0.0464669, 0.0483775, 0.0188266, -0.00156606, 0.0200369, 0.0152573, 0.0115507, -0.00738952, -0.00457871, -0.030275, 0.0170869, -0.00879123, 0.0116083, 0.0150313, -0.0219898, -0.0147515, 0.000753502, -0.00700708, 0.00744112, 0.00192162, -0.0134994, -0.00325405, -0.0105638},
	{-0.0105331, 0.0221434, 0.0338749, -0.0374749, 0.0209782, -0.0372474, -0.0165003, -0.00483975, 0.0284395, 0.00291385, 0.00102657, 0.00993279, 0.0245502, -0.0241983, 0.00328168, -0.0083623, 0.03157, -0.0271847, 0.0250123, -0.0204224, -0.0183684, 0.0246519, 0.0257669, 0.0286104, -0.000876426},
	{-0.00332563, 0.00250661, -0.0449794, -0.00558892, -0.0187694, -0.0411643, 0.0322156, 0.00943918, -0.0336507, -0.000721293, -0.00294029, -0.00568074, 0.014633, -0.0172585, -0.0220964, -0.0253817, 0.00545325, 0.0185789, -0.0205151, 0.0351181, 0.00508051, -0.0286866, -0.00351803, -0.0380607, -0.00834017},
	{-0.0335213, 0.00845669, -0.0307982, -0.0193874, -0.0304581, 0.010775, -0.0149868, -0.0258192, -0.0214499, 0.00464188, 0.00165153, 0.00879153, 0.0379109, -0.000325776, -0.0158452, 0.028202, -0.0274731, -0.00319233, -0.0329683, 0.00175554, -0.0225293, 0.0169006, 0.0237543, -0.00785261, 0.00626853},
	{-0.0182535, 0.0109029, -0.039351, 0.0264434, -0.025958, 0.0219911, -0.0254209, -0.00612404, -0.0270756, 0.00506967, 0.0101848, 0.025407, 0.0466556, 0.00113388, -0.0327799, -0.00885811, 0.00732602, 0.013671, 0.016454, 0.0288677, -0.00687386, 0.00142631, -0.0433954, -0.000884663, 0.0127507},
	{-0.0371535, -0.0259882, 0.0118512, -0.0280405, 0.0200871, 0.0150877, 0.00470795, -0.0272711, -0.0236518, 0.0258474, -0.0310916, -0.0204328, 0.0345608, 0.00457319, -0.00243242, 0.0165994, 0.00994061, -0.00920979, 0.00566637, 0.0363229, 0.000158459, 0.00506142, -0.0310234, 0.027646, 0.0150158},
	{-0.00351676, -0.0413204, -0.0253492, 0.00843844, 0.0212132, -0.022793, 0.0240349, 0.0142402, -0.0171764, -0.00293659, 0.0152451, -0.0116187, -0.00477216, -0.00874694, 0.0234483, 0.00634231, -0.0347391, -0.0245787, -0.0334681, -0.0100451, 0.00160901, -0.0161517, -0.000297031, 0.00929666, 0.0213142},
	{0.0105459, -0.0213932, -0.0368491, -0.00580456, -0.018677, -0.0327122, -0.0151985, 0.00678247, 0.0151575, 0.0220832, -0.0309762, 0.0329563, 0.00517755, -0.00819376, 0.0218396, 0.0278589, 0.0103205, 0.0185854, -0.019141, 0.0219522, 0.0324297, -0.0356934, 0.0296024, 0.00950232, -0.0212921},
	{0.0098017, 0.00336099, -0.0161726, 0.0209241, -0.0223889, -0.00816993, -0.00883884, -0.0058131, -0.0223119, -0.00959866, -0.0309334, 0.0187681, -0.00565328, 0.0139743, 0.00632022, 0.00191124, -0.010832, -0.0258296, 0.0144441, 0.0023538, -0.00245544, 0.0166313, -0.0204308, -0.0303395, -0.000765672},
	{-0.000662413, -0.00292513, 0.0259612, -0.00789923, -0.00555278, 0.00192987, -0.0298064, -0.0290732, 0.00513627, 0.00103239, 0.011428, -0.027685, 0.0139586, -0.000433492, -0.00583552, -0.00204854, 0.0141408, 0.0330553, 0.0278352, 0.00845712, -0.00696647, 0.0212075, -0.0229579, 0.0123377, -0.00598899},
	{0.0247439, -0.0475862, 0.0111104, -0.00250209, -0.0133269, 0.00978467, 0.00863027, 0.00274536, -0.027462, 0.038195, -0.0317307, -0.0273911, -0.0045044, 0.0460099, -0.0343645, 0.0310195, 0.029018, 0.0300668, -0.00343782, 0.00513868, -0.0243122, 0.0370801, -0.0403747, -0.0151468, -0.023111},
	{-0.0245942, 0.0216036, -0.00095267, -0.0130288, 0.0296079, -0.0355261, -0.019762, 0.0283345, 0.000304, 0.0106975, -0.0156136, 0.0122006, 0.0430358, 0.00839822, 0.00802276, -0.0327307, -0.0167685, -0.017217, -0.0142634, 0.000688392, 0.0117213, 0.0234035, -0.029952, -0.00013588, 0.00570264},
	{-0.0150843, 0.028083, -0.0250342, 0.00490548, -0.00561093, -0.020354, -0.0291372, -0.00831707, 0.00755016, 0.0312497, 0.0215098, -0.0159739, -0.032997, -6.27914e-05, -0.025428, -0.0110508, 0.0347131, -0.03398, 0.00664107, -0.0178814, 0.0125667, -6.86953e-05, -0.0205803, 0.0245348, -0.0198387},
	{0.0126459, 0.0144806, 0.00658301, 0.00696661, 0.015426, -0.00722322, 0.011671, 0.0102379, -0.026678, 0.0251183, -0.0270929, -0.0226285, 0.0154971, 0.0104991, 0.0091902, -0.0273584, -0.0320606, -0.00678577, -0.027879, -0.0236665, -0.0354708, -0.0189804, 0.0244769, 0.00590862, -0.0281927},
	{0.00917613, 2.76882e-05, 0.0289938, -0.0171346, -0.0435884, 0.0271151, 0.0130967, -0.0265847, 0.00731397, -0.0261567, -0.0252441, -0.0432101, -0.0112428, -0.0373987, -0.0253055, 0.0114168, 0.00122146, 0.00240471, 0.00499765, -0.0164277, -0.00759174, 0.0360022, 0.00999145, -0.00866314, -0.00320346},
	{0.000149091, 0.0373013, -0.0180189, 0.0186631, -0.0169279, -0.0218865, -0.00863687, 0.0197234, 0.0161065, -0.0469366, -0.00117117, -0.0288978, -0.0236163, -0.0323674, -0.00955867, -0.0218219, -0.0205231, 0.0258808, 0.0362403, -0.00903211, 0.0131405, -0.0161334, -0.000496912, -0.0172782, 0.00267808},
	{-0.0456891, 0.0126235, 0.00357231, -0.00482683, 0.013856, -0.0443376, -0.0298478, -0.0110328, 0.0129327, 0.0101186, 0.00931574, 0.0486827, 0.0344854, 0.0182926, -0.0250304, 0.00661625, 0.0272993, 0.0366872, -0.00146901, 0.0189241, -0.0385437, -0.0311146, -0.0419149, -0.0345425, 0.0180927},
	{0.0147731, -0.0152294, 0.00420586, -0.00904073, -0.0143327, -0.00983823, 0.0159827, 0.00608704, -0.00578652, -0.0113347, -0.0215243, -0.0286612, -0.00287609, 0.031432, 0.00491672, 0.0210534, -0.0103479, -0.0134645, -0.0266626, 0.0442825, 0.0308652, 0.0231693, -0.0362455, -0.0143461, -0.00823875},
	{-0.0441134, -0.0372726, -0.0299546, 0.0458697, 0.0156125, 0.0013352, -0.0132344, 0.0272056, 0.00691927, 0.0504652, -0.0227277, -0.010445, 0.0110716, 0.0268596, 0.000952863, -0.0299179, 0.000338732, -0.0200691, -0.0426313, 0.012462, -0.0260032, -0.0184256, -0.00963559, -0.0381072, 0.0124489},
	{-0.0185276, -0.0219072, -0.0043847, 0.0253489, -0.0089972, 0.000633444, 0.0264252, -0.00808382, 0.0136226, 0.00511967, 0.00159029, -0.000497452, -0.0216691, 0.0422837, 0.0229838, 0.0152901, 0.00993656, -0.0273785, -0.021753, 0.00235053, 0.0152103, 0.0194228, 0.0130623, -0.0225772, -0.0162445},
	{0.0128084, 0.00835457, -0.00561861, 0.00339293, 0.0161411, -0.00195532, 0.0136519, -0.000265639, 0.0269527, -0.0168248, 0.0255343, -0.0190877, 0.0172706, -0.0158465, -0.00953497, 0.004926, 0.0151909, 0.000594535, -0.0127541, 0.00490151, -0.0310812, -0.0290972, -0.0272656, -0.0138091, -0.0334237},
	{0.0252865, -0.0185214, -0.0344808, 0.0259103, -0.032, 0.00207212, -0.014341, 0.0256691, 0.0157719, -0.0273847, 0.00581538, -0.02136, 0.0360807, -0.0368505, -0.0156128, -0.0138445, -0.0236333, 0.00545341, -0.0265312, 0.033574, 0.0263838, -0.0337478, 0.0249135, -0.0212925, 0.0282137},
	{-0.00521777, -0.0284891, -0.0407113, 0.0329546, -0.00431114, -0.00307833, 0.0287496, 0.00175782, -0.0169346, 0.0340802, -0.0285474, 0.0139752, -0.0069392, -0.0209341, 0.0231278, 0.0254687, -0.0189606, 0.0366096, 0.0014991, -0.022623, -0.00183937, 0.0218618, 0.000825197, -0.0337218, 0.0211763},
	{0.0044779, -0.00190934, 0.0119943, -0.0201283, 0.0300162, -0.0215179, 0.021094, 0.031023, -0.0143974, -0.00154284, 0.0286061, -0.0157129, 0.0306046, -0.0167175, 0.0216284, -0.0309899, -0.0239188, -0.0198984, -0.0122358, 0.00960105, -0.0049513, 0.0209405, -0.0049436, -0.00472587, 0.00584526},
	{-0.000743847, -0.0244151, 0.0182978, 0.0131697, 0.0176511, 0.0103424, 0.00417842, -0.0184002, 0.00670272, 0.00919084, 0.0124858, 0.00361578, -0.0223225, -0.00499016, 0.013217, 0.0247414, -0.0117179, 0.0201212, 0.0130686, -0.0107302, -0.0244499, 0.0153147, -0.0378476, 0.0261962, 0.0252338},
	{0.00351008, 0.0168519, -0.0382293, 0.00859657, -0.0234267, 0.0176597, -0.0147072, 0.0113826, -0.0270403, 0.0233972, -0.0158234, 0.0229712, 0.0277867, -0.0179308, -0.0217212, 0.0115469, -0.0289476, 0.0378994, -0.0182494, 0.0262911, 0.0095555, 0.0260296, -0.00532607, -0.0285597, -0.0307171},
	{-0.0229509, -0.0260085, 0.0189357, 0.0258518, 0.0273877, -0.0223976, -0.0277928, 0.0319665, -0.0301377, -0.0314045, 0.0346995, -0.0289603, 0.0244002, -0.00623227, 0.0252355, -0.030107, 0.00760452, 0.0322999, -0.0218153, -0.0242676, -0.0264573, 0.012982, -0.0248349, -0.0177507, -0.0154691},
	{-0.00168812, -0.00173833, 0.0113826, 0.0395815, 0.0148856, -0.0279608, 0.0123057, -0.00615172, -0.00632516, -0.0154246, -0.00811288, -0.0230292, 0.042873, 0.0333272, -0.0314913, 0.021649, 0.0274234, 0.0389442, -0.0311771, 0.0153329, -0.0263323, -0.0159766, -0.0172432, 0.000883103, -0.0238519},
	{0.0340768, 0.0392931, 0.014177, -0.0232082, -0.0248346, 0.00491817, 0.011216, -0.0489657, 0.0565244, -0.00789423, -0.011323, -0.0563055, -0.0510771, -0.0126697, -0.00298914, 0.00359299, 0.0218723, -0.0448013, 0.0320944, -0.0491252, 0.0465561, 0.0119504, 0.0251222, 0.0293554, -0.0273317},
	{-0.0262022, -0.0284157, -0.0184291, -0.00962564, 0.00969126, 0.0201818, -0.00888443, 0.0104058, 0.0286501, -0.00364939, -0.00719944, 0.0154857, -0.0150497, -0.0320392, -0.019146, 0.00945743, -0.00424965, 0.00361481, 0.020176, -0.00083454, 0.00185991, 0.00457916, -0.00903202, -0.00423015, -0.00419202},
	{0.00746395, 0.0041566, -0.0123309, 0.0247776, 0.0247307, -0.0417039, -0.0068182, 0.0327433, -0.0173724, 0.043199, -0.0322884, 0.0142101, 0.000327262, 0.0222151, 0.0127371, 0.0114007, -0.013144, 0.000730471, -0.0303008, 0.0324238, -0.00333791, 0.0139317, -0.0481378, -0.0360532, -0.0166885},
	{-0.00975722, -0.020737, -0.0394023, 0.035815, -0.0123571, 0.00346143, -0.000660852, -0.0321266, 0.0199994, -0.0193498, -0.00967416, 0.0108934, 0.0135762, -0.00973071, -0.0150574, -0.0314294, -0.0283588, 0.0213947, -0.0364535, -0.00397719, 0.0116677, 0.0164726, 0.00145998, 0.017451, -0.0293938},
	{0.00284642, 0.0130444, -0.0460085, 0.0238733, 0.0328205, -0.0202798, 0.00714252, 0.0110032, -0.0324674, 0.0249591, 0.0265066, 0.0263579, 0.00714372, -0.000554318, 0.0190127, -0.0267411, 0.0218818, 0.0110175, -0.0215349, -0.000163174, -0.0253379, -0.0231563, -0.0344153, 0.00123076, -0.0141777},
	{0.00984119, -0.0208474, -0.0387359, -0.0106371, -0.00108461, 0.045326, -0.0272866, 0.0124299, -0.0267377, 0.0317803, 0.00582029, 0.0261428, -0.00890383, 0.0404529, -0.0324628, -0.0143391, 0.022615, -0.0218319, 0.0025947, -0.0237918, -0.0122654, 0.000681972, -0.0155756, -0.0144351, 0.0121173},
	{-0.0370754, 0.00995245, 0.00705108, -0.00274292, -0.0238628, 0.000277637, 0.0278262, -0.00041873, -0.00414573, 0.0368133, 0.0207761, 0.00377941, 0.00280174, -0.0199363, -0.0175369, 0.00965271, 0.00318808, -0.0291983, 0.0159954, -0.00891997, 0.0071193, 0.0307011, -0.0386429, -0.0290848, -0.0100893},
	{0.00745705, 0.00882026, -0.00429414, 0.0189719, 0.0143594, -0.0173816, 0.0134322, 0.00537522, -0.0265352, -0.0118284, -0.0272173, 0.00235566, 0.0308767, -0.0128599, -0.0170824, 0.0323974, 0.0160953, 0.0145333, -0.000235199, 0.0305354, 0.0150269, 0.0238496, -0.0229516, -0.0212445, 0.00713232},
	{-0.0243018, -0.00279989, 0.0189524, -0.00485649, -0.0191738, -0.0169912, -0.0106837, 0.00268467, -0.0146713, -0.00218065, -0.0256154, -0.000580769, 0.00942682, 0.0384424, 0.0332842, -0.0333998, -0.0066894, 0.010735, -0.00442555, -0.00965966, -0.0104419, -0.0129495, 0.0185681, 0.00998542, -0.000731638},
	{0.0289975, 0.00484544, 0.0275878, -0.0128423, -0.00235147, 0.0134735, -0.0203784, -0.010109, 0.0167068, -0.000197541, -0.0248522, -0.0215145, -0.00732803, -0.0118547, -0.0131453, -0.0108659, -0.0220687, 0.03151, -0.00684443, -0.021093, -0.0177916, -0.027326, -0.000862836, -0.0142898, -0.0167664},
	{-0.00826124, -0.000877925, 0.0282235, -0.00144317, -0.00372118, 0.0477283, 0.00782129, 0.0179199, -0.0104556, 0.0286143, -0.0132734, 0.0205247, -0.00915697, 0.0251595, 0.0115052, -0.0168743, -0.0106, -0.0294825, -0.00204348, 0.0179715, -0.0226388, -0.00244111, -0.00490403, 0.0138233, -0.009595},
	{-0.0399301, -0.0126004, 0.00836028, 0.0143882, -0.00120037, -0.0463954, -0.00347, -0.00257848, 0.0248751, -0.010138, -0.0200731, -0.0154122, -0.0156013, -0.000646477, -0.0171414, -0.0256457, -0.00633063, 0.0202243, 0.00599893, 0.0240871, 0.0257736, -0.0154067, 0.00468678, 0.0111536, 0.00310082},
	{0.00555301, 0.0162763, -0.0100646, 0.00818744, -0.0315927, 0.0196425, -0.0325917, 0.0145299, 0.0225535, -0.00819486, -0.0270528, 0.0282023, 0.0162582, -0.000167778, 0.0203105, -0.0025988, 0.0285171, 0.0109971, 0.00143838, -0.0280333, 0.0237939, 0.0238761, 0.0146616, 0.00689963, 0.00440581},
	{0.000857401, -0.0205984, -0.0114456, 0.0198421, 0.000525061, 0.013883, 0.00711441, 0.0288409, 0.0258477, 0.0242066, 0.0109994, 0.015669, 0.0188875, 0.0052401, 0.027461, -0.0103785, 0.0173974, 0.0388342, 0.0147984, 0.00421307, -0.0219593, 0.0102187, 0.0263265, 0.0299897, 0.0147516},
	{0.0121321, 0.0392866, 0.0328648, -0.0509678, -0.0447915, 0.0364397, -0.0241595, -0.0174786, 0.0498438, -0.0166744, 0.00144959, -0.0572011, -0.0230161, -0.0122946, -0.0180061, 0.00406223, -0.015347, -0.0285146, 0.0281261, -0.0300455, 0.00418544, 0.0417869, 0.00936969, 0.0154952, -0.00678513},
	{0.0228726, -0.0106163, 0.0252041, -0.00628237, -0.0090237, 0.0066209, 0.0273664, -0.0295161, -0.0327955, -0.0189405, 0.0327303, 0.0274769, -0.0114265, 0.0234756, 0.0154364, -0.0191136, 0.0341196, 0.0334767, 0.0164536, -0.0295213, 0.0106058, -0.00367831, 0.0150937, -0.0134021, 0.012824},
	{-0.0075888, 0.0196082, 0.0216015, -0.0108732, -0.00647658, -0.0060878, -0.00756897, -0.0103, -0.00862396, -0.0176801, -0.0207229, 0.0475189, 0.0378958, 0.0309312, 0.0245778, -0.0344977, -0.0288623, 0.023906, 0.0231865, 0.0440654, -0.0339899, -4.35321e-05, -0.0299501, 0.0189164, -0.00415503},
	{0.0199525, -0.0320232, 0.0146145, 0.0170205, -0.00239364, 0.0214404, -0.0192312, -0.00909272, -0.00546902, 0.0149305, 0.0141572, -0.00874354, -0.0120377, 0.025183, -0.0285094, -0.027242, 0.00652754, 0.00731721, -0.0306908, -0.0248545, 0.0124078, 0.0105194, 0.00979336, 0.00390177, 0.0283409},
	{0.0059286, 0.0154067, -0.00553617, 0.0390968, 0.00228202, -0.0155784, -0.0248453, 0.00126776, -0.0324473, 0.0315675, 0.00244271, 0.03219, -0.0183399, 0.00641929, 0.00340634, -0.00668162, -0.0324008, 0.0332189, -0.0397242, -0.00922165, -0.0363931, -0.00123548, -0.0287511, 0.0187866, -0.0243225},
	{0.0193126, -0.0406263, -0.0174412, -0.0165221, 0.0330032, 0.0268471, -0.0160896, -0.0182224, -0.0202413, 0.0315053, -0.00236485, -0.00253292, 0.0280822, 0.00561957, 0.00350597, -0.016269, -0.0271072, -0.035388, 0.0206296, -0.0181556, -0.0213306, 0.0391284, -0.0276801, -0.0119787, -0.0410562},
	{-0.0260779, -0.00527255, -0.00521996, -0.00657465, -0.0205522, -0.000547122, -0.0107557, -0.00396522, -0.00791766, 0.00310954, -0.0243682, 0.0179236, -0.0179208, 0.00851118, 0.0123203, 0.0105289, -0.0264219, -0.0118828, 0.0194139, 0.0102399, 0.00806886, 0.0189514, 0.00264347, 0.0233803, 5.50746e-05},
	{-0.0185621, -0.0242794, 0.0108065, 0.0307561, -0.0177266, -0.0237794, -0.00726, -0.000802711, -0.0162287, -0.00339212, -0.00493356, 0.0166787, 0.0205896, 0.0248921, 0.0255688, 0.00626677, 2.52836e-05, 0.0154587, -0.00621448, -0.0220681, 0.0119945, -0.00621638, -0.0183769, 0.00681311, -0.0247571},
	{0.00517048, 0.0197608, -0.0340753, -0.0268434, 0.0144744, -0.0104607, -0.003812, 0.0261042, -0.0224849, 0.0366979, 0.00830544, 0.0140705, -0.00706196, 0.00720587, 0.0339183, -0.019171, -0.0130423, -0.0264057, -0.0208995, -0.0238126, -0.0281401, -0.00156262, -0.0246077, 0.00271483, -0.0189469},
	{-0.0218867, -0.0150495, 0.00802757, -0.0207897, -0.0157061, 0.00629184, 0.0124506, -0.00794445, 0.0183004, 0.0317328, -0.0132621, 0.01873, -0.0178934, -0.0122488, -0.0286323, -0.00399088, 0.0177745, 0.0324265, -0.0228724, 0.00446579, 0.0216272, 0.0127492, -0.0083297, -0.00963678, -0.0133792},
	{0.0100016, 0.0157706, -0.0228553, -0.00411761, 0.011573, 0.0351789, -0.00945788, -0.022391, -0.00428018, 0.0289114, -0.0189437, 0.00560848, -0.0232282, 0.0289444, -0.0266368, 0.0318658, -0.0141733, 0.0309309, -0.0278238, -0.0276156, 0.0277739, 0.0255494, -0.0443045, 0.0293769, 0.00881393},
	{0.0073865, -0.00285988, 0.00551809, -0.0269995, 0.0117068, 0.00182909, -0.0147222, -0.00993487, -0.0262022, -0.027656, -0.00829644, 0.0164354, 0.0357992, 0.0164235, 0.012532, -0.0260357, -0.000537239, 0.0392988, -0.0223405, 0.00858275, -0.0124974, 0.0242351, -0.010938, 0.0278611, 0.0191388},
	{-0.0183737, -0.0125592, -0.0185899, 0.000295835, 0.0219508, -0.0222093, -0.0201788, 0.00126813, 0.018766, -0.0172801, 0.00800281, 0.00960803, -0.00433432, -0.00090681, 0.0135032, -0.0187192, 0.0321874, -0.000332893, -0.015247, -0.00157627, -0.000985318, 0.0179537, 0.0166284, -0.0162554, 0.0278869},
	{0.00604678, -0.00203542, 0.00766051, -0.0210942, 0.00753133, 0.00623776, -0.00872006, -0.0166619, 0.0270385, -0.0181662, 0.00548768, -0.0305415, -0.0101435, -0.0165226, -0.0242363, 0.0209881, -0.00276015, 0.00960742, 0.00524804, -0.01708, 0.0319476, -0.0113695, 0.0163935, -0.0187959, -0.0201299},
	{0.0471306, 0.0231448, 0.0311523, -0.0168185, -0.0350294, 0.0244097, -0.0301527, -0.012165, 0.0240645, 0.00306793, 0.0548761, -0.0250095, -0.040949, -0.00253145, -0.0149502, -0.0143227, 0.0150517, -0.00393375, 0.0170302, -0.014767, 0.0540136, 0.00998234, 0.0189502, 0.056863, -0.0139658},
	{-0.0276015, -0.00442882, 0.0129738, 0.00888557, -0.0330574, -0.0264756, 0.00651421, -0.024974, -0.00589355, 0.0279908, 0.00903306, -0.0293042, -0.00556273, -0.0104758, -0.0253566, -0.0168625, 0.0230525, 0.00524787, -0.0235648, 0.0298541, -0.013599, 0.0116561, 0.00169862, 0.0177172, 0.0313509},
	{-0.0136988, -0.0022577, 0.0048239, 0.0456715, 0.0323113, -0.0355646, 0.0251973, -0.0168192, 0.0193092, 0.0167027, 0.0108709, 0.0445199, 0.0314457, 0.0233665, -0.00740763, 0.0128326, 0.000266127, 0.000743707, 0.0205873, 0.0252975, -0.00028431, -0.00293619, -0.00458115, -0.0154635, 0.0175353},
	{-0.0300648, -0.0288839, -0.0143367, 0.0357294, -0.0149767, -0.00192187, 0.0282698, 0.00606367, -0.022737, 0.0026105, -0.0329456, -0.0160305, 0.0288303, 0.037674, -0.0255501, 0.0316, -0.0237319, -0.00732396, -0.00301856, 0.0234596, 0.00389188, -0.0170346, -0.0431411, 0.0282997, 0.00135595},
	{-0.013999, -0.0158337, -0.00651999, 0.0170145, 0.0276868, -0.0136627, 0.0282467, -0.00674633, -0.0339047, 0.0259759, -0.036054, 0.0174774, 0.0212659, 0.0207413, 0.025354, 0.00713195, -0.0180415, 0.00624519, -0.0315683, -0.00259445, -0.00987369, -0.0308908, 0.0161494, 0.0206743, 0.0185146},
	{-0.00900956, -0.0320017, 0.028868, 0.0322714, 0.0239901, -0.012775, -0.000466354, -0.0333423, 0.0193874, -0.00505168, 0.015345, 0.00599086, -0.0338574, 0.00822248, 0.00806866, 0.0156675, -0.0156512, -0.0188867, -0.0123911, 0.0237547, 0.0306032, 0.0348429, -0.0191469, -0.0096841, 0.0245808},
	{0.0233504, 0.027248, 0.0248068, -0.00701657, -0.0141808, -0.0191733, 0.0278334, -0.0163349, -0.0175787, 0.0194164, -0.0212224, -0.0148065, 0.0141612, 0.022041, -0.0269407, 0.0194607, -0.00998558, -0.00975507, -0.0178232, -0.0181889, 0.0194273, -0.0104636, 0.0307833, 0.0147137, 0.0318965},
	{0.0311188, -0.00329514, -0.0121106, -0.0345213, 0.00140999, 0.0106413, 0.0182961, -0.0146154, -0.00676221, -0.0137072, 0.0215555, 0.00995227, 0.0220041, -0.00427297, 0.0224426, 0.0256149, 0.0341816, -0.0274184, 0.0195442, 0.00924355, 0.00345371, 0.0351923, 0.0181583, -0.00239674, 0.0240654},
	{-0.0108511, 0.0113762, -0.0352953, -0.0223692, -0.0206884, 0.00889239, 0.0218951, 0.0110529, -0.0128162, -0.00862054, 0.0134641, -0.0263146, 0.000753005, 0.0345738, -0.0116851, -0.0128637, -0.00483853, -0.0296777, 0.0145869, 0.0329207, 0.0139215, -0.0129247, 0.013542, 0.0199032, -0.0137144},
	{-0.00769141, 0.0186433, -0.0240606, 0.0304488, -0.013222, -0.000255539, 0.00470569, -0.00728133, -0.0044522, 0.0219781, 0.0221771, -0.0117876, 0.0210988, 0.0447496, 0.0211484, 0.0108447, 0.0323199, 0.0328666, -0.0186459, 0.012475, 0.0078898, 0.0228829, -0.0393352, 0.00567768, -0.0023555},
	{-0.0158725, -0.0184052, 0.00871248, 0.00828866, 0.00418832, 0.0350067, -0.0278702, -0.00673864, 0.0184251, 0.0123272, -0.00224727, 0.0179876, 0.0121749, 0.0234455, 0.01502, -0.0034535, -0.0260108, 0.00532645, -0.0166516, -0.0138383, 0.0125137, 0.0301288, -0.00453642, -0.028754, 0.00660777},
	{-0.0209441, -0.00348446, -0.0251126, 0.00900495, -0.0153495, -0.0402558, -0.00572462, 0.00437642, -0.00986587, -0.0333565, 0.0257377, -0.0174913, 0.0243391, -0.0253721, -0.0130727, 0.0183073, -0.00916962, 0.0393844, -0.033206, -0.0157761, -0.020319, -0.0433961, -0.0273187, -0.0115251, 0.0365012},
	{-0.00310127, 0.00221227, -0.0140923, 0.00361159, -0.0190983, -0.0297723, 0.0133965, 0.0269182, 0.0207732, 0.00436047, -0.0299763, 0.00494222, -0.021005, -0.0250485, -0.025499, 0.0195755, 0.0256165, -0.010466, 0.0162989, -0.0161141, -0.0152379, -0.0205136, 0.00151843, 0.00583692, -0.0240057},
	{-0.0167964, -0.0341022, 0.0188409, -0.00642288, -0.0213673, -0.0162376, -0.0105908, 0.0232067, -0.026385, 0.0289862, -0.00107138, 0.0188775, 0.0165816, 0.0029033, 0.0108443, -0.0162448, 0.0131629, 0.0327357, -0.0200578, 0.00483132, 0.0180463, -0.0174648, -0.0226025, 0.0132702, 0.00614844},
	{0.0152287, 0.0207856, 0.0262423, -0.0160465, -0.0253938, 0.00434374, 0.0150456, -0.0496148, 0.0279196, -0.0288574, 0.0396929, -0.0604801, -0.0112794, -0.0296326, -0.0120611, 0.00568234, 0.0444866, 0.00344816, 0.0260212, -0.0199834, 0.0306026, 0.0387337, 0.0250978, 0.00425823, -0.0047506},
	{0.0318501, 0.00816108, -0.0301907, 0.0135351, -0.0028517, 0.00457235, 0.0190593, -0.0287288, -0.00901363, 0.0179889, -0.0269141, -0.00229716, -0.00812199, -0.0209549, -0.0175603, 0.00466093, -0.0134303, 0.0114125, -0.0294597, 0.025935, -0.0200287, 0.00710521, 0.0202591, -0.0242225, 0.00694659},
	{0.0329762, -0.0239683, -0.0104718, 0.0377656, 0.000900146, -0.0307929, -0.00831698, 0.0195421, 0.0162813, 0.0105042, 0.0227004, 0.0262874, -0.0257979, 0.000970088, -0.0200513, 0.0189334, 0.00406909, 0.006137, -0.0179799, -0.00113298, 0.00314313, 0.00830014, -0.0163356, -0.000662877, 0.0204188},
	{0.000918898, -0.0445279, -0.0411953, 0.0308495, -0.000784485, 0.034566, -0.0104146, -0.031536, -0.00092377, 0.0500813, 0.0249982, 0.0160909, 0.0216848, 0.00951745, -0.00597539, 0.0279321, 0.00305341, -0.00463889, -0.0223996, 0.00924546, -0.00226593, -0.00419358, 0.00873496, -0.00278424, -0.00667576},
	{0.0242685, -0.0183106, 0.00769048, -0.0210922, 0.0250199, -0.0220369, -0.0239471, 0.0291974, 0.0186333, -0.0211903, -0.0137508, -0.0021289, 0.0273743, 0.0195368, -0.0171987, 0.00153424, 0.0273387, -0.00675415, -0.0283605, -0.0110099, -0.0111382, -0.00269844, -0.0134135, 0.000154133, 0.0293315},
	{0.0236432, -0.035934, 0.0256109, -0.0229249, 0.00359671, -0.0211265, -0.028541, -0.0145439, -0.0263321, -0.0149625, -0.0145365, 0.0108907, 0.0139331, 0.0110515, 0.0250359, 0.00755694, -0.0172649, 0.0125158, 0.0330406, 0.0280549, -0.00289739, -0.0253963, -0.0229686, -0.0231535, 0.0269323},
	{0.0177987, 0.0273662, -0.00473875, -0.0123209, -0.0218, 0.00515341, 0.00917557, -0.0224209, -0.0111384, -0.00279027, -0.0123608, 0.0131076, 0.0239177, -0.0187995, 0.0351255, 0.0248228, 0.0146665, -0.0205565, 0.0259857, -0.00953471, 0.0297229, 0.0357679, -0.0132485, -0.0188524, 0.0217711},
	{0.0130562, 0.0236842, -0.0246978, 0.021796, 0.021765, 0.019943, -0.0206427, 0.00443519, 0.0340036, -0.0142775, -0.0192861, 0.0035879, -0.0139005, 0.010606, -0.0264067, 0.000565279, 0.0177575, 0.0190045, 0.0136177, 0.028524, -0.0156602, 0.0226511, 0.0281634, -0.0122185, 0.0189768},
	{-0.00761944, -0.0114242, -0.0207194, -0.0307876, -0.0175185, -0.0153373, 0.013823, 0.0216547, 0.0176597, 0.0298777, 0.00616183, -0.0231643, 0.00286706, 0.0112015, 0.0173077, -0.0296275, -0.00609149, -0.0234332, -0.000351733, -0.0198018, -0.0324255, 0.011115, 0.0175273, 0.0079913, 0.0183087},
	{-0.0173977, -0.008967, 0.0325787, 0.0257253, -0.02699, 0.0248926, -0.0288981, -0.0168219, -0.0261952, 0.0237402, 0.00788571, 0.00414177, -0.0178162, -0.0162653, -0.0228659, 0.0213163, 0.0379273, -0.0220937, -0.00459087, -0.0344468, 0.0021035, -0.00796148, -0.00276906, -0.0147509, -0.0143269},
	{0.00091905, -0.0251236, -0.00698733, 0.026616, 0.0144811, 0.00992418, 0.0255415, -0.00998437, 0.027077, 0.00865869, 0.025424, 0.0199327, 0.0259718, 0.0200638, 0.0318898, -0.00651472, -0.00781615, 0.0108027, 0.00381177, 0.0109751, -0.0300543, 0.028633, 0.0153458, -0.0214001, -0.00905338},
	{0.0342534, -0.028743, -0.0201201, 0.0262317, 0.000394283, -0.0210451, 0.0325816, 0.0319341, 0.00768865, -0.00211371, 0.0216565, 0.00136327, -0.00242852, -0.0255013, -0.0223214, -0.00496976, -0.0211847, -0.0189803, -0.0203223, -0.0198023, 0.0192333, 0.0126689, 0.0158792, 0.0127092, 0.0391516},
	{0.0305273, 0.0310348, -0.0281543, -0.0195413, 0.0286865, 0.00211571, 0.0329042, 0.0304865, 0.0341346, -0.0144145, -0.0086989, 0.0144928, 0.0277334, -0.00885063, -0.00184899, -0.000235032, -0.00450314, -0.0189503, -0.0308455, -0.0265252, -0.0119023, -0.0273801, 0.0417141, -0.0124264, -0.00926419},
	{0.00538035, -0.00583975, 0.0163614, 0.0210631, -0.0217122, 0.00569369, -0.0208192, -0.0103696, -0.0136242, -0.0238118, -0.0259828, -0.00569364, 0.0388071, 0.0117396, 0.0154383, -0.0327361, -0.0122446, 0.0329735, -0.00776654, 0.00661555, 0.0197795, -0.0349064, 2.37501e-05, 0.0166215, -0.0127095},
	{0.0333964, -0.0153061, 0.0470701, -0.00372273, -0.0116884, 0.0110677, -0.000661818, -0.0227279, -0.00550576, 0.00184342, 0.0179858, -0.022605, -0.0194812, 0.00320321, -0.00925287, 0.0235394, 0.0318597, -0.0155511, 0.0447021, -0.00912331, 0.0245492, -0.00462166, 0.0162964, 0.0214022, 0.02249},
	{-0.0125489, 0.0232816, 0.0125129, 0.013309, 0.00593616, 0.0290304, 0.0127191, -0.0283657, 0.00573358, 0.00755904, 0.0132439, 0.0177122, -0.00724212, 0.00473369, -0.0314804, 0.0190351, 0.000622222, -0.0248594, -0.000533293, 0.0240747, -0.0207348, 0.0261193, 0.0188034, -0.00256117, -0.0106671},
	{-0.0191411, -0.00374612, 0.00445896, 0.0175618, 0.0237793, 0.00974302, -0.00510379, 0.0212765, -0.0268225, 0.00284059, 0.0168718, 0.0129, -0.023367, 0.0105253, -0.00632365, 0.0286881, 0.0213405, 0.0224728, 0.016557, -0.00243283, 0.00415332, -0.0036947, 0.0189327, -0.0132417, -0.0182493},
	{0.0106655, -0.0112914, -0.0400261, -0.0188747, -0.0160192, 0.0358058, 0.0312584, -0.0283897, 0.00135114, 0.0566821, 0.0272503, -0.0161116, -0.00834847, 0.0194518, 0.0184755, -0.0224022, -0.0368561, 0.00385703, 0.00593117, 0.0265522, -0.00722616, 0.000955789, 0.00231443, 0.0169129, 0.00871516},
	{0.00219975, 0.00173951, -0.00969326, -0.0267113, 0.0166016, 0.0150485, 0.00197732, -0.0213222, -0.0277665, 0.0295803, -0.0310922, 0.0196777, -0.02191, -0.02596, -0.0201051, 0.0241131, 0.0140143, -0.0105615, -0.000599208, 0.0357053, -0.0173757, -0.00955871, -0.0183712, 0.0187162, -0.0345153},
	{-0.0291712, 0.0241403, -0.00717423, 0.00559775, -0.00653114, 0.0309697, -0.0309207, 0.0193477, -0.0249813, 0.00349867, -0.0152812, -0.0194979, 0.0189913, -0.0273461, -0.0293736, 0.0147294, -0.0330152, -0.022115, 0.0230672, 0.028436, 0.0266393, 0.0264613, -0.0285608, 0.0212347, 0.0196998},
	{-0.000378228, -0.0255558, -0.0288789, 0.0163691, -0.0112959, 0.00151593, -0.0253093, 0.017873, -0.0198981, 0.014279, -0.0053978, -0.00739526, -0.0280909, 0.0260938, 0.0237287, -0.000824794, 0.012412, 0.0152663, -0.0185838, -0.0227412, -0.0217849, -0.0275344, 0.0318328, 0.0188657, 0.0127365},
	{-0.0280606, -0.0170624, -0.014276, -0.0170763, -0.00898131, -0.0150644, 0.0185516, 0.0223926, -0.0312502, 0.0124643, -0.0327542, 0.0106285, -0.00589151, -0.0231894, 0.00224935, 0.0210724, -0.025821, -0.013992, -0.021853, 0.0194735, -0.00987756, -0.0300547, -0.00291048, 0.0204752, 0.0287778},
	{-0.0128778, -0.0314664, -0.0327076, -0.00993822, 0.0191448, 0.00739698, 0.0125678, -0.0192902, -0.0147314, 0.0184503, -0.00271358, -0.00418657, 0.0235614, -0.0310209, 0.0205755, -0.00957396, -0.0311463, 0.0135917, 0.0113506, 0.0171358, -0.0252615, 0.0313956, -0.0247095, -0.00156313, 0.0183991},
	{0.0282071, -0.00546591, -0.00886086, 0.000291983, 0.0192644, 0.0373331, 0.0335274, -0.0186278, -0.0338245, 0.0232842, -0.0165138, 0.0220928, 0.0285122, 0.0332373, 0.0264375, 0.0108824, 0.026653, 0.0259631, 0.0112737, 0.020772, -0.0300109, -0.00590088, -0.03288, 0.00040596, 0.0309335},
	{0.000374054, 0.0268191, 0.0165568, -0.00618032, 0.0227898, 0.0204785, 0.00188459, -0.0174365, 0.00979988, -0.0152409, 0.0257429, 0.00724631, 0.0223749, -0.00855633, -0.0187421, 0.00410967, -0.0270714, -0.0159078, 0.0247049, 0.0133516, 0.0168303, 3.10185e-05, -0.026502, 0.0142537, 0.000473341},
	{0.0112149, -0.024316, -0.0286384, -0.0053005, -0.0233981, -0.0268004, 0.0162037, 0.0168633, 0.030907, 0.0164346, 0.024067, -0.0183475, -0.0225631, -0.0166952, -0.0131605, -0.0329659, 0.00897284, -0.0117523, 0.00898971, 0.00972609, -0.0230056, 0.0114519, -0.0238973, 0.00892122, 0.0371632},
	{0.0222131, 0.0334196, -0.0286536, -0.00460639, -0.0304357, 0.0109154, 0.0187721, -0.00631002, -0.0125061, 0.00475715, -0.0187504, -0.0137935, -0.0245288, -0.0126856, 0.0225219, -0.0226434, 0.0303744, 0.0101137, -0.00622698, 0.0141472, -0.0153765, 0.0177453, 0.0215175, 0.0109699, 0.0125899},
	{0.0169579, -0.0354603, 0.0201284, -0.00431013, -0.0127225, 0.0223845, 0.0247617, -0.00411664, 0.00610901, -0.0147134, 0.00923854, 0.0084064, 0.00130967, -0.0112689, 0.0272472, 0.00358876, -0.0114952, 0.00384063, -0.0129965, -0.0144436, 0.0256226, -0.0284355, 0.00969605, -0.006487, -0.00647798},
	{0.0394587, 0.0106189, 0.0274754, -0.00880622, 0.00697058, -0.00461495, 0.00069124, -0.0257351, -0.00211266, -0.0158541, -0.0244134, -0.0350509, 0.0119416, -0.0229814, -0.0063237, -0.0146351, 0.0292098, 0.0541828, 0.0115315, -0.021032, 0.0254122, -0.0240469, 0.0090106, 0.00856268, 0.022515},
	{0.0219919, -0.00862934, -0.0223915, -0.0154552, -0.000333388, 0.0144698, 0.00275645, -0.00102401, 0.013097, -0.00519712, 0.0160238, 0.0282993, 0.0298901, -0.0091787, -0.0120148, -0.0196081, 0.0344263, 0.0306776, -0.00607008, -0.0240245, -0.0239252, 0.017388, -0.0110041, 0.01391, 0.0172802},
	{0.0293887, 0.00587343, 0.0417236, 0.0152846, 0.0056622, -0.0117312, -0.0227757, -0.00575898, -0.00683214, 0.0330365, 0.0265721, 0.0248865, -0.0253442, 0.0120291, -0.00705035, 0.0109317, 0.0144731, -0.00772595, -0.00836025, -0.0206807, -0.00572558, -0.0266492, -0.0196791, 0.0282531, -0.00188387},
	{0.00627529, -0.0169927, -0.0479918, 0.0008822, 0.00217478, 0.00366696, -0.0101041, -0.0337181, -0.00979391, 0.00825972, 0.0310842, 0.0315118, 0.00788679, 0.0385903, -0.0218538, 0.0266125, -0.0301061, 0.0167846, 0.0137496, -0.0229838, -0.000424157, 0.00896409, 0.00930811, -0.0276949, 0.0213912},
	{-0.0191154, -1.18969e-05, -0.0401007, -0.0272343, 0.0126428, -0.0107471, -0.0133439, 0.0322759, 0.00377379, 0.035615, 0.0317082, 0.0182903, 0.0131971, 0.0033172, -0.00510451, 0.0278802, 0.0278145, -0.0301776, 0.0175539, 0.0315256, 0.00798239, 0.00407168, -0.0291145, 0.00235496, 0.0227758},
	{-0.00493187, -0.0173823, -0.0279308, -0.0203933, 0.0140504, -0.006107, 0.0102799, -0.0113966, 0.0156651, -0.0135453, 0.00217404, 0.0106577, 0.00110375, 0.0119558, -0.0217842, -0.0300933, 0.0321526, 0.0025284, -0.0298163, 0.00535539, -0.00736388, 0.00112894, -0.0284375, -0.0308559, 0.0106841},
	{-0.0289742, -0.0163396, -0.00766744, 0.00139538, -0.0319932, -0.0238646, 0.0237876, 0.0101439, -0.029918, -0.0244396, 0.0100782, 0.0261405, -0.00883117, 0.00606746, -0.0225611, -0.0253757, 0.0037404, -0.0341738, -0.0134439, 0.00171108, -0.0200105, 0.012226, -0.0106371, 0.0273285, 0.00302667},
	{0.00290627, 0.000828316, 0.033043, -0.00992356, 0.0308888, -0.00359366, -0.01769, 0.000289914, -0.0300324, 0.0238986, -0.00451636, 0.00265775, 0.00402208, -0.0267384, -0.025253, -0.00603893, -0.0287503, 0.0365672, 0.0207774, -0.0341344, 0.0236362, -0.0199451, -0.00400587, -0.0261748, 0.0227075},
	{-0.0102767, -0.015428, 0.0312144, -0.0178416, -0.0249412, 0.0076768, 0.00375103, 0.0100893, 0.0321314, -0.020524, -0.00821964, 0.000601847, 0.017417, -0.0108032, 0.00172529, -0.0107035, -0.032417, 0.0155419, -0.0104958, -0.0229188, 0.0268079, -0.00851289, -0.0282164, -0.00326387, 0.00860525},
	{0.0229353, -0.00368998, -0.0103384, -0.0291002, 0.0275893, 0.0426605, 0.00643013, -0.00891813, -0.0194698, 0.0536506, 0.0279769, -0.0158682, 0.0110161, -0.016899, -2.23376e-06, 0.025363, 0.0380679, -0.00492436, 0.00776932, 0.017772, 0.0242522, 0.0104711, 0.00811782, -0.0133879, -0.0145693},
	{0.0311607, 0.0285815, -0.000709788, 0.00988396, 0.0164351, 0.00913544, 0.0158892, -0.031131, 0.0327185, -0.00564344, -0.0211814, -0.0242807, 0.00534435, -0.0206222, -0.0260784, 0.0219323, 0.00749509, 0.02811, 0.0242916, -0.00214418, -0.0286711, 0.0345238, 0.000323556, -0.0251601, -0.0177156},
	{0.0347831, -0.0234956, -0.00490684, 0.0253628, 0.00830987, 0.0075817, 0.0140015, 0.00170291, -0.0273226, -0.00544903, 0.00272653, -0.0100798, -0.00682167, 0.00788974, -0.00933483, -0.0189213, 0.00930465, -0.0113069, -0.0118844, 0.020018, -0.00495954, 0.0136086, -0.0327778, 0.00730101, -0.0253689},
	{0.0326431, 0.0224575, -0.00946725, -0.0146708, -0.0148327, -0.000172632, -0.0129127, -0.0209941, 0.00348257, 0.00561773, -0.0168262, -0.0222368, 0.0232632, -0.0365096, -0.0081055, 0.0278341, 0.00919369, 0.0192244, 0.0287664, -0.00118363, -0.0201797, -0.00724774, 0.015896, -0.0120852, 0.023957},
	{0.0345408, 0.0180766, 0.0381681, 0.0114588, 0.000801776, -0.0275917, -0.0286065, 0.00150274, -0.0137333, 0.000616362, -0.00611644, 0.00659918, -0.0106119, 0.0374417, -0.00715095, -0.0100897, 0.0158161, 0.0147343, 0.0304577, -0.0175555, 0.00866886, -0.030451, 0.0199484, -0.0060864, -0.0152449},
	{-0.0164282, 0.0150424, 0.000274427, 0.0211458, 0.0142818, -0.0226762, 0.0204415, 0.0241191, 0.0317075, 0.020596, -0.0173484, -0.0214036, -0.00023383, 0.0127652, 0.0243971, 0.0231522, 0.0435046, 0.0238124, 0.0106167, 0.028105, 0.00791257, -0.0376174, 0.00169188, 0.00562315, 0.0238577},
