float weightIH[883][25] = {
	{-0.0157228, 0.0127872, 0.0355414, 0.0243223, 0.0278511, 0.0289431, -0.0144723, -0.0132512, -0.0283596, -0.040961, 0.0575222, -0.00930861, -0.0149373, -0.00652294, -0.0354444, -0.0258309, -0.0307285, -0.0129668, -0.0366395, 0.00267957, -0.0186178, -0.0307921, -0.0224549, 0.0283165, 0.0223923},
	{0.011336, -0.0199151, -0.0302831, -0.0383077, 0.0371824, 0.0176466, -0.0202299, -0.0286114, 0.0321914, -0.0080658, 0.0424298, 0.00795904, -0.0321637, -0.01289, -0.00221599, -0.040651, -0.0381378, 0.0333233, 0.0456857, 0.0416249, 0.00111482, -0.016254, -0.0117872, -0.000223075, -0.0604311},
	{0.0176567, 0.0147669, 0.0177071, 0.0336554, -0.0191489, 0.00872844, -0.0361415, -0.0298485, -0.015904, -0.00514545, 0.0609768, 0.0306937, 0.0293538, -0.0417149, -0.0403849, -0.013678, 0.0305717, 0.02976, -0.0185919, 0.0392299, 0.0179121, 0.00180843, -0.0120387, 0.034602, 0.0158634},
	{0.00708072, 0.00644181, -0.0156459, -0.0125228, -0.0139724, 0.0462493, 0.00327167, 0.0153305, -0.0448329, 0.0368824, 0.0197651, 0.00666834, -0.0172327, -0.0260174, 0.0157222, -0.00569737, -0.0168922, -0.0427705, -0.0124003, -0.000935386, -0.0443442, -0.0156177, 0.0217213, 0.00513793, 0.00470373},
	{-0.00978831, -0.012211, -0.023388, -0.0135833, -0.0182968, -0.00802774, 0.0307111, -0.0144976, 0.00999841, -0.0365387, 0.0545699, 0.0160797, -0.0162307, -0.00615935, -0.0147662, -0.00244629, -0.0216126, -0.0300483, -0.000549926, -0.0198221, -0.0137519, -0.0278507, 0.0219955, 0.0391804, 0.041411},
	{0.0136051, 0.011416, -0.0227757, 0.0115711, -0.0147331, -0.0036045, -0.00756746, -0.00532559, -0.0266159, 0.029708, -0.0164765, 0.00180904, 0.0232168, -0.00952866, 0.0318379, -0.0186852, 0.0233979, 0.011276, 0.0127908, 0.0275765, 0.00725465, -0.0211089, -0.00741781, -0.00127144, 0.000452566},
	{-0.0230772, -0.0140811, 0.0207617, 0.00908388, -0.0297188, -0.0115597, 0.0365912, 0.0275517, 0.0184391, 0.00462577, -0.012844, -0.000823246, -0.0134319, 0.0120081, -0.0291968, 0.0098584, 0.0298944, -0.00449346, -0.0068591, -0.0366694, -0.0104205, 0.0150311, 0.0220769, -0.00600753, -0.018293},
	{-0.000762395, 0.0108728, 0.00120977, -0.00401442, -0.0346162, 0.0175108, -0.0125226, -0.0176605, -0.00285662, -0.00686785, 0.0045772, -0.0266537, 0.0324513, -0.00360926, -0.010627, 0.0335597, -0.00131061, -0.0069876, -0.0316997, -0.0171527, 0.0131175, -0.0280772, 0.0158563, 0.013794, 0.0255904},
	{0.00480293, -0.00538644, -0.0158208, 0.00213489, -0.0297649, -0.00785014, 0.0338343, -0.0104918, -0.0423384, -0.00150039, 0.0107855, 0.00397866, -0.0131649, -0.0241522, -0.0174836, 0.0128231, -0.00781401, -0.0238246, 0.00314878, -0.0272081, -0.0246219, -0.0171535, 0.022259, 0.0286396, 0.0111542},
	{0.0268578, 0.00475248, -0.0279217, 0.00696377, -0.00266521, -0.00560507, -0.020007, -0.00296878, 0.00564634, 0.0232629, 0.0282274, 0.0204874, 0.0074018, -0.0326285, 0.00322376, 0.0172803, 0.00281017, -0.0206723, 0.0214256, -0.0264032, -0.00162157, 0.0152657, 0.009446, 0.00625563, -0.0219431},
	{0.0170017, 0.0139678, 0.0034981, 0.0292735, -0.0183624, 0.0199692, 0.0159767, 0.014732, -0.0410182, 0.0248531, 0.0380826, 0.0193991, -0.00369898, -0.01041, 0.0239109, 0.0019205, 0.0174828, -0.0204059, -0.015914, 0.0118461, -0.0101949, 0.0183292, 0.0165607, -0.0262614, 0.0253974},
	{-0.016423, 0.0160726, -0.025364, 0.00335116, -0.0242666, 0.00448798, -0.0194574, -0.02268, -0.0357965, 0.0115256, -0.0159857, 0.0359919, 0.0339459, -0.000578662, 0.0284, -0.0125932, 0.0200126, -0.00541856, -0.00744666, 0.0335215, 0.0189547, 0.0306792, -0.0236764, 0.00060893, 0.0274448},
	{0.0218299, -0.0245528, 0.0274582, 0.0301864, 0.0151477, 0.0175343, -0.0284496, -0.00691871, 0.0349704, 0.0280298, -0.0213902, 0.00172784, -0.0183459, 0.0101084, 0.0251177, -0.0314025, 0.0277236, 0.00257209, -0.0233422, 0.00760588, 0.031126, -0.0127994, -0.0232529, -0.0356652, -0.00458479},
	{0.00908474, 0.0196516, -0.0150169, 0.0325097, -0.0345595, 0.00847178, -0.0356778, 0.0236935, 0.0106448, -0.00579949, 0.0356386, -0.0146431, -0.00788007, -0.0175934, -0.0322249, -0.0194558, 0.00220984, -0.00425474, -0.0358281, -0.0189672, 0.00576444, -0.0247944, -0.030377, 0.00464154, -0.00241569},
	{-0.00888695, 0.0227619, 0.00389291, -0.00509584, -0.00436977, 0.04713, -0.0157583, -0.00666536, -0.0157605, 0.0219884, 0.0545891, -0.0287473, 0.00301841, -0.0347685, -0.0412373, 0.00719625, 0.00261763, -0.0374268, -0.0193668, 0.00189782, -0.0276287, -0.0262946, -0.00814246, 0.0498474, 0.00850559},
	{0.0240211, 0.0222082, 0.0042946, 0.0078734, -0.0198043, -0.00626593, 0.0120336, -0.0176544, 0.0173935, 0.0128365, 0.0273893, -0.0176409, 0.0279168, -0.0338096, 0.0181331, 0.0108882, 0.0177329, -0.00162514, 0.0416699, 0.0266113, 0.0300256, 0.00886798, -0.000929706, -0.0258422, -0.0300805},
	{0.00482989, 0.0280493, 0.0221389, -0.0187317, -0.0038426, 0.0459872, -0.0186863, -0.0283185, -0.0342275, -0.0389963, 0.0270816, -0.00671933, 0.0194862, 0.00418437, 0.0169825, 0.0257284, -0.00929909, 0.0237916, 0.0147296, -0.0214656, -0.014094, -0.0431231, 0.0165889, 0.00128833, 0.0114441},
	{-0.0315943, 0.0164535, 0.0316174, -0.0191697, 0.0224481, -0.00471325, 0.00458635, -0.0217845, 0.00835354, 0.0339698, 0.03454, -0.0289887, -0.0144456, 0.0148589, 0.00347791, 0.0331014, 0.0237509, -0.0157148, -0.0305483, -0.0279781, 0.00418476, -0.0148365, -0.00729302, 0.0461684, -0.00133809},
	{-0.0111134, 0.010897, -0.0094582, -0.0134672, -0.0028485, -0.00225461, -0.021113, -0.0109357, -0.0157223, 0.0239291, 0.0481811, 0.00648657, 0.00843613, -0.0235699, -0.00404637, 0.0224118, 0.0170968, -0.0337677, -0.0327142, 0.010158, 0.00147612, 0.020904, 0.0326533, 0.046583, -0.00906643},
	{-0.0276436, 0.0260999, 0.034507, -0.00764595, 0.00455725, 0.022921, 0.00409553, -0.00908527, -0.0259081, -0.000237218, -0.0248351, -0.0316981, 0.015323, -0.0240738, 0.0315463, 0.00964215, 0.00614504, -0.0183203, -0.0359587, 0.00392909, 0.0274602, 0.0264717, 0.0324829, -0.0182893, -0.0211723},
	{0.0203339, 0.0112264, 0.0148716, -0.0107828, -0.0270311, 0.0347001, 0.0428743, 0.0130296, 0.0218893, 0.000246098, -0.0352515, -0.0361438, 0.00512466, 0.00210855, -0.00700589, 0.0269175, 0.0381367, -0.00136087, -0.00661656, -0.0104891, 0.00451408, -0.0112655, -0.000507299, 0.0438702, -0.00837187},
	{-0.0237519, 0.0309675, -0.0204459, 0.0359823, -0.0142185, -0.00772403, 0.0101404, 0.00454483, -0.0261956, 0.0510908, -0.0315942, -0.0159297, 0.00422424, 0.0476815, -0.0231089, -0.0028546, -0.0108692, -0.00698836, -0.0139268, -0.0364335, 0.0301776, 0.0230721, 0.0104449, -0.00248415, 0.0175134},
	{-0.00686042, 0.0311616, 0.0248161, -0.0263632, 0.0167674, -0.00965562, 0.0278401, 0.0299523, -0.00653632, -0.0171063, 0.0266719, 0.00692937, -0.0264103, -0.0273827, -0.028012, 0.0383339, 0.00787225, -0.00483114, 0.0206134, -0.00540009, -0.0338094, 0.0163953, 0.0356767, 0.00765502, 0.0211989},
	{-0.0274597, 0.0207667, -0.0314209, -0.00403273, 0.0015293, -0.0294181, -0.0267516, 0.0257069, -0.0291441, 0.0180915, -0.010635, -0.00101641, 0.00360126, 0.0348771, -0.0217251, -0.00378459, 0.00779598, 0.0238706, 0.0130667, 0.0175254, 0.00447985, 0.0150098, 0.00972692, 0.0221584, 0.00166136},
	{0.029645, 0.0125065, 0.000661113, 0.00490119, -0.0100812, -0.00401509, 0.0162765, 0.0300876, -0.0336654, -0.01067, -0.0186045, 0.0392668, 0.00374526, -0.0142877, -0.00501307, 0.0169149, 0.0214904, -0.0351248, 0.00680235, 0.0428428, -0.0114252, -0.00770044, 0.00117285, 0.029715, 0.0290957},
	{-0.00914722, 0.00411929, -0.00449457, 0.0332839, 0.016912, 0.0251735, 0.00219397, -0.00522626, -0.0192867, -0.0194239, 0.0227215, -0.00491617, 0.0128313, -0.0124167, -0.0193112, 0.00566644, 0.0214438, -0.0163491, 0.0280531, -0.0181423, 0.0145841, 0.00690614, 0.00796284, 0.0113519, 0.0283711},
	{0.00503498, 0.0133104, 0.0297383, 0.0106021, -0.0061515, -0.0203494, 0.00460017, 0.00716222, -0.0282529, 0.0172534, -0.0273752, 0.0325785, 0.0220065, 0.00427885, -0.0143785, 0.0120213, -0.0113209, 0.0211662, 0.0267546, -0.00898212, 0.0277026, 0.0242442, -0.0152987, -0.022284, 0.00906432},
	{0.0307416, -0.0005769, -0.0115187, 0.0152665, -0.0284339, 0.00255461, -0.0351984, -0.0132457, -0.0103089, -0.0131915, -0.0131312, 0.0344597, -0.0247319, 0.0254409, -0.0281372, 0.00819233, -0.0240362, 0.0334352, -0.0086374, 0.00577714, -0.00253974, -0.0284826, 0.032157, -0.0159882, -0.0324265},
	{-0.00441845, 0.0666981, -0.00636739, -0.00349644, -0.019146, 0.0158691, 0.0463359, 0.005103, -0.0352606, -0.0409253, 0.0862866, 0.0213094, -0.00502176, -0.0212167, -0.0544846, -0.0290601, 0.0265737, -0.0527259, -0.0326048, -0.0273664, -0.0234035, -0.00714552, 0.0269444, 0.040708, 0.0343802},
	{0.00792115, -0.0196455, -0.00697096, -0.0228363, 0.0206396, -0.00714959, -0.0189058, -0.011742, 0.0439977, -0.00587255, 0.0251535, -0.00336787, 0.00119092, 0.0219566, -0.0158736, 0.00119438, -0.0238203, -0.0019208, -0.0126284, -0.00647804, 0.0157971, 0.0099268, -0.0277134, -0.0105213, -0.027854},
	{-0.0403983, -0.0145477, 0.0216849, 0.0286235, -0.0157176, 0.0144266, -0.0283491, -0.0381112, -0.0100991, 0.0229162, 0.0338523, 0.0111656, 0.0212178, -0.0175667, -0.00296874, 0.0221448, 0.0359784, 0.0226617, 0.00397705, -0.0188958, -0.0164514, 0.024737, 0.00708889, 0.0202008, 0.0175031},
	{0.0153416, 0.0447388, -0.0145543, 0.0311269, -0.0194552, 0.0463981, -0.0145141, 0.00911533, 0.00201937, -0.0104988, 0.00878932, -0.00116122, 0.0186404, -0.0190564, -0.0142294, 0.0381024, 0.0362912, -0.0186666, 0.00445642, -0.00117587, -0.0264254, -0.00138933, -0.0194536, 0.00113312, -0.00468639},
	{-0.035352, 0.0250598, -0.000697332, -0.00752782, 0.0244572, 0.0425169, 0.0375621, -0.00888124, -0.000428073, -0.0105515, 0.0476064, -0.0131991, 0.00128136, -0.00418531, 0.00286297, -0.0183592, -0.0161147, -0.040174, 0.0158368, 0.0079681, 0.0216087, 0.00250313, 0.00840096, 0.00307752, 0.0342695},
	{0.00402878, -0.022624, -0.000819692, -0.0143854, 0.0211209, -0.0334643, 0.0237503, -0.0124348, 0.0246315, -0.0177303, -0.0247308, -0.00555468, 0.025027, -0.0230035, 0.0296975, 0.0322089, 0.0249485, -0.0380929, 0.0139909, -0.0104316, 0.0252589, -0.0159487, -0.00328408, -0.00921017, 0.0264822},
	{0.0174161, 0.037959, 0.00641513, 0.00275498, -0.0335572, 0.016702, -0.0223404, -0.0207489, -0.0270795, 0.0302296, -0.0344582, -0.0439889, -0.00400814, -0.00616888, -0.0251989, 0.0369533, 0.00921791, 0.0207502, -0.0293061, -0.00481554, -0.0254455, -0.0243574, 0.0354214, 0.0353372, 0.0325685},
	{0.0316874, -0.0327793, 0.0156935, 0.0120225, 0.0190086, -0.0269443, -0.0279298, 0.0190195, -0.000923685, 0.0257696, -0.0097037, 0.00643586, -0.0177332, 0.038296, 0.00210823, 0.039496, 0.0338834, 0.00578414, -0.0243427, -0.0579137, -0.00240007, 0.0191956, -0.0221048, -0.0246342, -0.0128238},
	{0.000811091, -0.0230177, 0.00490062, 0.00107222, 0.0305426, -0.0223287, -0.0116424, 0.0278756, -0.00307695, -0.0015904, -0.0201624, 0.0153939, 0.0128607, -0.0154214, 0.0222037, -0.00572953, -0.0300915, -0.0255621, -0.0144887, -0.0115126, -0.00363715, 0.0212364, 0.0218256, 0.00278295, 0.0182792},
	{0.00639284, -0.00308415, -0.0112124, -0.0124338, 0.000784227, -0.0124424, -0.00258267, 0.0132859, 0.0106245, -0.0204326, -0.0104871, 0.00397024, 0.024519, 0.0297402, 0.015078, 0.0291177, -0.0316522, 0.0294034, 0.0192753, -0.0355362, 0.0273491, -0.021088, -0.0148235, -0.0228191, -0.0309543},
	{0.00239357, -0.00729736, -0.0113026, 0.00625496, 0.00974289, -0.033545, -0.018839, 0.00297537, -0.0355404, -0.0353837, 0.0167113, -0.020881, -0.00359267, -0.0121141, 0.00870566, -0.0418976, -0.0168936, -0.0354761, 0.0101864, 0.0132433, -0.00533725, -0.0203041, 0.024982, 0.00474769, -0.018781},
	{0.0245023, -0.0208529, 0.00971324, 0.0154538, 0.00106816, 0.0372186, -0.0127669, 0.0130115, -0.0325497, -0.0324381, 0.010778, -0.00827032, -0.023341, -0.0231807, -0.0299148, -0.0244056, 0.0275091, 0.024937, -0.00757479, 0.000588757, 0.0200672, -0.00966964, -0.0115786, -0.0170441, 0.0364547},
	{0.0107151, -0.0101977, 0.0291677, 0.0293562, 0.0124061, -0.00653616, 0.00341363, 0.0265237, -0.0114227, 0.00827405, -0.0364693, 0.0368672, -0.00811979, 0.0224163, -0.0104944, -0.0217947, -0.019284, 0.0290934, -0.0177041, 0.0157589, 0.0120138, 0.00407231, -0.00962357, 0.00339019, 0.00030569},
	{0.0255521, 0.0145983, -0.0284104, -0.00499759, -0.00550568, 0.0264781, 0.0181957, 0.0134919, -0.0179416, -0.0182111, 0.0200548, -0.0167522, -0.0199037, 0.030524, 0.0289619, -0.0299988, -0.0279331, 0.0178025, 0.0219441, -0.027715, 0.00474012, 0.0128677, 0.00796401, 0.0156092, -0.0256226},
	{-0.0265943, 0.0680806, 0.0402825, -0.00788994, -0.038988, 0.0327583, 0.0531583, -0.0186803, -0.0150351, 0.00146189, 0.0433325, 0.00267251, 0.00392955, -0.0336741, -0.0566266, 0.0270705, 0.0152069, -0.0251605, -0.0918016, 0.0135632, -0.035618, 0.00743722, -0.00753964, 0.0833, 0.0440909},
	{0.00530011, -0.000175041, -0.0189793, 0.0258495, 0.038752, -0.0312634, 0.00905045, -0.00173173, 0.0197068, -0.0337105, 0.00488802, -0.00573409, 0.00878725, 0.0210824, 0.00182228, -0.00789497, -0.0116369, 0.0416873, -0.00956122, -0.0186156, 0.0430591, 0.0208042, 0.0220069, -0.0187897, -0.00693695},
	{-0.0230602, -0.0224572, -0.0297119, 0.0261745, 0.0168062, 0.0176717, -0.0105674, -0.00468686, 0.0215582, 0.0279674, 0.0231397, -0.0281648, 0.00789404, -0.0208921, -0.0246269, -0.0179984, 0.00589956, 0.0264001, -0.00651682, -0.00113894, 0.0194287, -0.0226773, -0.0243976, -0.0306578, -0.0293777},
	{-0.0174535, -0.000975293, -0.000109096, -0.0124468, -0.0326635, 0.0235304, 0.0259299, 0.00477638, -0.0271026, -0.0189586, -0.00718548, 0.0205015, 0.0152255, 0.0228015, 0.00404555, -0.00853663, 0.0149532, 0.0152394, -0.0366771, -0.0127953, 0.00262831, 0.0120787, -0.0258315, 0.00524885, 0.0122138},
	{0.0190389, -0.0116394, -0.00659923, 0.0112188, 0.0184578, 0.0392386, -0.00690472, -0.00956393, 0.0156196, 0.0134758, 0.0134738, -0.0200591, 0.014794, -0.0254549, -0.026222, -0.00707946, 0.0181915, 0.0174101, 0.00317051, -0.030204, -0.00114969, 0.0144679, -0.0156831, -0.022838, 0.00966463},
	{0.00137887, -0.0171717, -0.0244259, -0.029931, -0.0203419, 0.0314712, -0.00107691, -0.0157427, 0.0197992, -0.0044614, -0.0201058, 0.00202959, 0.0207687, -0.0219953, -0.0024916, -0.0241836, -0.00874119, -0.0296506, 0.0235251, -0.0256735, -0.0351779, -0.0114005, -0.020028, -0.0242214, 0.0336667},
	{-0.0193036, 0.0193907, -0.0242127, -0.0020845, -0.0377539, -0.00424597, -0.0242625, -0.00199162, 0.0179958, 0.039618, 0.0202019, 0.00692515, 0.0237831, 0.00939046, 0.00291125, 0.0130661, 0.00665469, -0.0113449, -0.0388843, -0.0473807, -0.0089212, 0.00950119, 0.0357927, 0.0399011, 0.0409669},
	{-0.0284359, -0.029663, -0.0185029, -0.0247789, -0.0473001, 0.00857244, 0.0149352, -0.0020043, -0.00830678, 0.0491581, -0.0223959, -0.041194, 0.01985, 0.0376247, 0.0189637, 0.00527672, 0.031433, -0.0259479, 0.0143585, -0.022744, -0.0254863, 0.0193578, -0.0245671, 0.0217883, -0.0027028},
	{0.0102764, -0.0334437, -0.0158142, 0.0303743, -0.0219973, 0.0190069, 0.00288999, -0.0055243, -0.0218692, 0.0327854, -0.0267909, 0.0134916, 0.033187, -0.00519818, -0.0118726, 0.0226109, -0.0208964, -0.0304091, 0.00355352, -0.0297351, -0.0151087, -0.000162185, -0.0208022, 0.0133158, 0.00842774},
	{-0.00090798, 0.00316994, -0.00688973, -9.85871e-07, -0.00253152, -0.00620252, 0.0213018, 0.000160885, -0.0137533, -0.0262979, 0.03229, 0.0108112, -0.0128475, 0.025338, -0.0262681, 0.0239468, -0.0205194, -0.0159838, -0.0223688, 0.0174151, 0.0166316, 0.00180783, -0.0171065, 0.016375, -0.0276569},
	{0.0156762, 0.00472876, -0.00785232, 0.0162798, 0.0398142, 0.0200606, -0.0124628, -0.0206675, -0.00601387, 0.0130245, 0.0127255, -0.0140734, 0.0204727, 0.00629906, -0.0225699, -0.0180282, -0.0168892, -0.0162636, 0.00410464, 0.0449368, -0.0151317, -0.0296693, 0.0171392, -0.0376559, -0.00609161},
	{-0.0191755, -0.00576915, 0.000620126, -0.0298135, -0.0101287, 0.037745, 0.0133518, -0.0080958, 0.0092765, -0.000766959, 0.00194423, -0.0178066, -0.0177833, 0.0110268, 0.0108526, 0.0182698, -0.0289828, 0.022444, -0.0351655, -0.00361057, 0.00968036, 0.0196931, 0.0200944, 0.012933, 0.0237918},
	{0.0131069, -0.019807, 0.0128812, 0.0228152, -0.0284863, 0.00608036, -0.0256998, 0.0167831, 0.00262992, 0.0273695, -0.0108447, -0.0138439, -0.00372183, 0.0315068, 0.030857, -0.0286448, -0.0144653, 0.0241176, 0.00528155, 0.00598324, -0.0237181, -0.0101804, -0.0193702, -0.0223625, -0.0297833},
	{0.0261652, -0.0200934, -0.0242189, 0.0243114, 0.0126929, 0.0139645, -0.00273029, 0.0115469, 0.00770381, 0.00922174, -0.00458771, -0.0226162, 0.0349463, 0.00398628, -0.0255483, 0.0164831, 0.0147438, 0.0346927, 0.0283844, 0.0115303, 0.0173174, 0.0064069, -0.000291016, -0.0179841, -0.0312482},
	{-0.00775345, 0.0712926, 0.0443931, 0.0138449, 0.0105153, 0.0577487, 0.0184625, 0.0180279, -0.0397293, 0.00955222, 0.0504054, -0.0301679, 0.0413694, -0.0486056, -0.0474416, 0.00119343, 0.0100259, -0.0640823, -0.08092, 0.0133545, -0.0520623, 0.0124766, 0.023426, 0.0923955, 0.0855039},
	{-0.00076243, -0.033313, -0.0190032, -0.0273062, 0.00640742, -0.0367383, -0.020087, -0.00498983, 0.00514936, 0.0269264, 0.0136238, 0.0396138, -0.0239584, -0.00170087, -0.0230387, -0.039423, 0.00655506, 0.022471, -0.00080716, 0.00551199, 0.0394697, 0.0276297, 0.00457482, 0.0131211, -0.0210228},
	{-0.0338218, -0.0140826, -0.0223039, 0.01557, -0.00898798, 0.0507385, -0.013202, 0.0129692, 0.00325519, 0.00787688, 0.00511351, -0.0396402, 0.0218213, -0.0341001, 0.0127462, -0.0209451, -0.0203508, -0.0162694, -0.00319417, -0.0256008, 0.0208301, -0.0422223, 0.0236113, 0.0129188, -0.0107983},
	{0.024401, 0.0454791, 0.0309072, -0.00607402, 0.0198577, 0.0367827, -0.015435, 0.0270016, -0.0175898, -0.0202115, 0.00864803, 0.00582623, -0.0282272, -0.0411713, 0.0167727, -0.0400673, 0.00405601, -0.0492687, -0.018836, -0.0176886, 0.0165676, 0.0257333, -0.0119769, 0.0333023, 0.0338351},
	{-0.0079029, 0.0339386, 0.0310679, -0.0191364, -0.00349541, 0.0159983, -0.0163816, 0.0221917, -0.00356763, -0.00934337, 0.00827733, -0.00564921, 0.0175629, -1.59016e-05, 0.0288768, 0.00734016, 0.014759, -0.0406846, -0.0222213, 0.0156241, -0.0297644, -0.0286309, -0.0264452, 0.00287324, 0.0149233},
	{0.00192692, 0.0110844, 0.0166881, 0.0219194, 0.0123901, -0.0142001, 0.0124922, 0.0300693, -0.03698, -0.00171791, -0.0390486, 0.0138035, 0.0116113, 0.0413142, 0.0381506, 0.00466209, -0.0141626, 0.0193396, -0.0109193, -0.0291648, -0.0230322, -0.00463455, 0.00295186, 0.017375, 0.0290542},
	{-0.0251612, -0.0198203, -0.00543467, -0.0267123, 0.0210605, -0.00556627, -0.00487869, -0.0233798, 0.00559482, -0.0116027, 0.0184887, 0.00234656, 0.0347756, -0.00069073, -0.00381369, 0.0470859, 0.0192532, -0.0115958, 0.00540625, -0.00505852, -0.0319273, 0.0118756, -0.0228767, -0.0223093, -0.0166651},
	{0.0316241, 0.00868766, -0.0217121, -0.00087079, -0.00448145, -0.0171592, -0.0194777, 0.0243523, 0.00442679, 0.0202242, -0.00872021, -0.0265588, -0.00550095, 0.0310647, 0.0246952, 0.0565835, -0.0232565, -0.00768931, 0.00722372, -0.0264218, 0.0195289, -0.0252989, -0.00583048, -0.00743523, 0.000597179},
	{0.00825037, -0.000504461, -0.0101813, 0.0102345, -0.00782924, -0.0334957, -0.0270601, 0.0254334, -0.00579712, 0.0263383, -0.00125032, 8.76729e-05, -0.0305397, 0.00604411, 0.0228317, 0.00457798, 0.0181929, -0.00360077, -0.00175716, 0.0142505, 0.00454332, -0.00768624, 0.00221442, 0.0285867, 0.0244605},
	{-0.00995352, -0.0127908, -0.0210635, -0.0257026, -0.0240181, 0.0247076, 0.000323834, -0.0310692, 0.0170653, -0.0222378, 0.00425323, -0.0199615, 0.0179047, 0.0171865, -0.0228443, -0.00405647, -0.0170462, -0.0035844, -0.00723642, -0.021347, -0.000243301, -0.013506, 0.0331191, 0.0116826, 0.00874596},
	{-0.014234, -0.033955, 0.025021, -0.00787298, -0.0241459, -0.0127786, 0.0269862, 0.0121191, 0.00465038, -0.0353086, -0.0199022, 0.0341206, -0.0323704, 0.00219555, -0.0302144, 0.0127772, 0.0302453, -0.0323414, 0.0262936, -0.0211469, -0.00728169, -0.0288028, -0.0209411, -0.0113253, 0.0122529},
	{-0.01538, -0.0222081, 0.0238555, -0.0159077, 0.00266336, -0.00151294, 0.00188984, -0.0252756, 0.0107727, -0.0301299, 0.00832535, 0.0199305, -0.0179213, -0.0322285, 0.0204681, 0.0203429, -0.0046226, -0.00733653, -0.0147337, 0.00266342, -0.0150333, 0.000713264, 0.00691921, 0.00576995, -0.0147484},
	{-7.36462e-05, -0.0269863, 0.0175156, 0.0124625, -0.000589672, 0.0223205, 0.0245212, 0.0216414, 0.0197672, -0.0209279, -0.0440726, 0.0157714, -0.0135765, -0.0123126, 0.00490155, 0.0234472, -0.0242216, 0.0151629, 0.0256015, -0.0159459, -0.000810947, 0.0298625, 0.0141575, 0.0234758, -0.0194504},
	{0.00883539, 0.00714632, -0.0148953, -0.0296424, 0.0233969, -0.00137688, -0.00837529, 0.0210724, -0.000159752, 0.0194729, 0.0144767, 0.0168338, 0.0222055, -0.0130158, 0.0151306, -0.0129888, -0.02583, 0.0122166, 0.0342323, 0.00913304, 0.00553518, -0.00378157, -0.00846074, -0.00934168, 0.0281455},
	{-0.0241669, 0.073162, 0.0473231, 0.0320284, -0.0608922, 0.0393955, 0.0616174, 0.0265973, -0.0728776, 0.0489164, 0.0147923, -0.0591796, -0.0075106, 0.00242356, -0.00455083, 0.033694, -0.00140818, -0.0219579, -0.07755, -0.0753373, -0.0618481, -0.0162737, -0.0115537, 0.0755952, 0.0482978},
	{-0.00426838, 0.0161332, 0.00883865, 0.00571567, 0.04309, -0.00396175, 0.00960295, -0.0219182, 0.00536602, -0.0395873, 0.0108079, 0.0122341, -0.0279488, 0.0182302, -0.0204098, -0.0139981, 0.00139999, 0.0297537, 0.00237816, 0.0139353, 0.0165035, 0.0172522, -0.0176485, -0.0389571, -0.00627406},
	{-0.0376205, 0.0126754, -0.0225174, 0.0118894, 0.0122828, 0.0451764, 0.0208195, -0.0179716, 0.00998884, -0.0507233, 0.0795886, 0.0138734, 0.0309177, -0.0284985, -0.00547684, -0.0283567, 0.0150454, -0.00574765, -0.0214136, 0.0141548, 0.0152513, -0.0269644, 0.0349545, 0.0325694, 0.00975104},
	{-0.0167007, 0.00392978, -0.0173495, -0.0291754, 0.01595, 0.0218731, -0.00714517, -0.00394896, -0.0207835, 0.014895, -0.00102611, 0.0181369, -0.00804864, 0.0188771, -0.0427434, -0.0142872, -0.0142155, -0.0104678, -0.00290324, -0.035545, -0.0257649, 0.0186722, -0.0147705, 0.013562, -0.00594705},
	{0.0167817, 0.0403479, -0.00678534, 0.0179981, 0.00851318, 0.0226054, 0.0427076, 0.0109491, -0.0311838, 0.000429816, -0.0061438, -0.00471277, 0.0051365, -0.0227362, -0.0119942, -0.028386, 0.0389303, -0.0406973, -0.0308137, -0.0188443, -0.0397602, -0.0157167, 0.0110433, -0.0112707, 0.00281934},
	{-0.00666619, 0.00391601, -0.0243044, -0.00846836, -0.0273851, -0.0308986, 0.0346196, 0.00860252, -0.0253159, 0.019955, -0.02078, -0.0171817, -0.0121547, 0.0524132, 0.0411353, 0.0164303, 0.0159803, -0.010941, 0.0123486, -0.0214049, -0.0169704, -0.000478052, -0.0267343, 0.0260408, 0.0284066},
	{0.0238366, 0.00554223, 0.0344801, 0.00963921, 0.0109365, -0.00369217, 0.0153632, 0.017969, -0.000516558, -0.00995956, -0.0345959, 0.00484994, 0.00952563, 0.0310223, 0.0325877, 0.0130447, 0.0297146, -0.0200544, 0.000339479, 0.00907434, -0.0162246, -0.0310908, -0.0104185, 0.0212086, 0.0285169},
	{0.0254405, -0.00116913, -0.0221347, -0.00527345, -0.00352855, 0.0190442, -0.015537, 0.00993724, 0.000229792, 0.0240278, -0.0370285, -0.040215, -0.02142, -0.0137917, 0.00933295, 0.00412575, -0.0162677, -0.0215705, -0.0180284, -0.0262542, -0.0105411, -0.035918, 0.00246573, 0.00180102, -0.00666312},
	{-0.0089071, -0.0253229, 0.0206928, -0.0250396, 0.0118655, -0.0291605, -0.00541886, 0.0261739, -0.000795085, 0.0140499, 0.0064433, -0.00838201, 0.0276331, -0.0183893, -0.0164819, 0.0432441, 0.0175938, 0.0077002, -0.000324913, -0.0434784, 0.00517126, 0.00351573, -0.0240386, 0.00852855, -0.0098605},
	{-0.0294119, 0.0296326, -0.0213362, 0.00855959, 0.00122522, 0.0171418, 0.0100086, -0.0296724, 0.0128696, -0.0260298, 0.0222347, -0.00848129, 0.0143399, -0.0145554, -0.0388086, -0.033382, -0.00762629, 0.0458599, 0.0189989, -0.01678, -0.0121563, -0.0145012, 0.030609, -0.0267476, 0.00156677},
	{0.0188131, 0.0120433, 0.0119563, 0.0218423, -0.000117131, -0.00168866, 0.0131844, 0.0202456, -0.0251617, 0.00606275, -0.0244752, -0.00295294, -0.0232137, -0.0295852, 0.00963552, -0.024054, -0.00883924, -0.0215977, 0.0221523, 0.0113539, 0.00187067, -0.0115543, 0.0182561, -0.0335193, -0.0157123},
	{0.00117557, -0.0220499, -0.0190973, 0.0217601, 0.00391577, 0.0310589, 0.0068779, -0.00182553, -0.0310591, -0.0317787, 0.0140389, 0.0272663, 0.00445737, 0.0261298, 0.0153411, 0.0170033, 0.0320724, 0.0123173, -0.0340136, -0.0303111, 0.0208319, 0.00244478, 0.00508189, 0.00666119, -0.0119477},
	{-0.0307012, -0.00564806, -0.0240823, 0.000975925, -0.030061, -0.00490347, -0.0312897, 0.022585, -0.0226041, -0.0123919, 0.016195, -0.0187236, -0.0161119, 0.0344975, -0.00919117, -0.0248257, 0.0193619, -0.0105813, 0.0320717, -0.0306127, 0.0012966, 0.0209054, -0.0123067, -0.0345891, -0.0300108},
	{0.0232307, -0.00991631, 0.0164329, -0.0194472, -0.0256301, 0.029686, -0.0291895, -0.0299209, 0.0227104, -0.0267895, 0.0182185, -0.00940284, -0.0145583, 0.0242181, -0.00971322, 0.0174759, 0.0180365, -0.0151319, 0.0294829, 0.022213, 0.0131714, -0.000917505, 0.00436725, -0.0233214, -0.026782},
	{0.0279568, 0.0377056, 0.0176526, 0.0159707, -0.015782, 0.041287, 0.0517239, -0.00324816, -0.0549413, 0.0117127, 0.00082817, -0.0211105, 0.00185646, 0.0185537, -0.0201094, 0.0198679, -0.00225373, -0.00516751, -0.0557855, -0.0321835, -0.0262127, -0.00552991, 0.0116183, 0.0715459, 0.0621939},
	{0.019106, -0.00958836, 0.0227904, -0.0243407, 0.0224423, 0.00953642, -0.0351527, -0.000249036, 0.0120506, -0.0247975, 0.0237843, -0.00816839, -0.010177, 0.0166855, -0.0115645, -0.0359792, -0.0270907, 0.0479855, -0.00814739, 0.0471063, -0.0240137, 0.0356025, 0.0277818, -0.00299011, 0.00990063},
	{-0.00206051, -0.0138177, 0.00862404, -0.00227669, -0.00310467, 0.0449033, 0.00165429, 0.0100687, -0.00467735, -0.028245, 0.0288969, 0.0209233, 0.0130338, -0.0153554, -0.0341084, -0.0105507, -0.0028242, 0.022105, -0.0355141, 0.00306167, 0.00948515, -0.0404472, -0.0107995, 0.0115425, -0.00195996},
	{-0.00155938, 0.00104426, -0.0256155, -0.00662954, 0.00407721, -0.00817816, 0.0128501, 0.0308159, -0.0257998, 0.0134514, 0.0143615, 0.0144043, -0.0235993, -0.00216292, -0.0445667, -0.0154834, 0.0161372, 0.012224, 0.00985719, -0.00855946, -0.022644, 0.0205818, -0.0291819, -0.010931, 0.017939},
	{0.00799049, 0.0389398, -0.0192254, 0.00141717, 0.00898032, 0.0335751, 0.0245421, 0.00623892, -0.00872907, -0.0129831, 0.031688, -0.00463122, -0.0326573, -0.00116587, -0.00533812, -0.00859136, 0.0234411, -0.00195204, -0.0398634, 0.0109011, -0.0388622, 0.00426819, 0.013122, 0.0341376, 0.0210513},
	{-0.00130519, -0.0249037, 0.0138498, 0.00401307, -0.00902849, -0.0249983, 0.0494433, -0.00973472, -0.0111462, 0.053271, -0.0544252, -0.0502981, -0.0231217, 0.0390223, 0.0450773, 0.0179509, 0.00318452, -0.0216213, 0.00502367, 0.00940153, 0.00647161, -0.00788608, 0.00821972, 0.028161, 0.00714341},
	{0.00862571, -0.0196874, -0.0128218, -0.0140533, -0.0343612, 0.0141841, 0.0307444, 0.013988, -0.0400572, 0.0172057, 0.0145401, 0.000402354, 0.00389014, 0.0150127, -0.00815745, 0.0359324, -0.0186317, 0.0147202, -0.0183548, -0.0143505, 0.0200287, -0.0345883, 0.0346882, 0.0125607, 0.0266361},
	{-0.0320791, 0.0229929, 0.0249448, 0.00503236, -0.0133513, 0.0021642, 0.0231628, 0.00520497, 0.0302126, 0.0399132, 0.00929645, -0.0437676, 0.0239653, 0.023537, -0.0239301, 0.0123329, 0.0316501, -0.0199811, 0.0229303, -0.0479429, -0.0323047, -0.0147161, 0.0017939, 0.0238887, -0.0171041},
	{-0.0325636, 0.0208958, -0.0138714, -0.0257372, 0.0148712, -0.00341492, 0.00602019, -0.0211104, -0.0133889, 0.0198202, -0.00155122, -0.0252057, -0.0295075, 0.00301543, -0.0330261, -0.0277657, 0.0165308, 0.0228359, -0.0310293, -0.0159151, -0.0156116, -0.0286358, 0.00601437, 0.0140797, 0.0195648},
	{-0.0247127, -0.0111479, 0.00115542, -0.00622308, -0.00279951, 0.00547517, -0.00473608, -0.0302505, 0.0262303, -0.0275486, 0.0281765, -0.0239404, -0.0212405, 0.0230631, -0.000913591, -0.0110653, -0.00359087, -0.0131199, 0.00904442, 0.0133953, -0.0204367, 0.0137783, 0.029427, -0.0110631, -0.0449592},
	{0.0218755, -0.0216911, -0.0278561, 0.00200582, 0.0210272, -0.0162658, 0.0312792, 0.0207476, 0.00421033, -0.000799701, -0.0235057, -0.0118344, -0.0232279, -0.000667777, 0.015129, -0.000161169, -0.0199622, 0.0116303, -0.0217878, 0.0207124, -0.0191963, 0.0341283, -0.0258595, -0.0277864, 0.0198382},
	{-0.0100878, 0.0262051, -0.00891961, -0.0153971, 0.0197689, 0.0207254, -0.0245003, 0.0172703, 0.0246456, 0.0275825, 0.00698781, 0.0132061, 0.0254312, -0.0144733, -0.0370801, -0.00361554, 0.00607814, 0.019455, -0.0126994, 0.0282998, 0.0162965, -0.00416162, -0.00596705, -0.0123706, 0.000258438},
	{0.0128883, -0.0301225, -0.0194637, 0.0291968, -0.0049199, -0.0237278, 0.0151478, -0.018093, 0.0116574, 0.0345561, 0.0153947, -0.0220954, 0.0106535, -0.00547452, -0.0226754, 0.0182681, 0.0271102, 0.0127287, -0.0144021, 0.0291507, 0.0182509, 0.00909654, -0.0301807, 0.0153167, -0.0165187},
	{0.0216481, 0.00287497, 0.0243163, 0.00496906, -0.016073, 0.0162141, 0.00581425, 0.0251286, 0.0248159, -0.00365921, -0.0233477, -0.0210083, -0.0247479, -0.0159215, 0.0167426, 0.0249936, -0.0237489, -0.00702084, 0.00178718, 0.0313088, -0.00470145, -0.0240091, 0.0276019, 0.0152044, -0.00225829},
	{0.0379565, 0.0231876, 0.0140058, -0.000336157, 0.029334, 0.0328614, 0.00499657, 0.0158409, -0.018313, 0.00234584, 0.0750555, 0.00033709, 0.0253727, -0.0181629, -0.007367, 0.00264658, -0.0217808, -0.0318964, -0.0399513, 0.0227512, -0.0107574, -0.00985038, -0.00495854, 0.00357784, 0.00709542},
	{-0.0175197, -0.0269174, -0.0184292, 0.00299433, 0.0250625, -0.0194466, -0.0157429, -0.0237418, 0.0261541, 0.00853301, 0.0141327, -0.0190502, -0.00610863, 0.0182471, -0.00291976, 0.00647581, 0.0154492, -0.00738315, 0.000532178, 0.0267418, -0.0250924, 0.013696, -0.029154, 0.0214054, -0.0297365},
	{0.00101386, 0.0203636, 0.0238419, 0.00481193, 0.0124833, 0.0303526, 0.0186432, -0.026645, 0.032991, 0.03114, 0.0232209, -0.0250133, 0.0247191, 0.0226566, 0.00888722, 0.000624197, 0.021769, -0.0296286, 0.0248681, 0.0102242, -0.00374188, 0.0128221, 0.0348652, -0.018363, 0.0325428},
	{-0.0248687, -0.0164284, 0.016695, 0.02229, -0.00479223, 0.00664761, -0.00868025, 0.0198964, 0.00383061, 0.00125558, 0.0272758, 0.0284878, 0.00355332, -0.0373502, -0.0134884, -0.0228917, -0.0220799, -0.0433423, 0.0286488, 0.00551617, -0.0249945, 0.0407482, 0.0160791, 0.033911, 0.00946586},
	{0.0286581, 0.0144762, -0.0100674, 0.0182699, 0.00629727, -0.0132404, -0.0129871, 0.00606599, -0.0231372, 0.0102581, -0.026894, -0.00360567, -0.0250675, -0.0154692, 0.0142691, 0.0184179, 0.025141, 0.00373073, 0.0241764, -0.00871882, -0.0308439, -0.0242972, -0.0162532, -0.0224715, 0.0393212},
	{-0.02287, 0.0189534, 0.0254111, 0.0313158, -0.0211518, 0.0112199, 0.0304468, 0.0208929, -0.0534025, 0.0237667, -0.00591711, 0.0043928, 0.0109106, 0.0536699, -0.000292683, 0.02216, -0.00568078, -0.0142553, -0.00978576, -0.0541498, -0.0303066, 0.0381686, -0.00284474, 0.0125973, 0.010606},
	{-0.0261833, 0.0305965, 0.0214574, 0.0311518, -0.0375254, -0.0225123, 0.0270649, 0.0140434, -0.0119194, 0.0397474, -0.00976083, 0.000507944, 0.00442945, -0.0248701, -0.0247748, -0.00860493, 0.00652945, 0.00925683, 0.00891024, -0.0239571, 0.0231118, 0.0144362, 0.0125125, 0.0332237, 0.0127026},
	{-0.00536981, 0.00645712, -0.0268437, 0.0219545, -0.0327617, 0.035987, -0.00795092, -0.0115026, 0.0247896, -0.011634, 0.0223453, -0.047633, 0.0229127, -0.0198726, 0.0133139, 0.00662024, -0.00672475, -0.0229978, -0.0108704, -0.0592019, -0.0300801, -0.029656, 0.0247131, 0.0349654, 0.00319382},
	{-0.0023384, -0.00528019, 0.0249717, 0.0120662, -0.0204312, 0.00723231, 0.0256487, -0.0298965, -0.0111129, 0.0166246, -0.0255505, -0.00353664, 0.0205503, 0.0122778, 0.0331544, 0.0112058, 0.0158711, -0.00812455, 0.0269357, -0.0174488, -0.0333466, 0.00153135, 0.0113235, -0.0248317, 0.00259536},
	{0.0150937, -0.0323596, 0.00471944, 0.0191537, -0.0204765, 0.017769, -0.0082656, -0.0174211, -0.0181547, 0.0293735, 0.0172793, 0.00925012, 0.00380319, -0.0259699, -0.0427596, -0.0204785, 0.00221769, -0.00761802, 0.0113507, 0.0173383, -0.00643909, -0.00890853, 0.0129413, 0.0199763, -0.032761},
	{0.0188771, 0.012534, 0.023051, -0.0114366, 0.0245425, 0.00941598, 0.0165273, -0.0280399, -0.0021103, -0.020814, -0.00111207, 0.0285239, 0.0243178, 0.0359526, 0.0370036, 0.0262888, 0.0106345, 0.0314919, -0.0188956, 0.0259476, 0.00397584, -0.00414655, -0.0304755, 0.00903005, -0.011404},
	{-0.0100701, -0.0151379, 0.0237821, -0.00058893, -0.0116643, 0.0300258, 0.00286622, -0.00947455, 0.0265091, 0.00206168, 0.0260092, 0.0352087, 0.00913238, -0.013965, -0.00692371, -0.0101702, 0.0177645, -0.0258887, 0.0273276, 0.0357617, -0.0117163, -0.0350042, -0.0122982, 0.0150678, 0.0304537},
	{0.0231263, 0.0138845, -0.0206028, -0.0163, -0.0093088, -0.00579805, 0.0340117, 0.0277215, -0.0101185, -0.0103665, -0.0251966, 0.00479794, -0.012859, -0.02448, 0.0254021, 0.0362341, 0.0185386, 0.0242012, 0.0123771, -0.0227383, 0.0129615, -0.0295179, -0.0140077, -0.0287155, -0.0288336},
	{-0.00250471, -0.00578222, 0.0174471, -0.0271244, 0.00668054, 0.00766706, -0.00295373, 0.0144073, -0.00469084, 0.00532121, -0.0125166, -0.0205398, 0.0306657, 0.0034661, -0.00898934, 0.0108923, 0.0245361, -0.0225526, -0.00399426, 0.0316595, 0.0318408, -1.15775e-05, -0.00556682, 0.0254479, -0.0341533},
	{0.0238381, -0.00637733, 0.00488559, -0.0351639, 0.0359013, 0.0202045, -0.00806841, 0.0169985, 0.0258341, -0.030866, 0.0191333, 0.0346398, 0.0120493, -0.0239858, -0.0186359, -0.0322349, -0.028425, 0.0174751, -0.00428149, 0.0426426, -0.0159801, 0.0317721, 0.00397077, -0.0112992, 0.0107211},
	{-0.027644, -0.00723912, -0.00644965, 0.00279075, 0.041525, -0.0118604, -0.0459845, 0.0155756, 0.0518748, 0.0139004, 0.0136027, 0.0285293, 0.00808833, -0.00232428, -0.0262647, -0.0199725, -0.0294123, 0.0185663, 0.0447461, 0.044031, -0.00859826, 0.0129054, -0.015241, 0.0138111, 0.000700677},
	{-0.0284172, 0.034288, -0.0274435, -0.00431095, 0.0165841, 0.0287689, -0.00291075, -0.0281014, 0.0162294, 0.0161466, 0.0333343, -0.00166123, 0.0132215, -0.0166071, -0.0217669, -0.0217838, -0.00491348, -0.0281457, -0.0359977, -0.0208556, -0.0146389, -0.0332547, 0.0313053, 0.0172806, 0.0105928},
	{-0.00920783, 0.0272107, 0.000711028, -0.0337675, -0.0106085, -0.00695579, -0.0157193, 0.0359167, 0.00834029, -0.0472872, 0.00275652, -0.00852406, -0.0276044, -0.020361, -0.0224261, -0.0409381, -0.0235221, -0.0363937, -0.00208197, 0.0265663, 0.0223941, 0.0343389, -0.00793628, 0.0292731, 0.0200672},
	{0.0278803, 0.0235362, -0.019696, 0.0334447, -0.0143278, 0.0207726, 0.0160027, 0.0190179, -0.0122027, -0.0088456, -0.0022162, -0.031587, -0.0344785, -0.0266231, 0.0152578, 0.0342637, -0.00106982, -0.0540391, -0.0308961, 0.0256065, -0.0386146, 0.00152337, 0.0314688, 0.0269368, 0.0132007},
	{0.0121905, 0.017012, 0.00411091, -0.00193098, -0.0300793, -0.00379596, 0.00818301, -0.000359846, -0.0319785, 0.0488571, -0.0178246, -0.0293858, 0.00881159, 0.00209678, 0.0403199, 0.0454453, -0.00154431, -0.0363165, -0.0249469, -0.0141159, -0.022768, 0.0277523, 0.00726179, -0.00209161, 0.0120921},
	{-0.0338389, -0.00401551, -0.018194, 0.000648157, 0.00272772, 0.0324363, 0.0386996, 0.0191714, -0.00983881, -0.00524022, 0.0226479, -0.0293713, 0.0332562, 0.00179275, 0.0307954, 0.00434858, -0.0201353, -0.0362325, -0.0389742, -0.013199, 0.00675312, 0.0244643, -0.0271513, -0.0210592, -0.000105683},
	{0.0318766, 0.0387498, -0.0186761, 0.0222109, -0.0206372, 0.020462, 0.0122881, 0.0293557, -0.0226149, 0.00728163, 0.015664, 0.0179899, 0.0294893, 0.0324603, -0.00712037, 0.00966829, -0.0267651, -0.0305358, -0.0410746, -0.00119718, 0.018155, -0.00843024, 0.00236845, 0.00497672, -0.0163682},
	{-0.001375, -0.00128892, -0.0318366, -0.0261558, -0.0294983, -0.0135326, -0.0202189, 0.0311119, 0.0130626, 0.028552, -0.0318219, -0.00753715, 0.00988761, -0.0295797, -0.00868069, 0.0152938, -0.0208869, -0.0117775, 0.0133607, 0.0202898, -0.0153691, -0.0195336, 0.0323846, 0.0342275, 0.0339103},
	{0.0060856, 0.0128683, -0.0176058, 0.027012, -0.00882513, 0.027739, 0.0191773, 0.00211989, 0.00152519, -0.0145519, 0.0479229, 0.00640854, -0.00182905, -0.0324246, -0.0239418, -0.0214037, 0.0324738, 0.0125084, 0.0297984, 0.0155813, -0.00440932, -0.016586, 0.0121737, -0.00187628, 0.0217781},
	{-0.0170701, -0.0226483, -0.0314987, 0.0154043, 0.00100838, 0.0152413, -0.00266738, -0.00683732, 0.0178389, 0.0143056, -0.0451644, -0.0189266, 0.026468, -8.54933e-05, 0.0281428, -0.0177697, 0.0148743, 0.00959569, -0.0287252, -0.0214725, -0.0232767, 0.0239413, -0.0302613, -0.01475, 0.0361456},
	{-0.0220038, -0.0242326, 0.0274628, -0.0239946, -0.00724001, 0.00492338, 0.0156452, 0.00818197, 0.0199702, -0.0225206, 0.0289718, 0.0306481, 0.0111806, -0.0309296, -0.0424258, -0.0328029, -0.019048, 0.0293347, -0.00786334, -0.0152218, -0.0268366, -0.0385181, -0.0191834, 0.00563915, 0.00114037},
	{-4.52314e-05, -0.0255191, 0.00499547, -0.00947929, -0.0251172, 0.00832955, 0.0313432, -0.015941, -0.0231676, 0.00662525, 0.0177208, -0.00159496, -0.00860689, 0.0375168, -0.0167809, 0.0190071, -0.0284392, 0.0113567, -0.0266406, -0.0205577, 0.00321193, 0.00364638, -0.0153275, -0.022807, -0.0222545},
	{-0.00134878, 0.00604621, 0.0294498, -0.00575696, 0.0252944, 0.0189534, 0.01006, 0.0132481, 0.0269984, -0.0322373, -0.00406383, -0.00796482, 0.0135443, 0.0245654, 0.0262801, 0.0167253, -0.0133961, -0.00610133, 0.00322026, 0.029956, -0.0277545, -0.00277318, -0.0138721, 0.0320832, -0.0154815},
	{0.00379675, 0.00504197, 0.0129187, -0.050906, 0.0549242, 0.0241126, 0.00952388, 0.0278917, 0.0162966, -0.0633288, 0.0166843, 0.0130593, -0.0519148, -0.0495131, -0.0153622, -0.0525274, -0.0205831, -0.0396493, -0.000631187, 0.0591331, -0.018176, 0.00274063, -0.053015, 0.0071074, -0.0340836},
	{0.00324028, -0.00147438, -0.025076, -0.0184866, -0.00228283, 0.0297164, -0.0218558, 0.0314186, 0.0328839, -0.0412118, -6.49163e-06, 0.0138463, 0.0279633, -0.0234047, -0.0235279, -0.0519047, -0.00740938, -0.0050146, 0.0291657, 0.0410235, 0.00420533, 0.0203928, -0.00461832, -0.00206736, -0.00892841},
	{-0.010642, -0.0127394, -0.0256563, 0.0252613, 0.00553285, 0.0488307, 0.0125451, -0.0391589, 0.0134644, -0.0290994, 0.0430323, -0.0210928, 0.0512355, -0.0626006, -0.0383439, -0.0111161, 0.0216095, -0.0214149, -0.0198885, 0.0276086, 0.00392864, -0.0379051, 0.0422464, 0.0191108, -0.0275714},
	{-0.00474955, 0.00646273, -0.0301208, -0.00766711, 0.00910928, 9.38498e-05, 0.0481615, -0.00934548, 0.00978067, -0.0334707, -0.0283987, 0.00129485, -0.0440679, 0.0206373, 0.0203141, 0.00914562, 0.0272515, -0.0105911, -0.0288062, 0.00695289, -0.0181102, 0.031659, 0.0284844, 0.0260022, 0.0488537},
	{0.00127367, -0.0139558, 0.0136548, 0.0224773, -0.0335627, 0.0237194, 0.0480898, -0.013735, -0.0309283, -0.0153842, 0.0062961, -0.0347906, -0.0307604, 0.0348934, 0.0070307, 0.0282323, 0.000354335, -0.034753, -0.0433125, -0.0351293, -0.0257279, 0.0291094, -0.0045551, 0.0450688, 0.0287641},
	{0.00129768, 0.0121444, 0.00262492, 0.00359474, -0.0458865, -0.0429982, 0.0394702, 0.0078571, 0.00288502, 0.0361691, -0.0509807, -0.0663348, -0.0197152, 0.00450066, 0.0275485, 0.0758228, -0.0232592, -0.0318415, -0.0085031, -0.0377113, 0.0224779, -0.0152305, 0.00758493, 0.00815141, -0.0107482},
	{-0.00127472, 0.0420957, -0.0250667, 0.00534497, -0.0319712, 0.00338686, 0.0219769, 0.0128688, -0.0147962, -0.00221434, 0.00088401, -0.0445075, 0.00341724, 0.0253439, -0.0250908, -0.00404891, -0.0200527, -0.00610134, -0.0304434, 0.00915895, 0.0118505, -0.0180407, 0.0324748, 0.0152712, 0.00979942},
	{0.0103902, 0.00655508, -0.0175117, 0.0255589, 0.0289272, 0.00320303, 0.00631693, 0.00887499, 0.000749394, 0.0208278, 0.0337223, -0.00344453, -0.0230073, -0.0359453, -0.0371045, 0.0163171, 0.00763258, 0.0072456, 0.010661, 0.0219239, -0.0023623, -0.0198963, -0.0119708, 0.0281196, 0.0152754},
	{-0.0360063, 0.0388898, 0.0187483, -0.0040336, -0.00500466, 0.00516688, -0.0160327, -0.0317161, -0.0195968, 0.0410588, 0.0340368, -0.0411586, 0.0043579, 0.027673, -0.0279374, 0.00268256, 0.00215929, 0.00904599, 0.00961333, -0.0314576, -0.0237325, -0.0248176, -0.0292348, 0.0172386, 0.0305371},
	{0.00950616, 0.0357134, -0.0126169, -0.0112629, 0.0306498, -0.0119138, -0.00885689, 0.0291541, 0.0278042, 0.00477927, 0.0383101, -0.00671664, 0.0140119, -0.0321669, -0.00117344, -0.0268869, 0.0300921, -0.0138256, -0.0139749, 0.0357633, -0.000351383, -0.0287804, 0.0330903, 0.00881097, -0.0228687},
	{0.0257708, 0.022362, -0.016179, -0.017339, -0.0110604, -0.0413752, 0.0150573, -0.00565484, -0.0185405, 0.0171242, -0.00553221, -0.0196046, -0.00643598, 0.0286861, -0.0120799, 0.0332813, -0.0204156, 0.0207608, 0.0266849, -0.00577976, -0.00849172, -0.0303588, 0.00543785, 0.0123605, -0.0273073},
	{-0.00715604, 0.0333446, -0.00212448, 0.0153214, -0.0142481, 0.0116237, -0.00426985, -0.0304282, -0.00564793, -0.0218001, 0.0506726, 0.0273801, 0.026648, 0.00654462, -0.00468358, -0.0311291, -0.0208683, 0.0291952, -0.0373583, 0.0244997, 0.0149716, -0.0067818, -0.0061457, 0.0234668, 0.0269649},
	{-0.0056725, -0.0110268, -0.0194184, 0.0228822, -0.0313881, -0.0376259, -0.00541116, -0.00371871, -0.00759968, 0.00852073, -0.0418026, -0.032894, -0.0126336, 0.0280717, -0.00396695, 0.0301371, 0.0168349, -0.0324938, -0.0305765, 0.0153997, 0.0244073, -0.0240014, -0.0190203, 0.00941659, -0.0139563},
	{-0.0318574, -0.0274853, -0.00818541, 0.00227018, -0.0285445, -0.000492274, 0.00109881, -0.00919492, 0.00727157, -0.0224559, -0.0115965, 0.023948, -0.0227125, 0.00131127, 0.0178503, -0.00473886, -0.0195417, -0.00637524, -0.00135129, 0.001142, 0.0278382, 0.0015318, 0.0290676, -0.0227708, 0.0177607},
	{0.0585589, -0.0146093, -0.00676035, -0.0426964, 0.0435831, 0.0095055, -0.040408, 0.00705973, -0.000473675, -0.0304922, 0.0386398, 0.079967, -0.020221, -0.0208987, -0.00703379, -0.0421441, -0.055784, 0.0333685, 0.0441187, 0.0558729, 0.00867414, 0.022582, -0.00344962, -0.00390982, 0.00679825},
	{0.0306722, 0.0259123, 0.0215938, -0.00176137, 0.0335526, 0.0181539, -0.0302936, -0.0235243, -0.0147026, -0.0445144, 0.0590744, 0.0160172, 0.000576917, -0.00500063, -0.0225732, -0.0115944, 0.0149654, -0.0160871, 0.0399629, 0.00364498, 0.00851082, -0.00185111, -0.000228993, 0.0301557, 0.00927838},
	{-0.0422218, 0.0195514, -0.0267056, 0.0348356, 0.0157625, 0.0472161, 0.00574002, 0.0106192, -0.0250287, -0.0106782, 0.079089, -0.019591, 0.0120916, -0.0568778, -0.0703815, -0.0103784, 0.0138412, -0.0184171, 0.00141424, 0.0362839, -0.0355235, -0.0272554, 0.026116, 0.00436281, 0.0243009},
	{0.0147902, 0.0176538, 0.0332194, -0.0153579, -0.0237201, 0.0161808, 0.0398583, 0.0129762, -0.0210863, -0.0327476, -0.0299906, -0.0068049, -0.0512168, -0.0375833, 0.0347944, -0.0303596, 0.0215911, -0.0130494, 0.0103953, 0.0329625, -0.0127121, 0.0137379, -0.0344376, 0.00301722, 0.0112094},
	{0.0149234, 0.030941, -0.0272234, 0.0111168, -0.0119825, 0.0118013, 0.0324594, 0.00487687, -0.0489791, 0.00779143, -0.0259583, -0.00605507, 0.00763589, 0.0372537, 0.0233122, 0.0273334, -0.00569459, -0.0513301, 0.0112073, -0.0444344, -0.0247413, 0.00312768, -0.00504811, 0.0337836, 0.0618317},
	{0.027479, -0.0237415, 0.019716, -0.0138662, -0.0253403, 0.00302328, 0.013632, -0.0100154, -0.0295794, 0.0302402, -0.0451827, -0.0708332, 0.0153248, 0.0743055, 0.0389272, 0.0384252, -0.0131331, -0.00841498, -0.00903471, -0.0309469, 0.000241879, -0.000323499, -0.00587668, 0.0214624, -0.00830047},
	{0.00373912, 0.0192556, 0.00254502, -0.00792893, -0.0355152, 0.0025982, 0.0410665, 0.0124708, -0.00278178, -0.00755011, 0.00694563, -0.042881, -0.019306, -0.0183274, 0.0110186, -0.0158397, 0.0374733, -0.0294628, -4.53695e-05, 0.000727204, 0.00690998, -0.0240316, -0.014268, 0.0354662, 0.00137306},
	{-0.0226272, 0.0389526, -0.000964129, -0.0222071, 0.0388198, 0.0306998, 0.0250922, -0.0153609, -0.00650092, -0.00107434, 0.0604561, 0.0184039, 0.0347923, -0.00830459, -0.0134065, 0.0156994, -0.0261916, 0.01237, -0.0270911, 0.012186, 0.00764017, -0.0421044, -0.0292628, 0.00136087, 0.00360186},
	{-0.0164029, 0.0127277, 0.0223851, 0.0353731, 0.012063, 0.0121203, 0.0353953, -0.00866939, -0.0282083, 0.0322647, -0.0188252, -0.0162926, 0.00985204, -0.0354435, 0.0270459, 0.00301465, 0.038228, 0.0195074, -0.0295651, -0.00113152, 0.0033301, 0.0150227, 0.0248771, 0.0182336, 0.0201403},
	{-0.0324861, 0.0172377, -0.0235703, 0.000692434, 0.0216343, 0.0287127, -0.0298409, 0.00304734, 0.0127187, -0.0185681, 0.0225309, 0.0311004, -0.0207161, -0.0158196, -0.0010482, 0.0130235, -0.0292897, 0.0119344, 0.0133787, 0.0348543, 0.0194454, 0.0175683, 0.0151581, 0.0040122, -0.0379805},
	{-0.00245001, -0.0255646, -0.0177178, -0.000717932, 0.00100048, -0.0341152, 0.00480882, 0.0227381, -0.0356385, 0.0317061, -0.0372609, -0.0104238, 0.0252545, 0.0411042, 0.0295797, 0.0125638, -0.0241107, 0.0224885, 0.0178856, -0.0454363, 0.0174885, 0.018946, 0.0235723, -0.0226037, 0.00497458},
	{-0.00240065, -0.0157836, 0.0110776, 0.00255147, -0.00382816, 0.0185877, 0.00172948, 0.0146165, -0.0185844, -0.0372961, 0.0361873, -0.0173119, 0.0169347, -0.0375376, 0.0156149, -0.00909744, 0.0219379, -0.00281225, 0.0126798, 0.00161828, 0.00999089, -0.023754, 0.0344393, -0.0136037, 0.00475775},
	{0.0146272, 0.00701822, 0.0130523, -0.0277641, -0.0118606, -0.0118139, 0.0116507, 0.0261284, 0.00991263, 0.0437268, -0.0275411, -0.000955357, 0.0135983, 0.00178045, 0.00812354, -0.0150155, 0.00789162, 0.0372121, -0.0247486, -0.0233611, -0.00340771, 0.0281822, 0.0259666, 0.0133849, -0.0266572},
	{-0.0112657, -0.0241917, 0.0196389, -0.00186959, 0.0274599, 0.00545005, -0.0276354, 0.000726976, 0.00398883, -0.00605692, -0.0222387, -0.00864782, 0.000229933, -0.0143382, -0.0165631, -0.00155104, -0.00306744, 0.00837962, -0.0293366, 0.0108992, 0.00328806, -0.0277743, 0.0143248, -0.0118377, 0.0258092},
	{0.0229774, 0.00379415, -0.0189202, -0.0242164, 0.0113171, 0.0268902, 0.00333539, 0.052185, -0.0156397, -0.0255937, 0.0160015, 0.00411263, -0.0233182, -0.032413, 0.00859859, -0.0241105, -0.0232985, -0.0119876, -0.0149983, 0.0187263, -0.00174274, 0.042086, -0.0398386, -0.029558, -0.0451228},
	{-0.00418734, 0.0274498, -0.0143931, 0.0286671, 0.00847429, 0.0407847, -0.00676558, 0.00713851, 0.00921604, -0.0317379, 0.0411057, 0.0597183, 0.00516672, -0.0142004, -0.0357866, -0.0621345, -0.0259398, 0.0191569, 0.0209476, 0.0380163, -0.0278118, -0.0132774, 0.0201163, -0.00944792, 0.00921465},
	{0.00224677, 0.029659, 0.0254563, -0.014955, -0.0220423, 0.0812388, 0.0226582, -0.0351007, 0.00442324, -0.01783, 0.0843935, 0.00902778, 0.0204564, -0.0651608, -0.067331, -0.043861, 0.00147286, -0.0371291, -0.00806891, 0.00794645, -0.00757813, -0.0151161, 0.0306582, 0.00969273, -0.00920459},
	{0.0170297, -0.0215178, 0.0251329, 0.0182058, 0.0135225, -0.0252208, 0.03621, -0.0325559, -0.0267385, 0.0241675, -0.0198269, 0.029515, -0.0252079, -0.0198643, 0.0119055, 0.00450474, 0.0200881, 0.00426986, -0.0168208, 0.022078, -0.0130824, 0.0223628, -0.0298154, -0.00393375, 0.0413598},
	{0.0210218, 0.00549705, 0.0175379, 0.00878387, -0.0185088, 0.035469, 0.023861, 0.00703482, -0.049022, 0.0191265, 0.00647279, -0.0236878, 0.00280695, 0.011241, -0.0180503, 0.00399444, 0.00496611, -0.0262348, 0.00591034, -0.0163312, -0.0121364, 0.0299958, 0.036326, -0.00161037, 0.0247395},
	{-0.0221994, -0.00596252, 0.00719179, -0.0152594, -0.00848781, -0.047132, 0.0336953, 0.00287875, -0.00301341, 0.0597749, -0.0370462, -0.0371132, -0.00909868, 0.0161811, 0.0138407, 0.0339241, -0.0138765, 0.00949, -0.00451488, -0.0145181, -0.0289799, -0.00145065, 0.00236789, -0.0137708, -0.00572344},
	{0.0189491, 0.0206478, 0.0359041, -0.0133551, 0.0157932, 0.0397824, -0.00146047, -0.000254079, 0.0132023, -0.0217402, 0.0227042, -0.0299789, -0.00620992, 0.0246403, 0.0130354, 0.0133585, -0.00628808, -0.0161118, -0.0171232, 0.0163513, 0.000142886, -0.00151642, 0.0254417, 0.0106122, 0.0161325},
	{-0.0325032, 0.0148539, -0.0261684, -0.0244871, 0.0161131, -0.00475957, -0.00882993, -0.0182752, -0.0352561, 0.00525599, 0.0487229, 0.0109388, 0.0118312, -0.0231958, -0.0555652, -0.0239466, -0.00940468, -0.0322885, -0.00815018, 0.0137107, -0.0271116, 0.0119013, 0.0155073, 0.0286094, 0.0221376},
	{0.0122661, -0.00993475, -0.00335031, 0.0217459, 0.0221649, -0.0241985, 0.0160279, 0.00230253, -0.0123388, 0.0276163, -0.0056516, -0.0164004, -0.0112427, 0.0315855, 0.0133277, -0.0131139, -0.0276514, -0.0352636, 0.025038, 0.00646868, -0.0335506, 0.021249, 0.00423985, -0.0251477, 0.0300311},
	{0.0112726, 0.0195926, -0.01395, -0.0269999, 0.0403626, 0.0514813, -0.0346268, -0.00820598, -0.0299471, -0.00852996, 0.0677057, -0.0217053, 0.00252244, -0.025502, -0.024729, -0.023229, -0.0244274, 0.0173981, -0.0367255, 0.0095985, -0.0350562, -0.0353664, 0.0214275, 0.0291212, -0.0116106},
	{-0.0184722, -0.0255924, -0.0137621, 0.0116778, -0.02901, -0.00319701, -0.0150252, 0.0021696, -6.28638e-05, 0.037034, -0.0084686, -0.0565927, 0.0155696, 0.0235391, 0.0134569, 0.0378973, -0.0250204, 0.0181842, -0.0320187, -0.0442503, -0.0188419, 0.0176108, 0.0240842, -0.0207415, 0.00638355},
	{-0.00763273, 0.0289053, 0.00746807, -0.0164238, -0.0094904, 0.0329533, -0.00705848, 0.022592, -0.0388935, -0.00100242, 0.0245159, 0.00688366, -0.0290428, -0.000756873, -0.0049367, 0.0116887, -0.00829669, -0.00958333, -0.0183418, -0.0222465, -0.0214844, 0.0052084, 0.0158058, 0.037382, 0.0275709},
	{-0.00853401, 0.00765978, 0.00140403, 0.0202426, -0.0354394, -0.035337, 0.00726742, 0.0194271, 0.028418, 0.00365004, -0.0178389, -0.0404242, -0.0164601, 0.0468633, -0.0202703, 0.0143094, -0.0309428, 0.0307229, 0.0350023, -0.0148325, 0.0251489, 0.0307259, -0.00624755, 0.00674801, 0.00993884},
	{0.0141965, 0.0258324, 0.0212669, 0.00876378, -0.0159134, 0.0154462, 0.030796, 0.00688323, -0.0311457, -0.0150732, 0.0202841, -0.0224408, 0.00636939, 0.0196304, -0.00668565, 0.0180318, 0.000172503, -0.0393063, 0.0257543, -0.0221376, 0.0247873, -0.0174228, 0.0186407, -0.0182989, -0.0113352},
	{0.026737, 0.0362391, 0.00113651, 0.00173773, -0.0159207, 0.0406114, 0.0149731, -0.00296227, -0.0564839, 0.00463722, 0.0245597, 0.00304218, -0.0374021, -0.0189655, -0.0232749, -0.0112819, -0.0179728, -0.0567061, -0.0485898, 0.0291416, -0.0201731, 0.0448621, -0.0150539, 0.056838, 0.044337},
	{0.0030023, 0.0105028, 0.00420831, -0.0264541, 0.0109576, -0.0213239, -0.0394627, 0.00278511, 0.0259661, -0.0263599, 0.0163715, 0.0150873, 0.0344312, -0.060061, -0.00551862, -0.0216652, 0.0258592, 0.0156836, -0.00339621, 0.00530078, -0.0162262, 0.0234436, -0.0214114, 0.0121308, -0.027399},
	{-0.0248087, -0.0105273, -0.0257566, 0.000656786, -0.0191682, 0.0373035, 0.00515479, -0.021472, 0.00735983, -0.0252813, 0.0836205, -0.00923668, 0.0151605, -0.0696377, -0.0299288, -0.000368847, 0.00813361, -0.0325138, -0.0504584, 0.00411961, 0.0104402, -0.00809131, 0.0400004, 0.0243958, -0.0168307},
	{0.0305702, -0.00360936, 0.0378817, -0.0252191, -0.00712192, 0.0184331, -0.00771421, -0.00318272, -0.0345881, -0.00744917, 0.00747065, 0.0266393, 0.0220732, -0.013569, -0.0241794, -0.0119309, 0.00536944, -0.0210742, 0.0142397, 0.0109128, -0.0376205, 0.0348351, 0.00503297, 0.0226161, 0.0571471},
	{0.0104566, 0.0357716, -0.0245859, 0.027319, -0.0228835, -0.0115559, 0.0254787, -0.0113434, -0.0228259, 0.0318284, -0.0316656, -0.0353235, -0.0172036, 0.0496295, -0.00489646, 0.0108867, 0.0281048, -0.0394876, -0.0168134, -0.00168778, 0.0152926, -0.0225168, 0.0386346, 0.00761398, 0.0131838},
	{0.032098, -0.0229613, -0.00803832, -0.03031, -0.0506344, 0.0170409, 0.0140841, -0.0301434, -0.0391951, 0.0413457, -0.0726352, -0.0377816, 0.0207717, 0.0695685, 0.0477741, 0.0251709, -0.0307919, -0.00602769, -0.0218838, -0.0489337, 0.0245257, 0.0340146, -0.0189264, 0.0139161, -0.0153493},
	{-0.00962075, 0.0257277, -0.00826715, 0.00149046, -0.0409123, 0.0321672, 0.0303232, 0.00561629, -0.036083, 0.0142258, 0.0269942, -0.0147512, -0.018727, -0.00452498, 0.016044, 0.00380712, 0.0335629, -0.0406797, -0.00132939, -0.0188861, -0.0293901, -0.0146676, -0.000615892, 0.0252711, 0.0505518},
	{-0.0153977, -0.0145036, -0.0272319, 0.00872809, 0.0158789, 0.0461691, 0.0154265, -0.00280901, 0.0220034, -0.0209691, 0.063633, 0.0425456, 0.0322411, -0.0345611, 0.00074857, -0.00109257, -0.0270715, -0.0378597, 0.0069555, 0.0313739, -0.0254692, 0.0135981, 0.0302864, 0.00544633, -0.00992064},
	{-0.0125697, 0.00879717, -0.0232685, 0.00778246, -0.00499256, 0.0027, -0.0181342, 0.0030198, -0.00720771, -0.0184621, -0.0258378, -0.00850526, 0.0346877, -0.0222736, 0.010523, -0.0198112, 0.0188244, -0.006452, -0.0213795, -0.0405796, -0.0294811, 0.0205301, 0.0364392, -0.00312763, 0.00373214},
	{0.00452566, -0.0135762, -0.0168946, 0.032769, 0.02664, 0.00871103, -0.032324, 0.00328275, -0.0064325, -0.0235042, 0.0666722, 0.0237898, -0.00645238, -0.0149294, 0.00204488, 0.00296024, 0.00312485, 0.0172085, -0.0305633, 0.0210137, -0.0134176, -0.0240534, -0.0258635, -0.0170144, 0.00120128},
	{-0.0242447, 0.0177991, -0.0221165, 0.00114925, 0.0090389, 0.0148341, 0.0319582, -0.0051927, 0.0011922, 0.021533, 0.00615732, 7.45562e-05, -0.01175, 0.00643817, 0.0285108, -0.00681898, -0.0122212, 0.00629112, 0.000115941, -0.0438638, -0.0298795, -0.0179556, -0.0189708, 0.00200368, -0.0221278},
	{0.0235685, 0.0291244, -0.00865081, -0.00392559, -0.0166995, 0.0228784, 0.00920643, 0.00639044, 0.0016061, -0.00515596, 0.0202971, -0.0112109, -0.000261207, -0.0133345, -0.0432479, -0.0280381, 0.0242501, -0.00456925, 0.000914625, -0.00856849, -0.0262418, -0.0157376, 0.0225442, -0.00865869, 0.0458774},
	{0.0325321, -0.0215391, 0.0167011, 0.00358653, 0.00417385, 0.0110834, -0.00104113, -0.0322974, -0.0138503, -0.0100738, -0.0471484, 0.0246046, 0.0046604, 0.00304552, 0.0384061, 0.0146531, -0.00459284, 0.0393028, 0.0228601, -0.0205009, 0.0212911, 0.0197676, -0.0248333, -0.00418422, -0.00858486},
	{-0.002363, -0.0265688, 0.022486, 0.0306974, 0.0218133, 0.023361, -0.0206719, 0.0153082, -0.0194046, -0.0252554, 0.000781737, -0.00478448, -0.0247259, 0.0198436, 0.0262245, 0.0135809, 0.0236415, -0.0140536, -0.0245846, -0.00370019, -0.0317427, -0.00746136, -0.0292697, 0.00124161, 0.0273097},
	{-0.0177856, 0.0344632, 0.00280585, -0.0289498, -0.0236235, 0.0216667, 0.080217, -0.0133745, -0.057486, -0.0323344, 0.0610522, 0.0129241, -0.0188714, -0.0332607, -0.00489114, -0.0118126, -0.0298038, -0.0492433, -0.0271122, -0.0158335, -0.0480995, 0.00579085, -0.00305237, 0.0374659, 0.058598},
	{-0.0196637, 0.0227587, 0.0253683, -0.0219013, -0.00501368, 0.0389253, -0.0115081, -0.014674, -0.0264391, -0.0251048, 0.0217565, 0.0252974, 0.0120321, -0.0412954, -0.000541976, -0.0670852, -0.0253888, 0.000147703, 0.0286765, 0.0435807, 0.0248406, 0.0355411, -0.0272459, -0.0359114, -0.0378944},
	{0.0145936, 0.0355956, 0.00834933, -0.00925059, -0.00657146, 0.0271894, -0.0196712, 0.0190667, -0.01006, -0.00344175, 0.0669871, 0.0327275, 0.0245806, -0.0317902, -0.0321152, -0.0435601, 0.00905117, 0.0168214, -0.0159214, 0.0119687, -0.00112894, -0.0342877, 0.037509, 0.0383888, 0.00200382},
	{0.0032061, 0.02133, -0.010347, 0.00372843, -0.00253276, 0.0324212, -0.00468422, -0.00530019, -0.046098, -0.0205913, 0.0177005, -0.0124569, -0.00947809, 0.0175896, -0.0280425, -0.00123869, -0.0166283, -0.00323586, -0.0162961, 0.0139686, -0.0365333, 0.024225, -0.0237567, 0.0291121, 0.0194433},
	{-0.012755, -0.00121562, 0.0102384, 0.0296206, -0.0547163, 0.00105534, 0.00150441, -0.0166377, -0.00735054, 0.051486, 0.00978561, 0.00282919, 0.00136878, 0.0407484, 0.0205662, 0.00491819, -0.00239949, -0.00571715, -0.0132382, -0.0360371, -0.00426641, 0.0128827, 0.00559373, -0.0170282, 0.00261169},
	{-0.0220075, -0.014276, -0.0166333, 0.0142404, -0.0361745, -0.0356743, 0.00801353, -0.0147961, 0.0065636, 0.0152707, -0.0608011, -0.0130578, -0.00625836, 0.0423582, 0.00946824, 0.0221641, -0.0319128, -0.0028989, -0.0100052, -0.0111204, 0.0178521, 0.0265024, 0.0235989, 0.0137218, -0.0100973},
	{-0.0223543, 0.0390942, -0.00607498, 0.036746, -0.0128158, -0.000804058, -0.012822, -0.0144143, 0.00985406, -0.0310413, 0.00802855, 0.0107865, 0.0357359, 0.020988, 0.0244972, -0.0234124, 0.00308122, 0.0146831, -0.0431122, 0.00779024, -0.0112475, -0.0277468, -0.0243935, -0.0115213, 0.0261459},
	{-0.0216289, 0.0357714, 0.0255088, -0.0245642, 0.011757, 0.0445854, 0.0232659, -0.00926062, 0.0185622, -0.0579596, 0.0146409, 0.0267268, 0.0160279, -0.0425785, -0.0428418, -0.000332264, -0.0300368, 0.0166467, 0.0109126, 0.0468461, -0.0290258, -0.0145732, -0.0164711, 0.0457783, 0.0216204},
	{-0.00886151, 0.0364987, -0.00466219, -0.0268928, -0.0219969, 0.0317978, 0.0264705, -0.00215784, -0.0238338, 0.00876301, -0.0260281, -0.0321167, 0.0112861, -0.0260957, 0.00922753, -0.0126841, 0.025193, -0.0101302, 0.0042141, -0.0421563, 0.00917081, -0.0200052, 0.0166076, 0.00117139, 0.0169318},
	{0.00889215, -0.00057181, -0.0049132, 0.0130042, 0.0359985, 0.0167816, 0.0283802, 0.00102527, -0.00864965, -0.0345907, 0.0370859, 0.0169345, 0.0113177, -0.0191491, -0.00498084, -0.0203634, 0.0254949, -0.0201024, -0.0403913, 0.039619, 0.0119185, 0.0124498, 0.0283334, 0.0051688, -0.0148839},
	{-0.00504084, -0.00587121, -0.000597743, 0.0157004, 0.0137687, -0.0425294, -0.0126706, -0.0173907, -0.0259879, 0.0423517, -0.0132505, -0.0232512, 0.0160865, 0.0301036, 0.0291825, 0.0571298, -0.0210288, -0.00757215, 0.00938438, 0.000639521, -0.0174521, -0.00479855, 0.014689, 0.0188277, 0.0031597},
	{-0.00879662, -6.59746e-05, 0.0195623, -0.0101812, 0.0269719, 0.00911784, -0.0103725, -0.0208219, 0.0169708, -0.0322881, 0.0458016, 0.0158505, -0.00482931, -0.0320344, 0.0122219, -0.00496202, 0.00828324, -0.0168893, 0.0151908, -0.0126155, -0.0285076, 0.0236218, 0.0173219, 0.0206392, 0.0386805},
	{0.0103506, -0.005898, -0.0162374, 0.0246159, 0.0256381, -0.00695223, -0.0270284, -0.00286854, 0.0196793, 0.00415529, 0.00970359, -0.0012941, 0.00585907, 0.0198159, -0.0024709, 0.0418065, 0.00356059, 0.000239117, 0.017142, -0.00617888, -0.00434637, 0.0331163, -0.000625273, 0.0166777, 0.0223741},
	{-0.00876675, -0.0149187, -0.0126689, -0.0236744, 0.0114496, -0.00172156, -0.000680848, 0.0136425, -0.0112213, 0.0286775, -0.00173796, -0.0171278, -0.0223489, -0.00775815, 0.0321734, 0.0042515, 0.0150332, 0.0126454, 0.000741348, 0.021178, 0.0177557, 0.0226095, -8.04441e-06, -0.00878392, 0.0403471},
	{0.0128721, 0.0494012, 0.0526536, 0.0185153, -0.055669, 0.0503334, 0.0611529, 0.0155803, -0.0709959, -0.00497885, 0.057162, -0.0420737, 0.0119156, -0.0188339, -0.00456663, 0.0342455, -0.00170057, -0.0947861, -0.085913, -0.0127381, -0.0280918, 0.0171224, 0.00588826, 0.0819274, 0.101052},
	{0.0364522, 0.0167795, 0.0115308, -0.0204027, -0.00373593, 0.0152679, -0.0396982, 0.0368737, -0.0204722, -0.00678729, 0.0239783, 0.0213108, 0.0185517, 0.0115507, 0.0188271, -0.0019429, -0.00885405, 0.00601959, -0.0129175, 0.0162242, -0.0234499, -0.001893, 0.0110843, 0.0210039, -0.0181705},
	{-0.0283339, -0.0166315, -0.0191809, 0.0203521, -0.00703787, -0.012143, -0.0123662, 0.00885332, 0.0155367, -0.0395883, 0.0152983, 0.000929799, -0.0118735, -0.0242553, -0.0422504, -0.0244631, 0.0118898, 0.0081401, -0.013945, 0.042026, -0.03485, -0.0417014, 0.0328864, -0.0228148, 0.0247113},
	{0.0306792, 0.0252373, 0.00792704, 0.00957444, -0.0335119, 0.0538911, 0.0406967, -0.0298647, -0.0123497, 0.0180769, -0.00114735, -0.00614524, -0.0368074, -0.00460096, 0.0013348, 0.0299659, -0.00802391, -0.0286677, -0.0433433, 0.0146508, -0.0394128, -0.0273133, -0.00883482, -0.00494244, 0.0193412},
	{0.0157902, 0.00426366, -0.0125304, 0.0294725, -0.00533027, 0.0133112, 0.0386615, -0.00293867, 0.00566999, 0.0302932, -0.00383322, -0.0110284, 0.0242025, -0.0148119, -0.00302486, 0.0117819, -0.0221117, 0.0119323, -0.041618, 0.0106634, 0.0257221, 0.0204705, 0.0264031, 0.0326213, 0.0367307},
	{0.0219026, 0.0192292, 0.00841722, 0.0204591, -0.0382252, -0.0269583, -0.0176548, -0.0297716, -0.00451749, 0.0259155, -0.0375343, -0.02838, 0.0267357, 0.0131332, -0.000479948, 0.0409625, 0.0260786, -0.0252496, -0.00745523, -0.067063, -0.0241298, 0.0322945, -0.0227649, 0.0192788, -0.0113258},
	{-0.0357902, -0.0117968, -0.0284049, -0.0207949, -0.0202527, -0.0201219, 0.0308369, 0.0110831, 0.00421322, 0.0344096, 0.00470206, 0.0109635, -0.0293299, -0.0274254, -0.0202704, 0.0201605, -0.000289591, -0.0464696, -0.0314995, -0.0207535, -0.0121315, 0.00421993, -0.0129077, 0.0232381, 0.0447714},
	{-0.0306086, 0.00102776, -0.00102312, 0.0247623, 0.0090776, 0.0459268, -0.0231833, -0.0189483, -0.0294888, -0.0446046, 0.0671485, -0.0132375, -0.0165137, -0.0330339, 0.0123498, -0.0356701, -0.028462, -0.0332913, 0.000983111, 0.0417377, -0.0157204, 0.01232, 0.0348973, 0.00239721, 0.0239207},
	{0.0160533, 0.0205609, -0.0218517, 0.0365521, -0.00494478, -0.00804733, -0.0224278, -0.0169023, 0.0196789, -0.00779704, 0.00527768, -0.0301104, -0.0279472, -0.00821985, 0.0257113, 0.0258791, -0.0280176, -0.00126387, -0.0185576, -0.0176081, 0.00169708, 0.0253356, 0.00922907, -0.00721733, -0.0163947},
	{-0.0308163, -0.0111059, 0.00237767, -0.00476217, 0.0110327, 0.00106322, -0.00220493, 0.02267, -0.0217823, -0.0256822, 0.0350947, 0.0319321, -0.026743, 0.0115732, 0.000524816, -0.0104784, 0.0138947, 0.0257147, 0.0138813, -0.00815919, -0.000313864, -0.0224935, 0.000708733, 0.00170772, 0.0163745},
	{-0.0309204, -0.0250181, 0.00910549, -0.00650994, 0.0111711, -0.0362908, 0.00111175, 0.0228109, -0.0165564, 0.0183871, -0.0141274, -0.0330495, -0.00279255, 0.0292305, 0.0131418, -0.011567, -0.0276271, 0.0169496, 0.00606694, -0.00983436, -0.020115, 0.0302311, 0.0189905, 0.0204917, -0.0122614},
	{0.0243467, 0.00823902, 0.00709674, -0.011193, 0.0287002, -0.00359004, 0.00247415, 0.0111638, -0.0427818, 0.0105987, 0.0630387, 0.0355101, 0.0162938, -0.00255231, -0.00141556, -0.00399472, -0.0019237, -0.0205976, -0.0151499, -0.0181095, -0.0223535, -0.0275786, -0.0193832, 0.0449701, -0.013374},
	{0.0146173, 0.0153304, -0.00267812, 0.00599933, -0.0063669, 0.0136232, 0.0262171, -0.00673805, -0.000128493, -0.00222645, -0.0335169, 0.0108171, -0.0116135, -0.0135517, -0.022372, -0.00637105, 0.0281233, -0.0126499, -0.0150476, -0.0103622, 0.0302419, 0.0302705, 0.00586458, -0.00575074, -0.0157066},
	{0.000199273, 0.00860336, 0.0324044, 0.00206555, -0.0365187, -0.0120097, 0.0208097, -0.00563803, 0.0112281, 0.0463186, -0.00157349, 0.019672, -0.009392, 0.00701143, 0.0252824, -0.0118601, 0.0179757, 0.0161453, -0.0197483, -0.0320096, 0.0167912, 0.00219858, 0.0286195, -0.0208023, -0.0217703},
	{0.0216349, 0.080326, -0.00247497, -0.00557653, -0.0558007, 0.0144264, 0.0466466, 0.0233924, -0.052988, 0.0387842, -0.0129022, -0.0324857, 0.00508648, -0.0124082, 0.00200667, 0.0350909, -0.00218831, -0.0787762, -0.0454344, -0.0441229, -0.0516834, 0.0493372, -0.0150984, 0.0508348, 0.0871715},
	{0.0150224, -0.0202553, -0.0340252, 0.0207838, 0.00448726, 0.00457189, 0.0154071, -0.019173, -0.00407748, -0.029179, 0.0324445, -0.00224836, 0.0155159, 0.0107364, 0.0106562, -0.0467854, 0.0190305, 0.013433, 0.032243, 0.00501177, -0.00827083, 0.00118188, 0.0247018, -0.0370774, -0.00821443},
	{-0.0335856, -0.00652787, 0.0305224, 0.0179172, -0.0226566, -3.74549e-05, -0.0165849, 0.0217202, -0.014213, -0.0442853, 0.0666457, 0.0128453, 0.00233893, -0.0152779, -0.0137664, -0.0208242, 0.0383565, -0.0121482, 0.0207829, 0.00297807, -0.0325432, -0.0479102, -0.00166566, 0.0208105, -0.000998491},
	{0.0016987, 0.021606, -0.00602764, 0.0105887, 0.011257, 0.0465366, -0.0187775, -0.00638492, -0.0152403, -0.0111536, 0.00994669, 0.000999757, 0.0201875, 0.00713768, 0.000295831, -0.00248927, -0.013715, -0.0105178, -0.022079, -0.0106797, 0.0161409, 0.0198622, -0.0164087, 0.0249765, -0.0131183},
	{-0.0264232, 0.00862813, 0.0322038, 0.0110419, -0.0468291, 0.027895, 0.00394577, -0.0245485, -0.0134549, -0.00360173, -0.0173003, -0.0433875, 0.0196336, 0.00501947, -0.00152189, -0.00889586, 0.0185717, 0.0106721, -0.0402114, 0.0124766, -0.0244966, 0.0169832, -0.0212081, 0.0124541, 0.0327302},
	{-0.0318359, 0.0117555, -0.00816561, 0.00251526, -0.0440084, -0.00611061, 0.0220765, -0.00162453, -0.00811708, 0.0713684, -0.0298154, -0.0276348, -0.0245911, 0.076694, 0.0416761, 0.053236, 0.000452186, 0.0214001, -0.0187332, -0.0479791, -0.00379163, 0.0196901, -0.0308199, 0.00220018, -0.0101652},
	{-0.00220304, 0.0345918, -0.0144021, 0.00889442, -0.0256292, 0.01451, -0.0180236, -0.0165225, -0.0181315, -0.0347243, 0.0379372, -0.0121435, 0.0121231, 0.0161988, -0.00331221, -0.0154868, 0.0118803, 0.00587408, -0.0127239, -0.00329528, 0.0159109, -0.0273054, 0.0377276, -0.0176255, -0.00760171},
	{0.00589672, 0.0309919, -0.00595498, 0.014483, -0.0167221, 0.0237251, -0.0199804, -0.00572623, -0.0180808, -0.0241655, 0.0107608, 0.0358996, -0.0222317, -0.032842, -0.0158368, -0.034375, 0.00474452, 0.019317, 0.00722931, -0.0146347, 0.0117695, 0.00926951, 0.0177845, 0.0291342, 0.0340215},
	{0.00327081, 0.0296889, 0.0303279, 0.014321, 0.00858765, 0.0217453, 0.0403893, -0.00681048, -0.0125443, -0.0255499, -0.00574377, -0.00456726, 0.00446074, 0.0338067, -0.020548, -0.0138578, -0.0184898, -0.0204361, 0.00635844, -0.0322415, 0.0276384, 0.0182473, -0.000710808, 0.00824245, 0.00433035},
	{0.0242292, 0.0312294, 0.0218519, 0.0252903, -0.0146501, 0.0379305, -0.015206, 0.00554662, -0.0207124, 0.0169384, 0.0364193, 0.020822, -0.019239, -0.00377953, 0.00380977, 0.0303897, -0.00806138, -0.0254257, -0.0175834, -0.0150517, -0.00221786, 0.0211315, 0.0130126, -0.0122921, 0.0110358},
	{0.0317305, 0.0116856, 0.00153996, 0.0354997, 0.0144797, -0.0432825, -0.0166298, 0.0169665, -0.0137203, -0.00230677, -0.0352525, -0.00335702, 0.0169481, 0.0385037, 0.0206211, 0.00303302, -0.0232479, 0.0230434, 0.0118997, -0.0241529, -0.00729488, 0.0144804, 0.00984167, 0.00525723, -0.0232422},
	{-0.0081325, -0.000280417, 0.0339421, -0.0272739, 0.00418455, 0.0120018, -0.0104559, 0.0219684, -0.0378169, -0.0419888, 0.0530858, -0.00688404, 0.00731115, -0.0107686, 0.00478754, -0.0254849, -0.0252795, -0.0102301, -0.0340075, 0.0100631, 0.0218486, -0.0238762, -0.01581, -0.00975463, 0.0471326},
	{0.0133013, 0.0259133, 0.0320444, -0.0142141, 0.00160873, -0.0206338, 0.021496, -0.00537096, -0.0146177, -0.00880102, -0.0147318, -0.010254, -0.0332453, -0.0105024, 0.00599192, 0.0410295, 0.00391273, -0.0125487, 0.00129237, 0.00784286, 0.0181928, -0.0293258, -0.0138191, 0.000794921, -0.0334014},
	{-0.0186247, 0.0313402, -0.0102819, 0.0141433, -0.000966466, -0.0246035, 0.0101513, 0.00378258, -0.0230349, 0.0320347, 0.0222395, -0.00211843, -0.000677019, 0.0325555, 0.0101135, 0.00870685, -0.0202197, -0.0240404, 0.0157169, -0.00876011, -0.0256199, 0.0150663, -0.00678437, 0.0114273, 0.0395739},
	{-0.00640344, 0.000366315, -0.0121865, 0.0121123, -0.00509294, -0.0159183, 0.049032, -0.00579351, -0.0623848, 0.0272821, 0.0327882, 0.0021369, -0.0332546, -0.0300516, -0.00593213, 0.0249091, -0.0208429, -0.0363986, -0.00742063, -0.0250831, -0.0227223, 0.0119041, -0.0195335, 0.0614583, 0.0471923},
	{0.00865689, -0.0238863, 0.0256633, 0.0231969, -0.0040492, 0.0301645, -0.037958, -0.0228597, 0.00411299, -0.0382937, -0.01007, 0.034278, -0.0266607, -0.0370461, -0.0143953, -0.0476753, -0.000485806, 0.00138003, 0.0184215, 0.0204189, 0.014053, 0.00190188, 0.0222641, 0.0168847, -0.0125424},
	{-0.0151631, 0.0190644, 0.0317014, 0.0344279, 0.0251791, 0.023501, 0.0256797, 0.0141637, -0.0254655, -0.0309374, 0.0819066, 0.0303954, -0.0151331, -0.0575067, -0.0199477, -0.00487343, 0.0010904, -0.0424617, -0.0291827, -0.00599218, -0.0377197, 0.0102396, -0.0158728, 0.0507016, 0.0452754},
	{0.0306033, -0.0143707, 0.0374117, 0.0111277, 0.0177666, 0.0431617, 0.0207441, 0.0194494, -0.0214539, 0.017397, 0.0260475, -0.0057598, 0.0021938, 0.0243152, 0.0313068, 0.00835721, 0.0113725, -0.0194727, -0.00761998, -0.0193208, -0.0264217, -0.0201988, -0.0164301, 0.0116125, 0.0368545},
	{-0.0223789, 0.0177183, 0.00742991, 0.0146374, -0.0404087, -0.00749416, 0.0348178, 0.0143956, -0.00536676, 0.0177979, -0.0239362, -0.0233754, 0.00747579, -0.0119327, 0.0305316, 0.0279787, 0.0223948, -0.0347314, -0.00899998, 0.00229296, -0.00327525, -0.0205065, -0.0258251, 0.00757879, 0.0256701},
	{-0.0162739, 0.0283199, 0.0185957, 0.022779, 0.00269996, -0.0282888, -0.00777518, 0.00978953, 0.0206357, 0.0223211, -0.0802825, -0.0478507, -0.0272868, 0.0448353, 0.0356285, 0.0417813, -0.000148866, -0.0368307, -0.0098668, -0.0620629, -0.0236292, 0.0193975, -0.0282551, -0.00686801, 0.0445446},
	{0.0202209, -0.00108774, -0.00781197, 0.0330861, -0.0151193, 0.0133085, 0.0093644, 0.0276507, 0.0072051, 0.00533043, -0.0085353, -0.0104345, 0.0326836, 0.0105165, -0.0199074, 0.0425405, -0.0161055, -0.022908, -0.0283737, 0.00151989, -0.0350249, -0.0101468, 0.00119849, 0.00673405, -0.00678939},
	{0.012952, 0.00531354, -0.00872465, -0.00905282, 0.00444913, 0.00506732, 0.018171, -0.0137769, -0.035414, -0.00815433, 0.0354949, 0.0439342, -0.00422002, 0.00369663, -0.0353306, -0.0470127, 0.0316432, -0.0112238, -0.00581743, 0.0118034, 0.0132045, -0.0133577, -0.00686093, 0.0322368, -0.0181607},
	{0.0286354, 0.0321227, 0.0277207, 0.00641474, -0.000539687, 0.0327723, 0.0278278, -0.0314396, 0.0171066, -0.0100507, -0.0280106, -0.0141369, -0.0174637, 0.0347084, 0.0157881, -0.019266, 0.00895669, 0.0178987, -0.0422156, -0.0260397, -0.027359, 0.0296094, 0.0131438, 0.00833989, -0.00258764},
	{0.00205344, 0.0227159, 0.00501036, 0.0356782, -0.0351712, 0.0444136, 0.0259344, -0.0121053, -0.00873641, -0.0144455, -0.0120435, -0.0211777, -0.00755283, 0.0245105, 0.00796422, 0.026617, 0.0111202, 0.00957332, -0.0367381, -0.024823, -0.0110628, 0.00250022, -0.0236669, 0.0137461, -0.00991341},
	{0.0246039, -0.0198292, 0.0241111, -0.0233135, 0.00145094, -0.0105065, 0.0218048, -0.0270744, -0.0329002, 0.0163039, -0.0210733, -0.00212603, -0.00956614, 0.00484228, 0.0279754, 0.0086602, 0.00672945, 0.0263351, 0.0261551, -0.0249718, 0.00682552, -0.0169548, 0.00389505, -0.0306966, -0.0209388},
	{0.00514313, 0.0297144, 0.0239371, 0.0360681, -0.00613018, -0.00974832, 0.0371722, 0.0192058, -0.0338159, -0.042251, 0.032452, 0.00779273, 0.00154683, -0.0401881, -0.0295144, -0.0399395, -0.00894494, -0.00935549, -0.0174164, -0.00304188, -0.0339375, 0.00644254, -0.0186336, -0.0127577, -0.00263605},
	{-0.0307577, 0.0101435, -0.00222153, -0.0329334, -0.0198201, -0.0343563, 0.00745525, -0.0195699, 0.0153798, -0.0146042, -0.00813337, 0.0131369, 0.00622758, 0.0349635, 0.0313572, 0.0246257, 0.0207755, -0.012874, 0.0171326, -0.0299836, -0.00992521, -0.0237844, 0.0306466, 0.0248196, 0.0205126},
	{0.0126034, 0.00614332, -0.0112872, 0.00495165, 0.00312982, 0.034345, 0.0242204, -0.0343618, -0.00538438, 0.0147895, -0.00229848, 0.0109161, -0.0187363, 0.00864211, -0.000973567, 0.00694802, 0.0330114, -0.00790076, -0.0151069, -0.0227504, 0.0131321, 0.0102466, 0.0261523, -0.0233426, 0.0123149},
	{0.00382657, -0.0273321, -0.0290639, -0.0123969, 0.0530817, -0.0108272, -0.0226005, 0.0223023, 0.00396187, -0.042589, -0.021045, -0.00351945, -0.0605528, -0.0104157, 0.0390849, -0.0395271, -0.0102761, 0.0263937, 0.0370813, 0.0128618, 0.0193448, 0.00465001, -0.0476011, -0.0494546, -0.0277774},
	{-0.0102605, -0.00897227, -0.0154804, -0.0281452, 0.0149056, 0.0147269, -0.000183053, 0.0206914, -0.00209218, -0.0239381, -0.00735999, 0.0493164, 0.000203168, -0.0195168, -0.026961, 0.00606942, 0.0161148, 0.0355972, -0.00922442, 0.00281234, 0.0289268, 0.0289153, -0.0328365, -0.0377153, -0.0242789},
	{0.0194325, -0.00121311, 0.00416477, 0.0470483, 0.0167769, 0.00871809, 0.00898903, 0.00456265, -0.0371085, 0.00148755, 0.0544413, -0.0235882, 0.0147909, -0.0337119, -0.0467387, 0.0125537, 0.0241752, -0.0322734, 0.0091863, -0.0136241, -0.00942688, -0.0137689, 0.0225647, 0.00951377, 0.0344023},
	{-0.00889429, -0.0184952, -0.0278997, -0.0166323, -0.0173214, -0.0175916, 0.00883868, -0.0147174, -0.00652562, -0.0224673, -0.0207739, -0.0117176, -0.0252674, 0.0143785, -0.0277339, -0.0171708, -0.0233267, -0.00826947, 0.019656, -0.034016, -0.0270898, 0.0274018, -0.018832, 0.00133114, 0.0138456},
	{0.00180221, -0.00271647, 0.037288, 0.0109727, -0.0153143, 0.0259947, 0.0231436, -0.0352464, -0.0533243, 0.0226118, -0.0438014, -0.00987007, 0.0361998, 0.0384772, -0.00515035, 0.0118597, 0.0392677, -0.0134234, -0.0175971, -0.0510162, 0.0058279, -0.00504442, 0.00881537, 0.0055426, 0.0461865},
	{-0.0193622, -0.0139454, -0.00960397, 0.0290501, -0.0402206, 0.00379062, 0.03873, 0.0106277, 0.0082888, 0.0669064, -0.0215366, -0.0181979, -0.0228636, 0.0197184, 0.0126231, 0.034325, -0.0138968, -0.0105213, -0.0305963, -0.0446036, 0.018349, -0.0189514, -0.016207, 0.0287476, 0.0357794},
	{-0.0324847, 0.0107956, 0.00807882, 0.039307, -0.0082325, -0.0119357, -0.00414915, 0.0104399, -0.0443045, 0.0256913, -0.0222516, -0.00452442, 0.0150441, 0.00815437, 0.026639, -0.00205401, 0.0375821, -0.00563017, -0.0239638, 0.0178983, -0.015466, -0.00568061, 0.00442353, -0.00663527, 0.00470207},
	{0.010945, 0.019517, -0.003328, 0.0091082, -0.00116311, 0.015523, 0.0157121, -0.0325179, 0.026058, -0.0191071, 0.0259228, 0.010865, 0.0231458, -0.0105615, -0.038733, -0.0221531, 0.00192555, -0.0261616, 0.0148671, -0.0160862, 0.0270802, 0.0339599, -0.0188385, 0.0189563, 0.015105},
	{-0.0159802, 0.00103969, -0.00228199, 0.00543913, 0.00537837, -0.0194013, 0.0199068, -0.00124255, 0.0109181, -0.0125118, 0.00733438, -0.00899713, -0.0223529, 0.013271, 0.0263317, -0.00884076, -0.00497588, -0.00348311, 0.00505771, 0.00547552, -0.00591119, 0.0254478, -0.0156279, -0.00819882, -0.0108162},
	{0.0118183, 0.0339371, 0.00675418, -0.00675113, -0.0212069, -0.00346098, 0.00570338, -0.0168805, -0.00315791, 0.0348857, 0.0246103, 0.00765945, 0.023352, 0.00825501, 0.00272378, -0.0120351, 0.0275672, 0.0149783, 0.0270172, -0.0385507, -0.0257516, -0.00592889, 0.0101181, 0.00311225, 0.0207162},
	{-0.0209156, 0.00922207, 0.00263172, 0.00109864, -0.026023, -0.0211713, -0.0161653, 0.0009495, -0.0185824, 0.00263277, -0.0426693, -0.0410481, -0.0196188, 0.0125715, 0.0399125, 0.0479314, -0.021087, 0.004244, 0.0239472, -0.0220225, 0.0150433, 0.0209325, -0.00450899, 0.0188873, -0.00285151},
	{-0.0302016, 0.0236268, 0.0221149, -0.020433, -0.033828, 0.0329511, -0.0212312, -0.031481, -0.00630208, -0.0339927, 0.000508377, -0.0175752, 0.0265391, -0.0252089, -0.0273715, -0.0341321, 0.0168613, -0.0174225, 0.0193242, -0.00439472, 0.000307948, -0.0304184, 0.00594068, 0.00326466, -0.00104376},
	{0.0058281, -0.00895715, 0.0211088, -0.0270925, -0.0267279, 0.0188745, 0.00382797, 0.0168823, 0.0366874, -0.00277201, 0.0228301, 0.00734961, 0.0103332, 0.0323826, 0.00837531, -0.0158834, 0.0252292, 0.035934, 0.0322338, -0.00422974, -0.0210017, -0.00568159, -0.00246963, -0.020606, 0.0270741},
	{0.0115875, 0.000570613, 0.0213702, 0.0384127, 0.0197819, 0.0032149, 0.0270403, 0.0210814, -0.0323962, 0.0193793, -0.00150136, -0.0110546, 0.0188439, 0.0170039, -0.0228465, 0.00298067, 0.00127303, 0.0129986, -0.0330245, -0.0378283, -0.0135734, -0.00552341, 0.00958029, 0.036566, -0.0081858},
	{0.0567805, -0.0508966, -0.0172174, -0.0505075, 0.0153943, -0.0474854, -0.0195923, 0.0413839, 0.0120934, -0.0137085, -0.045835, 0.0279054, -0.0178966, 0.0273611, 0.0133221, -0.0451123, -0.0377296, -0.000855152, 0.0270267, 0.0293513, 0.0440394, 0.0314467, -0.0388454, -0.0582957, -0.00820476},
	{0.0121392, 0.0273537, -0.00426402, -0.0162254, 0.00927423, -0.0261269, -0.00146543, -0.0236208, 0.0211934, 0.00825185, 0.0169772, 0.0102389, -0.01842, -0.00171336, 0.0267819, 0.0127173, -0.0091476, -0.0174034, 0.0262177, 0.0095599, 0.0198211, -0.0169542, -0.0106511, -0.0320662, -0.0105778},
	{-0.00485081, -0.0101669, 0.0214529, 0.0269616, -0.0140696, 0.0400319, -0.00638339, -0.0161003, -0.0477858, 0.0108788, -0.00235261, -0.0381335, 0.0318091, -0.0233311, -0.00395223, -0.000590215, 0.0488837, -0.032019, -0.0188948, -0.00384646, 0.00909123, -0.0443716, 0.000857488, 0.0168813, 0.034701},
	{0.0113021, -0.0117074, 0.0124938, -0.0173463, -0.0182214, 0.0167797, -0.00925259, -0.0125294, -0.00185042, -0.00242332, 0.0136009, -0.0367313, 0.00788921, 0.0132945, 0.00283794, 0.0124306, 0.033185, -0.00856553, -0.0188707, 0.020109, -0.0169538, -0.0283705, -0.0177327, 0.0353537, 0.0122027},
	{-0.0150227, 0.017666, 0.0352107, -0.00840272, -0.0122601, 0.0172251, 0.0270175, 0.0120437, -0.0177417, 0.0553859, -0.0135314, -0.0173842, 0.0134359, -0.00889798, -0.0201174, 0.00247288, -0.0104169, -0.00708657, -0.0105669, -0.0400165, 0.0106642, -0.00278603, -0.0202005, 0.0437812, 0.0273849},
	{0.0205053, -0.0130727, 0.0265246, -0.00967608, -0.00405611, 0.0145612, 0.0352356, -0.0221405, -0.0178228, 0.0455037, -0.0332713, -0.0430779, 0.011323, -0.00146949, -0.0137966, 0.037037, 0.0168602, -0.0377103, 0.0276507, -0.0270353, -0.0174771, 0.0237315, 0.0244521, -0.0170186, 0.00536136},
	{0.00849737, -0.0270987, 0.0328354, -0.00846049, 0.00343403, 0.00558157, 0.034217, -0.0352961, -0.0334695, -0.0215983, 0.011172, -0.0113555, -0.0239183, -0.00440129, -0.0147962, 0.0419927, 0.0362549, -0.0419501, 0.0079636, 0.0257853, -0.00564817, 0.0155982, 0.0157129, 0.0313884, 0.0320249},
	{-0.0154424, 0.0195356, -0.0141864, -0.00886928, 0.0132299, -0.026535, 0.0143684, 0.0302437, 0.007107, -0.0255182, 0.00677182, 0.0133299, -0.0227612, -0.0279436, 0.0218856, -0.0130767, 0.0125529, -0.00516967, -0.00940115, 0.026449, 0.00907706, 0.016027, 0.0332857, 0.0329403, 0.0233532},
	{0.0215179, 0.0266768, 0.0187494, 0.00369271, -0.0120824, -0.00736341, 0.0314791, 0.000830481, 0.0199846, 0.0129374, -0.0257825, -0.0339408, 0.0147306, -0.00485929, -0.0208122, -0.0103506, 0.00447693, 0.00216897, 0.0123993, 0.00388403, 0.0101354, -0.0365955, -0.00471219, -0.00703427, -0.0130771},
	{0.0274827, 0.0259956, -0.0275256, 0.00595009, -0.0144697, -0.00747502, 0.0193106, -0.0042834, 0.0213839, -0.0098968, -0.0227492, -0.0486205, 0.0279597, 0.00648829, -0.0263586, 0.0372714, -0.0208743, 0.0279318, -0.00269017, -0.00663355, -0.0351871, -0.016701, -0.00988214, 0.0035206, 0.00192311},
	{0.0211143, -0.013346, -0.00915089, -0.00899504, -0.0517915, -0.011178, 0.0364054, -0.00478055, -0.0308286, 0.0425013, -0.0257458, -0.0587145, -0.00324766, 0.049192, 0.0164912, 0.0015314, -0.0202738, -0.0161045, -0.00293759, -0.0607594, -0.0187467, -0.0206898, 0.0053238, 0.0204364, 0.00651127},
	{-0.0222854, 0.0236007, -0.018044, -0.0192937, -0.0372878, 0.00950583, -0.00780742, 0.0022296, -0.0398877, 0.0214247, 0.0434286, 0.01483, 0.00324594, -0.0427105, 0.00609307, 0.0168687, 0.026424, -0.0278519, 0.0118534, 0.0196671, -0.00230423, -0.035748, 0.00355876, 0.0403975, 0.0231505},
	{0.0191188, -0.00686774, -0.0239684, -0.0277056, 0.0212231, -0.0279427, -0.0339367, 0.0124872, -0.0263636, 0.00917764, -0.0127624, 0.00561746, -0.0318696, -0.019463, 0.0208867, 0.0062407, -0.00491946, 0.0277904, 0.011413, -0.0238425, 0.0194837, -0.0273418, -0.0315824, -0.00905635, 0.0185586},
	{-0.0167659, 0.0219299, 0.000495377, -0.0115408, -0.0110136, -0.014656, 0.0167802, -0.0293094, -0.0326473, 0.00994161, 0.0464291, -0.0143958, 0.0410442, -0.0113049, 0.0107615, 0.00682559, -0.0269442, -0.0315687, -0.0363459, 0.0207939, -0.00544799, 0.00220876, 0.0192099, -0.0107789, 0.0164539},
	{0.00995171, -0.0228574, -0.0414295, -0.0225118, 0.0337481, -0.0253896, 0.00381905, 0.0331713, -0.00120663, -0.0192882, -0.0116947, 0.0168994, -0.00733966, 0.0123801, 0.038923, -0.00717516, -0.0296333, 0.0370399, 0.0329496, 0.00921418, 0.00826214, 0.0192325, -0.0270435, -0.0104921, -0.000353226},
	{0.0162912, -0.0356918, 0.0113233, 0.00175932, 0.0198343, -0.0177537, 0.0275814, -0.0215272, 0.00766433, 0.0022558, -0.0215815, 0.0349504, -0.0319324, 0.0215292, 0.0187918, -0.0144048, -0.00475396, 0.0363815, 0.03655, -0.0137992, -0.00398126, -0.00627927, -0.0034804, 0.00689867, 0.0287982},
	{-0.0221521, -0.0202131, -0.0217137, 0.000112263, -0.0230351, 0.0354264, 0.0182576, -0.0081545, 0.00728009, 0.0133006, -0.00117531, -0.00534853, 0.0019601, 0.00370423, 0.016441, 0.0150482, 0.0146387, 0.0188661, 0.00768034, -0.0361797, -0.00964044, -0.0393509, 0.0233782, 0.036799, -0.0158878},
	{0.00813479, -0.00363726, 0.0256849, -0.023684, 0.00463316, 0.00281882, 0.0191883, 0.00579101, -0.0214447, 0.0398126, 0.0296326, -0.0175864, -0.00615067, 0.0327927, -0.00377438, 0.0164732, -0.016011, -0.0191047, 0.00558213, -0.0278991, -0.0338678, 0.0117078, 0.0276108, -0.00224045, -0.0139177},
	{0.0234987, 0.00824322, -0.00688475, 0.0197125, -0.00749213, -0.00805978, -0.00488798, 0.0205246, -0.0153912, 0.00883556, -0.00415067, 0.011378, -0.0119051, 0.0185507, -0.0263045, 0.0179276, -0.0137756, -0.0149361, -0.00290817, -0.0237666, -0.0118342, -0.0203907, -0.0161996, 0.0128957, 0.0217126},
	{0.026083, 0.0252455, 0.0289076, -0.00624464, -0.0370956, -0.0149364, 0.0254398, -8.6447e-05, 0.0154937, 0.0102613, -0.0551564, -0.0263251, 0.0295828, 0.0206562, 0.00816754, 0.0183038, -0.0293524, -0.0144196, -0.0125637, -0.00954564, 0.00634185, 0.0254865, 0.0188424, -0.0228794, 0.0397227},
	{-0.0292755, 0.0125215, -0.00238557, 0.0331761, -0.0318486, -0.0114438, -0.0155996, -0.0239702, -0.00848517, -0.0155193, -0.0118504, -0.0120544, 0.020075, -0.0117562, 0.0275628, -0.0225159, 0.0140904, -0.0133113, 0.0150799, 0.0296478, 0.0279542, 0.0283147, 0.00852499, 0.0327325, -0.019177},
	{-0.0169601, -0.0245383, -0.0107541, -0.0250462, 0.0182987, -0.0284109, 0.00516622, -0.0208486, 0.0158345, 0.0112153, 0.000787138, 0.0264344, 0.0104515, 0.00218323, 0.0113556, 0.0243366, 0.0313751, 0.0134713, 0.011437, -0.0193213, 0.0218167, 0.0324547, 0.0313366, -0.0220076, -0.0185247},
	{0.0287608, 0.0206803, 0.0162537, 0.00403215, -0.0374897, -0.00506087, 0.0166282, -0.0157886, -0.0317568, 0.0315609, -0.00658172, -0.0346709, -0.0152607, -0.0277028, -0.0256948, 5.2563e-05, -0.0149121, -0.0109049, -0.0168825, -0.0159559, -0.0280046, 0.0187032, 0.01118, 0.029055, 0.000453353},
	{0.0204259, 0.0245153, 0.00144821, -0.0191256, 0.023396, 0.0241656, 0.00438184, 0.0173807, 0.0362466, -0.00247927, -0.0158708, -0.0272863, 0.00570972, -0.00643164, 0.0236484, -0.00817607, -0.0267597, 0.0220608, 0.0101894, 0.0186795, 0.0215953, -0.0377232, -0.00489204, -0.0156695, -0.031486},
	{-0.00732932, 0.014179, 0.0147378, -0.0288129, -0.0353433, -0.0077105, 0.000546732, 0.00877081, 0.00626774, 0.00748316, -0.0205067, -0.0397752, -0.0258533, 0.0436697, -0.00670786, 0.0218344, -0.0293168, -0.0231849, 0.0192892, -0.029519, -0.00918473, -0.00422128, 0.0142082, 0.0192699, -0.023685},
	{0.00564951, 0.00667119, -0.0166357, -0.0128908, 0.0122221, 0.041064, 0.0265094, -0.0314335, -0.00884052, 0.00128426, -0.0107053, 0.0309479, 0.0231067, 0.0139328, -0.0301783, 0.0270477, -6.80459e-05, 0.0141019, -0.0399338, -0.0166908, -0.0370878, 0.0122851, 0.0268168, 0.00775049, 0.0266499},
	{-0.00138803, 0.000505806, -0.00721256, -0.0122503, 0.035131, 0.0397861, 0.0234029, 0.0235301, -0.0109869, 0.00908543, 0.0037708, 0.0250112, 0.00767531, -0.0341009, 0.0128655, -0.00783213, -0.0311433, -0.0210416, -0.00381598, -0.0134056, 0.0233914, 0.0173743, -0.00138059, 0.0194403, -0.00525586},
	{-0.012485, 0.0335697, 0.0335416, 0.0228066, -0.00878879, -0.00514658, 0.0298393, 0.0156107, 0.0311333, 0.0322542, 0.0299453, -0.0116271, -0.0149706, 0.00132187, -0.0307819, 0.0254491, -0.0122449, -0.0222695, 0.00106629, -0.0272199, 0.0225402, -0.0172743, -0.00777376, 0.0283453, -0.000719793},
	{0.0131896, -0.0431895, -0.0292694, -0.0377208, 0.0349053, -0.025653, -0.0439089, 0.0361641, 0.0314486, 0.0143508, -0.0293999, -1.76868e-05, -0.0474788, 0.00335605, 0.00562881, -0.0307654, -0.0211309, 0.0345847, 0.0305377, 0.0158413, 0.0525754, -0.00090767, -0.0177435, -0.0217387, -0.0209617},
	{0.00968912, 0.00968229, 0.00489271, 0.0283587, -0.0226193, -0.0228381, 0.0269924, -0.0149505, 0.026467, -0.0344803, -0.0314679, 0.0368028, -0.0292892, 0.00925972, -0.0224422, -0.00706325, 0.0321027, 0.0236745, -0.0236153, 0.024412, -0.00076077, 0.0220606, -0.0142523, 0.00561217, -0.0242561},
	{-0.0451111, 0.00375639, 0.00443871, 0.0128142, -0.00238591, 0.0169041, 0.0349712, -0.0360847, 0.00460706, -0.00652522, 0.00338723, -0.02058, 0.0437482, -0.0411746, -0.0314527, -0.0234367, 0.0142889, 0.0211071, -0.000340586, -0.00436818, 0.00190437, -0.00686885, 0.0140686, 0.0307764, 0.0037238},
	{0.0207042, 0.0198502, 0.0107298, 0.019473, -0.0345855, 0.0014394, -0.00388399, -0.00853618, 0.0191953, -0.0119419, -0.00553603, 0.00488208, 0.00949199, 0.0203883, 0.0179082, 0.0377299, 0.0316527, -0.0232179, -0.0400156, -0.0383151, -0.00453266, 0.0343406, -0.0258818, 0.020538, 0.0250192},
	{-0.00266916, 0.0235057, -0.00456757, -0.00237824, 0.0102501, -0.0184252, 0.0060089, 0.00413553, -0.00706112, 0.0222208, 0.029108, 0.00630551, -0.0091089, 0.0233763, -0.0230681, 0.0148984, 0.0402111, -0.0376413, -0.00574286, -0.0155137, -0.00134657, -0.0268827, 0.0131327, -0.0204545, 0.0371449},
	{-0.0174457, -0.013412, -0.00238359, -0.0334967, -0.0428753, -0.010704, 0.0247676, 0.0293811, 0.000367472, 0.016618, -0.0570144, 0.0162859, -0.000896274, 0.0142597, -0.00283441, -0.00805583, 0.00794377, -0.0133098, 0.027407, -0.0225112, -0.0315316, -0.01776, 0.0333374, 0.0301837, -0.0173564},
	{-0.0345069, 0.00646912, -0.00874291, -0.00478436, -0.0248321, -0.0184957, 0.0295414, -0.0125168, -0.0166263, 0.0225845, 0.011371, 0.031133, -0.0233273, 0.0232507, 0.0204843, 0.00939983, 0.0141933, 0.0127327, -0.0189733, -0.0239143, 0.0210592, -0.00949204, 0.0103518, 0.0201375, -0.0166747},
	{0.00341988, -0.00371942, 0.021292, 0.0211413, -0.0165728, 0.0196144, 0.011594, -0.00173776, -0.0289561, 0.0235863, 0.0143891, -0.0178171, -0.0224576, 0.00239889, -0.0144236, 0.0170447, -0.0169045, 0.0105452, -0.0284288, 0.00212806, 0.0134202, 0.011705, -0.00562024, 0.0102247, -0.0279836},
	{0.00152077, 0.0322164, 0.00330725, 0.0209409, -0.0255297, 0.0149943, 0.00288612, -0.0147634, 0.0157836, 0.034831, 0.0244163, 0.0017141, 0.02867, -0.0310908, -0.0288385, 0.0255184, 0.028281, 0.0216497, -0.00175594, -0.0204252, -0.000459723, -0.007442, -0.0175713, 0.00199719, -0.0263184},
	{-0.0093221, 0.00244371, -0.0164148, -0.00260747, -0.0186201, -0.0192332, -0.0274791, -0.0286336, -0.00779132, 0.0305059, -0.0023737, 0.000129731, 0.0074868, -0.0218839, -0.0287097, -0.00817715, -0.00943597, -0.0190695, -0.00794103, -0.0122947, -0.0254222, 0.00582817, -0.0210715, -0.0120708, 0.0212741},
	{-0.0109067, 0.0153251, -0.0135912, 0.008049, 0.0217639, -0.0231883, 0.0187363, -0.0103266, -0.0258511, 0.0264706, -0.0219515, 0.00525787, 0.0346791, 0.0273283, 0.0318168, 0.0158008, 0.0360276, -0.029109, 0.0260067, -0.00164498, 0.0296216, -0.0153759, -0.00634315, 0.00105852, -0.0165559},
	{0.0102444, 0.0290739, 0.000675001, 0.0272475, -0.00921869, 0.0439974, 0.00718307, -0.00272405, -0.0307564, 0.0257178, 0.0349687, -0.0206598, 0.0210759, -0.0348601, -0.0149685, 0.0262979, -0.0297457, -0.0280012, -0.0235922, -0.0123173, -0.0366087, -0.00526956, 0.018903, 0.00920199, -0.00919883},
	{-0.0122402, 0.0351257, 0.0219884, -0.0207531, 0.0352657, 0.0184487, -0.0244867, -0.00545895, 0.0121375, -0.0317861, 0.00208077, 0.0161391, 0.0093817, -0.0298478, -0.0307435, 0.0039506, -0.0161843, 0.0287101, -0.0125383, -0.0113849, -0.00776316, 0.000872488, -0.032931, 0.0147497, 0.0290196},
	{0.013516, -0.0289535, -0.00506618, -0.0115819, 0.0193844, 0.0145269, 0.00310559, -0.00893946, 0.0211833, -0.0404915, 0.0124081, 0.0278016, -0.00293534, 0.00943248, -0.0117019, -0.0369368, 0.025575, 0.0240107, -0.0120332, -0.0141278, -0.0220334, -0.00134002, -0.0207638, -0.0169476, 0.00196167},
	{0.0502805, -0.0261625, 0.0203262, -0.0372323, 0.0129811, -0.0197558, -0.0156687, 0.014929, 0.05074, -0.00209997, -0.0224794, 0.0189547, 0.0197855, 0.0177042, -0.0018558, -0.0169918, -0.0592745, 0.0244891, 0.0406634, 0.0210338, 0.0351041, 0.0299561, -0.0404416, -0.0192058, -0.0511364},
	{-0.0137215, -0.0248749, 0.0169598, 0.0118707, -0.0158863, 0.025764, 0.0207989, -0.0141079, 0.0211002, 0.00860905, -0.00547143, -0.0182036, 0.0296998, -0.00454511, -0.00785027, -0.0168018, -0.0165928, 0.0118447, 0.0101035, -0.0091151, 0.0173267, 0.02369, -0.0269031, -0.00482364, -0.00972005},
	{-0.0064006, 0.0204243, -0.0239615, 0.0150641, -0.00327616, -0.0119504, -0.0306551, -0.019555, 0.0222377, 0.00569785, 0.00886184, -0.01689, 0.0286778, -0.0244807, -0.0299177, 0.0203419, -0.0177018, 0.0257451, 0.0287912, -0.00462598, 0.0171364, -0.042721, -0.00335384, -0.0236007, 0.00761974},
	{-0.0094265, -0.016506, -0.0251568, -6.53649e-05, -0.0292176, -0.011816, 0.0187985, 0.0158661, -0.026845, 0.0212643, -0.0176723, -0.0227126, 0.0163311, 0.0484251, 0.0326326, 0.0288707, 0.00595274, 0.0220827, 0.00775744, -0.0526452, -0.00556521, -0.00508638, -0.0247087, 0.0184388, 0.039998},
	{0.00843435, -0.010785, 0.00598117, 0.0305895, -0.00975777, 0.0285706, -0.00780576, -0.0150393, -0.0401254, -0.00967865, 0.00678887, 0.0013835, -0.0115482, -0.00413854, -0.0184601, 0.0431494, -0.0114333, -0.0153779, 0.00496275, -0.0183748, -0.0044121, 0.0015981, -0.00604164, 0.0388762, 0.00551783},
	{0.00636816, -0.0173474, -0.0307937, -0.0305419, 0.0178351, 0.0213938, -0.000172464, -0.0130324, 0.029105, -0.0103077, -0.028502, 0.00329071, -0.0177483, 0.00880223, 0.0218142, -0.0096099, 0.0229283, 0.0123035, 0.0280845, -0.0363615, -0.0263462, -0.0275829, -0.0326468, -0.0314113, 0.0323037},
	{0.0166587, -0.0302992, 0.00316107, -0.0276722, -0.0206221, -0.00387118, 0.00105445, 0.0166892, 0.0080052, 0.011965, -0.0183465, -0.0031191, 0.00634904, -0.0319444, -0.0239528, 0.00409991, -0.00133259, -0.0122723, -0.0299682, -0.0148101, -0.0309293, -0.0237169, -0.0177903, 0.0255016, 0.0157493},
	{0.0223312, -0.012451, -0.0154669, 0.0300469, 0.0107303, 0.0105428, 0.00643877, 0.00589893, 0.0359141, 0.00721686, -0.0239117, 0.021524, 0.024741, 0.00241015, 0.0197283, -0.0297514, 0.0284242, 0.03423, -0.0192882, 0.027709, 0.0268307, 0.0218853, -0.0204804, 0.00462254, 0.0150408},
	{-0.0101027, 0.00106124, 0.0224808, -0.0111349, 0.0200272, 0.0181473, -0.0126762, -0.00230547, 0.0203118, -0.00942997, 0.0111278, -0.00189109, -0.0143803, -0.0193158, 0.00989761, 0.0126861, -0.00871374, -0.0334447, -0.010788, -0.0264624, -0.0248921, 0.000879465, 0.0323261, -0.00980792, -0.0256537},
	{0.00601669, -0.00555164, -0.0125666, -0.0120067, -0.0258556, -0.00693761, 0.0121315, 0.0218741, 0.0392318, 0.0314112, 0.0087868, -0.0148453, -0.0119283, 0.0102463, -0.00301027, 0.0368102, -0.0168921, 0.031075, 0.000791589, -0.00113541, 0.0246564, 0.0233827, -0.020371, -0.00591899, 0.00286829},
	{0.0268711, -0.0108404, -0.0221113, -0.0145695, 0.0220471, -0.0308452, -0.0154231, 0.0101048, -0.0211187, 0.00329753, 0.0063782, -0.0401935, 0.01112, 0.0204696, 0.00383722, -0.00507282, 0.0138903, 0.0227056, -0.0312384, -0.00103932, 0.0250014, -0.0180697, 0.0269107, -0.00872608, 0.00115294},
	{-0.00301745, -0.0069429, -0.0307392, -0.0202175, -0.0123425, 0.00263497, 0.0132117, -0.0124092, 0.0231231, -0.0402227, 0.0223688, 0.00907234, -0.00386687, 0.0146853, -0.012398, 0.0182584, 0.00732233, -0.00679023, 0.0189285, 0.0361488, 0.0175099, -0.0178715, 0.00306675, 0.00749399, 0.0163304},
	{0.00452121, 0.020345, 0.0063865, -0.00100993, 0.0370785, -0.00440336, 0.0288607, 0.00183964, 0.0197279, -0.0107917, 0.0295371, 0.0240888, 0.0269019, -0.0510646, -0.0404705, -0.0536966, -0.0199677, 0.0120089, 0.014332, 0.00219804, -0.000357644, 0.013492, 0.0244124, -0.0174426, 0.0274824},
	{0.021204, -0.0154086, -0.00631527, 0.0244268, 0.0316455, 0.030578, 0.0223186, 0.0161995, -0.0115211, 0.0190726, 0.0423317, -0.0212905, -0.00718572, -0.0322478, 0.0104571, 0.0157113, -0.00520036, -0.0103339, -0.014127, 0.0222639, 0.00844367, 0.0180183, -0.00284471, -0.0182341, -0.0126188},
	{-0.00230749, -0.0085079, 0.0301707, -0.0217177, 0.0123196, -0.00307144, -0.0326129, 0.0365569, 0.0263738, 0.00433929, -0.00408183, 0.0130786, 0.00100968, 0.00822382, -0.020828, 0.00439711, -0.0124491, 0.0314096, 0.00769219, -0.0225796, 0.0388499, -0.0156214, -0.0115528, -0.0234107, -0.0278217},
	{0.0308852, -0.00451447, 0.0149436, -0.00904271, -0.0228617, 0.017712, -0.00979574, 0.0182831, -0.0303766, 0.0292481, -0.00750131, -0.0135303, -0.0319771, 0.0143505, -0.020619, -0.0102009, -0.0294055, -0.01354, -0.00524653, -0.0066026, -0.0161064, -0.00328078, 0.021465, 0.0328774, 0.03204},
	{0.00467901, 0.0253907, -0.0238493, -0.0194022, -0.0207413, 0.0107557, -0.00520201, -0.0162785, -0.0253209, 0.0111226, -0.00546365, -0.00259945, -0.00250027, -0.0218436, -0.0250296, 0.00939083, -0.011402, 0.00806094, -0.01833, 0.0157664, 0.00540165, 0.0218889, -0.02264, -0.0249676, -0.0352372},
	{-0.0123188, 0.0299607, -0.0265196, 0.00900595, -0.0218951, 0.0196238, 0.0125176, -0.00350207, -0.0114035, 0.0366242, -0.0196649, -0.0520385, 0.0138038, 0.050316, 0.0273743, 0.05777, 0.0136832, 0.00395303, -0.038013, -0.0318283, -0.0150991, -0.0028057, 0.014716, -0.00929574, -0.00773571},
	{0.00887261, 0.00727066, -0.0119538, 0.0164143, -0.0193326, -0.0153519, 0.00121067, 0.0269787, -0.0214156, -0.0100181, -0.0324154, -0.0133184, -0.00375807, 0.0187575, 0.00759312, 0.0216729, 0.00350203, -0.0358459, 0.00125567, -0.0338384, -0.0203709, -0.000250247, 0.0119865, -0.0223405, -0.0185337},
	{-0.0206912, 0.0251337, -0.00240823, -0.0189831, 0.0342909, 0.000714288, -0.00807151, -0.00443225, 0.0219963, 0.0228532, 0.00457951, 0.00790877, 0.0243986, -0.031237, 0.018567, 0.0197334, 0.00829937, -0.00202832, -0.0225962, 0.0294073, 0.0352749, -0.0126535, -0.016423, 0.00906505, -0.00516505},
	{-0.0105641, 0.0203294, 0.0153823, 0.00339684, 0.0209109, -0.00742615, 0.0284904, -0.0267875, -0.0126423, 0.0178664, -0.00543845, -0.0284436, 0.00287925, 0.0139162, -0.0274342, 0.0240808, -0.00878466, 0.00664814, 0.0155785, -0.0195399, 0.0318019, 0.011331, -0.00829551, -0.0305082, -0.0238707},
	{-0.0103229, -0.0336075, 0.00898905, 0.00470948, -0.0238391, -0.0288076, -0.0230106, 0.0250529, -0.0297225, -0.00643202, 0.00855026, -0.0254628, 0.0247933, 0.00334381, -0.0176626, 0.0243335, 0.00734684, -0.0166569, 0.0227605, 0.0221466, -0.0195386, -0.0361242, -0.0283232, 0.0247945, -0.00385788},
	{0.0312089, 0.0168478, 0.0208462, -0.00280826, 0.0243483, -0.0252154, 0.0178235, -0.0136525, -0.0221949, -0.0140934, 0.0186736, 0.0106565, 0.00493251, -0.0314521, 0.00403578, -0.00186554, -0.000509851, -0.00237294, -0.020006, -0.0316764, -0.0157536, 0.00923089, 0.011644, 0.0107917, -0.0263463},
	{0.024469, -0.0276209, 0.018114, 0.0234237, -0.0447327, 0.025581, -0.0287789, 0.0041432, -0.00217857, 0.00563559, -0.000739844, -0.0370057, 0.00707963, 0.0469168, -0.00185538, 0.0245051, 0.00157345, 0.0312143, 0.00582791, -0.0140258, 0.0179049, -0.0224428, -0.00726756, -0.00428663, -0.0391342},
	{0.00108404, 0.00227316, -0.00183067, 0.0179569, -0.0355053, -0.0124166, 0.00703153, 0.00748471, 0.0271029, -0.00664392, -0.02168, -0.00986993, -0.0109862, -0.00152964, -0.0216505, -0.0190928, -0.0217998, -0.017509, 0.0208813, -0.0125845, 0.0256317, 0.0101458, 0.0269746, -0.0247432, -0.0343092},
	{0.0194192, 0.0145592, 0.0246382, 0.00793905, -0.0170668, 0.011455, -0.0273572, -0.00949704, 0.0167783, -0.0131031, 0.0441437, 0.0193352, -0.00625808, 0.0083124, -0.00483479, 0.00848019, 0.0320485, 0.0109818, 0.00226934, -0.0239575, 0.0272776, 0.0140569, 0.0102329, 0.0183712, -0.0342511},
	{0.0259418, 0.0129373, 0.0274221, 0.0294334, 0.0368045, 0.0430342, -0.033699, -0.00717156, -0.00834928, -0.0506646, 0.0406152, 0.0169291, -0.0248499, -0.00192377, 0.000608486, -0.0406832, -0.00631943, -0.0122765, 0.0200647, 0.0451295, 0.027226, 0.0269163, -0.0204805, 0.0228867, -0.0139506},
	{-0.00740552, 0.0171979, 0.00450405, -0.0230661, 0.014699, -0.0102075, 0.0109233, 0.0208263, 0.0121648, -0.00964374, 0.0322126, -0.0100525, -0.0114461, 0.0371875, -0.0161555, -0.00134768, 0.0271489, 0.0156207, 0.0282868, -0.0234289, -0.0346398, 0.000911796, 0.000107804, -0.0258884, 0.00740804},
	{0.0145226, -0.00320006, 0.0341743, -0.0364936, 0.0391237, -0.0199968, -0.0191756, 0.0164801, 0.0239802, -0.0204699, 0.00296795, 0.00288084, 0.02018, -0.0131318, -0.0345793, -0.00254415, -0.00888325, 0.0506226, 0.00641552, 0.0310093, -0.00491291, -0.0279828, 0.00881769, -0.0153637, -0.0233891},
	{0.03127, -0.0215699, 0.00668375, 0.0304781, -0.0140213, -0.0185391, 0.0264507, 0.0300355, 0.00984226, 0.0430403, 0.00745459, -0.0156205, 0.0353846, -0.0108264, 0.0237757, -0.00783875, 0.0335637, 0.0243126, -0.0171942, 0.00266827, -0.00705791, 0.00443033, 0.0232086, 0.0171816, -0.0156935},
	{0.00101864, -0.0129476, -0.0295609, 0.0246261, 0.0128264, -0.0185089, 0.00616656, -0.0130585, -0.0132233, 0.0343103, -0.0243244, 0.00664452, 0.00928501, 0.0338591, 0.00588041, 0.0364428, -0.005376, 0.0276276, 0.00893706, -0.0224716, 0.0175426, -0.00168437, 0.00692604, 0.00973002, 0.010967},
	{0.00502288, 0.0219466, 0.0192477, -0.021199, -0.0348619, 0.00858766, -0.0129692, 0.0306814, -0.0396526, 0.0480796, -0.0267519, -0.0538491, 0.0138467, 0.0436504, 0.0517858, 0.0261034, -0.00448573, -0.00486074, -0.00483168, -0.0342273, 0.0121229, 0.021983, -0.00667648, 0.0207596, 0.0335382},
	{0.00720416, -0.00908153, 0.0138385, 0.0270818, 0.0138903, -0.0214109, -0.0022979, -0.0277991, 0.00794279, 0.0391757, -0.0109563, 0.0107284, -0.0171285, 0.0136177, -0.0285286, 0.0403265, -0.0219547, 0.0197833, 0.00814981, -0.0200673, 0.016361, 0.0195971, 0.0241756, 0.00442568, -0.00488274},
	{-0.00943093, 0.00226549, 0.0256891, 0.0289341, -0.0212288, 0.00579787, 0.0160104, -0.025525, -0.0159691, -0.0236689, 0.0427575, -0.00832735, 0.0110413, -0.0211295, 0.0227064, 0.00593241, -0.0223485, -0.0175871, 0.00537918, -0.00820802, -0.00101932, 0.0171954, -0.0100871, 0.0271215, -0.0231739},
	{-0.01629, 0.0265383, -0.0186328, -0.015095, -0.0269702, -0.0167144, 0.0211291, -0.010892, 0.0158771, -0.0375984, -0.0194362, 0.0341492, 0.0012638, 0.013091, -0.00590922, -0.00176419, -0.0078436, -4.64545e-05, -0.0191948, 0.00943941, 0.0216879, -0.0117576, 0.0181341, 0.00936732, -0.0161229},
	{-0.0151294, -0.0111461, 0.0143291, 0.0269513, -0.0152695, 0.00789304, 0.0100269, 0.0182526, 0.0300049, -0.00797222, -0.00732776, -0.00117256, 0.0244041, 0.00198563, -0.0300586, 0.0300568, -0.00868311, 0.0264169, 0.029575, -0.0293999, 0.0347387, 0.00617153, -0.0174456, -0.0112905, -0.0199465},
	{-0.0210663, 0.00190884, -0.000431205, 0.025958, 0.00584051, 0.00579627, -0.0335439, -0.0119991, -0.0298323, 0.0297657, 0.0229809, 0.0292624, 0.0054351, 0.023547, 0.00192386, -6.17824e-06, 0.00926948, 0.00670289, -0.00170113, -0.00690867, 0.0254869, -0.00319655, 0.030819, 0.0311904, -0.029142},
	{0.0142079, -0.0361899, -0.0339523, 0.0324969, -0.0373826, -0.0223981, -0.0273854, -0.00881897, 0.00514735, 0.0373167, -0.00324496, -0.0526307, -0.00856259, 0.0208932, 0.0251362, 0.00910756, 0.0110106, 0.0198879, -0.0148582, -0.0377864, 0.0259251, 0.0137542, 0.000996198, 0.0140389, -0.000322513},
	{-0.0201378, 0.0224097, 0.00958908, 0.000212551, -0.0339003, -0.0219233, 0.0199217, -0.000920392, 0.0057504, -0.00151143, 0.00851144, 0.024343, 0.0201045, -0.0201887, -0.0020383, 0.0209526, -0.00609292, 0.0322931, -0.00418098, -0.0340871, -0.00781173, 0.015138, -0.0218708, 0.0239345, -0.0159304},
	{0.00570339, 0.00970996, 0.00674639, -0.0126336, -0.0122612, -0.0127719, -0.0305867, 0.0173071, 0.0410625, -0.0273842, -0.00315443, 0.00527825, -0.0112726, -0.0277951, -0.00928436, -0.00860086, -0.0278758, 0.00909085, -0.0121897, -0.0306797, -0.0199445, -0.00231574, -0.0313878, 0.00212869, 0.0106815},
	{0.00961984, 0.0176245, 0.010739, 0.00327252, 0.034368, 0.0158382, -0.00785838, -0.0255187, 0.0217163, -0.00349377, 0.0600546, 0.0182832, -0.0201789, -0.0411329, -0.00938852, -0.0250825, -0.00407065, 0.00813196, 0.0123244, 0.023596, -0.0142787, -0.0265963, 0.0119738, -0.0125026, 0.0104261},
	{0.0200102, 0.0275779, 0.0190345, 0.00214753, 0.0181728, -0.0139953, -0.00309581, 0.00721612, 0.0272883, -0.0197373, -0.0308761, -0.0375527, -0.0288409, 0.00799308, 0.0303602, 0.0237871, 0.0271704, -0.00175626, -0.0127615, -0.0401461, 0.0238764, -0.0239416, -0.0125929, -0.0218122, 0.0084565},
	{0.00755811, 0.0262112, -0.0142405, -0.0158883, -0.000211161, 0.0178472, -0.00457202, 0.0232692, -0.0142202, 0.0349289, 0.0256392, 0.00854487, 0.0177471, 0.000138363, -0.0646257, -0.00460724, -0.0202061, -0.00515782, -0.0147776, -0.0140994, -0.0202999, -0.0589161, -0.0127665, 0.0468798, -0.0279539},
	{-0.0251291, 0.0163606, -0.00686815, -0.0194503, -0.0397347, -0.0187484, 0.000413049, -0.00880764, 0.0239006, 0.0373449, -0.00319121, -0.0159337, 0.0358291, 0.0288133, 0.000180391, 0.0317122, 0.00895, 0.0243492, -0.0220836, -0.0615944, 0.0292946, -0.0248356, 0.0223167, -0.0215201, -0.00420487},
