float weightIH[883][25] = {
	{-0.0712774, -0.0461673, 0.0224076, 0.0212411, 0.0157701, 0.0379443, 0.0353174, 0.000697173, 0.00980657, 0.0605265, 0.0585024, -0.0307738, 0.0305996, 0.050556, -0.0339855, 0.0642923, -0.0860597, -0.0198169, 0.0328543, 0.0307609, -0.0213797, -0.0254879, -0.0071607, 0.021403, 0.0154594},
	{0.044246, -0.010844, -0.0355819, 0.0138364, 0.00727736, 0.0479431, 0.0145183, -0.0627699, 0.0331389, -0.00472133, -0.00603715, 0.0231247, -0.0386379, 0.0624153, -0.0184354, 0.0101748, -0.0462816, -0.0305886, -0.0489368, 0.0410349, -0.0154373, 0.0245589, 0.00874226, -0.000382473, 0.00589384},
	{-0.0474771, -0.0266941, 0.00110295, -0.00847339, -0.0164718, 0.000682901, 0.0423397, -0.0416408, 0.00415146, -0.00119808, -0.00712916, 0.0257102, -0.0103951, 0.0575901, 0.00773442, 0.0412482, -0.0537052, 0.0245962, 0.0136708, 0.0533379, -0.00336558, 0.0315001, 0.0215421, 0.0330625, 0.0470607},
	{-0.0386218, -0.00474716, 0.028108, -0.0318107, -0.022735, -0.0356702, -0.0138975, 0.0544981, 0.0266608, 0.0220354, -0.00699241, 0.0319696, 0.00138326, -0.00912553, 0.00969382, -0.0192094, 0.00917102, -0.00237727, 0.0298112, -0.0131149, -0.00662082, 0.0262294, -0.027563, -0.00957014, -0.0270856},
	{-0.0259764, -0.00393884, -0.0092581, -0.0254906, -0.0242873, -0.00283322, -0.01509, 0.0263573, 0.0229443, 0.040171, 0.0440205, 0.0136323, 0.037088, 0.0154807, -0.00258314, 0.00356061, -0.0649316, -0.0181162, 0.0564972, 0.00257495, 0.0323878, -0.0225298, -0.0416515, -0.00726545, 0.0427555},
	{-0.0361529, -0.0371482, 0.00187053, 0.00172016, -0.00493638, -0.0171676, -0.0265888, 0.0267861, 0.00208658, 0.0291312, 0.0200606, -0.025288, -0.0082445, -0.0159446, -0.0233035, 0.0205547, -0.0102625, 0.0195497, 0.00167487, -0.0358002, -0.0274175, 0.00151044, -0.0448017, 0.019149, -0.018494},
	{-0.0163856, 0.00860088, 0.0177146, -0.00229774, 0.0114365, -0.0552741, -0.0148601, 0.0381416, -0.0375852, 0.0400594, 0.0276905, 0.00358685, 0.000411635, -0.0488275, 0.00818167, 0.0113553, -0.0123815, 0.00790538, -0.0163441, 0.0279839, 0.0108029, 0.0361935, -0.00376325, 0.000192685, 0.0408861},
	{-0.00195015, 0.012982, -0.0158911, -0.0258023, -0.0259323, -0.0713717, 0.00383501, -0.00885398, -0.0212781, -0.0303126, -0.00291956, -0.0132737, -0.00336354, -0.016638, 0.0269884, -0.0489239, 0.0548787, -0.021266, 0.0269054, 0.0228847, 0.0246483, 0.0251524, 0.0309883, 0.0201369, 0.0392816},
	{-0.0345802, -0.0435672, 0.0140958, 0.0256145, 0.038178, -0.0435475, 0.0184873, 0.0372997, -0.0302019, -0.0105358, 0.0427376, 0.00412258, 0.0377186, 0.0172859, 0.0242656, -0.0366526, -0.0252088, -0.000408985, 0.0472649, 0.03488, -0.0267828, 0.0143483, -0.0410729, 0.028198, -0.0159034},
	{-0.0184689, 0.00824869, 0.0191366, -0.00823218, -0.0117429, -0.0154055, 0.00651994, -0.00986805, -0.0124729, 0.00358454, -0.010508, -0.00797421, 0.00798718, 0.00410851, 0.0286387, 0.0213771, -0.0247631, 0.0016772, -0.00748216, -0.00377342, 0.031927, -0.000385473, -0.00131356, -0.0191228, 0.0284407},
	{0.0141316, -0.0318224, 0.00164846, 0.0202225, 0.00976789, -0.000716876, 0.0209626, -0.00866263, 0.0057135, -0.0272214, 0.0279597, -0.0148172, 0.0252643, -0.0119689, 0.0105347, -0.0231136, -0.00429116, 0.0200919, -0.0161827, -0.030071, 0.0348977, 0.0106187, 0.0145743, 0.0155768, -0.0249688},
	{-0.0257557, -0.010232, -0.0113005, 0.011953, -0.0288012, 0.0120983, 0.00489893, 0.00582567, 0.0256574, -0.0178616, -0.0166395, -0.0293755, 0.0201392, 0.0135182, -0.0141794, 0.00907169, -0.00905882, 0.0282449, 0.0122912, -0.0257984, 0.0300059, -0.0306993, -0.0224234, -0.012867, 0.000854739},
	{-0.0215608, 0.00881504, -0.0322609, 0.013533, -0.0285644, -0.0234403, -0.0186302, 0.0268454, 0.0309235, 0.0262748, -0.0208613, 0.00708102, 0.02367, 0.0172028, -0.000797664, 0.0020648, 0.0108905, -0.022586, 0.0185605, -0.0333838, -0.0308937, 0.00944611, 0.0319511, 0.00810772, -0.0179178},
	{-0.00442792, 0.0110775, 0.000368916, -0.0268482, 0.0330561, -0.027326, 0.0332981, 0.0206766, 0.0199306, 0.0108039, -0.0231681, -0.0177823, -0.00475871, 0.0231622, 0.00662612, -0.0013813, -0.0289532, 0.0134575, 0.0321225, 0.0183648, 0.00380977, -0.00135837, 0.0290418, -0.0257746, -0.0189892},
	{-0.059031, -0.054209, 0.0117843, -0.00372171, -0.00430084, 0.0199596, 0.0209706, -0.006802, -0.00542819, 0.0268123, 0.0567097, 0.019587, 0.0393192, -0.00244256, 0.0218622, 0.0179502, -0.0501446, -0.0267102, 0.0540815, 0.0458785, -0.001147, -0.0206978, -0.0327656, 0.0502492, 0.0208454},
	{0.0305539, 0.0315577, -0.020001, -0.0233307, 0.0196704, 0.0408828, 0.00384793, -0.0372317, 0.0370946, -0.0308267, 0.0101346, -0.0181954, -0.0223656, -0.0139192, 0.00690997, -0.00328086, -0.0275775, -0.0191079, -0.0516559, -0.0124848, -0.023093, 0.0263251, 0.0163228, -0.00723636, -0.005607},
	{0.00979005, -0.0169237, -0.013036, 0.0168369, -0.0103205, -0.0192715, 0.0289735, -0.00260522, 0.0170057, 0.0284731, -9.92279e-05, 0.0179042, -0.0106244, -0.0127712, 0.0398505, 0.0621353, -0.0502503, -0.0203019, 0.0290116, 0.0392582, 0.00644225, 0.00858561, -0.0300595, -0.0145409, 0.0424747},
	{-0.0277087, -0.0198302, 0.0416748, 0.0243065, 0.0329995, 0.00819445, -0.0235532, -0.0112315, -0.0154182, -0.0130625, 0.00063694, 0.0182838, -0.00284875, -0.0373436, -0.00134322, 0.0320721, -0.0363897, 0.00637482, 0.0226954, 0.0220634, -0.0118208, -0.0157327, -0.0450686, 0.0427351, 0.0184152},
	{0.00813214, -0.0208676, 0.0281763, 0.0180148, 0.000566489, -0.00434194, 0.0278782, 0.0413948, -0.0407391, 0.0484952, 0.0252219, 0.0203541, 0.0347048, -0.0217294, -0.0220009, 0.0300104, -0.0201768, -0.0242516, 0.0140137, 0.0318488, 0.0132563, -0.0261985, -0.0203446, 0.0252982, -0.00518844},
	{-0.00957667, -0.03048, -0.0206159, 0.0190104, 0.0187893, -0.0323385, 0.0306313, -0.0118189, 0.0211361, 0.00813995, 0.0152204, -0.0240829, 0.0300063, -0.0246189, 0.00490491, -0.0145424, -0.0218191, -0.0185057, 0.0192503, 0.022766, -0.0157127, -0.0134084, -0.0274691, 0.0069133, -0.0133383},
	{-0.0371661, -0.037671, -0.0166166, -0.00332715, 0.00163861, -0.0269157, 0.0188415, 0.0323942, -0.0304887, 0.0282624, 0.0310656, -0.025705, 0.0338479, -0.0345722, -0.00634175, 0.00753213, 0.0433123, 0.0194371, -0.00866189, -0.0113855, 0.00508596, 0.0177348, -0.00441401, 0.0354073, 0.0189114},
	{0.0192813, -0.00940234, -0.00276198, -0.0218296, 0.0112696, -0.0128517, 0.0140224, -0.0198228, 0.000866653, -0.0210918, -0.010603, 0.0188096, -0.0255616, -0.0431485, 0.0168116, -0.0519193, -0.00200418, 0.00882266, 0.0191036, -0.00689955, 0.0293028, 0.0223733, -0.0196327, -0.000259236, 0.0294501},
	{-0.0195818, -0.0212235, 0.0300365, 0.0301008, 0.0133161, 0.00625505, -0.0189981, -0.0285421, -0.0069381, 0.00145957, -0.00320297, -0.00867195, 0.0277336, 0.00451046, 0.0195592, 0.00409457, -0.023632, -0.0193166, -0.00196943, -0.00937873, -0.0188454, -0.00552846, 0.0079509, -0.0115858, -0.0162417},
	{0.0257944, -0.0190272, -0.0341447, 0.00205988, 0.0202363, -0.0265592, 0.0218253, 0.0328539, 0.0160833, 0.0234973, 0.0376077, 0.0218159, -0.00474986, -0.0269511, 0.0117576, 0.00571679, -0.0214171, 0.0181289, 0.0112598, -0.0151338, 0.0207647, 0.00363707, 0.0234592, -0.0170245, 0.0326972},
	{0.0325338, 0.021793, 0.0285664, 0.0270012, -0.0044798, 0.000801926, -0.0226696, -0.00779795, 0.0293304, -0.00768657, 0.0266329, -0.0192956, 0.0024999, 0.0231848, -0.0245754, -0.0240305, -0.00260008, -0.023551, -0.00803487, -0.0393983, -0.0101379, -0.027085, -0.018233, 0.00867487, -0.0214199},
	{-0.00874917, -0.0127914, -0.0159625, 0.0134264, 0.0261609, 0.0115717, -0.0161185, 0.0142609, 0.00804972, -0.00204062, 0.012901, -0.00557125, 0.0178879, 0.0218323, 0.0038974, -0.00489346, 0.00402646, 0.00343994, -0.0215992, 0.0318061, -0.0249551, 0.00850784, -0.0116781, 0.0353703, -0.00698192},
	{0.0275261, 0.0266065, -0.0291876, 0.0155253, -0.0292561, -0.0258428, 0.000771612, 0.0187746, 0.028347, 0.016612, -0.00515427, -0.0299417, -0.00193311, 0.00899616, 0.0328672, 0.0188665, -0.0086323, 0.0252402, -0.0325575, 0.00990508, 0.0262548, -0.00124954, 0.0330167, -0.00287997, -0.0244973},
	{-0.0204753, 0.0122045, -0.0191786, 0.0294411, -0.000717985, 0.0144671, 0.00788917, 0.0082639, -0.00155113, -0.0203012, -0.0218941, -0.00924876, 0.007543, -0.00603627, 0.0184094, -0.00730943, -0.0373732, 0.00610333, 0.0191534, 0.00249251, -0.00084158, -0.0199159, 0.0320188, -0.0181028, 0.0314314},
	{-0.0530088, -0.0865428, 0.0140625, -0.0135342, 0.0145317, -0.0142057, 0.026477, 0.0202319, 0.0188564, 0.0633835, 0.10489, -0.00680911, 0.0956549, 0.0331398, -0.0210897, 0.0577564, -0.0776799, 0.019262, 0.071633, 0.0445982, 0.013473, 0.0126351, -0.0161971, 0.0925687, 0.0239752},
	{0.0421611, 0.00476688, -0.0283142, 0.00440604, -0.0144679, 0.00355715, 0.00866061, -0.0445747, 0.0212798, 0.0131177, -0.000399465, -0.0167987, -0.0274183, 0.0345748, 0.00784766, -0.0238817, -0.0034364, 0.000145299, -0.0504374, -0.0264581, -0.0154182, -0.0206382, 0.0438216, -0.0194013, 0.000276513},
	{-0.00850425, -0.00300573, -0.0109184, 0.0278844, -0.0133243, 0.000745055, -0.00729858, 0.00358774, -0.0103717, 0.00186978, -0.00190457, -0.0106676, 0.0119354, -0.0137523, 0.0301054, 0.00815356, -0.0574966, 0.0318807, 0.0305186, -0.00100146, 0.0254647, -0.00158961, 0.0254039, 0.0293948, 0.00616231},
	{-0.0508939, -0.0381078, 0.0320904, -0.015374, 0.0223168, 0.0169603, -0.00813467, 0.0240406, -0.00211767, 0.0469159, 0.034443, -0.0214048, 0.0468659, -0.00354058, 0.0364378, -0.00775288, -0.0487031, 0.0339715, 0.0288822, -0.024858, -0.00920996, 0.0257104, -0.0469602, 0.0240571, 0.0377823},
	{0.017572, -0.0215442, 0.020959, 0.0131423, 0.0253758, 0.0240521, 0.0178334, 0.0333233, -0.0210205, -0.00243412, 0.0239981, -0.00309709, 0.0239234, -0.0336095, 0.010134, 0.0387829, -0.0411262, -0.000633244, 0.0167924, 0.0258794, -0.0094852, 0.0336788, -0.0495522, 0.0188085, -0.00327542},
	{-0.0386583, -0.012895, -0.012, -0.0262485, -0.0142989, -0.0177577, -0.012497, -0.0157761, -0.00492534, 0.0123762, 0.0296735, -0.0301053, 0.0377051, -0.015047, 0.032448, -0.0104069, -0.0189345, 0.0196377, 0.0312455, -0.00943205, 0.0192113, 0.0229004, 0.016921, 0.031131, -0.0108738},
	{-0.0391316, 0.000726693, 0.00133812, 0.00619784, -0.0170815, -0.00105951, 0.0234631, -0.0103586, 0.0281616, 0.0259191, 0.026447, -0.0233806, 0.0225955, -0.0660755, -0.00625699, 0.0141422, 0.0313638, 0.000846552, 0.0220914, 0.0251271, -0.00815682, -0.0089462, 0.000677621, -0.00558316, 0.0253719},
	{-0.0336358, -0.010524, -0.032896, 0.0331013, 0.00468265, -0.0290389, 0.02391, -0.0115408, -0.0276116, -0.0190845, -0.00775363, 0.0347364, -0.0100271, -0.0310305, -0.023245, -0.00464907, 0.0102718, 0.0127218, -0.0202466, 0.0376961, -0.0229506, -0.00747397, -0.0293792, 0.000265748, 0.00943523},
	{-0.0220089, 0.0229942, 0.023673, 0.0112452, -0.0117823, 0.0235464, -0.0205287, 0.00954683, -0.019486, 0.0125671, -0.0317826, -0.0306131, -0.00179633, 0.0278137, 0.0240977, 0.0260987, 0.00878529, -0.0143297, 0.0228661, 0.0231956, -0.00302425, -0.0310394, 0.0321317, 0.00624718, 0.0256529},
	{0.0175848, -0.0137073, 0.01507, 0.0198252, -0.0226953, 0.00535481, -0.0188651, 0.0182165, 0.0278233, -0.0210133, -0.0288608, 0.0160621, -0.0033509, -0.0264541, 0.0184515, 0.00494217, -0.0154311, -0.0204622, 0.00602389, 0.0402642, 0.0312969, -0.00301, -0.0296124, -0.0252594, 0.0357752},
	{0.0222092, -0.0208001, -0.0270877, 0.0217089, -0.0253227, 0.00864858, -0.0195746, -0.00753882, 0.0218511, -0.00956611, 0.0194636, 0.00448056, -0.0235732, 0.0273236, -0.01937, -0.0221034, -0.0219345, 0.0136614, 0.000448792, -0.00571876, 0.00360611, -0.0309672, 0.0237017, 0.0308257, -0.00981221},
	{-0.0182449, 0.0194465, -0.019946, 0.0255318, -0.0040305, 0.0249901, -0.0269384, 0.0204606, 0.0243495, -0.0125799, 0.0372365, 0.00845174, -0.00316797, -0.0326276, 0.0238606, -0.0252088, -0.0370864, -0.0193803, 0.0114403, 0.00155944, -0.0071361, 0.00237632, 0.00081071, 0.0251522, 0.0206607},
	{-0.00230379, 0.0141925, -0.0232802, -0.0112272, -0.027189, 0.00503154, -0.0335876, -0.0112026, 0.0295625, -0.0200781, -0.0154462, -0.00735968, 0.00640558, -0.00840029, -0.030465, 0.024535, -0.0126162, -0.0325985, -0.037881, 0.00516501, -0.0100115, -0.0326811, -0.00834311, -0.0122588, 0.007724},
	{0.0262417, 0.00269456, -0.0238052, 0.0341875, -0.0235924, -0.0254304, 0.0359521, -0.0064151, 0.0279226, 0.0262475, 0.00394357, -0.0218723, -0.00486243, -0.0276035, -0.0210321, 0.0155641, -0.0229116, 0.00748219, 0.0285927, 0.0100183, 0.00449774, -0.00856409, 0.033585, 0.00139962, -0.0136114},
	{-0.0504762, -0.100413, 0.0435571, 0.0268058, 0.0216219, 0.0264546, 0.0331288, 0.0361613, 0.00456572, 0.0879898, 0.0567866, -0.0257427, 0.0557823, -0.0172889, -0.00079842, 0.0323291, -0.0737133, -0.0146828, 0.0509891, -0.0112635, -0.0132694, 0.00793706, -0.066436, 0.0959711, 0.00775858},
	{0.0157718, 0.0439531, -0.0391592, 0.0246054, -0.010061, 0.031348, -0.0273988, -0.0410215, -0.00305412, -0.00776357, -0.0195872, -0.00205817, -0.0378787, 0.0262398, -0.0365448, 0.0270728, -0.0299998, -0.00796914, -0.02801, -0.00802931, -0.0178957, -0.00920181, 0.00263263, 0.00761584, -0.0162174},
	{-0.0207967, -0.0366797, -0.0182256, -0.00965719, -0.0141453, 0.00574056, 0.0293013, 0.0121676, 0.0157032, -0.00921764, 0.0264273, 0.0385956, 0.0221796, -0.0423664, 0.0180742, 0.00118125, -0.0151744, -0.0190283, -0.013421, -0.000845311, 0.0125959, 0.0234524, -0.015214, 0.0199802, -0.00783523},
	{-0.0208153, -0.0382092, 0.00475138, 0.0353258, -0.0183641, 0.0275475, 0.0206837, 0.0247789, 0.0119264, 0.0206073, -0.00157432, 0.00323288, 0.036358, -0.0118916, 0.0150365, -0.0122975, 0.00583984, 0.0268558, 0.0523304, -0.0254195, -0.0211484, -0.00985871, -0.0464476, 0.0453681, 0.0181763},
	{-0.0311867, -0.0178674, 0.00827813, 0.0205288, 0.00765068, 0.0335439, -0.0307616, 0.0356342, -0.035016, -0.0145427, -0.0108129, -0.0063365, 0.00396704, -0.0126209, 0.022748, 0.0189238, -0.010439, -0.0160171, 0.0409733, 0.00769763, 0.00414319, 0.00876036, -0.0475834, -0.0106105, -0.0341836},
	{-0.009061, 0.023608, -0.00798198, -0.00673375, 0.00301859, -0.0010058, 0.00677167, 0.0161345, -0.0102425, 0.0202694, 0.0167006, -0.0206122, 0.0298532, 0.0285407, 0.00751805, -0.0257009, 0.0463623, -0.00864359, 0.0241709, -0.0184493, 0.0266116, -0.031576, -0.00610065, -0.00287114, -0.0145404},
	{-0.00440818, 0.000880203, 0.0102061, -0.0212014, 0.037905, -0.0385423, 0.0232404, 0.0209494, 0.000485643, 0.0143507, -0.0121688, 0.0328281, 0.0338824, 0.004694, 0.0105383, 0.000871114, -0.00476881, 0.0140768, 0.0253978, -0.0192587, -0.0208368, 0.0141195, 0.0224065, -0.0218141, -0.015312},
	{0.0272537, -0.0283937, 0.0219834, -0.0131601, 0.0137143, -0.0679508, 0.0271412, -0.0134764, -0.00969219, -0.0264982, 0.00106843, -0.0102515, -0.0262438, -0.0258378, 0.00119048, -0.0230161, 0.0140038, -0.000512556, 0.0271402, -0.019056, -0.0187122, 0.00752576, 8.71985e-05, -0.0167313, 0.0420743},
	{0.00693653, 0.0300646, -0.0271234, -0.00588038, -0.0109009, -0.0232708, -0.0240755, -0.0116678, 0.0145285, -0.02551, -0.00346088, 0.00278743, 0.018619, 0.000909701, -0.0296213, 0.00786721, 0.0252373, 0.0118067, -0.00834113, 0.00705944, -0.0274469, -0.0307085, -0.0194883, -0.0142427, -0.0119788},
	{-0.0300429, -0.0166698, -0.00184907, 0.0114306, -0.0184361, -0.0236645, -0.0155143, 0.011923, 0.0220666, -0.0122891, 0.0203306, -0.0272821, 0.0154414, -0.0319111, 0.00111791, -0.0124703, 0.0336615, -0.0307154, 0.0205686, 0.0184528, 0.0154727, -0.0324245, 0.039181, -0.00711186, 0.018791},
	{0.0204723, -0.0234414, 0.00363524, -0.000329615, 0.0149405, 0.0199951, 0.0212344, 0.0100493, 0.0212065, -0.0201895, -0.0182995, 0.0116807, -0.00427491, 0.0467493, 0.0190741, 0.0164788, -0.0331515, -0.026533, -0.0177035, -0.0242571, 0.0251175, 0.0143904, -0.000717758, -0.0200753, -0.014301},
	{-0.00652167, 0.000356531, 0.0149319, -0.0241642, -0.00228904, -0.0129004, -0.0236843, 0.00799027, 0.0127577, 0.0413792, -0.00587731, 0.00519123, -0.0173846, -0.0141565, 0.0141349, 0.0201181, -0.0294737, -0.026209, -0.012022, 0.00466319, -0.0114994, -0.0195672, -0.0161322, -0.00958635, 0.0122322},
	{-0.0113583, 0.0388972, 0.0126125, 0.00326112, -0.00396392, 0.0289753, -0.00777076, -0.000831807, 0.0124628, -0.0300891, -0.0383048, 0.0145723, 0.016524, 0.0145866, 0.0149685, -0.0282865, -0.005861, -0.0268576, 0.0232373, -0.0157897, -0.016394, -0.0153965, -0.015246, 0.00904224, -0.00156081},
	{-0.00287062, -0.0161912, -0.0198441, -0.0211588, 0.0335282, -0.0176661, -0.0235981, -0.0347554, 0.0273486, 0.00505245, 0.0242411, 0.0185413, -0.0144678, -0.0198499, 0.00888166, 0.0277368, -0.0127525, -0.0108414, -0.0176052, 0.0114463, -0.0292854, -0.0248612, -0.0165045, -0.0155519, 0.0261962},
	{-0.0834497, -0.111932, 0.0723934, 0.0162842, 0.0237693, 0.0164113, -0.0103946, 0.0812017, -0.0215314, 0.0729747, 0.0790422, -0.0277462, 0.0919127, 0.0226139, 0.0175015, 0.0317284, -0.0298123, -0.0016659, 0.0804833, -0.018412, 0.00647827, 0.000212064, -0.0858984, 0.0465265, 0.0381204},
	{0.00198372, 0.00881906, -0.0338715, 0.0103355, -0.0283054, -0.0111172, -0.0271363, 0.00453026, -0.00968766, -0.0236875, -0.0359657, 0.0282394, -0.00669415, 0.0090638, -0.0297838, -0.0116663, -0.0114564, -0.0303865, -0.0190308, -0.014497, 0.0056496, -0.000574136, 0.0425445, 0.0081542, 0.0153214},
	{-0.00463114, 0.0133915, 0.00464142, 0.0278656, -0.00822677, -0.0212941, 0.0434657, -0.0295339, -0.0164179, -0.0284095, 0.0107953, 0.00227617, -0.0135268, 0.00872468, 0.00880422, 0.00765907, -0.045375, 0.000914316, -0.02176, 0.0370792, 0.0335214, 0.0172187, -0.00516947, -0.0308397, 0.00205235},
	{-0.0429197, -0.0277603, 0.00204001, 0.00964892, 0.0326106, 0.0346298, 0.0108597, -0.00758067, -0.00283343, 0.0429158, 0.0170639, -0.00704112, 0.0163911, 0.0533493, -0.013588, 0.0146967, -0.0147989, 0.0144893, 0.0356694, 0.0312793, 0.0034604, -0.0140005, -0.0340295, 0.0197711, -0.0102877},
	{0.0118993, -0.0382528, 0.0296652, 0.0284788, -0.0140308, 0.000669152, -0.0142476, 0.0104904, 0.018908, 0.0239289, -0.0130506, -0.00109963, 0.00569525, 0.0274981, 0.0239423, -0.00338785, -0.0434204, 0.0370505, 0.00973892, -0.0164868, 0.0189153, 0.0301732, -0.0224449, 0.00471459, -0.021672},
	{-0.0206641, -0.0261107, 0.0295658, 0.0317032, 0.032621, -7.63835e-05, -0.0131812, 0.0438843, 0.0192507, -0.0015419, -0.0125158, 0.0129518, -0.00342709, -0.0223493, -0.0222552, -0.049201, 0.0237922, -0.0127594, -0.00644078, -0.0138133, -0.0105367, -0.0167195, -0.0305135, -0.00826843, -0.00933622},
	{-0.0391175, 0.00347813, 0.00463154, -0.011959, 0.0172017, 0.00306843, -0.0147242, 0.0233848, -0.00671908, -0.0103856, -0.016948, 0.00109938, 0.0119443, -0.0263929, 0.0136079, -0.0325895, 0.031977, 0.0227913, -0.000490581, -0.0219479, 0.0356532, -0.0237953, -0.0141069, 0.022361, 0.0204795},
	{-0.0287365, -0.032398, -0.031112, 0.00220713, 0.0287396, -0.0127199, 0.0362721, 0.0178207, -0.03304, 0.0297025, 0.0206661, 0.0159117, -0.0205858, -0.0135419, 0.0129805, -0.0249891, 0.0247996, 0.0122521, 0.025365, 0.00336084, 0.0208185, 0.0127365, -0.0265083, 0.027955, 0.00234024},
	{-0.0302342, 0.00446273, -0.00831343, 0.0297417, 0.00656879, -0.0349385, -0.017149, -0.0176496, 0.0274508, -0.01091, 0.018582, -0.00410192, 0.00853636, -0.0275472, -0.0203349, 0.0211329, -0.00979239, -0.0137966, -0.0175351, -0.00561858, 0.0129168, -0.0146389, 0.0010153, 0.0135285, 0.0313415},
	{0.0207318, 0.0129051, -0.0156197, 0.00561688, -0.0274153, 0.00996665, -0.0137774, 0.0122842, 0.0100956, 0.00547328, -0.0337472, -0.0228529, -0.00282164, -0.0109498, 0.0175764, -0.0106413, 0.0102954, 0.000602589, 0.0161499, 0.0362338, -0.00925223, -0.0273225, -0.0126277, -0.0189909, 0.0353082},
	{0.0147048, -0.0142368, -0.0272803, -0.0229986, -0.0032065, 0.0171969, 0.0126595, 0.0155038, -0.0239643, -0.0329807, -0.0323426, -0.0264304, -0.0262902, 0.0200791, -0.0096117, 0.0279617, 0.00180261, 0.0318039, 0.010663, -0.0100519, -0.0163127, 0.0242158, 0.0187392, -0.0215617, -0.0161959},
	{0.0226715, -0.0245885, -0.0177594, 0.0346314, 0.027071, -0.0277564, 0.0191354, -0.0110463, -0.0231215, 0.0411694, 0.0410452, -0.00606628, 0.0102248, 0.0252615, -0.00720529, 0.00846698, -0.00372775, -0.0124534, 0.0179141, -0.00217826, 0.0333707, 0.000953687, -0.020172, -0.0229647, 0.00512814},
	{0.00319316, -0.0117938, -0.0355652, -0.0151399, -0.00472671, 0.00559259, -0.0372773, 0.0176507, -0.0109223, -0.00532313, -0.00142415, 0.0144007, 0.0264766, 0.00963124, -0.0283509, 0.00790622, 0.029542, -0.0126794, -0.00336734, -0.00626789, -0.0243665, 0.00340528, 0.0286965, -0.0211171, 0.00963163},
	{0.000775458, -0.00873526, 0.00183213, 0.0318793, -0.00285382, -0.0186116, 0.0307831, -0.0397731, 0.00808226, -0.0122062, 0.0134852, 0.0049045, -0.0325876, -0.0165116, 0.00278875, 0.000185995, 0.0106494, -0.0330487, -0.0101081, -0.0115264, -0.00754808, -0.0033724, 0.00800134, -0.014509, 0.0353764},
	{-0.0819032, -0.0739198, 0.0815635, 0.00926445, 0.00166267, -0.0578628, 0.0332594, 0.0806413, 0.0224727, 0.0768033, 0.0460607, -0.0196331, 0.0504571, -0.0680915, 0.027966, 0.0075272, 0.0063649, -0.0130207, 0.0500689, 0.00901093, -0.00715579, 0.0394517, -0.0433744, 0.0973121, 0.000332654},
	{-0.0138214, 0.0119552, -0.0496377, -0.00637939, 0.0194697, 0.0137888, -0.000693101, -0.0159091, 0.0272814, -0.00576726, -0.0413116, 0.0297903, -0.0207082, 0.0403217, 0.024796, -0.00465372, -0.0226915, 0.0133781, -0.0376017, 0.0223333, 0.020343, -0.0181438, 0.045994, 0.0117556, -0.0173602},
	{0.0179671, -0.017044, 0.0141564, -0.00319834, 0.0343353, 0.0384575, 0.026986, -0.00639351, 0.00241547, 0.0337833, 0.0302206, 0.00366423, 0.0155193, 0.0527359, -0.0111477, 0.0824016, -0.0430825, 0.00934922, 0.0229665, 0.00125003, 0.0354894, 0.0134634, 0.00901452, 0.00931863, 0.00193797},
	{-0.0294323, -0.0236683, 0.0236848, -0.0144917, -0.0201607, -0.0325997, 0.0246391, 0.0371927, -0.0258944, 0.0305086, 0.030126, -0.0204946, 0.0613993, 0.0273532, -0.00213287, -0.0172518, -0.0267778, -0.0103756, 0.0157823, -0.0175077, -0.00656652, -0.00700532, -0.0359806, -0.0060469, 0.00726233},
	{-0.0364892, -0.0460656, 0.000654775, 0.0383251, 0.0158578, -0.0181354, 0.0115381, 0.0191044, 0.0142889, -0.00273503, -0.0163986, 0.0078748, 0.0463374, -0.00259675, 0.00505764, 0.012422, -0.0478094, 0.0312186, -0.0038566, -0.00676582, 0.0202053, 0.00363692, -0.0448174, 0.0157165, -0.0140522},
	{0.0279901, 0.0275202, 0.0232853, -0.0114683, -0.0125808, -0.0593984, -0.0236635, 0.0326488, 0.00116894, 0.0222605, 0.00693617, -0.0196767, -0.00120364, -0.0392205, 0.0159639, -0.0130675, 0.0295352, 0.0248317, -0.0135771, 0.0139614, -0.015893, 0.00746677, -0.025026, 0.0164794, 0.0123163},
	{-0.0125604, -0.0270988, -0.00554984, 0.0144976, -0.0152568, -0.0443935, 0.035199, 0.00437733, 0.0205678, 0.0302299, 0.00221656, 0.00389549, 0.0198006, -0.0494112, -0.00606846, 0.0219204, -0.00850391, 0.0189414, 0.045302, -0.020481, -0.00543494, -0.0134605, -0.00233222, -0.0109755, 0.0179922},
	{-0.0107111, -0.036763, 0.0153999, 0.00639312, 0.0329817, -0.0343622, 0.0152569, 0.0158048, 0.0192949, 0.0190815, 0.0193046, 0.0315523, 0.00675105, -0.0371723, -0.0128835, 0.00694936, 0.0146252, 0.0299361, -0.0145462, 0.00518502, -0.0111091, 0.0196787, 0.033683, 0.0103605, 0.0444488},
	{-0.02887, -0.00992783, 0.0272044, 0.0168482, -0.0211607, -0.0175951, 0.0309169, 0.0329109, 0.00790264, -0.00273524, -0.0179572, 0.0232256, 0.0253019, -0.00457255, 0.0326187, -0.0140937, -0.0135943, -0.0240521, 0.00253849, -0.0181495, 0.0232657, 0.00965391, 0.0131378, -0.0078184, 0.0128025},
	{-0.0190998, -0.00258968, -0.019697, 0.0311767, 0.00427934, 0.0195838, -0.00357261, -0.0246905, -0.00574286, 0.00866688, -0.0289807, 0.023072, -0.00207686, -0.00421704, -0.0226718, -0.00498851, -0.0448759, -0.0168797, -0.024107, 0.0220817, 0.0291463, 0.0139049, 0.00019707, 0.0191526, 0.0113145},
	{0.00182133, 0.0415123, -0.0137875, -0.00485833, -0.0279619, 0.0182979, 0.0281064, -0.00323028, 0.0172098, -0.00346453, 0.00978301, 0.00640633, 0.023287, -0.0137424, -0.0109962, -0.00421498, -0.00860413, 0.0149763, -0.0297593, 0.0123151, 0.0168594, -0.00340874, -0.0166799, -0.0173866, 0.00472032},
	{-0.0380241, -0.00510805, -0.0126626, 0.011968, 0.0151736, 0.0276132, -0.0132551, 0.0335079, 0.019073, 0.00782558, 0.034279, -0.0053326, 0.0110906, -0.0056917, 0.0307029, -0.000208259, -0.0134884, 0.00548512, 0.0337407, -0.0195091, 0.0341953, 0.0354024, 0.00878579, -0.00957835, 0.0152433},
	{0.0254906, -0.00528161, 0.0146051, -0.00267332, -0.0135014, 0.0162999, -0.0232516, -0.0230904, 0.0203074, -0.00278379, -0.0245041, 0.0280202, -0.0280928, 0.00163416, 0.0193233, 0.0176106, 0.000455877, 0.024814, -0.00890983, -0.0233286, -0.0170849, -0.023875, -0.0021148, 0.0243297, -0.0101556},
	{0.0136463, -0.0191055, -0.00866933, -0.0322306, -0.0106909, -0.0297309, -0.0112472, -0.0300392, 0.000910678, -0.00817415, 0.0186548, -1.52975e-05, -0.0222985, -0.00345483, 0.0304724, -0.0146843, -0.00165841, -0.0170818, -0.0307603, 0.0178073, -0.0103708, 0.026911, -0.00930897, 0.00553412, -0.0141005},
	{-0.063722, -0.0433143, 0.0467504, 0.0101941, -0.0284469, -0.0480023, 0.0236725, 0.0477343, 0.00774724, 0.0335005, 0.0408963, 0.00299492, 0.0643837, -0.0606013, -0.00253484, -0.0113149, -0.0459222, 0.00554058, 0.065867, 0.0340256, -0.019433, -0.0211797, -0.0630936, 0.0457934, -0.00122561},
	{0.0212766, 0.0389309, 0.00320154, -0.0129112, 0.025857, 0.0245157, 0.00406081, -0.0088123, -0.00204853, 0.00528227, -0.0276342, 0.0234055, -0.00358132, -0.00423633, 0.00178374, 0.0321873, -0.00669975, 0.0217189, 0.00697015, -0.0248283, -0.0262145, -0.00568185, 0.0324733, -0.00276857, -0.00853117},
	{0.00913652, 0.0149379, 0.0298064, 0.000515216, -0.0185313, 0.0620258, 0.0532206, -0.00988531, -0.00157376, -0.0230415, 0.000337078, 0.0311366, -0.0169131, 0.0150688, -0.0104674, 0.0308033, -0.0703605, 0.038155, 0.00342517, 0.0320132, -0.0237228, 0.0221842, -0.00778067, 0.0117089, 0.0311201},
	{-0.00875538, 0.00321694, 0.00387745, -0.0130496, 0.00583584, 0.00293673, -0.00444534, -0.00435925, -0.0217902, 0.0331101, 0.0325454, -0.0221769, 0.0119234, 0.0354295, 0.00339431, 0.034349, -0.0444125, -0.0129748, 0.0357421, -0.0309485, -0.0226602, 0.00298635, 0.00601347, -0.00473988, -0.00308193},
	{-0.0160611, -0.0318748, -0.00906395, 0.00469328, -0.00255234, 0.0109599, -0.0151625, 0.0404103, 0.000948447, 0.0364256, 0.0055585, 0.0376479, 0.0181698, 0.00456116, -0.0199017, 0.0217094, 0.000549883, 0.0158605, -0.00339839, -0.00171419, 0.0328967, -0.0272795, -0.0476092, 0.0258551, 0.0156044},
	{0.00209269, -0.0238333, 0.00446041, -5.19595e-05, -0.0208718, -0.0672783, -0.0308742, 0.0477185, 0.0331687, 0.0222978, 0.00571237, -0.00639204, 0.00200695, -0.00921266, 0.00800233, -0.0542647, 0.0608324, 0.030119, 0.0108796, -0.00324182, -0.0231473, 0.00144072, -0.0397698, -0.0174647, -0.0347389},
	{-0.00341381, 0.0105028, -0.0136128, -0.00992957, -0.00552382, -0.0292927, 0.0364527, 0.0420327, 0.0125887, -0.00414036, 0.017219, 0.0209644, -0.0134605, -0.0515333, 0.0318475, -0.0125005, 0.0394632, -0.00683713, 0.0400955, 0.00257602, -0.0280664, -0.0109465, 0.0176382, -0.00188938, -0.00973246},
	{-0.0178138, -0.0174494, 0.00250445, -0.0100505, 0.0308638, -0.0625517, 0.0330919, -0.0347038, 0.0194396, 0.00123747, 0.0264153, 0.0352072, 0.0288972, -0.0615047, -0.0178156, 0.0118248, -0.0103915, -0.00463239, 0.000670969, -0.0114721, -0.013237, -0.010061, -0.0148084, -0.00619836, 0.0275178},
	{0.0163423, 0.0189974, -0.00468098, 0.010344, -0.0255018, 0.0233318, -0.0138365, -0.0189597, -0.0156592, -0.0187281, -0.0137832, -0.00880703, 0.00442525, -0.0179531, -0.028066, -0.0172789, 0.0329908, -0.000733046, 0.0010226, -0.0150128, -0.00388069, 0.0059689, -0.00802062, 0.0245333, 0.00394239},
	{0.0219846, -0.000446732, -0.00953502, -0.00525269, 0.0118225, -0.00848409, 0.0286846, -0.0126665, 0.00099345, 0.0253349, -0.0205043, -0.00183065, -0.0417102, 0.0172382, 0.0290789, 0.0321919, 0.00483549, 0.031677, 0.0111529, 0.0170837, 0.00840111, 0.00775065, 0.0497717, 0.0103736, 0.0203816},
	{0.00370841, 0.0190883, -0.0162124, 0.00345958, 0.0229867, 0.0399029, -0.011986, -0.0332529, 0.0134106, -0.0321808, -0.0173452, -0.00296745, 0.0100522, 0.0327629, -0.0182585, 0.0160637, 0.00772491, 0.0165058, 0.0169917, -0.00184019, -0.0300848, -0.0168157, 0.022748, -0.0093709, 0.00350507},
	{-0.00594944, -0.000694461, -0.00694838, -0.0185808, -0.00646196, -0.00719169, -0.0127246, -0.0141981, 0.0250999, 0.0352683, 0.0118358, -0.00404324, 0.00616316, 0.00962663, 0.00608925, -0.0182341, -0.0457094, -0.0225683, 0.0363268, -0.00344301, 0.0323084, 0.0197126, -0.00452161, -0.0269531, 0.0208805},
	{-0.0200851, -0.00226231, -0.00151465, 0.0151068, -0.000307232, -0.0254498, -0.0150753, 0.0136451, 0.017861, -0.029938, 0.0164454, -0.00422219, -0.0319295, -0.0050453, 0.0103596, -0.0178981, 0.010354, -0.0255115, -0.0179291, -0.00294565, 0.0116657, -0.0195782, 0.0236747, -0.0142922, 0.0266737},
	{0.0123702, 0.0171899, 0.0147665, -0.0293156, -0.0245505, 0.0174511, 0.0253479, -0.0283139, -0.0254469, -0.0172811, 0.0186291, 0.029369, 0.00756664, -0.0122037, 0.00762987, -0.0240876, -0.0232265, -0.0308929, -0.00763042, -0.0135326, -0.028407, -0.00576891, 0.0134927, 0.0264569, 0.0149806},
	{-0.00485297, -0.00186073, 0.0186899, -0.0200671, -0.0351222, 0.0393771, 0.025057, 0.0171642, 0.0414733, 0.00655238, -0.0027753, -0.0197696, 0.00717495, 0.0102769, -0.023799, 0.0607723, -0.0742464, -0.042007, -0.0146325, 0.0170754, -0.0261424, -0.022215, -0.000389655, 0.000542228, -0.01586},
	{0.0131366, -0.00246089, -0.0295653, -0.00891599, 0.00630298, 0.0179448, -0.0120096, -0.0195124, -0.0281095, -0.0187938, -0.0364644, -0.011577, -0.0254262, 0.0320554, 0.00249829, -0.00181286, -0.0242603, 0.0183421, -0.0316319, 0.007419, -0.0285111, 0.0254418, 0.0267892, -0.0286471, 0.00933669},
	{-0.0390291, -0.0136864, -0.0225648, -0.00725152, 0.0231253, -0.00146049, 0.0270243, -0.0345166, 0.0183141, -0.0177869, 0.0330544, -0.0129255, -0.0137595, -0.0329572, 0.0049923, 0.0146628, -0.0370558, 0.0137026, 0.0200935, 0.0374829, 0.0129216, -0.0176138, -0.0171918, 0.00493173, 0.0315575},
	{-0.0325294, 0.0122131, 0.0303977, -0.0255693, 0.0134612, 0.0132319, -0.020746, -0.00322158, 0.0334936, 0.0162935, 0.00516299, -0.0153542, -0.0205153, 0.0512982, 0.00486109, -0.00241663, -0.0226207, 0.020953, -0.00825683, -0.0240348, -0.00733134, -0.033455, 0.00763877, 0.0335885, 0.00375312},
	{-0.0375433, -0.0305143, -0.00252795, 0.0257803, 0.0363499, 0.0144273, 0.0158314, 0.0175227, -0.025694, 0.00898092, 0.0423668, 0.0122953, -0.00146509, 0.00675518, 0.0199044, -0.0100638, 0.0149438, 0.00205991, 0.000357573, -0.0316536, -0.0234821, -0.00959819, -0.0529823, 0.0106545, -0.00450926},
	{-0.029696, -0.0433468, 0.0273934, -0.00638181, 0.030959, -0.0462035, 0.00496325, 0.0311658, -0.0166809, 0.0384828, 0.0439975, 0.0271526, 0.0366592, -0.071977, -0.0279951, -0.0506992, 0.0299971, 0.0244877, 0.0258029, -0.0346871, -0.0216073, 0.00593017, -0.0542995, -0.00187118, -0.0411133},
	{0.0172526, -0.00441249, -0.012291, 0.0272669, 0.0210471, 0.0105802, 0.0282672, 0.0366331, -0.0191958, 0.0284366, 0.00231187, -0.0175409, 0.0187492, -0.0523336, 0.00874981, -0.0286677, -0.027982, 0.00344574, 0.00678473, -0.0234625, 0.0300258, 0.0321792, -0.0323118, 0.00423725, 0.0164008},
	{-0.0134832, -0.0103699, -0.00882646, 0.0189341, 0.0285063, -0.0599369, 0.0312105, 0.00205957, -0.0207312, 0.0115375, -0.0108476, 0.0216106, 0.0181685, -0.016829, 0.0117771, -0.0319909, 0.0184727, -0.00944715, -0.000745966, 0.0121893, -0.0191087, 0.0115431, -0.0240653, 0.00416251, -0.00472816},
	{0.0247605, -0.0273301, 0.00953458, -0.0138668, -0.020949, 0.0197153, 0.0110253, -0.0131885, -0.0170878, 0.0221201, -0.00295605, -0.0294055, 0.0236952, -0.0167729, 0.02078, -0.0436967, -0.00936726, 0.0166579, 0.0222719, 0.0159521, -0.0143262, -0.0107636, -0.0254816, 0.00595988, -0.023437},
	{-0.0199361, 0.0263228, -0.0486163, 0.0101144, -0.00334281, 0.0312983, -0.0160088, -0.00228712, -0.0128869, 0.00724389, -0.0239613, -0.00986532, -0.0259849, -0.0125956, -0.00476545, 0.0360892, -0.0127208, -0.0325884, -0.0192546, 0.04639, -0.00654812, -0.025207, 0.0323055, -0.0257154, 0.022878},
	{-0.0230718, -0.000529253, 0.0282224, -0.019238, -0.0250637, 0.00703219, -0.00976409, -0.0275838, -0.028008, -0.0352523, 0.015183, -0.00974614, -0.0107694, -0.0237611, 0.00955427, -0.0125037, 0.0241515, 0.00999175, -0.00780764, -0.0186549, 0.0168531, 0.0184069, -0.030965, -0.00413928, -0.0234916},
	{-0.0307367, 0.00331218, -0.0187494, -0.0126188, -0.00928873, -0.0118581, -0.024138, -0.00406306, -0.0188937, 0.0348586, -0.0051441, -0.0294495, 0.023491, -0.00031142, 0.0210465, -0.0193377, -0.0420014, 0.0343268, 0.012275, -0.00475032, -0.00188956, -0.0100133, 0.0269856, 0.00808225, -0.00352615},
	{0.000491616, -0.0147952, 0.0162368, -0.0211603, 0.00572198, -0.00587138, -0.0134353, -0.00861704, 0.0272379, -0.0316564, 0.0161834, 0.00786108, -0.0236493, -0.0362707, -0.00525979, -0.00594171, 0.0330753, 0.0107679, -0.000162884, -0.00700474, 0.00371231, -0.00323911, 0.00785501, 0.000251725, 0.0301423},
	{-0.015609, -0.00921122, 0.0109173, -0.00172537, 0.00094338, -0.0245799, 0.00825149, -0.0216054, -0.00514998, 0.0181334, -0.00908211, -0.0033985, 0.0284929, 0.0103397, 0.0318057, -0.0312128, -0.0190936, 0.00253426, 0.0106933, -0.00341653, 0.0252341, -0.0230103, 0.00603128, 0.00920005, 0.00276963},
	{-0.0273543, -0.0203291, -0.00524256, -0.0286348, -0.0052352, 0.0401061, 0.00230048, 0.00341225, 0.0547863, 0.0156374, 0.0294387, -0.0140072, 0.0275866, 0.03769, -0.00367405, 0.0321939, -0.0194853, -0.00874263, 0.0295377, -0.0267927, -0.0209682, -0.00533952, -0.0177285, 0.0111029, -0.00102236},
	{0.0277891, 0.0305318, -0.0411763, -0.0326401, 0.0259245, 0.00606003, 0.0045374, -0.0502328, 0.00965547, -0.0247376, -0.00813738, -0.020407, -0.0207756, 0.0369917, 0.00409703, 0.0505353, -0.00105515, -0.00586451, -0.0353165, -0.0021167, 0.0280061, -0.00364016, 0.0130728, -0.0452841, 0.0338475},
	{-0.00557636, -0.00545764, -0.0121856, 0.0302353, -0.0132853, 0.00599952, 0.0248338, -0.0345694, -0.0217902, 0.017824, 0.0246637, -0.00732475, 0.0330076, 0.0371205, 0.0345315, 0.0762066, -0.0758343, -0.00751775, 0.0227143, 0.0179198, 0.0349517, 0.0199273, 0.021868, 0.0265277, 0.0212926},
	{-0.00479249, 0.0195685, 0.0308089, -0.0211672, -0.0322524, 0.0598993, -0.0362244, -0.0036527, 0.00329609, 0.0232872, 0.00370674, -0.00599185, 0.0019364, 0.0441775, -0.0210206, -0.00891008, -0.0179537, 0.0182773, -0.0158853, 0.00910034, -0.0281128, -0.0126626, -0.0230774, -0.0193157, -0.0466788},
	{0.0066695, -0.000666824, 0.00824018, 0.0243938, 0.00227453, -0.0101786, -0.0137869, 0.0595474, 0.0170699, 0.0330954, -0.00945786, 0.0120863, -0.0134926, -0.00217215, 0.0353476, -0.0251435, 0.00211792, 0.0343294, 0.0330605, 0.0130491, 0.0393608, 0.0329887, -0.0594585, 0.0310687, -0.0333062},
	{0.00574889, -0.0439258, 0.013171, 0.0217755, -0.0244014, -0.0569422, -0.0220525, 0.0230573, 0.0285581, 0.0235304, 0.040953, -0.0316241, -0.00687235, -0.0618001, 0.00191073, -0.0767649, 0.0712657, -0.0232766, 0.0194971, -0.00406987, 0.00866601, -0.0116971, -0.0308594, 0.0414392, -0.0210833},
	{-0.0185004, -0.0405503, 0.0437519, -0.00620856, 0.0094266, -0.054576, 0.00338764, 0.0304766, -0.0221366, 0.0467936, 0.0189231, 0.0372561, 0.0214344, -0.0394615, -0.0093976, 0.0117167, -0.0202199, 0.0143646, -0.00747744, 0.0134086, -0.0126998, 0.032393, -0.013914, 0.0173841, -0.00966711},
	{-0.0412021, -0.0306201, -0.020732, -0.0165392, 0.0186412, -0.0498963, 0.0235565, 0.0230372, -0.0158044, 0.0377341, 0.0298931, 0.020553, -0.0184413, 0.00994167, 0.0194959, 0.0136032, -0.0454511, -0.00564469, 0.0407373, 0.00849248, -0.0145079, 0.0286098, 0.0260251, 0.0420837, 0.0459734},
	{-0.0334531, -0.0141413, 0.0312099, -0.0221954, 0.0322125, -0.0340809, -0.0263956, -0.0182628, -0.0319955, 0.00169489, -0.0155298, 0.0354141, -0.00596297, -0.0146774, -0.0278373, 0.0280342, -0.00218877, 0.0181264, 0.0143137, 0.00144266, 0.0240314, 0.00196324, -0.032182, 0.0314662, -0.0256263},
	{-0.00274949, 0.0229557, -0.00372318, 0.00200599, 0.0350683, 0.0343253, 0.0339094, -0.0324296, 0.00586289, 0.00748383, 0.00332596, 0.00195122, 0.0242209, 0.000614055, -0.0310899, 0.0303349, -0.0254458, 0.00684885, -0.00333397, 0.00695718, 0.00909562, 0.0299747, 0.0463718, 0.0054723, 0.0238412},
	{0.0349805, 0.0223682, 0.000821573, 0.00219764, 0.0344388, -0.016616, 0.00861489, 0.0177692, 0.0282174, -0.00388128, 0.0175984, -0.0290549, -0.0201909, -0.0124779, 0.0255971, -0.00179908, 0.0496156, 0.0193335, 0.000558922, -0.0300577, 0.0199797, -0.00676406, -0.0339092, 0.020691, 0.0179614},
	{0.00763731, 0.021778, -0.0233147, 0.0196137, 0.0277707, 0.0124756, -0.0186373, -0.0321982, 0.0318152, 0.0162452, -0.00534124, 0.00153415, -0.00240061, -0.00874788, 0.014751, -0.0125877, -0.0267668, 0.0174122, -0.0142681, 0.0293352, 0.00831531, -0.0288705, 0.0252719, -0.0120951, 0.0188911},
	{0.00943224, 0.0263271, 0.0267479, -0.0265601, 0.00939116, 0.00949119, -0.00357169, -0.0122208, -0.00819914, -0.00151466, -0.0272931, -0.000144763, 0.0175663, 0.0193419, -0.0199671, -0.0243424, 0.0353598, -0.00418366, 0.00398955, -0.0202605, -0.0284246, -0.0109841, -0.00642151, -0.00537238, -0.0315804},
	{0.0169628, -0.00213453, -0.00825198, 0.0316667, -0.0306844, 0.00186334, 0.0298209, 0.0213336, 0.00458739, 0.0170338, -0.00373085, -0.00308501, -0.0162601, 0.0178053, -0.01924, -0.0117141, 0.0218355, -0.024584, -0.0298196, 0.00393284, -0.0172657, 0.00154962, -0.0224378, -0.0196376, 0.0321788},
	{-0.0236014, -0.0213994, 0.0111101, -0.0168363, -0.0575829, 0.0702645, -0.0419941, -0.00546958, 0.0274137, 0.0124143, 0.0275393, -0.0498769, 0.0198727, 0.0623411, -0.0106156, 0.0318602, -0.0612741, -0.00912725, 0.00721435, -0.0353432, -0.0398219, -0.0287558, 0.00227222, 0.0373346, -0.0435324},
	{0.00816365, 0.0297007, -0.0123502, -0.0174073, 0.00735563, 0.0215622, -0.0112079, 0.00319071, 0.00852011, -0.00152784, -0.0441584, 0.0090711, -0.00922527, 0.0504569, -0.0105081, 0.0415964, -0.0503967, 0.0304679, -0.0276406, -0.00557371, 0.00542931, -0.00241938, 0.0274029, -0.00445104, -0.0136757},
	{-0.0231825, -0.0172093, 0.0332176, 0.0158189, 0.0172626, 0.0355358, 0.0635138, -0.0179323, -0.0233397, 0.00933134, -0.00250117, 0.00315148, 0.0376569, 0.028205, 0.0401592, 0.0450932, -0.0884193, -0.0177385, 0.0253763, 0.0276661, 0.00569454, -0.00108559, -0.00791829, -0.0215808, 0.0570739},
	{-0.0358605, -0.00335988, 0.05316, 0.00317965, -0.0220845, -0.0093664, 0.0137925, -0.000884714, -0.0261108, -0.00562487, 0.0017294, 0.00470955, 0.0186033, 0.0286806, 0.00796941, 0.00679219, -0.0171334, 0.00462457, 0.0183215, -0.0153408, 0.0246256, -0.0130156, -0.0395545, -0.00844494, -0.0147022},
	{-0.00580946, 0.00716568, 0.0475285, 0.0114313, -0.000830261, -0.0522639, 0.00101824, 0.0198378, 0.00494158, 0.0449062, 0.0491694, 0.0326364, -0.00100036, -0.042026, -0.0103412, -0.00558425, 0.0028616, 0.0238842, -0.00453318, 0.0205644, 0.00730351, 0.0125716, -0.0428155, 0.0320924, 0.0120889},
	{-0.0318288, 0.0112529, 0.0134717, -0.0280993, 0.010342, -0.0975638, -0.0378279, 0.00873952, 0.00439509, 0.000205278, 0.0358082, -0.0127379, -0.0207464, -0.0669958, -0.0268022, -0.0788727, 0.0888719, -0.00738114, -0.0180606, 0.0192012, 0.00459052, 0.0236806, -0.053071, 0.0257136, -0.0209172},
	{-0.0101106, -0.0344478, 0.00747453, -0.00601581, 0.014344, -0.0140686, -0.0186501, -0.0088297, 0.00229007, -0.00108282, 0.0197203, -0.0231689, 0.00333103, -0.0425645, 0.0145802, 0.000228782, -0.0324391, 0.0201117, -0.0017206, 0.0202292, 0.0253155, -0.0265551, -0.0553203, -0.000101633, -0.0119366},
	{-0.0262628, -0.0311107, -0.0115149, 0.0121247, 0.0188998, 0.0141913, 0.0366049, 0.0275737, -0.0330618, 0.0424748, -0.0096222, 0.0127494, 0.041515, -0.00523016, -0.00239273, 0.0527524, -0.0549662, 0.0232355, 0.0264021, 0.00917548, 0.00680337, 0.00334862, -0.00917172, 0.0351477, 0.0200285},
	{-0.0130382, -0.0312786, 0.0369742, 0.0294347, -0.0188673, -0.0425787, 0.0274033, -0.0233147, -0.00275799, 0.000990239, -0.00746866, 0.0280759, -0.0142616, -0.00857272, -0.0272228, -0.0283749, 0.0118863, 0.00317445, 0.0308017, 0.0128059, -0.0240102, -0.0295691, -0.00390354, 0.0138635, -0.02481},
	{0.0054873, -0.0288956, 0.0114161, 0.0302783, 0.00138475, 0.00965111, 0.0466452, 0.00213776, -0.0286085, 0.0143121, 0.039184, -0.0279591, 0.01442, 0.0213299, 0.0188448, 0.021521, -0.0330876, 0.0272852, 0.0187974, 0.0273977, -0.0196821, -0.0307024, -0.0169743, -0.0116213, 0.0157158},
	{-0.0129067, 0.00254726, -0.00491054, 0.0129437, 0.0121378, -0.00528325, 0.00125957, -0.0218708, 0.0144295, 0.00769964, 0.0235556, -0.0115922, -0.0177214, -0.0357337, -0.00866972, -0.036609, 0.000536866, 0.033492, 0.0338756, 0.0291226, -0.00626815, -0.0310081, -0.0210942, 0.0302091, 0.0316894},
	{0.0179418, 0.0086324, 0.0147125, -0.00523789, -0.032503, 0.0261741, -0.00885551, -0.0134352, -0.0126612, 0.00498353, -0.00988192, 0.0248834, -0.0165464, -0.0163531, 0.00644385, 0.052265, -0.0203316, -0.00191995, 0.018241, 0.0272197, -0.00573623, 0.0305609, -0.0218927, 0.0402679, -0.00870085},
	{0.0267881, 0.00874121, 0.00982439, 0.0138163, 0.0324155, -0.00275244, -0.0343978, -0.00293207, -0.0264608, -0.0121014, -0.0166422, 0.019941, 0.0203445, -0.0392185, 0.000298465, -0.0522816, 0.0561151, 0.00617837, -0.00516249, 0.0131072, 0.0170182, -0.000854426, -0.0189557, 0.0289408, -0.00392599},
	{-0.0315787, 0.0233669, -0.0292161, -0.0188763, 0.0162482, 0.00133518, 0.0213656, -0.0258191, -0.00259849, -0.025656, 0.0276624, 0.00509965, 0.0220691, 0.0148707, -0.00506962, 0.00480622, -0.0127109, 0.00575957, -0.0123329, -0.0186794, -0.0247127, 0.0282328, -0.00501286, -0.0221161, 0.0114097},
	{0.0093863, 0.00933388, -0.0157581, -0.0415307, -0.0451804, 0.0652527, -0.0215133, -0.0195574, 0.0453018, 0.0037173, -0.0148293, -0.00525542, 0.00302397, 0.0735298, -0.00884285, 0.0198496, -0.00821447, -0.0531992, -0.0226108, -0.0280514, -0.0415789, -0.0383917, 0.0268516, -0.0151632, -0.0424792},
	{0.0328016, 0.0100758, -0.00292744, -0.0306782, 0.0118024, 0.0592941, -0.0108985, -0.0465868, 0.0288031, -0.027782, -0.00347819, 0.0252056, 0.000769209, 0.0524704, -0.0247132, 0.0529916, -0.0193893, 0.00699681, -0.0404607, 0.030248, 0.0126106, -0.00681628, -0.00181419, -0.00580398, 0.0346249},
	{-0.0382564, -0.0197443, 0.0386912, 0.0192077, 0.0253423, -0.00770327, 0.0452527, 0.0126426, 0.00621785, 0.0145449, 0.0666177, -0.0149571, 0.0271635, -0.0162105, -0.00705766, 0.0602414, -0.0939193, -0.0128782, 0.0531295, 0.0701213, 0.0315655, 0.000712076, -0.0143292, 0.0554809, 0.0346395},
	{0.0247137, -0.0306932, -0.00626134, -0.0359241, -0.0113539, 0.0269382, -0.0606473, 0.0127597, 0.00415854, 0.0213895, -0.00100009, 0.0260091, 0.0174282, 0.0557192, -0.0253536, -0.0061728, 0.00777079, -0.0216862, 0.0338913, -0.0352527, -0.0158626, 0.00790733, -0.0316121, -0.0103735, -0.00616016},
	{-0.00944515, -0.0213161, 0.00261519, 0.0101858, -0.00110156, -0.0546317, -0.0312795, 0.0334724, 0.0186176, -0.000694555, 0.00259032, -0.00759323, -0.00386982, -0.0437244, 0.0106439, -0.0198357, 0.047041, -0.000798215, 0.0250088, 0.00545793, -0.0140446, 0.0241929, -0.0570511, 0.0485353, 0.02109},
	{0.00225008, 0.0152515, 0.020686, 0.0095755, 0.0221348, -0.0746799, 0.0255533, 0.0400283, 0.0131933, 0.00258387, 0.0223498, -0.0223831, -0.0114002, -0.0951998, -0.0159634, -0.0548768, 0.106939, 0.00847943, 0.0218005, -0.0159693, -0.00294434, -0.0144415, -0.0131322, -0.000518449, -0.00381375},
	{-0.000349446, 0.00395198, 0.050045, -0.00344997, 0.00688119, -0.037208, 0.0306124, 0.0422149, -0.0289014, 0.0292769, 0.00217352, 0.021936, 0.019512, -0.0451063, -0.00516708, 0.00136476, -0.0398591, 0.0124903, -0.00251325, 0.000771587, 0.0101049, -0.0266055, -0.00092543, -0.00609341, 0.0417497},
	{-0.00541305, -0.0344254, -0.0181887, 0.011652, 0.02548, 0.0237868, 0.0212627, -0.0198656, -0.0138218, 0.0080818, 0.0152937, -0.00174057, 0.0481903, 0.0318095, -0.0244431, 0.0469385, -0.0461641, -0.00905108, 0.0172368, 0.0283195, -0.026017, -0.0292866, 0.0198626, 0.0406301, 0.0487233},
	{-0.0157459, 0.0113837, 0.0062387, 0.00122091, -0.013154, 0.0167649, 0.00191481, 0.0449808, -0.0101675, 0.0228627, 0.006465, -0.0214851, 0.0206439, 0.0306212, 0.0285357, -0.0179152, -0.00978152, -0.0201946, -0.0166295, 0.013381, 0.0212769, -0.0105421, 0.00532468, 0.0106281, -0.0278216},
	{0.0136706, -0.00366304, 0.0311471, 0.0125322, 0.021866, 0.0277359, 0.0345744, 0.0211373, 0.0162246, -0.0176098, 0.00268235, 0.0212195, 0.00696253, 0.0292026, 0.0213387, 0.0452026, -0.0905688, 0.0263977, -0.00537966, 0.030411, -0.00863833, 0.0127901, -0.00483535, -0.0178356, 0.0110917},
	{0.0277863, 0.0107359, -0.0116846, 0.0014511, 0.0116986, -0.0726322, -0.0276654, -0.0241733, 0.0204707, 0.0251679, 0.00292083, 0.00930684, 0.0282973, -0.0139077, -0.00855777, -0.0053915, 0.0264492, -0.0211379, 0.030294, 0.0203909, -0.0256029, -0.00734356, -0.00534629, -0.020263, 0.035813},
	{0.00918363, -0.0429886, 0.0328403, -0.014812, 0.00831837, 0.0111391, 0.00150154, 0.00639757, -0.00735484, 0.0308384, -0.00837371, 9.60589e-05, -0.0202628, 0.00268316, 0.0235345, 0.0296347, -0.0408927, -0.0200031, 0.0150986, -0.0193991, -0.030879, 0.0128287, 0.0236021, 0.0129005, 0.00180278},
	{-0.0112277, 0.0187747, 0.0142218, -0.016058, -0.0299834, -0.0407043, -0.0310809, -0.0097579, 0.0282809, -0.0369737, -0.00755668, -0.00708129, -0.0298164, -0.0230239, -0.0141937, 0.00987956, 0.00486678, -0.0302332, 0.0158643, 0.0245485, 0.025651, -0.0193132, -0.00466434, -0.0251533, -0.00144831},
	{-0.0121238, -0.0116263, 0.0164323, 0.0222225, 0.0325076, 0.0120095, -0.0134713, 0.0153699, 0.0105542, -0.0133462, -0.0196402, -0.00996313, -0.0147183, -0.0235646, 0.0157711, -0.000131223, 0.026708, 0.0331313, -0.00137888, 0.0286765, 0.0100419, 0.0335842, 0.0087419, 0.0266443, -0.0050949},
	{0.0154664, 0.00459069, 0.000528881, 0.00796201, -0.0100713, 0.0459555, -0.0700416, 0.000792652, 0.0278758, 0.00896192, -0.0104543, -0.0106012, 0.000475374, 0.0715731, -0.0323177, 0.0272087, -0.0723916, -0.029773, 0.00458975, -0.0298985, -0.0174075, -0.00339374, -0.0153162, 0.00310306, -0.0453438},
	{-0.0134941, -0.0227887, 0.0179975, 0.0288459, 0.0184841, 0.0569495, 0.0195324, 0.0196568, -0.0218867, 0.0212308, -0.00536847, -0.00557386, -0.00690749, 0.0836016, -0.0285322, 0.00996534, -0.0490091, -0.0311576, 0.00740483, -0.016418, 0.00759705, 0.016747, -0.0202698, 0.00580704, 0.00613648},
	{-0.0476307, -0.0548462, -0.000109887, 0.0443914, 0.0472983, 0.0620048, 0.0662038, -0.00350169, -0.0159202, 0.0404024, 0.0203615, -0.0188247, 0.048604, 0.0522265, 0.0336882, 0.0564864, -0.107232, -0.000600094, 0.0104336, 0.0256345, 0.0424537, 0.0332437, -0.0269441, 0.0511774, 0.0600172},
	{-0.0239274, 0.00356448, -0.00136631, 0.0154171, 0.0129653, 0.0235577, 0.00802764, 0.0592948, 0.00304511, 0.0372304, 0.000500677, 0.0220633, -0.0138854, 0.0202682, -0.000252169, -0.0311221, 0.0372163, 0.00865985, 0.0319741, -0.0178445, 0.00739934, -0.0175282, -0.0585566, 0.0347333, -0.0291171},
	{-0.0353492, -0.0223393, 0.0505308, 0.0176368, -0.0203533, -0.0459893, 0.0284483, 0.0463373, 0.00874098, 0.0485807, 0.046756, 0.0179313, 0.0387492, -0.0518731, -0.014702, -0.0370134, 0.00544061, -0.0136412, 0.00688389, -0.00910228, 0.00825999, 0.0407153, -0.0407645, 0.047038, -0.0260648},
	{0.00231732, 0.00132173, -0.00978756, -0.0196847, -0.0137352, -0.0653532, -0.0355522, 0.0309025, -0.0156879, -0.00379069, -0.00674923, 0.00830331, 0.0139295, -0.100467, -0.0271412, -0.0582505, 0.0720826, -0.0279067, -0.0164051, 0.0126168, 0.00844336, 0.00361112, 0.000211307, 0.0144007, -0.00713945},
	{-0.0262294, 0.0117301, 0.043893, -0.008352, 0.00903107, 0.00626379, 0.0175258, 0.0484696, 0.019072, 0.0310639, 0.0298502, 0.0364597, -0.00882486, -0.00353814, -0.00575018, -0.0035555, -0.018025, -0.0107936, 0.00200058, 0.0328436, -0.0132734, 0.0290501, 0.00372064, 0.0367677, 0.0320433},
	{-0.048234, -0.0205175, 0.0332964, 0.0282679, -0.000322233, 0.0640529, 0.00306476, 0.0283167, -0.0185428, 0.00962045, -0.00797813, 0.0229915, -0.00313656, 0.0265234, -0.0228689, 0.0486527, -0.0524977, 0.0345001, -0.00991607, 0.0192754, -0.022407, -0.0131351, 0.0265918, -0.0188576, 0.000860367},
	{-0.041224, -0.0186276, 0.0247049, -0.00711599, -0.0286937, 0.00289724, 0.00154532, 0.00619583, -0.0302656, 0.00634183, -0.0168145, 0.0221625, -0.0159483, 0.0131875, 0.0302472, 0.0206334, 0.00119764, -0.0219421, 0.025686, -0.0107997, -0.0109197, 0.0263316, -0.0206448, 0.0253942, -0.0283888},
	{-0.0128679, -0.027667, -0.00470708, -0.0200828, -0.0297974, 0.0334685, 0.0332201, -0.030617, 0.00165808, -0.0212029, 0.00560512, -0.0125139, 0.0468559, 0.00820964, 0.0255083, 0.0314476, -0.07861, -0.00728703, 0.039916, 0.0312531, 0.000822849, 0.00341031, -0.00578948, -0.012835, 0.03978},
	{0.0179808, 0.0336405, -0.0301785, 0.0356595, -0.00838859, -0.0320881, -0.00118414, -0.00831636, 0.0193154, -0.0197577, -0.0215985, 0.0025877, -0.00252061, -0.024914, -0.022423, -0.0564778, 0.052127, -0.0165384, -0.0135615, 0.025024, 0.0211277, 0.0178235, -0.0209213, -0.0245497, -0.0207033},
	{-0.00210636, 0.0121232, 0.0409061, 0.0107511, 0.0160877, 0.00550651, 0.0364, 0.0389315, -0.0141645, 0.0321379, 0.0316513, 0.0237176, -0.000682016, -0.00240083, -0.00158869, 0.0342036, -0.0357609, -0.0242074, 0.00873936, 0.00338215, 0.0255081, -0.0253895, -0.0252712, -0.0213067, 0.0142873},
	{-0.0183394, 0.0339736, -0.00280143, -0.0315444, -0.0167442, -0.0132492, 0.0188277, -0.0116698, -0.004725, 0.0207789, -0.015455, -0.0314002, -0.0145919, -0.0486742, 0.00583744, 0.00929208, 0.0364948, 0.0156833, -0.0121091, -0.0202175, -0.0205908, 0.00219989, 0.00854456, 0.0224604, 0.00847515},
	{0.0203094, 0.0165661, 0.0314466, 0.00792916, 0.0344051, -0.00886881, 0.00588406, 0.00196427, -0.0332851, 0.032304, -0.021221, 0.0074793, 0.0389519, -0.0193678, 0.000620924, -0.0028791, 0.00974914, 0.0041523, -0.0173441, 0.0229419, -0.00939318, 0.00602752, -0.00296502, 0.0159301, -0.017593},
	{-0.0590157, -0.0373963, 0.0406301, -0.00432068, -0.0354134, -0.00836959, -0.0245346, 0.0614085, 0.0269131, 0.051081, 0.0394625, -0.0175889, 0.0128964, 0.00472809, 0.001956, 0.0432771, -0.0373738, -0.00662267, 0.031717, -0.0469425, -0.0301525, -0.0234609, -0.0707641, 0.0357583, -0.0193006},
	{-0.0245175, 0.00804206, -0.0133124, -0.030824, 0.0136982, 0.0627171, -0.011117, 0.000342175, 0.023568, -0.0177468, 0.00358427, 0.0183771, 0.0126729, 0.0205129, -0.0304955, 0.0564551, -0.0781246, -0.0181537, -0.00188582, 0.00987848, 0.00768478, 0.00328764, 0.00858852, 0.014072, 0.0207698},
	{0.000174997, -0.0506199, -0.0091363, -2.63788e-05, 0.0376746, 0.0669206, 0.00958765, 0.00747778, -0.0449127, 0.050151, 0.040091, 0.0193582, 0.0331528, 0.0452951, 0.00803096, 0.0455076, -0.0963285, 0.00202406, 0.0249111, 0.0306812, -0.0139672, 0.00820818, -0.0129842, 0.0312318, 0.0103925},
	{-0.00489379, -0.0219626, 0.00770755, 0.00925376, 0.0174317, -0.0313656, -0.0463379, 0.0405536, -0.021924, 0.0114871, 0.0384645, 0.0109212, 0.0285252, -0.0261031, -0.00745538, 0.0211515, -0.0205251, -0.0129861, 0.0458603, -0.00447172, 0.0253654, -0.0191627, -0.0135661, 0.0147968, -0.00271085},
	{-0.0340841, -0.00523471, 0.0451165, 0.0308438, 0.0083808, -0.0629587, -0.0250439, 0.0466755, -0.0422947, 0.0407457, 0.0288573, 0.000414679, 0.0266916, -0.0566924, 0.00903169, -0.0451607, 0.0277638, 0.0337555, -0.00546381, 0.0212112, 0.0134734, 0.0276955, -0.0505334, 0.0145664, 0.0280246},
	{0.0069448, 0.020071, 0.00317851, -0.0226592, -0.0250313, -0.0616095, -0.0114564, -0.0248183, 0.00755768, -0.0259149, 0.007415, -0.0126485, -0.0157164, -0.0945399, -0.0299872, -0.0334932, 0.0605952, 0.0253622, 0.017082, 0.0102028, -0.0217495, 0.00802806, 0.00531893, -0.0241483, -0.0189601},
	{0.00512534, -0.000995977, 0.0517279, 0.00122528, 0.0189425, 0.0124424, 0.00708188, 0.0329793, 0.0217305, 0.0383279, -0.00770415, 0.0185959, 0.0356661, 0.00780889, 0.00573066, 0.0142076, 0.0173714, 0.0116084, 0.0306078, -0.0204104, -0.0226521, 0.03779, -0.0036527, 0.0439891, 0.0360993},
	{-0.00137665, -0.0326888, 0.000657444, 0.0268076, 0.0335467, 0.0159279, 0.0385533, 0.0260866, 0.0130712, 0.0160814, -0.00884185, -0.00145569, 0.0372351, 0.00568838, -0.0235073, 0.0168206, -0.0321852, -0.00744259, 0.0355847, -0.0112392, -0.0209303, -0.013233, -0.0111391, 0.0210784, 0.0399976},
	{0.0213053, 0.0168001, 0.0458887, 0.00455615, -0.0101403, -0.00569336, 0.02155, -0.0182468, 0.0294894, -0.0107779, 0.00145893, -0.0201071, 0.03161, 0.00167709, -0.022183, 0.0254618, -0.00786118, 0.0252118, 0.000107229, 0.00189617, -0.00831213, 0.02918, -0.0472923, 0.0194136, -0.0242709},
	{0.00332555, -0.0168247, 0.0244569, -0.0111864, -0.00559114, 0.0351828, -0.00286577, 0.00786171, 0.0260046, -0.00918269, 0.0269473, -0.0103275, 0.0213219, 0.0466391, -0.00764321, 0.0488426, -0.0698936, 0.0148759, 0.0409872, -0.0128275, 0.00197441, 0.0150335, -0.0240688, 0.0125747, -0.0153399},
	{0.00441369, 0.0270657, -0.0304456, -0.0173335, 0.0255824, -0.0165136, 0.00492611, 0.000198322, -0.0182336, -0.0351364, -0.0152547, -0.00772908, -0.0178977, -0.0423436, -0.0280173, 0.00128235, 0.0410109, 0.0126299, -0.0256962, 0.0256042, 0.0350939, 0.0341261, 0.013086, -0.00437653, 0.0268806},
	{-0.0201412, 0.0131043, 0.00788963, 0.0071853, -0.00406266, 0.010751, -0.0013198, -0.00138528, -0.00109647, 0.00713464, 0.0367908, -0.0244693, 0.0352406, -0.0137197, 0.0179017, 0.0192867, -0.0447081, -0.0229329, 0.0393634, 0.00656941, -0.0254898, -0.000550138, -0.018083, 0.0195424, 0.0050914},
	{0.0422541, 0.0320354, 0.00835246, -0.0229556, 0.0191198, -0.00352201, 0.00355946, -0.00916831, -0.0136175, 0.000562987, -0.0065909, 0.000108813, 0.0195457, 0.0181877, 0.00721729, -0.000800198, 0.0620961, 0.0117984, 0.0241448, -0.0165852, 0.0255053, -0.00150119, -0.0261111, 0.0194823, -0.015398},
	{-0.0412284, 0.00711237, 0.0131761, 0.0171263, -0.0271388, 0.0245826, -0.0191464, 0.0302834, 0.0303113, 0.033282, -0.020872, -0.0163341, 0.00983439, 0.0134811, 0.0335635, 0.0283258, -0.00420182, 0.0275483, 0.00335721, 0.0318027, 0.0288291, 0.0212929, -0.00387804, -0.00845021, -0.00506485},
	{-0.0498045, -0.0969989, 0.0875925, -0.0363531, -0.0275137, -0.0112171, -0.0208525, 0.090929, 0.00375175, 0.0424953, 0.0425009, -0.00652948, 0.103214, 0.0143077, -0.0297867, 0.0305564, -0.0759688, 0.0204269, 0.0360052, -0.0148395, -0.00102623, -0.00517236, -0.0924072, 0.0499697, -0.0544225},
	{0.0256288, -0.00266748, -0.0305092, 0.0192257, -0.00863645, 0.0642136, 0.0187572, -0.00315124, 0.0229176, -0.022763, -0.00983577, 0.0224942, -0.0358375, 0.0778649, -0.0361234, 0.022474, -0.0494648, 0.00158524, -0.0394448, 0.0098209, -0.0357263, -0.0255383, 0.0323727, 0.0115122, -0.0242279},
	{-0.038026, -0.0415486, 0.0304657, 0.0130654, 0.0129169, 0.0032108, 0.00814244, 0.0457594, -0.0386106, 0.0255599, -0.00336002, 0.00596724, 0.0401678, -0.00184054, 0.0183965, 0.00598977, -0.0718128, 0.0361319, 0.00196725, 0.00609438, 0.0242461, 0.0272426, -0.0264056, -0.0114936, 0.0283127},
	{-0.0241369, -0.0440626, 0.038292, 0.00168886, 0.0292055, 0.0238324, 0.0209213, 0.00632635, 0.0276366, 0.0480909, 0.0432468, 0.0276731, 0.01267, -0.0225207, -0.0273944, 0.0212502, 0.0163137, 0.00786776, 0.0513687, -0.0333339, -0.0231478, 0.02112, -0.0108175, 0.00930554, -0.0338782},
	{0.00223531, -0.0387231, 0.0395031, 0.0353645, 0.0201517, -0.045589, 0.00192408, 0.0239174, -0.0394826, 0.0445873, -0.00464378, 0.0353234, -0.0124296, -0.0622668, 0.0211102, -0.0437125, 0.00461784, 0.0232388, 0.0118595, -0.00461783, -0.00740987, 0.0280827, -0.0357825, 0.0390968, -0.0130476},
	{0.0119108, 0.00632342, -0.00830942, 0.0322325, -0.00756138, -0.0392286, -0.0221025, -0.0140004, 0.0236542, -0.00276362, 0.0268901, -0.0108067, -0.0327515, -0.0930785, 0.0215951, -0.0313595, 0.0360385, 0.0277209, 0.00569888, 0.0248167, 0.0301255, 0.00224956, -0.0148516, 0.0057227, 0.00535023},
	{0.00207495, -0.0321824, 0.0327246, 0.000530004, 0.0354556, -0.0103819, -0.0241683, 0.047805, 0.00436832, 9.53531e-05, 0.0230221, 0.00450901, 0.0437715, 0.0228604, 0.00492274, 0.0182539, 0.0164295, 0.00402218, 0.0187865, 0.00327599, 0.00794227, -0.0174351, 0.0104301, 0.00450124, 0.0298836},
	{-0.044058, -0.0183754, 0.00442262, -0.00970072, 0.0268728, 0.0281095, -0.00345124, -0.0104309, -0.0291312, 0.0163084, 0.0331755, 0.00912531, -0.00517298, 0.0492461, -0.0192541, 0.0134851, -0.0715065, 0.0290661, -0.0102405, 0.0106838, -0.0240581, -0.0266767, -0.0115328, 0.00735293, 0.0388674},
	{0.0157167, 0.000609951, 0.0190726, 0.0131575, -0.0276534, -0.0297838, -0.00710977, 0.0124555, -0.0314584, 0.0167878, 0.0437606, 0.0107667, -0.00311777, -0.0218773, -0.0162315, -0.0284134, 0.00797638, 0.0229425, 0.00407662, 0.0304899, 0.0270028, -0.0220411, 0.0177212, -0.000788383, 0.00429951},
	{-0.0403091, -0.0304624, 0.0153408, -0.0176437, -0.0206179, 0.0414101, 0.0326912, -0.0191886, 0.00619673, 0.0376794, 0.0187174, -0.0127931, 0.0132736, 0.0244674, 0.00382489, 0.0529662, -0.0286209, -0.0111463, 0.0117444, 0.00639901, -0.00034161, 0.0058738, 0.0124488, 0.023047, -0.00823823},
	{0.0134022, -0.0119866, -0.023522, -0.00327812, -0.00803026, -0.0448543, 0.0153011, -0.00520669, 0.0173787, 0.0156578, -0.0356324, 0.0204869, 0.00174296, -0.0208181, -0.0238068, -0.0226836, 0.0310779, 0.00483796, 0.0262853, -0.0124238, 0.00977055, -0.0146324, 0.0201518, 0.0104961, 0.0369653},
	{-0.00934297, -0.0429853, -0.000345961, 0.0113378, -0.0261185, 0.0603181, 0.00794538, 0.00148785, -0.000195522, -0.0112579, 0.0239489, 0.0132446, 0.0110625, 0.0215923, 0.0154512, 0.0189016, -0.060209, 0.0236353, 0.00809528, 0.0096932, -0.0237281, -0.0178198, -0.0232442, 0.0515499, 0.0139853},
	{-0.000237622, -0.0127524, 0.00593087, -0.0153395, -0.000953853, -0.00688691, 0.0287342, 0.0254348, 0.00174452, -0.00903393, 0.000856261, 0.0328358, 0.00910456, -0.00678988, 0.0330781, -0.0199299, 0.000470978, 0.0177692, -0.026398, -0.00238021, -0.000821271, 0.0183784, 0.0227953, -0.00269154, 0.0173964},
	{-0.0290598, 0.0108361, 0.0430745, -0.0196262, 0.0221516, -0.000425603, -0.00476143, 0.00662551, 0.00728045, 0.0343243, 0.00156352, -0.0293563, 0.0229201, -0.0202906, 0.00331448, -0.0288597, 0.00583016, -0.0254472, 0.0274915, 0.0293893, -0.0135167, 0.0277245, -0.0423213, 0.0216955, -0.0145991},
	{-0.0979868, -0.126946, 0.147715, -0.00154221, -0.0182052, -0.0550004, 0.00397922, 0.100874, 0.0432291, 0.121569, 0.122193, 0.00105337, 0.118768, -0.0790448, -0.0109298, 0.0144317, -0.0551342, 0.00585416, 0.111559, -0.0572204, -0.0201546, 0.00851989, -0.139615, 0.0716993, -0.00640461},
	{0.0141316, 0.0174639, 0.00380837, -0.0061316, -0.0016577, 0.0436093, 0.013434, -0.015025, 0.0249462, -0.0388846, -0.0155263, -0.0148976, -0.0395005, 0.0148868, -0.0315999, 0.0387701, -0.0310019, -0.0228153, -0.0245929, -0.0314853, -0.00458788, -0.0104673, 0.0346799, -0.0235216, -0.0306803},
	{0.00249065, -0.0164824, 0.0346813, -0.00933321, 0.0352361, 0.00299213, -0.00315785, -0.0177304, -0.00897876, -0.00521042, 0.00391394, 0.0243781, 0.0239663, 0.00249528, 0.0214361, 0.0274889, -0.0620091, -0.0199099, 0.0352619, 0.0137919, 0.0310022, -0.0266459, 0.0111661, 0.00170032, 0.0271465},
	{-0.0471685, -0.0043294, 0.0660687, 0.008009, -0.00328159, 0.0125721, -0.0343907, 0.0488037, -0.020835, 0.00813043, -0.00434928, -0.00124428, 0.0408511, -0.010735, -0.00894514, 0.0117906, -0.0264564, 0.0149749, 0.00267146, -0.0284749, -0.0188382, -0.0179402, -0.0134885, 0.0352306, 0.009699},
	{-0.0289062, 0.00562191, 0.0124732, -0.0257138, 0.0260761, -0.040689, 0.0154948, -0.00550518, -0.0146905, 0.00212415, -0.00550228, 0.0032837, 0.0236724, -0.00171791, -0.0235085, -0.038959, 0.0156858, 0.00700711, 0.00807161, 0.0123511, 0.00983084, -0.01884, 0.00222232, 0.0229684, -0.0171395},
	{0.0295925, -0.025084, -0.0204411, -0.0100771, -0.0174412, -0.0371292, -0.0351644, 0.0204063, 0.0227923, 0.0344493, -0.0266357, -0.0067985, 0.0160587, -0.0359991, 0.0117496, -0.0482497, 0.0920339, -0.0267596, 0.00130645, -0.0276443, 0.00743762, -0.0190466, -0.0206416, 0.0299946, 0.0149467},
	{0.0047648, 0.00291161, 0.00872509, -0.0149476, -0.0146073, -0.0179566, 0.0220377, 0.0251475, -0.0126381, 0.0299812, -0.00128931, 0.02472, 0.0252665, -0.0037022, 0.00505026, 0.0167903, -0.0182566, 0.0282813, 0.0282868, 0.00769871, 0.0196491, 0.025049, -0.0152476, 0.0292263, 0.0150749},
	{0.00759539, -0.00776225, 0.0381826, 0.00535772, 0.000669111, -0.00158106, 0.0211152, 0.0395804, -0.0110187, 0.0177637, 0.0491862, -0.0143943, 0.00318335, 0.0462645, -0.0116666, 0.0468422, -0.018769, -0.00190419, 0.0333173, 0.0244917, 0.0205081, -0.0237217, -0.0106135, 0.0313692, 0.022758},
	{-0.00937284, -0.0431004, 0.0122341, 0.0203776, 0.000444665, -0.0183464, 0.0261312, 0.0147145, 0.026699, -0.0181704, 0.0136848, 0.0240142, 0.0385314, -0.022993, -0.00836839, 0.0100151, -0.0319943, -0.00753102, 0.0452099, -0.0276045, 0.00682668, 0.00130356, -0.0195435, 0.0277773, 0.00851119},
	{0.000993647, -0.0030194, -0.0283029, 0.02874, -0.016762, 0.0429091, 0.00463617, -0.00101832, 0.0224854, -0.0150567, 0.023721, 0.0186715, 0.0346, 0.0213027, 0.0312613, -0.00437398, -0.0574889, 0.00622939, -0.0141371, -0.00213854, 0.0332558, 0.00510579, -0.00438108, 0.00506929, 0.0386776},
	{0.0303921, 0.0200125, -0.0294797, 0.026663, -0.0293305, -0.0373251, -0.021866, 0.000756598, 0.00639905, -0.00355521, -0.012499, -0.0188069, -0.0283762, -0.0227112, -0.0175193, -0.0292043, 0.0305692, 0.0220114, 0.0133463, 0.0275113, 0.030183, 0.00940089, -0.0164529, -0.0358843, 0.0169945},
	{-0.0140588, 0.0046856, 0.05123, 0.0244442, -0.00622639, 0.0278596, -0.007638, 0.0315569, -0.00800114, 0.00342068, 0.0262709, -0.00888388, 0.0255921, 0.0400134, 0.00228251, 0.0381801, -0.0721966, 0.0193589, 0.0129539, 0.0231998, 0.0108768, 0.0283032, -0.0268016, 0.032689, -0.0152709},
	{0.0041216, -0.0231695, -0.0064269, -0.0161819, 0.0129461, -0.00248208, -0.0285785, 0.0175216, -0.00533713, 0.0180104, 0.0123907, -0.0258747, 0.0112092, -0.00186374, -0.0277393, -0.0444277, 0.0481446, -0.0141015, -0.0146353, -0.00729349, -0.025367, -0.0166644, -0.0047026, 0.0128564, -0.0290761},
	{0.0107924, 0.00616949, -0.0134795, -0.0260047, 0.00763595, -0.0281254, -0.0214759, 9.54801e-05, -0.0275064, 0.0356938, 0.022255, 0.00199376, 0.0224478, -0.00494525, -0.00929627, -0.0125969, 0.0310129, -0.0229746, -0.022491, 0.00398229, 0.0346796, 0.0192741, 0.0229711, 0.0310115, 0.0383105},
	{-0.0757093, -0.0773572, 0.0809006, -0.0163167, 0.01964, -0.0509017, -0.046081, 0.0847927, -0.0141661, 0.0789806, 0.0731661, 0.0183103, 0.0712451, -0.077757, -0.00701616, 0.0123203, 0.0246037, 0.0151812, 0.063725, -0.014478, 0.00548681, 0.0147116, -0.0973187, 0.0479013, -0.0431768},
	{0.0353574, 0.0101343, 0.00767138, 0.00724166, 0.00813461, 0.024574, 0.0131836, -0.0375363, 0.0237478, 0.00777115, 0.00463138, 0.0172979, 0.0196804, 0.0700579, 0.0127533, 0.0193832, 0.00417812, 0.0248155, 0.0217019, -0.0143024, -0.0131946, -0.00842786, 0.0376696, -0.00399778, 1.67282e-05},
	{-0.00486952, -0.0536381, 0.0434655, 0.0257366, 0.0350386, 0.0381842, 0.0483471, 0.0110997, 0.00520824, 0.0488061, 0.0455749, 0.0314978, 0.029903, 0.0573256, 0.0425759, 0.0273563, -0.0507222, 0.0445935, 0.00513144, 0.0325294, -0.00444522, 0.0181387, -0.0121704, 0.0450562, -0.00217387},
	{-0.0265726, 0.00898327, 0.00879385, 0.0287971, 0.0124729, 0.0222593, -0.0272141, 0.00407067, -0.000948279, 0.00321811, 0.0476325, -0.0207441, 0.0435304, 0.0162218, 0.0308223, -0.000203401, -0.0326814, -0.00306861, 0.0513251, 0.0178041, 0.0351676, 0.0267041, -0.0141625, 0.00792384, -0.0109354},
	{-0.0465576, 0.00236062, 0.00503272, -0.0224362, -0.0170723, -0.0197708, -0.00581463, 0.0122006, 0.0227167, 0.0352916, -0.00728587, 0.013163, 0.00610058, -0.0519606, -0.00674885, -0.0182958, 0.030222, -0.00991132, 0.0272194, -0.0071434, 0.0267415, 0.0242415, -0.0318758, 0.0338429, 0.0399186},
	{0.0245207, -0.00140044, 0.0235028, -0.00616363, -0.0143377, -0.0489297, -0.0304541, 0.0217594, -0.0236127, -0.00100643, 0.0368044, 0.0220735, -0.00402991, -0.050735, -0.00696565, -0.0585199, 0.0933969, 0.0182646, 0.0244789, -0.00826184, 0.0300197, -0.00741775, -0.0126927, 0.0373932, -0.0147112},
	{-0.0043386, -0.0392271, 0.0241515, -0.0116748, 0.00175428, 0.0277097, -0.00069216, 0.00214508, -0.0146816, 0.00236651, 0.00639422, 0.0259866, 0.0397003, 0.0107337, -0.0131495, -0.0150419, -0.0348818, -0.0127244, 0.0458483, -0.000696606, -0.0232298, 0.0168364, -0.0225581, 0.011327, -0.00708747},
	{0.00341662, -0.0468592, 0.0379853, -0.001774, 0.00292772, 0.00401991, 0.012298, 0.0373521, -0.00649705, 0.0320888, 8.21383e-05, 0.0299136, -0.002976, 0.0532631, 0.00581356, 0.0391406, -0.0614509, 0.0300811, 0.0455031, 0.00461678, -0.00366362, 0.0236154, -0.0165895, 0.0319513, 0.0354648},
	{-0.00125988, 0.00394884, 0.0405031, 0.0176742, -0.0235316, -0.00861159, -0.00733811, 0.0272216, -0.0222974, -0.013207, 0.00505077, 0.00182833, 0.00811905, -1.47386e-05, 0.03604, -0.00200895, -0.00621721, 0.0126654, -0.00934893, 0.0320989, 0.0331328, 0.00325879, -0.023326, 0.0180802, 0.025846},
	{-0.0183125, -0.0450769, 0.0172881, -0.0169453, -0.0284702, 0.0172485, 0.0248524, 0.022063, 0.0100316, -0.0152697, 0.0269207, -0.0236352, 0.0373547, 0.0242012, -0.0244028, -0.00900358, 0.00839297, -0.02326, 0.0316355, 0.022859, -0.0155373, -0.0249324, -0.030885, 0.0144044, -0.0110643},
	{0.0111094, -0.00193331, 0.0236188, 0.0348923, 0.0247885, -0.0125005, 0.0227066, -0.0148111, 0.00143944, 0.0280916, -0.02776, -0.0283779, 0.0279597, -0.0205452, -0.0115182, -0.0487594, 0.0588573, 0.0161088, 0.00798854, -0.0280452, 0.0236796, 0.0159356, 0.0187156, -0.0265063, -0.00559029},
	{-0.020989, -0.00580839, 0.0413924, -0.0204532, 0.026054, 0.0213189, 0.0104281, 0.0412511, -0.0157701, 0.0291143, -0.00878859, 0.0316449, 0.0499209, 0.0334838, 0.0186113, 0.00124834, -0.0653874, -0.0295865, 0.0275445, 0.0028261, 0.023791, -0.00875336, -0.0550474, 0.0186664, -0.0161197},
	{0.0129799, -0.0104206, -0.0265402, -0.00134827, 0.000849511, -0.0285219, 0.00726792, -0.00183583, -0.0180839, -0.0180902, -0.000754015, 0.0278369, -0.0207935, 0.00170565, 0.0321711, -0.0329175, 0.0363412, 0.0229919, -0.027563, -0.0237126, 0.000253804, -0.00934238, 0.032728, 0.0230498, 0.0119231},
	{0.00686763, 0.0185204, -0.00559066, 0.00563186, -0.0116925, -0.00502102, 0.013405, -0.0104296, -0.0103741, 0.0343313, -0.0146079, 0.00914318, -0.00141744, 0.00698447, 0.00972103, -0.0291176, -0.024017, 0.00467431, -0.00978868, -0.0271471, 0.018729, -0.0104622, 0.000680204, -0.00105734, 0.0120751},
	{-0.00812723, -0.0298714, 0.0337403, -0.0192352, -0.0133833, -0.00818258, -0.0438674, 0.026566, 0.00654894, 0.0316052, 0.0374613, -0.0363595, 0.027998, -0.0136544, -0.0220848, -0.0214411, -0.0156955, -0.0313029, 0.0485166, -0.0174936, 0.0110636, 0.0155971, -0.038896, 0.0600727, -0.0287025},
	{0.0348862, 0.0229612, -0.0177696, 0.0176672, 0.0274767, 0.0442449, -0.0256149, -0.0205847, 0.00749615, 0.0203546, 0.0235335, 0.0146455, -0.00733643, 0.0703233, 0.0108155, 0.00965703, -0.01872, -0.0140436, -0.00325215, -0.0280609, 0.0118268, -0.00153038, 0.00477657, 0.0232453, 0.00344486},
	{0.00321459, -0.0145201, 0.0190645, 0.0211394, 0.00530538, 0.0137028, 0.0177789, 0.0312813, -0.0420073, 0.0392097, 0.0392661, 0.0100222, 0.0336972, 0.0394949, 0.0415082, 0.0445189, -0.0486779, 0.0437581, 0.013855, 0.0368227, 0.0403586, 0.0146107, -0.0361116, 0.0396831, 0.00634716},
	{-0.00378826, 0.00770447, 0.0142786, 0.0300168, -0.00327064, 0.0193843, 0.024851, 0.0397356, -0.00572133, 0.0340878, -0.0159507, 0.0125182, -0.0123213, -0.0260438, -0.0244454, -0.034543, 0.0182089, -0.0313401, -0.016907, 0.00538945, 0.00816058, 0.00851576, -0.0118759, 0.0368747, -0.0345858},
	{0.0110002, -0.0263212, 0.0300682, -0.0189481, 0.0120408, -0.0299377, -0.0127396, 0.0434393, -0.0438277, 0.0129646, 0.0524763, -0.0206589, -0.00195212, -0.025205, 0.00930185, 0.00788298, 0.0299609, 0.0212714, 0.0399235, 0.0260038, 0.001255, 0.0169133, -0.00869172, 0.00642639, 0.0113175},
	{-0.035985, -0.0312647, -0.0165653, 0.0228247, -0.0231031, -0.103889, -0.0167166, 0.00838234, 0.0147146, 0.012363, -0.00285379, -0.0204804, 0.0150531, -0.0413873, 0.00247352, -0.0835858, 0.0967207, 0.0141684, 0.0429686, -0.0070489, 0.030068, 0.0229227, -0.0388735, 0.0285447, 0.0197071},
	{0.00278692, 0.0149568, 0.00940528, -0.00656375, 0.00105149, 0.00495271, 0.0111789, -0.0142758, 0.0254628, -0.00141161, 0.0425086, 0.00501724, 0.031679, -0.00645246, 0.028838, -0.0300199, -0.0265907, 0.0275714, 0.032692, 0.0212563, 0.0255511, 0.0205659, -0.0113152, -0.0114493, 0.0252423},
	{-0.0333222, 0.00560932, -0.0125581, 0.0029932, 0.0319515, 0.0544022, 0.0344462, 0.0266038, -0.00962338, 0.0404885, 0.0325988, -0.00416989, 0.0373523, 0.0150105, 0.00139647, 0.0531444, -0.00694395, 0.00338932, -0.0214159, 0.0263825, -0.0315216, -0.00268811, 0.0151307, 0.0348833, -0.0097368},
	{-0.0114223, 0.0164132, -0.0129696, -0.0237305, -0.0263926, -0.020529, -0.0103077, 0.00769014, -0.0115676, 0.0384935, 0.0378553, 0.0100905, 0.00899286, 0.00824907, 0.00777382, -0.0315851, -0.0140981, 0.0292823, 0.0435808, 0.0331565, 0.0197251, 0.0131812, 0.00642857, -0.00796937, -0.0291479},
	{-0.0157522, -0.0458335, 0.00327799, -0.00534041, -0.00450627, -0.0180254, 0.0292801, -0.0137849, -0.00136073, 0.0168077, 0.0205037, -0.0215564, 0.0270493, -0.0239963, 0.0146457, 0.00669388, 0.0157584, 0.0130699, -0.0122146, 0.017304, 0.0154116, 0.00560272, 0.00498786, -0.00171192, -0.000661887},
	{-0.0121777, 0.00934672, 0.0179074, -0.00197522, 0.00619409, -0.086711, 0.0241404, 0.0138701, -0.0154022, 0.0247281, -0.00169013, -0.00354336, 0.00725755, -0.0858071, 0.00677753, -0.0242023, 0.0321041, 0.00254049, 0.0165395, -0.0276738, -0.0178727, -0.0255318, 0.0264493, 0.0131781, -0.00376908},
	{-0.0237733, -0.0263575, 0.0455218, 0.00188991, -0.000289846, 0.0436771, 0.0322714, 0.0407885, -0.0288333, 0.0386649, 0.00479504, -0.0193096, 0.0107498, 0.0180376, 0.0015865, -0.00877151, -0.04717, 0.000820476, 0.0307762, -0.00890055, 0.0163082, -0.0230044, 0.00826467, 0.0187785, 0.00787385},
	{-0.0149412, 0.0145667, 0.00848755, 0.000113704, -0.00871607, -0.011432, 0.0196929, -0.0370725, -0.0273501, -0.0041261, 0.0177965, -0.0237821, -0.00710829, -0.0290446, -0.0247901, 0.0135785, 0.0316102, -0.0205427, 0.0226096, 0.00920952, -0.0142374, 0.00464818, -0.017762, 0.0189437, -0.0132794},
	{-0.0106546, 0.0158231, -0.00880951, 0.0344905, -0.0257213, 0.0186424, 0.00559891, 0.0132715, 0.00979091, 0.0300923, -0.00101129, 0.0258323, 0.00403826, 0.00527055, -0.0265516, 0.00067472, -0.0143391, 0.00238108, 0.0310393, 0.0171314, 0.0120182, 0.0296309, 0.00068426, -0.0183064, 0.0171141},
	{0.0476993, 0.0225578, -0.00989887, -0.0389629, -0.053526, 0.0410234, -0.0535671, -0.0170502, 0.0116146, -0.0454259, -0.032464, 0.000252682, -0.0405274, 0.0568464, -0.040116, -0.00227491, 0.00676815, -0.0109225, -0.0375192, -0.0306239, -0.00920873, -0.0395713, 0.00582882, -0.0477239, -0.0280051},
	{0.00281405, -0.00592814, -0.0190403, 0.00229813, 0.012334, 0.0599183, -0.0362001, -0.0365673, -0.0172864, 0.0131322, -0.00753923, -0.029893, -0.0235117, 0.0143476, 0.0141521, -0.0112933, -0.0217425, -0.0289611, -0.0401954, -0.0258374, -0.0140766, 0.0110935, -0.00765404, -0.00608886, 0.021944},
	{-0.0648524, -0.0485214, 0.0429069, 0.026336, 0.0107645, -0.00453138, 0.0043173, 0.0555635, -0.0291349, 0.0463326, 0.0158163, 0.0334232, 0.0596342, -0.00669355, 0.00827175, 0.0335295, -0.0170946, 0.0293302, 0.0172746, 0.00697124, 0.0255852, 0.0446276, -0.0605956, 0.00644337, 0.0499233},
	{-0.0207356, -0.0133962, -0.00804179, 0.00299345, -0.0272458, -0.017421, -0.00727265, -0.00473497, -0.0278187, 0.0124406, -0.00780808, 0.0118467, 0.035355, 0.0110428, -0.028281, -0.0347812, -0.0164074, 0.00232322, 0.0380547, -0.0158751, 0.0293002, -0.0101444, -0.0242693, 0.0460198, 0.0112641},
	{-0.0440202, -0.0499909, 0.0368038, -0.00248079, 0.0340821, -0.0440222, 0.0197033, 0.0344615, -0.033521, 0.00475087, 0.0451306, 0.0183419, 0.0447894, -0.0513316, 0.0371337, -0.0160637, 0.0187251, 0.00422419, 0.00677657, 0.0257426, 0.0301276, 0.012281, -0.0692156, 0.0302021, 0.0106854},
	{0.0288195, -0.00703449, 0.0290715, 0.00178356, 0.0289104, -0.0838942, -0.0133708, -0.00970046, 0.01644, 0.0318042, -0.0216261, -0.0285428, -0.00209505, -0.0272789, -0.0125779, -0.0405981, 0.0378684, 0.0123007, 0.0321433, -0.000292557, 0.0107192, -0.0157085, -0.0262901, 0.0355655, 0.0194626},
	{-0.00610435, 0.0207677, 0.00470178, -0.0116209, -0.0164888, -0.0258973, -0.0150439, 0.00441806, 0.00353229, -0.017732, 0.0243542, 0.0133645, 0.0336775, 0.00578073, 0.0240179, 0.0121839, 0.00294586, 0.0223868, 0.0234868, -0.019872, 0.0329429, 0.0142438, -0.0366145, 0.0418355, 0.0141056},
	{-0.0325946, 0.00304838, -0.00323307, -0.0110986, -0.0203551, 0.0233198, -0.000256045, -0.016455, -0.0326748, -0.00936798, 0.00780146, 0.0290498, -0.00475529, 0.0389781, 0.0134565, 0.00807747, 0.00301004, -0.0264053, -0.0165019, 0.0212633, -0.019426, -0.0287588, 0.00433301, 0.0352209, 0.00064276},
	{-0.0373999, -0.0177973, -0.0124405, 0.00806655, -0.023109, -0.0224321, -0.00205934, 0.00391667, 0.00512533, 0.0121131, -0.0072144, -0.0114412, 0.0482856, -0.0141212, -0.0230477, -0.000415068, 0.00255777, 0.0119691, -0.0141004, 0.0264897, 0.0307048, 0.0199541, -0.0013223, 0.0411348, 0.0275516},
	{0.00984797, -0.0341392, -0.021062, -0.0252881, 0.0224458, -0.0411937, 0.0305169, -0.0187938, -0.00170528, 0.00465076, 0.0255083, -0.0280661, -0.00148814, -0.00599548, 0.00390906, -0.0163796, -0.0307183, 0.00815714, 0.011746, -0.0175401, 0.0267335, -0.0193646, -0.0123602, -0.0197243, 0.0227977},
	{0.0133603, 0.0168268, -0.00998787, -0.00842761, -0.00378452, -0.0385615, -0.0152928, -0.00219046, -0.031145, 0.0338835, 0.0170207, 0.00139847, -0.0257681, -0.0729308, 0.0252965, -0.0668722, 0.0288567, -0.0144838, -0.0250246, 0.0269281, 0.0186292, 0.0296242, -0.0135723, 0.0123888, 0.00992052},
	{-0.00436826, 0.0187261, 0.0075664, 0.0175843, -0.0273333, 0.0174646, 0.0297786, -0.013611, -0.0161084, -0.00497435, -0.0176954, -0.000145523, 0.0371359, 0.00396789, 0.0375202, 0.0311464, -0.0183996, 0.0333179, -0.00950256, -0.0104742, 0.00100384, 0.0370682, -0.0339268, 0.0201298, -0.00134698},
	{-0.0181522, -0.0121599, -0.0322088, 0.000592287, -0.00367601, 0.0158209, -0.0144597, -0.0251825, 0.0113875, -0.00428899, 0.00222582, -0.0232911, 0.00918047, -0.0241192, 0.0209249, 0.0174034, -0.0199173, -0.0281121, 0.0191461, 0.00786236, -0.00618923, -0.00482599, 0.0221193, -0.0307719, -0.0174439},
	{0.013664, -0.0446857, 0.0280194, 0.0026036, 0.0183343, 0.0159895, -0.00838454, -0.00747781, -0.0304992, 0.0221728, 0.0413282, -0.0203799, 0.0404174, 0.0102219, 0.0129769, -0.0193521, -0.0271694, 0.0327874, 0.0291251, -0.0190285, -0.029358, 0.000991288, 0.020783, -0.00652065, 0.00805743},
	{0.0467964, 0.0471457, -0.0448277, -0.0366008, -0.0726931, 0.0293691, -0.0257419, -0.051132, 0.025537, -0.0438525, -0.0499354, -0.0355465, -0.0244233, 0.0360461, -0.0405806, 0.00963258, 0.0405908, -0.054349, -0.0389148, -0.0436346, -0.0197695, -0.0486777, 0.0284105, -0.0339167, -0.0149706},
	{0.0424379, 0.00784916, -0.00885396, -0.00643909, -0.0247881, -0.00102022, 0.0164879, -0.0043771, -0.00864262, -0.00803456, -0.00286008, 0.0290109, -0.0119806, 0.0134522, -0.0132619, 0.0216993, -0.0146274, -0.0101695, -0.0130254, -0.0075316, 0.0264701, 0.012951, 0.0361466, -0.00718948, -6.57921e-05},
	{-0.0226248, -0.00395722, -0.0173321, 0.0466263, 0.0321846, -0.00845423, 0.0116347, -0.0096502, -0.0488585, 0.0178956, -0.0105312, 0.00529709, 0.0491283, -0.00160059, 0.0049755, -0.00346412, -0.00950807, 0.0200137, 0.0461078, 0.0452198, 0.0153898, 0.0159188, 0.0012277, 0.0428482, 0.0491965},
	{0.0093259, 0.0015763, 0.0270696, -0.0027266, -0.0195482, -0.0294881, 0.00708915, -0.0139747, -0.0233718, 0.0013126, 0.0361547, -0.0242303, 0.0270447, 0.0005799, -0.0210667, -0.0237019, -0.00019421, 0.00446003, 0.00235256, -0.00186838, -0.0311802, -0.0226417, 0.00965114, -0.00606869, -0.016112},
	{0.0104049, -0.0229952, 0.00641162, 0.0330971, -0.011455, -0.0158086, 0.020224, 0.0317619, -0.00271242, 0.0301843, 0.000310684, 0.0315989, 0.0136467, -0.0233596, -0.00845926, 0.0122728, 0.00277567, 0.027583, 0.00346794, 0.0256031, -0.0201592, 0.0378407, -0.0527705, 0.00613538, -0.00962765},
	{-0.00108563, 0.0204734, -0.0136691, -0.0319793, 0.00789972, -0.0642026, -0.0183851, 0.031373, 0.00111968, -0.00356855, -0.0226833, 0.0285028, -0.00134198, -0.0500746, 0.0168162, -0.0490781, 0.062408, 0.0324553, -0.0088622, -0.0117913, -0.0252103, -0.021954, -0.00955339, 0.0262326, -0.01464},
	{0.00292635, -0.0362698, -0.0155275, -0.0144755, 0.00180595, -0.0315722, 0.0338823, 0.0111386, -0.0129587, 0.0334583, 0.00507864, -0.0263893, 0.0198263, -0.0114743, -0.026931, -0.0169892, -0.0230311, 0.00212884, -0.0173616, -0.0290326, 0.00614715, -0.021024, -0.00487579, 0.00276216, 0.00780085},
	{0.0233594, 0.0273066, -0.00829322, 0.00212426, 0.00715294, -0.00319067, 0.0173864, 0.0271377, 0.0248317, 0.0242174, -0.0272248, 0.0210895, 0.0100108, 0.0216915, 0.0170869, 0.0408981, -0.0445066, 0.0113446, -0.0256468, -0.031802, 0.0151797, 0.0331181, 0.0238453, 0.0288588, 0.00212815},
	{-0.0186793, -0.0077433, 0.0326428, 0.0301391, 0.0366113, 0.00417398, 0.0164931, 0.0380808, 0.0181693, 0.0310736, 0.0195196, 0.0269181, 0.0442512, -0.02934, 0.0304306, 0.00911998, -0.0256024, -0.0155955, 0.0279944, 0.0319493, -0.0207793, -0.0106631, 0.00525367, 0.0205564, -0.0218408},
	{0.0218189, 0.0193634, -0.0121053, 0.021974, 0.0146551, -0.0261748, -0.00564446, 0.0114633, 0.0217616, -0.00336353, -0.00906043, 0.00159428, 0.0355485, -0.0237038, 0.03169, -0.0126442, -0.0209029, 0.00441702, -0.00694095, -0.0016646, 0.0135227, 0.0335357, 0.02735, 0.012629, -0.016157},
	{-0.018175, 0.0298143, 0.0129727, 0.012912, -0.0137538, -0.033824, 0.0197456, 0.00395182, -0.00529257, 0.0331916, 0.00664424, -0.00730323, -0.0181473, -0.0385032, 0.0165538, -0.00711725, 0.0180595, 0.0270495, -0.00785287, -0.0180664, -0.0275406, 0.0290384, -0.0230929, -0.00307521, 0.0257508},
	{-0.0188354, -0.0302301, 0.0416971, 0.0350902, 0.029346, 0.0296912, 0.017359, -0.00513979, 0.00143152, -0.0167698, 0.0217911, 0.0270092, -0.0185032, -0.00610396, -0.000923624, 0.00655909, -0.0593087, -0.00111358, -0.00315273, -0.0219518, 0.0320575, 0.00511871, -0.0035329, 0.0342311, 6.13046e-05},
	{0.00466556, 0.00598056, 0.0269971, 0.0062422, 0.0219017, -0.0175315, 0.0107876, -0.0312671, -0.0314762, 0.00560439, -0.0216408, -0.00957368, 0.0196114, 0.0462396, -0.028531, 0.0230931, -0.0454904, 0.0185182, 0.00134455, 0.0343716, 0.00130256, -0.0319435, -0.0289723, -0.0115461, -0.0155616},
	{-0.0281476, -0.0146944, 0.000823617, -0.00707125, 0.019792, -0.040185, -0.00118523, 0.0264886, -0.0100917, 0.0313462, 0.0269694, -0.0258898, -0.0150696, -0.045357, -0.00621254, -0.0131417, -0.0530247, -0.0152859, -0.00951351, 0.0211524, -0.0276245, 0.0172112, 0.0171627, 0.0273746, -0.00237511},
	{0.0528443, 0.0334413, -0.025431, -0.0190227, -0.0445558, -0.0107934, -0.0190151, -0.00867018, 0.0362601, -0.0305641, -0.0554412, -0.0386508, -0.0117835, 0.0131199, -0.0415863, -0.027938, 0.0194024, -0.00774752, -0.0115781, -0.0430031, -0.0178486, -0.019578, 0.00974255, -0.0323568, -0.018014},
	{0.0366043, 0.0196721, 0.00534659, 0.0226764, 0.0328753, -0.0103893, -0.00566481, 0.00825498, 0.0155058, -0.0239618, 0.00502527, -0.00355865, 0.0222346, -0.020051, -0.0193905, -0.00697615, -0.0047284, -0.016724, -0.0240541, -0.0285846, 0.00914137, -0.0227021, -0.00140475, -0.000144656, 0.00914232},
	{0.00304898, -0.00534962, 0.002382, -0.0133203, 0.0230905, -0.0440794, 0.0315503, -0.00560143, 0.00774358, -0.00888644, 0.00410946, 0.00358824, 0.0184675, -0.0188354, 0.00501307, 0.00486951, 0.0255228, 0.0522911, 0.0180189, -0.00599804, 0.0212463, -0.011698, 0.0191936, -0.0118905, 0.0496965},
	{-0.0286665, 0.00836595, 0.00286913, -0.0240164, -0.0234192, -0.0459795, -0.0142703, 0.0136529, 0.0331407, 0.000732817, -0.0144181, -0.0289236, 0.0180388, 0.00340082, 0.0225136, 0.0135559, 0.0163828, -0.00260015, -0.0218017, -0.00295307, -0.0274564, -0.00666755, 0.0197191, 0.00539779, -0.00377102},
	{-0.0386626, -0.00598256, 0.0208874, 0.0217786, 0.0209757, -0.0538103, 0.000136067, 0.0186667, -0.0386131, 0.0108686, -0.012246, 0.0326048, 0.0442903, -0.0292321, -0.00286016, 0.0139473, -0.00981426, -0.0238324, 0.0422217, -0.00662608, 0.0213732, 0.038151, -0.0211914, 0.0211291, 0.037132},
	{0.0271416, -0.0189128, -0.0238184, -0.00410147, -0.0302656, -0.00921087, -0.0217165, 0.03769, 0.00511451, 0.0113457, 0.0142835, -0.00872273, 0.00769836, -0.0614335, -0.0307099, 0.000757892, 0.0360708, 0.0266804, 0.000254661, -0.0274207, -0.011621, -0.0250207, -0.0313989, 0.0153117, -0.00723662},
	{-0.0251332, -0.0103263, 0.009167, 0.0109071, 0.0156406, -0.0201116, -0.0229495, -0.0205753, 0.0139517, 0.0297049, 0.00969175, -0.00480382, -0.00534276, 0.012016, 0.013768, -0.0254415, 0.0313145, 0.0217513, 0.0198676, 0.0133108, -0.017573, 0.0266003, 0.0132361, 0.0300811, -0.00853034},
	{-0.0102971, 0.02757, 0.0254811, 0.0243253, -0.00966211, 0.0368587, 0.0115096, 0.00602357, 0.00375541, 0.0135592, 0.0242887, 0.00984385, 0.0136861, 0.0261306, -0.0307435, 0.0237658, 0.00827832, 0.0100073, 0.019144, 0.00967353, 0.0104306, -0.0290515, 0.0282712, 0.0332442, -0.018419},
	{-0.0310969, 0.00489548, 0.0186918, -0.0305576, -0.00414984, -0.0153325, 0.0297223, 0.0326371, 0.0307366, -0.0292836, 0.0273221, -0.0111605, -0.017468, -0.00991414, 0.0175109, -0.0262764, -0.0223935, 0.0200136, 0.0256644, 0.0273676, -0.0264687, 0.0223065, -0.0244297, -0.0172119, 0.0170999},
	{-0.0301093, 0.00174822, -0.0222246, -0.0103939, 0.0140564, -0.0524439, 0.0284513, -0.0287797, -0.0238926, 0.0199735, 0.0121123, -0.00766673, -0.00811127, -0.0127262, -0.00759813, -0.0203801, 0.026799, 0.0138947, 0.0358885, 0.0115896, -0.0156961, 0.0180696, 0.00800821, -0.0179384, 0.0247217},
	{0.0160735, -0.0227122, -0.0258512, -0.0241886, -0.0154162, -0.0510295, 0.00691907, 0.0218179, -0.025127, -0.0139062, 0.0211722, 0.0169056, -0.0127693, -0.0612715, -0.0293799, -0.0435061, 0.0224104, -0.0261637, -0.0126007, -0.00122827, 0.00820555, 0.0136545, -0.0136629, -0.0174811, 0.0231004},
	{0.0243931, 0.00365523, 0.0104599, 0.0283216, 0.0351805, -0.00381576, 0.00729961, -0.0102086, 0.0152489, 0.00644421, 0.0246482, 0.0298928, 0.0114996, 0.024177, 0.0177377, 0.0442772, -0.000500308, 0.0326992, -0.0202856, 0.0235291, 0.00663117, -0.00367149, -0.0144502, -0.00814205, 0.0283133},
	{-0.0146771, 0.0214033, -0.0297539, -0.0283832, 0.032489, 0.0532017, -0.00491628, -0.0242355, 0.00500981, -0.0274407, 0.0201443, 0.0176744, -0.00439159, 0.0188986, -0.0222876, 0.0358708, -0.0612634, 0.0323802, 0.00884672, 0.0340941, 0.0138215, 8.87985e-05, 0.00626427, -0.0286375, -0.0170864},
	{0.00347091, 0.0144819, -0.011201, 0.0248818, 0.000604329, -0.000834302, -0.00288141, 0.0122069, 0.00682148, -0.0175541, 0.00123242, -0.0108195, -0.0211007, -0.00367012, 0.000862956, 0.0368645, 0.00360425, -0.0081914, 0.0111183, 0.0410618, -0.0290554, 0.0108034, -0.0275848, 0.0251222, -0.000744883},
	{0.0251219, 0.0475289, -0.0176306, -0.0502333, -0.0519312, 0.025345, -0.0213507, -0.0358792, 0.0311751, -0.0406192, -0.030975, -0.0258123, -0.0539995, 0.0191371, -0.0552604, -0.0254316, 0.0385634, -0.0490284, -0.0559078, 0.00344469, -0.0444514, -0.0431281, 0.0414728, -0.0284231, -0.0231002},
	{0.00495383, 0.00151802, -0.0338939, -0.00688809, -0.0289201, 0.0315405, 0.0154879, 0.0161648, 0.0214164, -0.0124803, -0.0124746, 0.0130268, 0.0219469, 0.0264738, -0.0133162, 0.00975487, 0.00929873, -0.0137099, -0.0211106, 0.0164377, 0.0303938, 0.0167941, 0.0334352, 0.0297009, 0.0315274},
	{0.0083147, -0.0368174, -0.00134996, 0.00910771, 0.0385376, -0.0104314, 0.0424759, 0.0192396, -0.0393701, 0.0328759, 0.000618379, 0.0303799, 0.0178415, 0.0314241, 0.0352839, 0.0116003, -0.00498695, 0.0110429, 0.00137548, 0.050961, 0.0406046, 0.0169688, -0.0441302, 0.0264351, -0.00733472},
	{0.0224823, -0.0280181, 0.0358907, -0.011652, 0.0220714, -0.0527342, -0.0340463, 0.00822295, 0.0325198, -0.00843435, 0.0160849, 0.0194796, 0.032508, -0.0315538, -0.0326623, -0.00207679, 0.0206614, 0.00757259, -0.0102121, -0.0147554, 0.00585584, 0.0272413, 0.0012848, 0.0369892, -0.00134675},
	{0.0155278, -0.0333378, 0.02514, -0.0135975, 0.01758, -0.00361347, 0.0344713, -0.0196631, 0.0094984, 0.0035683, 0.00659235, -0.0226453, -0.0135557, -0.0386275, 0.0119882, 0.018587, 0.0242449, 0.00582974, 0.0174543, 0.000859174, -0.00980279, 0.0337445, -0.0245786, 0.00817483, -0.014869},
	{0.0205988, -0.0298803, 0.0277705, -0.0333501, -0.0117013, -0.000398722, 0.0286135, -0.00389481, 0.0325088, 0.0338407, -0.0316203, -0.000320308, -0.0283496, -0.032328, -0.00818957, -0.0320902, 0.0341929, 0.00240535, 0.0322904, -0.00114899, -0.0096622, -0.00802713, 0.0200832, -0.0167722, 0.0190305},
	{-0.0351049, 0.0127023, 0.0361723, 0.00134143, -0.00529775, -1.71302e-05, 0.0196134, 0.0073023, -0.00401959, -0.00707002, 0.0236522, -0.0133604, -0.0230462, 0.0187837, -0.0109185, -0.0296251, -0.0355904, 0.00621346, 0.0185189, -0.0255057, 0.0349987, -0.029971, -0.0394494, 0.0372324, 0.00386314},
	{0.0153192, 0.00524613, 0.0262909, -0.0137924, 0.0107018, 0.0385596, -0.0139145, -0.0317017, 0.0135035, 0.00942782, 0.0230234, -0.019731, -0.00365701, 0.0210946, -0.0246074, 0.00273784, 0.0150883, -0.00445041, 0.00313904, -0.00142842, 0.00344443, -0.0175891, -0.000565189, 0.00434935, 0.00153316},
	{-0.0110138, -0.0206088, -0.006166, 0.0357537, 0.0265183, -0.036983, 0.0342498, 0.0362323, 0.0275086, 0.013514, 0.00704611, 0.0290669, -0.0283416, 0.0186907, -0.00727332, -0.0238009, -0.018145, 0.00855682, -0.0232776, -0.0259717, -0.00566585, -0.00829137, -0.0223233, 0.00404595, -0.00812447},
	{0.0298919, -0.0231048, -0.0233627, -0.0128921, 0.000801059, -0.0357448, 0.0027259, -0.0215351, 0.0217272, -0.0338811, -0.0216707, -0.0278394, -0.0173975, -0.00465491, -0.00411271, 0.00590046, 0.0258278, -0.0178482, -0.0259413, 0.0210706, 0.0197545, 0.0191386, -0.0240064, -0.0163429, 0.0255775},
	{-0.0118962, -0.0147472, 0.0316827, 0.013282, 0.0349251, -0.0126521, 0.00248027, -0.00482266, -0.0302107, -0.00288715, -0.0197431, -0.0305615, -0.00523208, -0.0126308, 0.00335938, -0.0338378, 0.0312976, -0.00391654, -0.0277338, -0.0152458, 0.00805681, -0.019389, 0.0289063, 0.00296107, 0.0294902},
	{-0.0403599, -0.0371322, 0.00327935, -0.011773, -0.0244962, 0.0285084, 0.0187013, -0.000594627, 0.0255828, 0.0284404, -0.00882362, 0.0103107, -0.0110656, -0.00480527, -0.0101092, 0.0406325, -0.0107144, 0.022197, 8.20994e-05, 0.0291413, -0.000771525, -0.0294332, 0.0122488, -0.0182063, -0.0117925},
	{0.0176881, 0.00455365, -0.012959, 0.0174708, 0.00219889, 0.0343463, -0.00776797, 0.00914748, -0.00577157, 0.0109731, 0.0168266, 0.00816763, 0.0122281, 0.02973, 0.0060066, 0.00026639, -0.0355468, -0.0073188, -0.00824245, -0.0197659, 0.0287034, -0.0268955, 0.0134335, 0.0341664, -0.00212993},
	{-0.0378391, 0.0150681, -0.0215353, 0.0133435, -0.0175824, 0.0292297, 0.0439679, 0.00548016, 0.0239458, 0.0363949, 0.0414028, -0.0131429, 0.000449184, -0.0114925, 0.00481258, 0.0327834, -0.0133436, 0.027761, -0.022548, 0.0141618, 0.00737988, -0.0245619, -0.0329119, -0.0211174, 0.0286644},
	{0.032373, 0.0181635, -0.0228361, -0.0374952, -0.036806, 0.0165921, -0.0112523, -0.0320583, 0.0190213, -0.0434408, -0.0311865, -0.0551621, -0.00837358, 0.0301752, -0.0435565, -0.00198555, 0.0108416, -0.0361845, -0.0198379, -0.016627, -0.0405806, -0.0467826, 0.0174198, -0.0302596, -0.0321217},
	{-0.0098238, -0.0128149, -0.0311804, -0.0162648, -0.0310545, 0.0130714, -0.00354783, -0.000768722, 0.0101974, -0.0237034, -0.0225854, 0.0130433, -0.0182905, -0.00436373, 0.0300983, 0.00232337, -9.04193e-05, -0.0307803, -0.0250397, 0.00491579, 0.030019, -0.00291407, 0.0287183, 0.00246115, 0.0288032},
	{-0.0176023, 0.00882736, 0.0225154, 0.0361679, 0.0139557, 0.0321386, 0.0132194, 0.0104941, 0.00547259, 0.0169029, 0.0374801, -0.00145621, 0.032584, 0.0388337, 0.00179878, 0.0257151, -0.0437108, -0.0198067, -0.0127847, -0.00605369, -0.00985722, -0.0158505, -0.00446827, -0.00816422, 0.0333567},
	{-0.00657087, -0.0242625, 0.0272373, -0.00336996, -0.0122861, -0.0625959, -0.0105418, 0.00459028, 0.02144, 0.0137919, 0.0184697, -0.015932, 0.00059469, -0.0295211, 0.00239391, -0.0374871, 0.0173442, 0.00614084, 0.0113198, -0.00961891, -0.0119268, 0.0119228, -0.0227115, 0.0352071, -0.030711},
	{-0.0241606, 0.00823851, 0.043275, -0.0248922, 0.0203293, -0.0312446, 0.00786615, 0.0377574, -0.0237567, 0.00936348, -0.0201505, 0.02274, 0.0273357, -0.0135497, -0.0209334, 0.0116248, 0.00836094, 0.0287321, 0.0284081, 0.0106355, 0.00509118, -0.0129321, -0.022414, -0.0184609, 0.0312031},
	{-0.000775358, -0.00460126, 0.00526334, 0.0157413, 0.00839189, -0.0165988, 0.0208831, 0.0299748, 0.000612816, 0.0124182, -0.00616407, -0.0247994, 0.0114395, -0.019426, 0.00273281, -0.0101024, 0.0236519, -0.028995, 0.0304219, -0.0357312, -0.0224549, -0.0213131, -0.0187603, 0.00160609, 0.0283974},
	{-0.0270122, 0.00259581, -0.0108824, -0.000365551, -0.0278321, -0.00295241, -0.0323619, -0.00464333, 0.025861, -0.00725576, 0.013271, -0.000164158, -0.0200579, -0.027837, -0.0122361, -0.00590312, -0.017788, -0.0150131, 0.0357761, 0.00310771, -0.027963, -0.0207482, 0.00856458, 0.0271476, 0.00480587},
	{0.0328741, 0.0297383, -0.0120896, -0.00709597, -0.00834255, 0.00416832, 0.0274075, -0.0209907, 0.0259339, 0.0161545, -0.0343176, -0.00652815, -0.0125831, 0.0177992, -0.0254193, -0.0244329, -0.00236512, 0.02584, 3.17549e-05, -0.0158626, -0.0312016, -0.013391, 0.0221933, -0.0337763, -0.0117745},
	{0.00970376, 0.0282891, -0.0166016, -0.0290158, 0.00541952, -0.00650441, 0.00486419, 0.0264121, 0.0312273, 0.0115125, -0.0301044, -0.0148033, 0.0157069, -0.0257012, -0.0112892, -0.00850722, -0.0145727, -0.0301496, 0.00239193, -0.0146416, 0.0149082, -0.00898629, 0.0143782, -0.0011475, 0.0215338},
	{0.0174298, -0.0164355, -0.0285767, 0.00951914, -0.00768795, -0.020373, -0.00498377, -0.000646651, -0.00575413, -0.00926422, -0.0112815, -0.028053, -0.0151162, -0.00974126, -0.0140222, -0.00974487, 0.0176668, 0.0112716, 0.0147613, 0.0263811, -0.0243478, -0.000782872, 0.0178399, 0.0112714, 0.0427225},
	{0.007672, -0.0068763, 0.00149533, -0.0118643, 0.0308592, -0.0323289, 0.00312796, -0.0133362, 0.0215935, -0.0183173, 0.022508, 0.00186537, -0.0273206, -0.0474284, -0.0145037, -0.00499167, 0.038657, -0.0276571, 0.0120611, -0.000641024, -0.0262437, -0.026149, 0.00779683, -0.0221048, -0.00708127},
	{-0.0408025, -0.0280824, -0.0128317, 0.00886625, 0.0275361, 0.0320337, 0.00241237, -0.012727, -0.0335916, 0.0193413, 0.0287396, -0.0314294, 0.0377431, -0.000375219, 0.001763, 0.00677117, -0.0486003, 0.00174116, 0.0134014, -0.0147824, 0.0330479, 0.0277804, 0.030176, -0.0112513, -0.00671664},
	{0.0203824, 0.0270544, 0.0156152, -0.00307029, 0.0116761, 0.0184856, -0.0113281, -0.0105369, 0.0237364, 0.0339529, 0.0138836, 0.0331668, -0.00868755, 0.0649579, -0.0137427, 0.0443486, -0.0487807, 0.0306519, -0.00274735, -0.0185744, 0.0321272, 0.0324862, 0.00897509, -0.0110054, -0.0189575},
	{-0.0256104, 0.0062192, 0.0265402, -0.0250746, 0.000698399, -0.0255356, 0.0147631, -0.0198183, -0.0190261, 0.000337607, 0.00636032, 0.0308551, 0.00366945, 0.0262616, -0.0145818, 0.0323273, -0.0466173, 0.0343386, 0.0238213, -0.00196575, 0.0338201, -0.0181906, 0.0210114, -0.0161375, 0.0177056},
	{0.00748805, 0.0179445, -0.0335782, -0.0252781, -0.0256169, -0.00140443, 0.0278267, -0.0431443, 0.0389334, 0.000336094, -0.0161037, -0.00289307, -0.0206384, 0.00533153, -0.0433664, -0.0111117, -0.010035, -0.0368864, -0.00173197, 0.0409877, 0.0135796, -0.0165178, 0.0553032, -0.0239161, 0.0410924},
	{-0.0230889, -0.0185079, 0.00199663, -0.014027, 0.000673676, 0.00812288, -0.011992, -0.0324557, 0.0199454, 0.0170369, -0.0333115, -0.0137376, 0.0229488, -0.0192444, -0.0248128, -0.000315717, -0.020989, 0.00144105, 0.0236415, -0.00988467, -0.0117729, 0.0243145, 0.0260492, 0.015898, -0.0271746},
	{-0.0146727, -0.00288435, -0.00898687, 0.0349939, -0.0162135, -0.00851287, -0.01588, 0.000523311, 0.00146554, 0.0102536, -0.00524905, 0.0159591, -0.0294196, 0.0196346, 0.0271763, -0.0203742, -0.00473885, 0.0168256, 0.0323195, -0.00255904, 0.0029523, 0.0378945, 0.00297569, 0.00344306, -0.00874544},
	{0.0198592, 0.0217888, 0.0257929, -0.0233493, -0.0234944, -0.0414285, 0.013465, 0.000771527, -0.0102422, 0.021564, 0.0362038, 0.0103895, 0.0281201, -0.0134217, -0.0268858, -0.0346162, 0.0586885, 0.0252755, 0.0141605, 0.0117792, 0.0239182, 0.0324111, 0.00236566, 0.0197781, -0.00933906},
	{-0.0193531, -0.00563009, -0.0123676, 0.0232322, -0.0108846, 0.00853857, 0.00427284, 0.0183742, 0.02429, 0.0219012, -0.000375334, 0.0350602, -0.0125539, -0.0224125, 0.0279547, -0.0115416, -0.0108063, -0.0183088, 0.034689, 0.0182646, 0.0293739, 0.00370652, 0.0026978, -0.00871322, -0.00743223},
	{0.00709308, 0.0339769, -0.0291198, -0.031322, -0.0259677, -0.0200048, 0.021322, -0.00695928, -0.0238888, 0.0116799, -0.0249287, -0.0321099, 0.0312825, 0.00139748, -0.00589545, -0.0200385, -0.0258196, 0.0237538, -0.00894323, -0.00338373, 0.0213289, -0.0274602, -0.0265102, 0.0176944, -0.0253368},
	{-0.026105, -0.0204992, 0.0315179, 0.0333926, 0.0317851, -0.0170643, -0.0123913, 0.00787705, 0.0162119, 0.0217905, -0.0184264, -0.00184739, -0.00483173, 0.01849, 0.0198678, 0.0161712, -0.0158399, -0.00222638, 0.00976013, -0.0307072, -0.0301541, -0.00717179, 0.0161239, -0.0224209, -0.00819723},
	{-0.0234056, -0.0238366, 0.0263941, -0.0161653, 0.0308326, 0.010027, -0.0188192, -0.0299624, 0.00399599, -0.0222677, -0.00650589, 0.010589, 0.0129779, -0.0115736, 0.0106044, -0.0153842, -0.0400693, -0.0121076, -0.00230619, 0.00998887, 0.0194494, -0.032733, 0.0227444, 0.0308885, -0.0133888},
	{-0.016362, 0.00831358, -0.0249323, 0.00395716, 0.0286357, -0.01003, -0.0245363, -0.0204286, 0.0127417, -0.0217439, 0.00787887, 0.0170261, -0.000940138, 0.0246873, 0.00250686, 0.0221659, 0.00552352, -0.0159429, 0.00875234, 0.0194254, -0.0109012, -0.0272429, 0.0144243, 0.0147464, -0.00897369},
	{0.0230497, -0.00487414, 0.00378261, 0.0105265, 0.0304114, -0.0471501, 0.0112814, -0.0173642, -0.0247279, -0.0298479, 0.0308651, -0.0297134, -0.0231759, -0.00554556, -0.0313242, -0.00595274, 0.0202795, 0.00759448, -0.00849361, 0.0181255, 0.0105025, 0.0291853, -0.00844435, 0.0242564, 0.0279954},
	{0.0109568, 0.00540823, 0.0109857, 0.0206227, -0.00592487, -0.0199945, -0.0256324, 0.0158624, 0.0149723, -0.0127575, 0.0069991, -0.00998512, 0.00881325, -0.0335082, 0.00369349, 0.0225813, 0.0223482, -0.003878, 0.00368674, 0.0183719, 0.00175715, 0.00365996, 0.0039943, -0.00270719, 0.0267536},
	{0.00849577, 0.00794555, 0.00631322, 0.00470429, 0.0232951, -0.0319651, -0.0203134, -0.0113914, -0.0144911, 0.0358468, 0.0226596, 0.0162559, 0.0342894, -0.0290265, 0.00755393, -0.0255109, -0.0394351, -0.0111599, -0.0251589, 0.0218295, 0.0214589, -0.0275399, -0.0189746, 0.00923576, 0.0363486},
	{-0.0313736, 0.0155849, 0.0216199, -0.0157485, 0.000366082, 0.0139653, 0.0348886, 0.0352291, 0.00640782, -0.00456283, 0.0364793, 0.000292714, 0.01364, 0.00368447, -0.000156705, 0.00995364, -0.0242631, -0.0196029, 0.00220587, 0.0285107, 0.0100122, -0.0333144, 0.0276949, 0.0224296, 0.0219885},
	{-0.00536437, -0.0213399, -0.00473891, -0.0123308, 0.0164111, -0.0231619, -0.00553821, 0.0186776, -0.0116436, 0.0355294, 0.00065512, -0.0290325, 0.00413713, -0.0139847, -0.0202314, 0.0214198, -0.0246043, -0.00527579, 0.0150348, 0.0220761, 0.00594402, -0.0168295, 0.00526763, -0.00288891, 0.0094094},
	{0.0172887, 0.0193222, -0.0604121, 0.00331841, -0.0373445, 0.017291, 0.0173832, -0.0374249, 0.0178816, -0.0281113, -0.00967933, -0.0455616, -0.0400314, 0.0225357, -0.0255391, 0.0204868, 0.000755424, 0.00740998, -0.0139524, 0.0305727, -0.0308539, -0.0190466, 0.0597648, 0.000772712, 0.0310009},
	{0.0103262, -0.00641251, 0.0287842, -0.0263933, 0.00234639, -0.0276025, 0.0200294, -0.0376465, 0.0128441, 0.0194024, 0.00882839, -0.0317122, -0.023911, -0.00718071, -0.0129836, -0.0341865, 0.028163, -0.02102, -0.0102291, 0.0102909, -0.0308209, 0.00716881, 0.00343001, 0.0275289, -0.0134732},
	{0.0235929, -0.0219592, -0.0173771, 0.0271591, -0.02424, -0.0211898, -0.0116864, 0.0090637, -0.0167552, 0.0170558, -0.000861215, -0.0264802, -0.0286231, -0.0252327, 0.00511835, -0.0353818, -0.00359897, 0.0372471, -0.0270966, 0.0290287, -0.0206806, -0.0286797, 0.0356321, -0.00246877, 0.0286563},
	{0.0224623, 0.0283924, 0.0141863, -0.0193103, -0.0279475, -0.0335481, -0.0460793, 0.0518004, -0.0184075, 0.0225267, 0.0315898, 0.0194762, 0.0200342, -0.0566639, -0.0328748, -0.0243402, 0.0770719, -0.0267191, -0.0233663, 0.00668662, -0.0304954, -0.0137396, 0.00236943, -0.00879828, -0.0175642},
	{-0.019535, 0.0200012, -0.0196561, 0.0147594, -0.0191169, -0.00504166, 0.0207842, -0.0145868, 0.00501865, 0.0132834, 0.0136026, -0.0105129, -0.00220852, -0.0107272, -0.0192704, 0.0154557, 0.029236, 0.0320581, -0.0053788, 0.0217599, 0.0149273, 0.00431092, -0.0390433, 0.0152146, 0.0226205},
	{0.0332258, 0.0179588, 0.0218155, 0.0221795, -0.0209839, 0.0517726, 0.0335699, -0.00424647, -0.029591, -0.0169273, -0.00239056, -0.00953149, -0.0230882, 0.0504156, 0.0315361, 0.0192818, -0.0528781, -0.0149495, -0.00810762, -0.0040734, 0.0296082, 0.0172575, 0.0223855, 0.0202125, 0.0222001},
	{-0.0136909, -0.0136648, -0.00410233, 0.033645, 0.0277407, -0.00443033, 0.0058663, -0.00174694, -0.0188384, -0.0226798, 0.00805831, 0.0351913, -0.0230036, 0.0406978, -0.0298041, -0.0316017, 0.0134722, 0.0311468, 0.00470464, -0.0369788, 0.0165591, 0.0158029, -0.041933, 0.00879398, -0.0294301},
	{0.00797819, -0.0151998, -0.0147696, 0.000719683, -0.00550199, 0.0142326, 0.0144099, -0.0118134, 0.0145557, 0.0263617, -0.00755376, -0.0221901, 0.00887097, 0.00389963, 0.0268833, -0.0160027, -0.0216478, -0.0064893, -0.0322311, 0.0177165, 0.023559, -0.0239254, -0.013579, -0.015199, -0.00368992},
	{-0.0216331, -0.0123107, -0.0142308, 0.0233185, -0.00264296, -0.0333624, 0.013284, 0.0122154, -0.0273031, 0.026058, 0.00109497, 0.0193975, 0.0109252, 0.0248161, 0.0130162, -0.0111525, -0.0157573, -0.00518769, -0.0211148, -0.0262974, 0.00434368, -0.0126811, -0.0156384, 0.0243854, 0.0290216},
	{0.0334033, 0.0132453, -0.0070713, 0.00982501, 0.033218, -0.0635668, -0.00962229, -0.0253171, -0.0107493, -0.00224527, 0.0119197, -0.0230474, -0.0234187, -0.0173419, -0.0300851, -0.0323205, 0.045372, 0.0159576, -0.037041, 0.0286721, 0.00145245, 0.00820668, 0.0106472, -8.85604e-05, 0.00988056},
	{0.0233524, -0.00983264, -0.00527204, -0.00543851, -0.0117253, -0.020076, -0.0199601, -0.017251, 0.0161216, 0.0264877, 0.000549568, -0.0274814, -0.0175234, 0.0150006, -0.0130452, -0.0366519, 0.0220957, 0.0341957, 0.0224198, 0.000374687, 0.010945, -0.0172084, 0.0424925, 0.00123088, -0.0208728},
	{0.00199962, 0.0175524, 0.000942303, 0.02009, 0.00639564, -0.00193886, 0.0359806, -0.0215765, -0.0273451, -0.0131399, -0.0047986, -0.020392, -0.0257854, -0.0313842, 0.0199782, -0.0107704, -0.00165073, 0.0186665, 0.0344882, -0.00912852, -0.0186921, 0.0246788, -0.0177417, 0.00221401, -0.0234591},
	{-0.0285405, -0.0317464, 0.0362436, -0.0331122, 0.0220022, 0.0125051, -0.0109011, 0.0173504, 0.000134954, 0.024417, -0.0254784, -0.000316338, 0.0189359, 0.0532654, 0.0174404, 0.0604288, -0.0385989, 0.0316297, 0.0220298, 0.00445145, -0.0182333, 0.0239812, 0.0240098, -0.0231159, -0.0193408},
	{-0.00156525, 0.0187463, -0.00502097, -0.016457, -0.00249728, -0.0370282, 0.00959615, 0.0224405, -0.000984433, 0.0198144, 0.031329, 0.0312375, -0.00145593, -0.0534959, -0.0118043, -0.0352088, -0.00644506, -0.00379392, -0.0155035, -0.0074746, -0.0301895, 0.00240939, 0.0121998, -0.00933563, -0.0242448},
	{-0.0291752, -0.0045143, 0.00372464, 0.0162197, -0.0211546, -0.0215494, 0.057433, 0.00137507, -0.0225421, 0.0483327, 0.00544495, -0.0380234, -0.00871738, -0.0143679, -0.0269435, 0.0306323, -0.0251132, -0.0235241, 0.0445429, 0.0602096, -0.00512641, -0.00540171, 0.0241124, 0.0334857, 0.0699576},
	{-0.00856255, 0.0207048, 0.019959, 0.0256706, 0.0189389, -0.0491643, 0.0324242, -0.00365096, 0.00703301, -0.0350077, -0.0172577, -0.0279829, -0.0147659, -0.0636432, -0.00673834, -0.0260893, 0.0412359, 0.0251368, 0.00936088, -0.00182177, -0.0255578, -0.0167756, -0.022177, 0.0142295, -0.0163468},
