float weightIH[883][25] = {
	{-0.00525477, 0.0187262, -0.027701, -0.0516613, -0.0822726, -0.0644174, 0.0641336, -0.0331228, -0.0232259, -0.0310579, -0.025323, -0.0690039, -0.0310767, 0.0444107, 0.00752872, -0.062974, 0.00197728, 0.0258971, -0.0291831, 0.0329127, -0.0158187, 0.0559693, -0.0513304, -0.0256956, 0.0757201},
	{0.0325384, -0.0135931, -0.0317945, -0.018702, 0.0244095, 0.033076, -0.0306788, 0.0254904, 0.00997123, -0.0333078, -0.00983669, 0.00773861, 0.0184236, -0.00140493, 0.0413345, -0.0117003, -0.0161037, 0.011877, 0.0170184, 0.0159269, -0.0281018, 0.00669781, -0.00305063, -0.0310837, -0.00874142},
	{0.0490907, 0.0292734, 0.00280657, 0.016685, 0.00771568, -0.00592505, 0.0246893, 0.000432819, 0.0283795, 0.00861502, -0.00171737, 0.0360275, 0.00914416, -0.00022673, -0.000156873, 0.0154479, -0.0440022, -0.0163446, -0.0142517, 0.00668323, -0.0508777, -0.00994694, -0.0251947, -0.0560481, -0.0270011},
	{0.0176985, -0.0111544, -0.0185969, -0.00592786, 0.00396053, 0.00561469, -0.0377742, 0.0242728, -0.00466828, -0.00998102, 0.0321622, -0.00901642, -0.00673528, -0.035578, -0.0263078, 0.0278851, 0.000190291, 0.00182573, 0.0233867, -0.0200319, 0.0196615, -0.0146611, 0.0109566, 0.0142383, -0.0205864},
	{0.0282176, -0.00311839, 0.0161688, 0.0354987, 0.0230736, 0.026895, -0.0136876, 0.0369565, 0.00111005, 0.0251229, -0.0197097, 0.047261, 0.0182982, 0.0183089, 0.042766, 0.00720005, 0.00526947, -0.0160131, -0.0234451, -0.0144817, 0.0220736, -0.0143273, 0.010929, -0.0278192, -0.0345318},
	{-0.0126168, 0.00212504, -0.00636753, 0.0068712, 0.0165358, 0.014653, 0.0291153, 0.00817879, -0.00546174, 0.00534294, 0.0303739, 0.00445693, -0.00914596, 0.0161074, -0.0252323, 0.0213036, -0.00178201, 0.0167886, 0.00135106, -0.0249916, 0.0139159, 0.0411021, 0.0183117, 0.0403966, -0.0185983},
	{0.0189723, 0.0153674, -0.000427421, -0.032348, 0.0234968, 0.00658683, 0.0115996, 0.0175902, 0.00856707, 0.0264324, -0.0126621, -0.0157291, 0.011405, -0.00359346, -0.0188183, 0.0141436, -0.00222187, 0.00789961, -0.0129519, 0.0167907, 0.0326804, -0.0187283, -0.010722, -0.0169344, -0.0148053},
	{-0.0446074, 0.00792248, -0.0311086, -0.0299486, -0.0375983, 0.0119529, 0.0208669, -0.0206054, -0.0105284, -0.0222063, 0.000744139, -0.0346325, -0.0325286, 0.0206261, -0.0460349, -0.0430603, 0.0128538, 0.0344347, 8.28545e-05, -0.00694481, 0.00105161, 0.00360427, 0.0295307, 0.0585014, 0.0489018},
	{-0.03646, -0.0213565, -0.0263813, -0.0239059, -0.0225733, -0.00984153, -0.0198853, -0.0356222, -0.023495, 0.00715001, 0.0226119, 0.0199192, 0.00212926, -0.0054156, 0.0129673, 0.0134717, 0.0249849, -0.0150551, -0.0202295, -0.0035011, 0.0244706, 0.00623698, -0.0222909, 0.0257916, 0.00198178},
	{-0.022314, 9.27857e-05, 0.00377692, -0.001124, -0.0141973, 0.00205408, 0.00114961, -0.0347957, -0.0129204, 0.00388648, -0.000609981, -0.00221598, -0.0345981, -0.0372158, -0.0180905, 0.00613057, 0.0213544, -0.012889, -0.00102828, -0.0115433, 0.0147212, -0.0028736, 0.0235276, 0.00925112, -0.0217543},
	{-0.0324924, -0.0191706, 0.0334795, 0.0224838, 1.63579e-05, -0.00515017, 0.0169972, -0.0226842, 0.00581882, -0.0215476, 0.00592116, -0.0143502, -0.0106109, -0.0185335, -0.00444882, -0.00280685, 0.0278319, 0.0139704, 0.00775642, 0.00853757, -8.74053e-05, -0.016403, -0.0235806, 0.027728, -0.00561114},
	{-0.0128821, 0.028066, -0.0211078, -0.0289185, -0.0219552, -0.018779, 0.030143, -0.00759698, -0.0156454, -0.025404, -0.000180413, -0.0278215, 0.015587, 0.00422492, 0.0140767, -0.0183961, 0.0132089, 0.0320567, 0.0132237, 0.0328062, 0.031286, -0.0192665, 0.0157287, -0.0133786, -0.00671142},
	{-0.0335566, 0.0136511, -0.0158042, -0.0199002, -0.0299856, 0.0111411, -0.0189737, 0.0311193, 0.0271244, 0.02826, -0.0145736, 0.0119647, -0.0158082, -0.0173881, -0.00378357, -0.00771865, 0.0161805, 0.0101906, 0.015727, 0.0256299, -0.00469776, -0.025706, 0.00326287, 0.029201, -0.00982355},
	{-0.0263078, -0.0135041, -0.0315562, 0.0143151, -0.00163539, -0.0106457, -0.011112, 0.012673, 0.00689659, -0.0393828, -0.0142277, 0.0155707, -0.0158152, -0.0124918, -0.0164809, 0.0136564, -0.0383492, -0.00687874, 0.0318284, 0.0333981, 0.0265469, 0.0340961, -0.0224172, -0.00680732, 0.00710067},
	{0.0508474, 0.0416816, -0.0566196, -0.0065971, -0.0452623, -0.0273668, 0.0653403, -0.0160107, -0.0319813, 0.00980098, -0.0204729, -0.0557988, -0.0620631, 0.0420373, 0.014292, -0.0714858, 0.00409131, 0.0229199, -0.0293462, 0.00847423, -0.0695408, 0.0507344, -0.0496703, -0.0230498, 0.0605598},
	{0.0280826, -0.00828685, 0.000459095, -0.0380283, -0.0135223, 0.00759078, 0.0298181, -0.0233601, 0.0219694, 0.0230883, -0.0302817, 0.0231133, 0.0334705, 0.0208366, -0.0292264, -0.0132564, -0.00954973, 0.0322724, 0.0226769, 0.0341938, -0.00435615, -0.0177089, -0.030437, 0.0312662, -0.0314432},
	{0.0128683, 0.0325466, 0.0213786, 0.0179862, 0.0414315, -0.00546794, -0.00663986, 0.0130315, -0.00706589, -0.00859904, 0.0340763, 0.0423331, 0.0179881, 0.0154007, -0.00450772, 0.0512846, -0.0251687, 0.0176439, 0.0293961, -0.0142699, 0.0104968, 0.0207986, -0.0316152, -0.0255997, -0.0331004},
	{0.0370972, -0.0188285, 0.0176342, 0.0368891, -0.0216891, 0.0196036, 0.00165569, -0.0179449, 0.0324325, -0.0171581, -0.0328559, 0.0240241, -0.0116488, -0.0117072, -0.0181646, 0.0267861, 0.0192882, 0.00869683, 0.031279, -0.00305483, 0.0312077, 0.0239339, 0.0220534, -0.00512825, -0.00664968},
	{0.00631247, 0.0281695, 0.0180731, 0.00898671, -0.0199679, 0.0275875, 0.0128647, 0.000321469, 0.008039, -0.0133223, -0.000450807, 0.0383361, 0.000250891, -0.0227131, 0.0330784, -0.0175419, 0.010655, 0.0156239, -0.00752515, 0.02601, 0.0188721, -0.0241326, 0.00612353, -0.0472225, 0.00927842},
	{-0.0301194, 0.0303401, -0.0279259, -0.00606073, -0.0370335, -0.0322744, 0.00337536, 0.0256264, 0.019274, -0.00874576, -0.0304242, -0.00396525, -0.00391366, 0.0258505, 0.0113203, 0.0127696, -0.00377985, 0.0100759, -0.0175134, -0.0358524, -0.000166674, 0.0307674, 0.00953773, 0.0262295, -0.00590158},
	{-0.0111963, -0.0324472, -0.030738, -0.000978815, -0.0248865, 0.0172212, -0.00337224, -0.0381296, 0.00078039, 0.023678, -0.0159104, -0.00894156, 0.0114405, 0.00851138, -0.0179997, -0.00200051, -0.0174634, 0.00359036, -0.0176696, -0.020687, 0.0306264, -0.0235275, -0.0201251, 0.00890656, 0.0286569},
	{-0.0587579, -0.017632, 0.00615435, -0.023324, -0.0362768, -0.00714582, 0.0346171, -0.0046764, 0.00715131, -0.00985347, -0.0257414, -0.00648424, 0.00310715, 0.00845422, -0.0248759, -0.0421935, -0.00730846, 0.000863725, 0.00289404, -0.00694784, 0.00980105, -0.00375647, 0.0178358, 0.0242806, -0.00341928},
	{0.0070414, -0.0230677, 0.0189549, 0.00835413, -0.0320631, -0.0234622, -0.00708559, -0.00137725, 0.0294843, -0.00219319, -0.0104563, 0.020457, -0.0221201, -0.0196018, -0.00203504, -0.024624, 0.0174848, 0.0314295, -0.0295065, 0.011459, 0.0242834, 0.0298997, -0.0250444, -0.00886823, -0.0097805},
	{-0.026948, -0.0283933, -0.0161207, -0.025117, -0.00538344, -0.0323054, -0.0200014, 0.0010413, 0.0277269, -0.0166085, 0.0243448, -0.00675634, -0.0344193, 0.0247061, -0.00403393, -0.000978825, -0.0214044, -1.93432e-05, 0.0279387, -0.0274812, 0.0100868, -0.0127807, 0.0303065, 0.0490694, 0.0215904},
	{0.0244963, 0.0286715, -0.0330814, -0.022117, 0.00680055, 0.020058, 0.0332489, 0.027374, 0.0111926, -0.000538411, -0.00749911, 0.0198806, 0.0263253, -0.027517, -0.0245472, -0.0202587, 0.00727752, 0.0180791, -0.0132498, -0.0156311, 0.0112664, -0.0102889, -0.0297125, 0.0238768, -0.00402633},
	{0.00491825, 0.0208737, -0.032805, -0.0351487, 0.0136856, -0.0164752, -0.0248918, -0.0297645, 0.0235913, 0.0107982, 0.018638, 0.0067192, -0.00100779, 0.00269481, -0.0180204, 0.0199174, 1.1989e-05, -0.0298508, -0.0116318, -0.0298756, 0.0155147, 0.00751621, 0.00470417, 0.00514956, 0.00151472},
	{-0.00163107, 0.0173018, -0.000315738, -0.0183061, 0.00381461, 0.0266069, -0.00399286, 0.0275684, -0.00195451, 0.00314367, 0.012066, -0.0129647, -0.0284791, -0.0126216, -0.0272622, 0.013761, -0.0254141, 0.0172739, -0.0150837, -0.0239566, -0.0281977, 0.00922877, -0.0223564, 0.00774053, -0.0311956},
	{-0.0114101, -0.0148847, -0.0236735, -0.0109221, -0.0143867, -0.0254643, -0.0143153, 0.00457534, 0.00550348, -0.00596007, -0.0284827, 0.0354691, 0.0303988, -0.000339618, 0.03501, 0.0322148, -0.0274208, -0.0180326, -0.0318654, 0.0375343, 0.0264426, 0.0152667, -0.0257612, -0.0320814, -0.00268842},
	{0.0478163, 0.0504722, -0.0511619, 0.0373052, -0.0565736, -0.0435977, 0.0225198, -0.00802411, 0.0162341, 0.0306016, 0.0291482, 0.00896507, -0.0626038, 0.043607, -0.0177532, -0.0713674, -0.0266289, -0.0350918, -0.0490135, -0.00468661, -0.0354614, 0.0596989, -0.0691172, -0.0411283, 0.0450664},
	{-0.0322496, 0.0159433, -0.0142721, -0.0265701, 0.0118455, 0.0182458, 0.0062737, -0.0123705, -0.00101971, -0.00955343, -0.0137584, -0.0292377, -0.0314935, -0.00419857, -0.034093, -0.0344964, -0.0147022, -0.00168352, 0.0193108, -0.00260957, -0.0390896, -0.0157834, -0.0117532, 0.0131036, 0.0198794},
	{0.0110603, -0.0292772, -0.00581047, -0.0355226, -0.0135802, 0.0024864, 0.0172455, 0.0115615, -0.00603161, -0.0058994, -0.023876, 0.0102569, -0.02225, -0.00482024, -0.0273792, 0.00822546, -0.0202866, 0.0249455, -0.0214185, 0.00517274, -0.0114075, 0.0245413, -0.0153436, 0.0304932, 0.00182581},
	{0.0191214, 0.0199822, -0.02003, 0.0358243, 0.0288046, -0.00209521, -0.0141072, 0.0369934, 0.0190688, -0.00057964, 0.0116082, 0.0271556, 0.0196606, -0.0216733, -0.0168384, -0.00925866, 0.0188701, 0.0197576, -0.00477225, 0.0123359, -0.00435794, -0.0042381, -0.0229066, -0.0296078, 0.0112728},
	{0.0114085, 0.00865925, 0.0354655, 0.0275853, 0.036547, -0.0263039, -0.0221042, -0.00603646, -0.0155979, -0.0188267, -0.0219561, -0.00900329, -0.0260879, 0.00630445, 0.00617017, 0.00293538, -0.0134587, -0.00963236, -0.0222953, 0.0196312, -0.00395728, -0.0441303, 0.00206844, 0.00944477, -0.00964353},
	{-0.00859675, -0.0180105, 0.0262868, -0.0267161, -0.0345098, -0.0274081, 0.00950169, 0.0109678, 0.00691182, -0.00761891, 0.00419608, 0.0107283, -0.033077, -0.00950357, -0.00603421, 0.0109991, 0.00772942, 0.00892235, 0.0187513, -0.0317185, -0.0222685, 0.00884444, 0.027132, -0.000964488, -0.00329005},
	{-0.0286093, -0.00592274, -0.0100557, -0.0260769, -0.0167929, 0.0181016, -0.0177119, -0.038043, -0.0146922, -0.0192519, -0.0246455, -0.021867, 0.00999415, 0.0103304, 0.0249321, -0.00473423, 0.0193451, -0.0193488, 0.0114873, -0.0227265, 0.015211, -0.00452331, -0.0140698, 0.0304941, -0.0197512},
	{-0.0375385, 0.0159745, -0.0182316, -0.0176246, 0.0128867, 0.00839302, 0.00964463, -0.0319228, -0.024931, 0.00712158, -0.0150502, -0.0338926, 0.00720901, -0.0173752, -0.00161104, -0.0498615, -0.0125699, 0.00785703, -0.00855879, 0.0241452, -0.0121546, 0.01692, -0.0183029, 0.00976032, -0.0189846},
	{-0.0257809, -0.0124582, 0.0261115, -0.0168968, -0.0325179, 0.00176916, -0.013783, -0.00558055, 0.0294484, -0.0125067, 0.0325813, -0.035714, 0.015165, 0.0272645, -0.0207276, -0.00446345, -0.0307299, 0.0139932, 0.0276981, -0.024242, 0.0302797, 0.0102114, 0.0368597, 0.00109999, -0.0065938},
	{-0.00306107, -0.00220368, 0.00881517, -0.00340892, 0.00470842, -0.0200155, 0.00695634, -0.00639785, 0.0164707, -0.0165322, -0.0144944, -0.0315865, -0.0421639, 0.0165229, 0.0103783, -0.0160299, 0.00956486, 0.027748, 0.018945, -0.0130872, 0.0159665, 0.0390655, -0.00891357, 0.0415112, 0.0254883},
	{0.0194057, 0.0204188, 0.0139478, 0.0255711, -0.0254446, -0.0325501, 0.00870991, -0.0166772, -0.0138599, 0.02538, 0.0329245, 0.00232292, -0.0229785, -0.0261347, -0.0159822, -0.000778862, -0.00221848, -0.0275095, -0.0272655, 0.00992623, -0.0173763, 3.57111e-05, 0.026041, 0.0208525, -0.00423777},
	{-0.0331452, -0.00869371, -0.0216148, 0.0242382, -0.0218886, -0.00305843, 0.0293611, -0.00599653, -0.017989, 0.0132925, 0.0139751, 0.0116874, 0.0110981, 0.0253901, -0.0340758, -0.00472747, -0.00633231, -0.0230891, -0.0153571, -0.0296213, 0.0324291, -0.00575182, -0.00110906, 0.0116465, 0.00420189},
	{-0.0213487, 0.0241948, -0.0265913, -0.0204693, -0.0227125, 0.0341049, 0.0188738, 0.00590334, 0.0141969, 0.0226714, -0.0129259, 0.0167232, 0.0106129, -0.0121471, -0.00381968, -0.0106989, -0.0271748, -0.0185556, -0.0275328, -0.00639697, 0.0221186, 9.51444e-05, -0.00567294, -0.00452415, -0.00822873},
	{-0.000345193, -0.0106624, 0.0201419, -0.00320682, -0.00165491, -0.0139841, -0.0340385, 0.0239909, 0.0230656, -0.0249674, 0.0281494, 0.0268624, 0.0354286, 0.0306748, -0.0283816, -0.0111659, -0.017223, 0.0158742, 0.0272602, -0.0256607, -0.0184894, -0.0236637, 0.0147519, -0.0125497, 0.0154619},
	{-0.0270142, 0.0304091, 0.00093218, -0.0337046, -0.0603186, -0.0331898, 0.0655619, -0.0361079, -0.0362848, -0.00144742, -0.00108484, -0.0428755, -0.0460394, 0.00416606, -0.0170241, -0.0721841, -0.0148846, -0.00534784, -0.0134918, -0.0360778, -0.014087, 0.0518212, -0.00220031, 0.0328827, 0.0432947},
	{0.00360998, 0.0411524, -0.0104054, -0.0250481, 0.0161435, 0.00905112, -0.0065458, -0.0312264, 0.0048962, 0.0178958, -0.0190537, -0.0129796, 0.0167212, -0.00747552, -0.00653306, -0.0278804, -0.0202139, -0.0187506, -0.0343266, -0.0220025, 0.00995219, -0.00721559, -0.0280725, 0.0169458, 0.0154063},
	{0.0323499, 0.0350862, 0.0349279, -0.0113787, 0.00251296, 0.0105185, 0.0252094, -0.00167982, 0.00703026, -0.0428873, 0.0187536, -0.0130301, 0.0283241, 0.0266042, 0.0171234, -0.0142048, -0.00799532, 0.0130329, -0.0338351, 0.00432627, -0.0455926, 0.0347365, -0.000967215, 5.10215e-05, 0.022108},
	{0.0101947, 0.00287289, 0.00189207, -0.00749873, 0.0302235, 0.0149328, 0.0193022, 0.0160345, 0.011875, 0.0144542, -0.015126, 0.0167367, 0.032054, -0.0221241, -0.00245817, 0.00284977, 0.0367716, -0.0268876, -0.000909551, -0.0218607, -0.00441075, 0.00661311, 0.0245724, -0.0234839, -0.00989906},
	{-0.0165566, -0.0293605, -0.0217334, -0.00473002, -0.00094463, 0.00268774, -0.00988482, 0.0103746, 0.00383007, -0.00452251, -0.000309015, 0.0285544, -0.0201793, -0.0208017, 0.0338131, -0.0108505, -0.024656, 0.0233935, -0.0170506, -0.0248149, 0.0155519, 0.00257464, 0.0185725, 0.0160588, 0.011024},
	{-0.0317785, -0.0237432, 0.0318392, 0.000336194, -0.0135282, -0.0133438, -0.0326061, 0.0290515, 0.0277096, 0.0338843, 0.0159629, 0.0380904, -0.0140068, -0.0196799, 0.0285869, 0.00861197, 0.0285912, 0.0154073, -0.0150562, -0.0103997, 0.0201111, -0.019885, 0.00787055, -0.0285146, 0.00994684},
	{-0.0169437, -0.0134955, 0.0286222, -0.0388532, 0.0115795, -0.0224145, 0.0059082, 0.0206686, -0.022292, -0.00518432, 0.012261, 0.0206823, -0.00695973, -0.0352323, -0.0104699, 0.0151058, 0.0150608, 0.0237892, -0.0286021, -0.033087, 0.0227442, -0.019954, -0.0141053, -0.0261746, -0.00553972},
	{0.00320182, -0.0216582, 0.013392, -0.00257456, -0.023038, 0.0259969, -0.0144903, -0.00907277, -0.00288937, -0.00112133, -0.00770313, -0.0153314, -0.00291866, 0.0173758, 0.0090278, -0.0450262, 0.0204739, -0.0159351, -0.0297822, 0.0114387, 0.0178089, 0.0483315, 0.0240548, 0.00982929, 0.00507339},
	{0.00158397, 0.00163315, 0.00087653, -0.0150076, 0.00622251, 0.0251135, 0.0308486, -0.0483906, -0.0149707, -0.0289786, 0.0260683, 0.000774868, -0.0263625, -0.0339038, -0.0310763, -0.0182461, 0.0219214, -0.0102578, -0.0278867, 0.024668, 0.0220398, 0.021615, -0.00456042, 0.037384, 0.0184254},
	{-0.0295732, 0.0271778, -0.0384345, 0.0136972, 0.0101693, -0.00917663, -0.00342833, -0.0105638, -0.0313712, 0.0102571, -0.0131815, -0.0210503, -0.0375953, 0.0210587, -0.0217498, -0.0284804, 0.00155275, 0.0336075, -0.0312602, 0.0272602, 0.015639, 0.0174942, 0.0133509, 0.0434741, 0.0426833},
	{0.0262761, -0.0229643, 0.00744188, 0.0138182, 0.0285316, 0.0193591, 0.026389, -0.00292538, -0.00987509, 0.0263022, -0.0171724, 0.0226792, -0.0293486, 0.0178977, -0.012222, -0.00856104, 0.0106146, 0.018644, 0.00114004, -0.00958303, -0.0371283, -0.01757, 0.00302548, -0.000248602, -0.00603365},
	{0.0139908, 0.00973007, -0.0121316, -0.0408755, 0.0105094, 0.022411, -9.90453e-05, -0.0182352, 0.0329457, -0.0298736, 0.0193357, -0.018468, -0.00504836, -0.0253803, 0.00496218, -0.0172488, -0.00968425, 0.0296049, 0.0253982, 0.0181489, -0.0123699, 0.0237367, -0.00855609, 0.0111459, -0.0111815},
	{-0.00964455, -0.0301251, -0.0179575, -0.00131764, -0.0184087, -0.0249502, -0.0309029, 0.0256653, -0.00680698, -0.0179013, 0.0306866, 0.0297795, 0.0207544, -0.0146118, 0.0199514, -0.00420504, -0.0275458, 0.00148176, 0.0159624, -0.0217711, -0.0228955, -0.00892515, -0.0243546, -0.00324159, -0.014259},
	{0.0259828, -0.0132839, -0.0180448, 0.0139498, 0.0316454, 0.0371217, -0.0150621, 0.000443596, -0.0233761, 0.0132851, 0.000669097, -0.012292, 0.0310788, 0.0163696, -0.0235393, 0.0139125, 0.0169126, -0.00840805, 0.0194398, -0.0354928, -0.0239828, -0.0403534, 0.00949059, -0.0285726, 0.0110349},
	{-0.0203236, 0.019331, -0.0421774, 0.00660595, -0.041501, -0.0416848, 0.0493197, 0.0182678, -0.0170878, 0.0443159, -0.0225987, 0.0145264, -0.049995, 0.031874, -0.00083383, -0.0382646, 0.0209501, 0.00920548, 0.00300928, 0.0132772, -0.0334249, 0.0600663, -0.0301336, 0.0232503, 0.0459494},
	{-0.022694, -0.00504423, 0.0144154, 0.00479272, -0.0112786, -0.0358555, -0.0248838, -0.0201643, -0.0168332, 0.0236836, 0.0113585, 0.0153217, -0.0242542, 0.000188996, 0.0187177, 0.00339379, -0.0339467, 0.00783326, -0.00299677, -0.0117362, -0.035776, -0.0143012, -0.0175146, -0.011281, -0.000793767},
	{-0.00913577, -0.0198792, -0.00688683, 0.0162221, 0.0185116, -0.0256208, 0.0396444, 0.00932449, -0.0026984, -0.0355526, 0.0102265, -0.0185787, -0.0202508, 0.0279692, -0.0187522, 0.00856211, -0.0467789, -0.0242806, -0.0022009, 0.0526146, 0.015015, 0.00241665, -0.0299774, 0.0213957, -0.017807},
	{0.02343, -0.0211263, 0.0169008, -0.016125, 0.026762, -0.0234022, -0.0116572, -0.0235605, 0.00112477, -0.013451, 0.023712, -0.0152541, 0.0145747, -0.0280023, 0.00870852, 0.0308995, 0.0166216, 0.02928, 0.0110717, -0.0363022, -0.00024431, 0.0209037, -0.0373026, 0.0125428, -0.00279694},
	{0.0106923, -0.0323758, -0.0194823, -0.0140856, -0.0264639, 0.0285367, 0.0297725, -0.0233007, 0.00988778, -0.0192652, 0.0313821, 0.0259788, 0.000690534, 0.0269587, 0.0223649, -0.0187997, -0.00337609, 0.0344997, 0.027926, 0.0194316, 0.00462656, -0.0269796, 0.00794337, -0.034775, -0.0354578},
	{-0.0330568, -0.00164819, 0.0328645, 0.0168745, 0.0291341, 0.0300971, -0.0154841, 0.0265814, 0.00628261, 0.0155885, 0.0301672, 0.00491891, 0.00233374, -0.00652479, -0.0321395, -0.0217435, -0.0183422, 0.02545, 0.0120902, -0.0143015, -0.00660353, -0.0361184, 0.00564687, -0.0114836, -0.0268118},
	{-0.0180362, -0.0125357, -0.00648276, -0.0123719, 0.0188889, 0.0299595, -0.00157165, -0.0058274, -0.00218037, -0.0252744, 0.0244397, -0.0137113, -0.00774107, 0.0177825, 0.0290785, -0.00696513, -0.0188315, 0.03236, -0.00094418, -0.0121494, -0.0330411, 0.0125059, -0.0172541, -0.00176542, 0.0184923},
	{0.00992429, 0.00680548, 0.0247862, -0.0383917, -0.0218931, 0.00104735, 0.0449452, -0.00804623, 0.00507979, -0.0244277, -0.0023302, -0.0210176, 0.00102913, -0.00346793, 0.0245967, 0.00633505, -0.0282075, 0.0252625, 0.0188075, 0.0166127, -0.0065227, 0.0474193, 0.0204471, -0.00476103, -0.00327835},
	{-0.00904332, 0.00882926, -0.00804105, 0.00898029, -0.0261053, -0.0269191, 0.0225252, -0.0213055, 0.0126384, -0.00876657, 0.0199377, -0.0317179, -0.0160086, 0.0237728, -0.0201246, -0.0299195, -0.0139127, 0.0248934, 0.0318934, 0.025814, 0.00201421, -0.0028927, 0.0199731, -0.0095149, -0.0217854},
	{-0.000535572, -0.00510937, 0.0178373, 0.0120226, -0.0323312, 0.00595445, 0.0149156, -0.044752, -0.0254671, -0.0171822, 0.0203851, 0.00134591, -0.00317679, -0.0194615, -0.0063985, -0.00920452, -0.0123515, -0.0165356, 0.0293124, 0.00939269, 0.00723961, 0.00157385, -0.0114011, 0.0381638, 0.0167666},
	{-0.0294741, -0.0179481, 0.0267883, -0.0178051, 0.0306174, -0.00184907, 0.022379, 0.0289112, 0.0230672, 0.0254514, -0.0267302, 0.00665687, -0.0105188, 0.00513, -0.026269, -0.0143672, -0.000275702, 0.0278632, 0.0252138, -0.0302082, 0.0265898, -0.0143662, 0.0101565, 0.0108852, 0.0266328},
	{0.00101468, 0.0122532, 0.00825936, 0.0208599, 0.0140765, -0.0184564, -0.00171806, -0.00505831, -0.0278283, 0.0130922, 0.025151, -0.0278681, -0.0251808, 0.0133889, 0.0250722, -0.00520574, -0.0126841, 0.0272883, 0.012609, 0.0359141, -0.0274136, 0.0287261, 0.0321182, 1.76499e-05, -0.0155596},
	{-0.0261618, 0.0182671, 0.0204837, -0.0145684, 0.00960084, 0.0148453, 0.00730071, -0.014964, -0.0167567, 0.0112472, -0.00744194, 0.043637, 0.0210178, -0.0149607, 0.00466375, 0.0384497, -0.0172531, 0.00646302, 0.0347136, -0.00543666, 0.0396936, -0.0228883, 0.0277728, 0.0228236, -0.00590157},
	{-0.0110508, -0.00965383, 0.0330815, -0.0170765, 0.0278467, -0.0146985, -0.016745, 0.0143185, 0.0319191, -0.0338402, 0.0130432, -0.0213685, 0.0200497, 0.0225588, 0.0261203, 0.0305177, 0.0200088, -0.00893046, 0.00596926, 0.00907859, 0.0319635, -0.00915152, -0.00441862, -0.0307113, 0.0251793},
	{0.00137358, -0.0146495, -0.0389361, -0.0190186, -0.033191, -0.0299862, 0.0568986, 0.0110816, -0.0243669, -0.000795332, -0.019607, -0.0164157, -0.0611508, 0.00270791, 0.0209041, -0.0625873, -0.0117346, 0.00198073, -0.025107, -0.00904674, -0.0370592, 0.00496762, 0.00611382, 0.0193094, 0.0100695},
	{0.00552174, -0.000129829, -0.022465, 0.0173445, -0.0208643, -0.0285044, -0.0163897, 0.0293798, 0.0247726, 0.00967561, -0.0149895, 0.00162316, 0.0109242, 0.0206994, 0.0322412, 0.0227934, 0.0144882, 0.0247474, -0.00302574, 0.0271857, 0.00543091, 0.0247085, 0.00880819, 0.0224719, 0.000222377},
	{0.0466394, 0.0464608, -0.0259127, 0.0158275, -0.0207872, -0.00870523, 0.0192854, -0.0118874, -0.0209792, -0.0247407, 0.0305368, 0.0134477, -0.0340431, 0.0341618, -0.0111483, 0.0126553, -0.0139224, 0.0235759, -0.00192143, -0.00323008, -0.0430378, 0.0310019, -0.0185915, -0.0549036, 0.0159721},
	{0.0204694, -0.0020049, -0.0136152, -0.0148685, -0.00721834, -0.0185376, -0.0364624, 0.0211857, -0.0130348, -0.00868553, 0.00543437, -0.0104348, 0.0264419, 0.0124118, -0.00713203, 0.0250451, -0.0149339, 0.0087409, 0.0223303, -0.0140498, 0.0155246, 0.0013602, 0.0289382, 0.00593227, -0.0151581},
	{0.0181199, -0.015554, -0.00110459, 0.0242437, -0.00568736, -0.0238617, -0.000405401, 0.0228875, 0.0288695, 0.023181, 0.00521301, -0.0172572, -0.0144293, -0.0143555, -0.00413129, 0.000560565, 0.0380552, -0.0198991, -0.0117323, -0.00473176, 0.00115939, -0.0453527, 0.0178558, -0.0261526, -0.00611086},
	{-0.0385185, -0.0187592, -0.0234214, 0.00521834, 0.00829914, 0.0320354, 0.0211874, 0.0157452, -0.00700169, 0.0227556, -0.0215967, -0.0260243, 0.0103049, -0.0212136, 0.0177334, -0.00902027, 0.0483998, 0.00335267, 0.0155771, -0.0295486, 0.0175868, -0.018793, 0.0044383, 0.028402, 0.0226608},
	{-0.0147975, -0.0153128, -0.00634752, 0.00450972, 0.024969, 0.0234127, -0.0131342, 0.0254375, 0.00397209, 0.0267282, 0.00030861, -0.00392483, 0.0112864, -0.0128035, -0.00984672, 0.017695, -0.0321442, -0.00202938, -0.00301582, -0.00562143, -0.0114812, -0.00800734, -0.0129301, -0.000804982, -0.00202763},
	{-0.0294543, 0.0260077, 0.0236245, -0.0212197, -0.00716873, -0.0185852, -0.00234393, -0.0265596, 0.0170844, 0.0115282, 0.0178662, -0.0452372, -0.00537844, 0.0134297, 0.00463864, 0.0179856, -0.037108, 0.0135147, -0.0192564, 0.046731, -0.0223247, 0.000515828, 0.00123111, 0.0104419, -0.0180787},
	{0.016582, -0.0201773, -0.0096627, 0.00610282, 0.013277, -0.01416, 0.0138794, -0.0317039, -0.0123647, 0.0295812, -0.00840805, -0.00842648, 0.0124359, 0.00676931, 0.0148551, -0.0328428, -0.0119412, 0.001213, 0.0202957, 0.0126904, 0.0267765, 0.0291775, -0.00121994, 0.0001955, 0.0394859},
	{0.00988859, 0.0295215, -5.53624e-06, -0.0305504, -0.0180938, 0.00635622, 0.0273515, -0.0214334, 0.00749518, -0.0413716, 0.0130059, 0.00986895, -0.00220118, 0.0326778, 0.0155977, -0.0377031, -0.0283754, 0.025583, 0.0260958, 0.013938, 0.0145964, -0.000573949, -0.0102413, 0.0221972, 0.000975688},
	{0.0261618, -0.00997347, -0.0245799, 0.0173039, -0.0155316, 0.0082962, 0.000168063, -0.0230836, -0.019874, 0.0251353, -0.0259572, -0.00482385, -0.000480715, -0.0106266, 0.0282214, -0.0262787, 0.014718, -0.00571965, 0.0160849, -0.0339064, 0.0140579, 0.0146577, -0.00625418, 0.0106497, 0.0209057},
	{-0.00703883, 0.0197295, -0.00213984, 0.0178527, 0.00528369, 0.0228236, -0.0199186, -0.00239413, -0.00389644, -0.0359059, 0.0100717, -0.0236135, 0.00819798, -0.0112543, 0.02077, 0.0285976, -0.0103249, -0.0249951, 0.0216028, -0.0040221, 0.00894834, 0.0296226, 0.00278557, -0.00171919, 0.00341305},
	{0.0120918, -0.0209133, 0.00350891, 0.0061652, 0.0295958, 0.0253616, 0.0136447, 0.0091816, -0.0175297, -0.0222893, 0.00529071, 0.0159256, 0.00231339, 0.0287069, 0.0023868, 0.00618418, -0.0210278, 0.00304424, 0.00106395, -0.00677188, 0.0233565, -0.0269232, -0.00396547, -0.00610685, -0.0330473},
	{-0.016839, -0.000414153, -0.030687, 0.0187369, -0.0229356, -0.0218043, -0.00979761, 0.0219497, 0.00757495, 0.027602, -0.0240539, 0.0308771, -0.0141322, -0.0250685, -0.0227543, -0.00570162, 0.0206422, -0.0185927, -0.0136929, 0.0153254, 0.0190471, -0.028198, -0.00112783, 0.0238887, 0.00762365},
	{0.0113407, 0.0342293, 0.0121832, -0.0185743, -0.0107898, -0.00563396, 0.0170574, -0.0339447, -0.035744, -0.00917819, 0.0152797, -0.0368145, -0.0353446, -0.00500968, 0.0177383, -0.0131399, -0.0137227, -0.0228706, 0.00803196, 0.00136097, 0.0127567, 0.0474131, -0.00479698, -0.00160935, 0.0514737},
	{-0.0196044, -0.0025734, -0.022384, -0.000994479, -0.0253637, -0.0111874, -0.0110372, -0.00531809, 0.0195583, -0.0364277, 0.0230133, -0.0127883, 0.00293749, 0.00671883, 0.001116, -0.0103409, -0.0220015, -0.0236628, -0.0257333, -0.00356408, -0.00799659, 0.0279156, 0.00287966, 0.00518979, 0.0101422},
	{0.0345403, 0.0089079, 0.0293987, 0.00841592, 0.0214629, 0.0284918, -0.00698404, 0.00171296, 0.00977484, -0.023065, 0.0257473, 0.0391793, 0.0125016, -0.0205273, 0.0285652, 0.0120086, -0.0129335, 0.00673436, 0.0169324, 0.0393132, 0.026854, 0.0150552, 0.0110683, -0.057814, 0.0151809},
	{-0.0324222, -0.0123759, 0.00294554, -0.016514, 0.0226129, 0.0128791, -0.0156801, -8.52252e-06, 0.00269348, -0.0112174, 0.0176857, 0.0364468, -0.0309492, 0.000241999, -0.0285836, -0.00739342, -0.000849487, 0.0303825, 0.0264914, 0.020503, -0.0332447, -0.0350928, 0.0178292, 0.0224038, -0.00700357},
	{0.0250807, -0.0214115, -0.0282543, -0.0194793, 0.0275911, 0.0229135, 0.00804147, 0.0354709, 0.0263291, 0.00610732, 0.0181368, 0.01494, 0.0142552, -0.0257885, 0.00742144, -0.00611806, 0.0162593, -0.0244292, -0.00431263, 0.0169822, -0.0220902, -0.00431023, -0.0110589, 0.0113121, -0.0181246},
	{-0.00703447, -0.0271795, -0.00688436, -0.00318158, -0.0262633, -0.0126602, -0.0293408, 0.00533925, -0.00954481, -0.00672037, 0.0102285, 0.00866763, -0.0134489, -0.012142, -0.0124084, 0.0138065, 0.0393847, 0.0086543, 0.0366417, -0.0105973, 0.036557, -0.0347166, -0.0047574, 0.0505613, 0.0115791},
	{-0.0393962, -9.70979e-06, 0.025703, 0.0177442, 0.0129768, -0.0239774, 0.0150311, -0.0360896, -0.0250145, 0.0238994, 0.0170988, -0.0149268, -0.0112568, -0.00273361, 0.011895, -0.00151927, -0.0200589, 0.0347911, 0.0287076, -0.0138368, 0.00865685, -0.0222947, -0.0194009, 0.0241726, -0.0285557},
	{0.00717893, -0.0116202, -0.0220478, -0.0239543, 0.011607, -0.0103499, 0.00853348, -0.0200435, -0.0113158, -0.0226023, -0.0212618, -0.0531067, -0.00668909, 0.0214226, -0.0308376, 0.0133152, -0.0115026, 0.00413161, -0.0126088, -0.0114484, 0.0327621, 0.0194708, -0.00895898, -0.00302357, 0.0283351},
	{-0.0335782, 0.0184029, 0.0259247, -0.0248683, -0.00527271, 0.0268053, 0.00731164, -0.00897085, 0.0159994, 0.02266, -0.0117536, -0.0340619, 0.0175615, 0.0109017, 0.0247559, 0.00700216, -0.0102248, 0.0327017, -0.0148074, -0.016275, -0.0210395, 0.0197807, -0.0101632, -0.0198617, 0.0378451},
	{-0.0151486, -0.00306075, -0.0143949, -0.0339982, 0.00869268, -0.0263866, -0.0042533, -0.0308752, 0.0087112, -0.0136201, -0.0187912, -0.0450742, -0.00774962, 0.0146326, 0.0204949, -0.0195416, 0.0159313, -0.00416109, -0.0196329, 0.0302024, 0.0282809, 0.0577547, 0.0046628, 0.0301455, 0.0254762},
	{-0.0230735, -0.00575679, 0.0304236, -0.000388866, -0.0284565, 0.0275077, 0.0306712, -0.00140486, 0.0205659, -0.0207651, 0.0252046, -0.00270427, -0.0105619, -0.0376465, -0.0320275, -0.00723673, -0.0137981, -0.0219521, -0.00198355, -0.00981071, -0.000772632, 0.0180076, -0.00394566, 0.00512288, 0.00907811},
	{-0.0193777, -0.0120168, -0.0237395, -0.0133576, -0.015351, -0.00516383, -0.00623554, -0.0166994, -0.0115207, -0.0313345, -0.0190735, 0.0270584, -0.0239622, -0.0128874, 0.00980097, 0.0185552, 0.00824345, -0.0314226, 0.00281771, -0.0153953, 0.0110477, -0.00465492, 0.0316574, -0.0202861, 0.0217954},
	{-0.00468653, 0.0141277, -0.0103079, 0.0241961, -0.00849013, -0.00270705, -0.0174861, 0.00311116, -0.000718806, 0.00683584, -0.019832, 0.00210084, -0.0177423, 0.0201147, 0.0147791, -0.00957252, 0.00792831, 0.0327668, 0.0168834, -0.00844902, 0.00775772, -0.0239276, -0.0227629, -0.0293148, 0.0159325},
	{-0.0149813, 0.00973639, 0.0263182, -0.0159034, -0.0221861, 0.0195919, -0.0310924, -0.00659175, 0.0337273, 0.0277154, 0.00531019, -0.000195988, 0.0293392, 0.0027473, -0.00846402, 0.00212924, -0.00982422, 0.0170958, 0.0377962, -0.0207681, 0.0372331, -0.0336962, 0.0256822, 0.0317415, -0.0154117},
	{-0.00193087, -0.00189367, -0.0241685, 0.000132858, -0.0141372, 0.00665758, 0.0249584, 0.0101677, -0.0194647, 0.0117546, 0.0264612, -0.0212644, 0.0367073, 0.0191549, 0.019028, -0.00132447, 0.0277741, 0.023198, -0.0345157, -0.0243126, -0.000364587, -0.00760623, -0.0274472, -0.0334715, -0.0336003},
	{0.0154414, -0.0247931, 0.0145674, -0.0078908, 0.00596967, -0.0292897, 0.0326567, -0.0173673, -0.0196467, 0.00720669, -0.016708, -0.0179918, -0.0160728, -0.0181961, 0.0172626, 0.031731, -0.0332953, 0.0145854, -0.00995457, 0.00340864, -0.014858, -0.0149778, 0.0205644, 0.00927293, 0.0213014},
	{0.0538085, 0.00351509, 0.0312968, 0.00357764, 0.0260763, 0.0331779, 0.0166309, 0.0144979, 0.011129, -0.00272363, 0.00443172, -0.0122906, -0.0143059, 0.0108513, 0.0428234, 0.0295904, 0.0121577, -0.0210406, 0.00837089, 0.0136675, 0.023138, 0.00151349, 0.0111524, 0.0015547, -0.0112744},
	{0.00674459, 0.0404765, -0.0233584, 0.00338783, 0.00822632, 0.0319888, -0.0123252, -0.00884157, 0.021858, -0.00825361, 0.00448335, -0.0057287, -0.00452276, -0.0289368, -0.00638643, 0.00840516, 0.0207908, -1.37557e-05, 0.00821584, -0.0395155, 0.00865491, -0.0430699, -0.0103208, -0.0252352, 0.0132803},
	{0.000533422, -0.0142345, 0.019187, -0.0131182, -0.0122222, 0.016174, 0.0240158, -0.0242264, 0.0292714, 0.00489112, 0.0157051, 0.0346474, -0.0248237, -0.00955696, -0.0222409, -0.0164276, 0.0246119, 0.00433903, -0.0163453, -0.0446709, -0.00262271, -0.0048504, -0.0188519, 0.0395338, 0.00122129},
	{-0.0144567, 0.00644543, -0.0300076, -0.0324133, -0.0104992, 0.0156314, -0.0259468, -0.00629626, 0.00562635, 0.0374082, -0.0290813, 0.0108284, -0.0335227, -0.043119, -0.01002, 0.0232944, 0.00869137, -0.0223024, -0.0134478, -0.0225667, 0.0486517, 0.0156055, -0.0102551, 0.0704088, -0.0166809},
	{-0.0328552, -0.00560368, 0.0250225, -0.0178823, 0.0211895, 0.0270667, -0.0178339, 0.0123732, -0.0283158, -0.0283367, 0.0171775, -0.0161941, 7.33666e-05, -0.00339983, 0.0246306, 0.0213561, 0.00347917, -0.0117401, -0.0290358, -0.019345, -0.0307131, -0.0252263, -0.0262586, 0.0208467, -0.0150428},
	{5.62443e-05, -0.0011415, 0.00691212, -0.0394239, -0.0335164, -0.0159892, -0.01235, -0.00823287, 0.0158548, -0.0496181, -0.00470267, -0.005553, 0.00878641, 0.0168569, -0.0186477, -0.0231554, -0.0215148, 0.00722756, 0.0242606, 0.0484649, -0.017619, 0.043916, 0.0376551, -0.00790641, 0.0276393},
	{0.00715911, 0.0191786, -0.00534887, 0.0171899, 0.000894009, 0.00843588, 0.0304331, 0.00789305, 0.0218729, 0.031091, 0.021034, -0.031561, 0.0104221, 0.0202239, -0.0170832, 0.00959037, -0.0178731, 0.0342743, 0.0292149, -0.000256751, 0.0256389, -0.0202934, 0.0353, -0.00526907, 0.0061988},
	{-0.00526304, -0.00776814, 0.0196792, 0.0204122, -0.0229006, -0.0218333, 0.0096117, -0.0247069, 0.00975584, -0.0248003, -0.0178117, -0.0225432, -0.0191848, 0.0357865, 0.0127734, 0.0100774, -0.034575, -0.0189325, -0.00840051, -0.0107364, 0.00431237, 0.0349638, 0.0201557, -0.0352481, 0.00849204},
	{-0.0248763, 0.0191474, -0.0178479, 0.010191, 0.00705308, 0.0178983, -0.0222721, -0.00105687, 0.0101827, 0.0364624, 0.021332, 0.0211191, -0.00662062, -0.00775028, -0.00920685, -0.0132754, 0.01739, -0.0148806, -0.0231227, -0.0327422, -0.00833441, 0.0226816, -0.00894649, 0.0179785, -0.00810219},
	{0.0032762, -0.0249245, 0.0364835, 0.0233852, 0.0240027, -0.0243802, -0.0389697, 0.00869677, -0.0117979, 0.0136633, -0.0226942, -0.0160365, 0.00344768, 0.0174986, -0.00778695, 0.000360266, -0.0355339, -0.0270828, -0.0108752, 0.00522654, -0.0256562, 0.0115193, -0.0203723, -0.0206458, -0.0171208},
	{0.0174285, 0.0086073, -0.0136769, -0.0260488, 0.0308771, -0.0256403, -0.0377398, 0.0301647, -0.0314013, 0.0178163, 0.0146701, -0.0251485, 0.0271206, 0.0132778, 0.0272371, -0.0177943, -0.00442203, -0.0286776, 0.00472737, 0.0129562, -0.00347407, -0.01698, 0.0230088, 0.0333085, 0.00606297},
	{0.0151251, -0.0372715, 0.0296758, 0.0278714, 0.0363312, -0.0133692, -0.0284789, -0.0213303, 0.0322408, -0.0122194, -0.0325639, -0.0246392, -0.00233077, -0.00159376, -0.029818, 0.0196622, 0.0191539, 0.0112596, 0.0369037, 0.000129101, -0.0191537, -0.0383632, 0.0389536, -0.0198926, -0.000140902},
	{0.0308489, -0.0147678, 0.0361998, 0.0446565, 0.032545, -0.0124935, -0.022551, 5.10935e-05, 0.0173472, 0.0437901, -0.0406587, 0.0383585, 0.0087216, 0.0301267, 0.0227088, 0.0279335, 0.0259116, 0.0010106, -0.00778765, -0.0393064, -0.017644, -0.00106396, -0.0314626, -0.0141284, -0.0180015},
	{-0.00952449, 0.0126275, 0.00750611, 0.0127317, 0.0191522, 0.0144231, -0.025914, 0.00107866, -0.0256508, 0.021447, -0.00951291, -0.017828, -0.0243029, 0.00815604, 0.0249548, -0.0254663, 0.0230585, -0.00847929, -0.019642, 0.0256095, -0.00507631, -0.00688574, -0.0185079, -0.0347827, -0.0262364},
	{0.0213922, 0.0103876, 0.0179093, 0.0465606, -0.026182, -0.0173369, 0.00759914, 0.0379323, 0.0209415, -0.00945308, 0.0284521, 0.0445565, 0.0330229, 0.0314176, -0.0018832, -0.00204171, -0.0494345, 0.0211415, -0.010752, -0.00314314, 0.016701, 0.00517568, -0.047936, -0.0251012, -0.0226917},
	{0.00826538, 0.0102467, 0.00523727, 0.00791315, -0.0189329, 0.0153033, 0.0108636, 0.0221127, -0.00955593, 0.0426536, -0.0164781, 0.0112778, -0.0308964, -0.00310819, 0.0189636, 0.016526, 0.0402817, -0.0192622, -0.0336456, -0.0526095, 0.00521493, -0.01968, -0.0376505, 0.013296, -0.00684872},
	{0.000693135, -0.035601, 0.0253653, 0.0112469, 0.0214266, 0.013096, -0.00530162, -0.0196125, -0.0108161, 0.0440767, -0.00155404, 0.00519432, -0.0313111, 0.00386679, 0.0216631, 0.02541, 0.0154448, -0.0299675, 0.00303374, 0.0116191, -0.00856731, -0.0375112, -0.0138805, 0.0189547, -0.0091775},
	{-0.0693908, -0.038245, -0.0236984, -0.0155993, -0.0154015, 0.00192375, 0.0169747, -0.0407535, -0.0302667, 0.00497364, -0.00909444, -0.0067768, -0.0398236, -0.055906, -0.0300104, -0.00851409, -0.00989337, -0.022752, 0.0314705, 0.00148365, 0.00598089, -0.0309709, 0.057516, 0.0616455, -0.00858303},
	{-0.026723, 0.0300433, -0.00849544, -0.00538659, -0.0359364, -0.0207012, -0.00910611, 0.0239765, 0.000748311, -0.018227, -0.00562402, 0.00232556, -0.0200246, 0.0220136, 0.00536161, -0.0352887, 0.0196324, 0.0315942, 0.0161302, -0.00945833, 0.00145203, -0.00857144, -0.00171784, 0.0176521, 0.0106738},
	{0.0283022, -0.021199, -0.0147705, 0.0091088, 0.021351, -0.00193305, 0.0270652, -0.0143036, -0.00752456, 0.00830225, 0.0237048, 0.00156262, -0.0218009, 0.0257439, 0.0140374, 0.0219366, -0.037157, 0.0179304, -0.0289354, 0.0237626, -0.000306407, 0.0337311, 0.0228412, 0.0159051, -0.0035324},
	{-0.0173522, -0.0130315, 0.0222214, 0.0153395, -0.0340267, 0.029146, -0.0286293, 0.0159841, -0.019438, 0.0106294, -0.0271546, 0.00779051, -0.0263932, -0.0081624, -0.0316563, 0.031489, -0.0215036, -0.0210686, -0.025528, 0.00572879, -0.00657944, 0.029387, 0.0187527, -0.029772, 0.00383501},
	{0.0354441, -0.0289447, -0.0148101, 0.0166747, 0.0263853, -0.0154062, 0.0244109, -0.00821861, 0.00612537, -0.0442034, 0.0181335, 0.00056113, -0.0196941, -0.0204226, 0.0256593, 0.0239349, -0.0435065, -0.010549, 0.0239015, 0.0516903, 0.0222711, 0.0459288, 0.00905057, -0.0465116, -2.87272e-05},
	{-0.033523, 0.0226024, -0.00601345, 0.0193401, 0.0262066, -0.00139994, 0.0229701, 0.0206747, 0.0206713, -0.00196233, 0.0236969, -0.000937907, 0.00995831, -0.00123011, -0.0340891, 0.0160903, 0.0293689, 0.0114531, 0.035746, 0.0216045, -0.00685715, -0.0115174, 0.00731013, -0.00459052, -0.00997942},
	{0.022322, 0.0150608, 0.01843, -0.000538593, 0.0227417, -0.0141823, -0.0109219, 0.0197081, -0.0230763, 0.0219768, -0.0318502, 0.02741, -0.00380871, -0.0221277, 0.0462948, -0.0104346, -0.0173701, -0.0305133, 0.0219884, 0.00796448, -0.0280387, -0.0167212, -0.0181207, 0.00241956, -0.0287937},
	{0.0138743, 0.00812928, -0.0269214, -0.0164303, 0.0291258, -0.0099151, -0.0156519, -0.00426269, 0.0017077, 0.00513392, 0.0121326, -0.018087, 0.00757747, 0.012663, 0.0242673, 0.00716247, 0.0208253, -0.0259862, 0.0226709, -0.0132355, 0.0135867, 0.0215754, -0.0147836, 0.0161581, -0.0154842},
	{0.013001, 0.0171762, 0.00645351, 0.00380206, 0.0208959, -0.0111671, 0.0122908, -0.00353034, -0.0116126, 0.0051139, 0.0204206, -0.0175539, 0.0356167, 0.0170667, 0.0129114, 0.0428258, -0.000913949, -0.00603596, 0.0101613, 0.0179751, -0.00528645, 0.000411935, -0.0198077, 0.0295644, 0.0222179},
	{0.0336781, 0.0394812, 0.0367241, 0.0119458, 0.0267012, 0.028258, -0.033243, 0.0255175, -0.0388186, 0.00247246, -0.0211739, 0.0373926, 0.0464952, 0.0114143, 0.0392019, 0.0266816, -0.00440231, -0.0198134, -0.0314236, -0.0100747, -0.0176716, -0.0221834, 0.00119294, -0.0646826, -0.0541053},
	{0.0345745, 0.0319536, -0.0105402, -0.00463065, 0.0267681, -0.016604, -0.00168925, 0.00642079, 0.0328996, -0.0374577, -0.0267272, -0.0158826, 0.0334193, -0.00760191, 0.00284242, 0.015663, -0.041769, -0.0209481, -0.0279868, 0.00229463, -0.0126303, -0.00619961, 0.016289, 0.00143842, 0.0172549},
	{0.0341586, 0.000927168, 0.0403629, 0.00972319, -0.0172007, -0.0202518, -0.0305158, 0.0562199, -0.00700463, -0.0351663, -0.0178054, 0.0265095, 0.0197055, 0.0183015, 0.00343865, 0.0258354, -0.0490954, -0.019261, -0.00855663, 0.0252565, 0.0232574, 0.0120392, 0.0251485, -0.0412633, -0.000108005},
	{0.00371438, 0.0287666, 0.000123787, 0.0067882, -0.000931616, 0.0258869, 0.0274292, 0.00489754, 0.0232472, 0.053539, -0.0288456, -0.00392804, 0.00171563, 0.03184, -0.022706, -0.0381222, 0.00456929, -0.0106053, -0.00371807, -0.0456146, 0.0109784, -0.00734631, -0.0205265, 0.0263673, -0.019424},
	{-0.0272297, -0.00388426, -0.0213912, 0.0151331, 0.0157303, -0.00439858, 0.012798, -0.0126989, 0.00584036, -0.0047288, 0.00300645, -0.00526408, -0.036527, -0.0422945, 0.0128357, -0.00739071, -0.0122469, 0.0262811, 0.0157525, -0.00535446, 0.0181519, 0.000905985, -0.00299159, -0.0145955, 0.0198287},
	{-0.0800653, -0.00434066, -0.0165208, -0.0423032, -0.0106214, 0.0256309, 0.00462644, -0.0341672, -0.0194453, -0.00306491, -0.00594729, -0.0158477, 0.00511718, -0.0381548, -0.0542764, -0.0101528, 0.0365349, -0.0180151, -0.00515379, -0.0179958, 0.0408306, -0.0231875, 0.0101903, 0.0457934, 0.0345812},
	{0.00827858, -0.0283476, -0.00180008, 0.00152447, 0.0006189, -0.0208175, 0.016733, -0.00256157, -0.0252536, 0.0183545, 0.00485384, -0.0330917, -0.0321587, 0.00938516, 0.0157271, 0.0173339, -0.0261412, -0.00324405, 0.0111175, 0.0250321, -0.0243951, 0.0206587, 0.0174813, -0.00651241, 0.035219},
	{0.0334158, 0.0276723, -0.0224624, 0.02968, 0.0233799, 0.0336136, -0.0350779, 0.000949492, 0.0311015, -0.00786185, 0.0308158, 0.0189432, 0.0274819, 0.0430952, 0.0354129, 0.0054443, -0.0105319, -0.00748402, -0.0326941, -0.00308424, -0.0220284, 0.040754, 0.0159375, -0.0108119, 0.0038721},
	{0.0183985, -0.0212588, -0.00257819, -0.0291407, 0.00624154, 0.0286258, 0.0150854, 0.0326961, -0.0315948, -0.0301929, -0.0152697, -0.000378735, -0.0224096, 0.0102296, -0.00215286, -0.0159278, -0.028218, 0.0138452, 0.0020959, -0.0240078, 0.00618843, 0.0299282, 0.0149878, 0.0249428, -0.0317546},
	{0.0117814, 0.0126774, -0.0302077, 0.0229413, 0.0212835, -0.0190088, -0.00976253, -0.0215676, -0.0260782, 0.0114734, -0.0269044, -0.0296728, -0.0141142, 0.0168145, 0.0161509, -0.012174, 0.00747532, 0.000518189, 0.0208944, 0.0501877, 0.0288314, 0.0208948, -0.0330158, -0.00958747, -0.0288358},
	{-0.0417861, 0.00516476, 0.00384009, -0.0254451, -0.0328263, 0.00836312, 0.026408, 0.00283315, -0.0177286, 0.0325321, -0.0277536, 0.0132903, 0.0109888, -0.0362254, -0.0123205, 0.004555, 0.0153964, 0.00351712, 0.0341689, -0.017324, 0.0147216, 0.0186017, 0.0178808, -0.00807395, -0.017868},
	{0.0301664, 0.0185325, 0.0215822, 0.00257114, 0.0311056, -0.00252466, 0.0160026, 0.0181326, 0.0324485, -0.0216459, -0.0261707, -0.000803961, 0.0160503, 0.00801258, 0.00802459, 0.0134121, -0.00453063, 0.0182888, -0.0187914, 0.00875748, -0.0259851, 0.00068186, 0.00592759, -0.0334777, -0.0420833},
	{-0.0343761, 0.0211868, -0.0150908, 0.00916636, 0.00697794, -0.00950254, 0.0150959, 0.00424981, 0.00447007, -0.0309281, -0.00665261, 0.0308059, 0.0330033, -0.0142082, 0.0244565, 0.0198985, 0.00276216, 0.00856439, 0.021266, 0.0266909, 0.00850454, 0.00792235, 0.0367766, -0.00854639, -0.0361183},
	{-0.0326658, -0.00364291, -0.020264, 0.0207863, 0.0418715, -0.0193985, 0.0105183, -0.00654799, -0.00897626, -0.0310952, -0.00590725, -0.0100992, 0.0330088, -0.0386605, 0.01681, 0.00355548, -0.00157172, 0.0106113, 0.0258409, -0.0146207, -0.0168063, -0.0139252, 0.00201769, 0.0141875, 0.0076711},
	{0.0239979, 0.0129579, 0.0175857, 0.0419978, 0.0542281, 0.053228, -0.0454188, 0.0559948, -0.0446256, 0.00879226, -0.0339167, 0.0591055, 0.0740506, 0.0259365, -0.00367958, 0.0888036, 0.015922, 0.00277398, -0.0181666, -0.0171894, -0.0137131, -0.0196913, -0.0181425, -0.047719, -0.0158588},
	{0.0127557, 0.0311792, 0.0242278, 0.0208584, 0.00717768, 0.00662276, -0.00983933, 0.0316269, 0.0328005, -0.0399872, 0.0218073, 0.0347566, 0.026215, 0.0161153, 0.0216122, 0.0257919, -0.0335818, -0.0142645, -0.0301991, -0.00347674, 0.0110214, 0.0095542, -0.000256588, -0.00837583, 0.00835323},
	{0.0695065, -0.0080872, 0.0236636, 0.0486094, 0.0428163, 0.00898457, 0.0256225, 0.0492503, -0.00642412, -0.0223641, 0.0253721, 0.0406373, 0.0463178, 0.0307606, 0.0302587, -0.0183212, 0.00259462, 0.0319817, -0.0188787, 0.0622261, -0.0258688, 0.0243405, -0.0434511, -0.0359366, 0.0152005},
	{-0.019902, -0.0018418, -0.00908949, -0.0216279, -0.0163411, 0.00542059, -0.00993731, 0.0153975, -0.0105133, 0.0552435, -0.0295548, 0.0350668, 0.0198662, -0.00738834, 0.010788, -0.00598015, 0.00837252, 0.00754513, -0.00652451, -0.0353327, -0.0130858, -0.0452229, -0.0319079, 0.0118974, -0.0260991},
	{-0.00611285, 0.0174178, 0.0115292, 0.0176614, -0.029428, -0.0277266, 0.0332608, 0.00788176, 0.00962365, 0.00801586, -0.0179156, -0.0266552, 0.000918585, -0.0304313, -0.0407574, -0.00321268, 0.00270594, -0.0262854, 0.0077288, -0.0267477, -0.000948804, -0.00735198, 0.0126066, 0.0275825, 0.0106689},
	{-0.078168, -0.0757603, -0.00212033, -0.0814392, -0.0104714, -0.000417087, -0.0191258, -0.0248448, 0.0269792, 0.015825, 0.0150782, -0.0661781, -0.0292869, -0.0398296, -0.0362434, -0.0310942, -0.0064697, -0.00452569, 0.0570785, -0.00918827, 0.0539256, -0.0242782, 0.0511056, 0.0413695, -0.00789504},
	{0.0133106, -0.00296932, 0.0100113, 0.017615, 0.0208294, 0.0124241, -0.0147166, 0.0318171, -0.0100564, -0.00377742, -0.0299305, -0.00693924, 0.0242875, 0.00556495, 0.0218204, -0.0109605, -0.0142719, 0.0260305, -0.0145798, -0.0176965, -0.0358375, 0.0114829, -0.000983268, 0.0281911, -0.0194136},
	{0.0352778, 0.00415627, -0.0116496, -0.0158873, 0.0405914, 0.0336733, -0.0214906, 0.0106971, -0.0253816, -0.0108213, 0.019074, 0.0342759, 0.0269994, 0.00565378, 0.0342173, 0.0201768, -0.0225018, -0.0241272, -0.00199903, 0.00979392, -0.0436434, 0.0145033, -0.000878611, -0.0350612, 0.0199807},
	{0.00768711, -0.00545135, -0.0261291, 0.0145483, -0.00692347, -0.0183726, -0.0316146, -0.00772264, 0.0301996, 0.0100092, -0.0189002, 0.0361709, 0.00597016, -0.0220142, -0.0278177, -0.0227398, 0.0279374, 0.0252203, -0.0159013, -0.0154772, 0.00615039, -0.0106369, -0.0281258, -0.0249092, -0.036445},
	{-0.00781644, 0.0277382, -0.0200036, -0.00743349, -0.0135308, -0.0259688, 0.00748254, -0.0125776, 0.00731367, -0.00265045, -0.00441059, 0.0224801, -0.00237491, 0.0252724, 0.00027206, 0.0398955, -0.0208725, -0.027511, 0.0259904, 0.0186586, 0.0011257, 0.0105055, 0.0224783, -0.054295, -0.0184796},
	{-0.0167968, -0.0418917, 0.0117379, -0.00414165, -0.0143519, -0.0176197, 0.00281818, -0.00771316, -0.00188371, 0.00959839, 0.00374248, 0.0131804, -0.0277303, -0.00536669, -0.00965202, 0.0175491, -0.0249109, -0.00316626, -0.00385222, -0.0164012, 0.0304243, 0.0266683, 0.0319404, 0.0141333, -0.00287769},
	{0.0431506, 0.0434786, -0.00431629, 0.0408705, 0.00630433, 0.0156596, -0.0167252, 0.031674, -0.00824844, 0.0102373, 0.00117956, 0.0354356, -0.0119438, 0.0039184, 0.0274988, 0.0291203, 0.0197594, 0.00803072, -0.00717857, 0.00482572, -0.0348192, 0.0266249, -0.0441918, -0.0150127, 0.0112967},
	{0.0221792, 0.0141878, -0.0228786, 0.00125642, -0.0238099, -0.00271322, 0.020075, -0.00530578, -0.0135589, 0.00342919, 0.0305123, 0.0296852, 0.000522509, -0.00358138, 0.0184859, 0.0189146, 0.00686749, 0.00396913, 0.0284062, 0.0258193, 0.0248038, -0.0326107, -0.00714152, -0.00323483, -0.0298193},
	{-0.0208813, -0.000517717, -0.0249781, 0.0223303, 0.0302806, -0.00390759, 0.00955092, 0.00625565, 0.000727979, -0.00792199, -0.0162824, 0.00178981, 0.0261023, -0.0212663, 0.0141052, -0.00230077, 0.0174251, -0.020866, -0.00955488, 0.0210252, -0.0212375, 0.0223553, 0.0012679, 0.0109278, -0.0171993},
	{0.0351629, 0.0420676, 0.0450481, 0.0303037, 0.0306189, 0.0506889, -0.0402723, 0.0338395, -0.0107942, 0.0199289, -0.0343611, 0.0534569, 0.0386521, 0.0370572, 0.0395462, 0.0462245, 0.0269437, -0.0217836, -0.0272448, -0.032861, -0.00206363, 0.00518291, -0.038588, 0.0147482, -0.0551013},
	{0.055159, 0.0463847, 0.0122591, 0.000856897, 0.0348674, 0.034689, 0.0314143, 0.0392322, 0.0258379, -0.0115106, 0.0312163, 0.0297298, -0.0131112, 0.00734954, 0.0512035, -0.00539876, -0.0135269, 0.0272482, 0.00674751, 0.0313967, -0.00220905, 0.0131728, -0.00287329, -0.00313115, 0.00638512},
	{0.0330629, 0.0538483, -0.0253504, 0.061342, 0.0242241, 0.0164209, 0.0104626, 0.0126152, -0.00878478, -0.0297817, -0.0223478, 0.0336084, 0.00102619, 0.0241037, 0.0509548, -0.00155375, 0.00321083, -0.0210367, -0.0391367, 0.0107337, -0.065513, 0.00925949, -0.0541451, -0.0490598, -0.0190783},
	{-0.0184766, 0.0351717, -0.00866404, -0.0144988, -0.00302809, 0.00269302, 0.0379645, 0.00269641, 0.00932374, 0.0379044, 0.0203923, -0.00669807, -0.0175382, 0.0307105, -0.0316951, 0.0124771, 0.0313493, 0.0287891, 0.0104756, -0.0548115, -0.0317914, 0.000494431, -0.0118978, -0.00270654, 0.0325966},
	{-0.0453389, 0.00956941, -0.0128434, -0.021312, 0.0103705, -0.0233111, 0.00441553, -0.00775001, 0.0171552, 0.020798, -0.015611, -0.0225952, -0.00887307, -0.0325157, 0.0164347, 0.0074187, -0.0212543, 0.0274369, 0.0207053, -0.00487767, -0.0186388, -0.0353423, -0.00669521, 0.0259521, -0.00308417},
	{-0.0485855, -0.036285, 0.0230064, -0.0770063, -0.0138733, 0.0139981, 0.0437555, -0.0675537, -0.0173534, 0.00436543, -0.0217398, -0.0355983, 0.0022207, -0.0539013, -0.0304785, 0.0146458, 0.00792244, 0.0366683, -0.00720174, -0.021464, 0.0556604, 0.0265906, 0.0810208, 0.0891525, 0.0169277},
	{-0.00141386, 0.000251091, -0.0280971, -0.0201622, 0.0214543, -0.008838, 0.0347639, 0.00777613, -0.00769235, 0.0157149, 0.00616477, -0.0251413, 0.00582589, 0.0324173, 0.0281479, -0.00192367, 0.0075169, -0.00951788, 0.02024, 0.0190712, -0.00394613, 0.0222413, 0.0185114, -0.033457, 0.0264886},
	{0.046356, 0.0204691, -0.0160606, 0.0252391, 0.0391758, -0.0109723, -0.04243, 0.0105429, -0.0101887, -0.0354925, 0.0154284, 0.0303859, 0.016882, 0.0105479, 0.0318327, -0.00503882, -0.011198, 0.0206827, 0.0171261, 0.0354548, -0.00262755, 0.00332045, -0.0246753, -0.0230365, -0.0180235},
	{0.0269145, -0.0266207, 0.0161264, -0.00941339, 0.021401, -0.0290526, 0.019731, 0.0252639, 0.0141776, 0.0335398, 0.0129705, 0.042352, 0.0428141, -0.0336682, 0.0253934, 0.0213566, -0.0126212, -0.0246486, 0.0170773, -0.0236236, 0.0243131, 0.0238152, 0.00946455, 0.000991722, -0.0131912},
	{0.0257364, 0.038079, -0.000986311, 0.00990433, 0.0071446, -0.00935516, -0.0249551, -0.00951412, 0.029988, 0.015449, 0.0216535, 0.00439984, -0.000195366, 0.0212031, -0.00232614, -0.00277163, 0.00837279, -0.0274025, 0.0161159, 0.00362337, -0.0162275, -0.0273132, -0.00398443, -0.0182896, 0.010982},
	{-0.00843098, -0.0311488, 0.0118674, -0.0316494, -0.00422056, 0.00675415, 0.0331195, -0.0278229, -0.0276277, -0.0136124, 0.000946156, -0.0290749, -0.041841, -0.00960566, 0.00543989, -0.0138593, 0.032567, -0.0113124, 0.0330111, -0.0261718, 0.0572861, 0.016009, 0.0526984, 0.0321993, 0.00891113},
	{0.00551092, -0.0142765, 0.00750295, 0.0134511, 0.0165561, -0.00986439, -0.031421, 0.0244269, 0.00245338, -0.00368915, -0.0284785, -0.00545317, 0.0346531, -0.0138432, 0.0332036, 0.0227802, 0.00179469, 0.00628802, -0.0264978, 0.0177135, 0.0115845, 0.00608146, -0.0386086, -0.00504089, -0.0386751},
	{-0.0214375, 0.00587183, 0.013259, 0.00627716, -0.010414, -0.0196831, -0.0061322, -0.0155925, 0.0167231, 0.0206155, 0.00226991, -7.09106e-05, -0.00322786, -0.000518518, -0.0331005, -0.000970995, 0.0127732, 0.0221324, -0.00400475, -0.0170966, 0.0161604, 0.0009444, 0.032152, 0.02146, 0.0173306},
	{-0.0390003, 0.00260552, -0.0019063, 0.0088751, -0.000478097, -0.00148068, -0.00217812, -0.0307823, -0.0246831, -0.0185146, -0.00119389, 0.0221401, -0.0170565, -0.0158168, -0.0317916, 0.00613803, -0.00593569, 0.00952763, 0.0328993, 0.0352704, -0.0078716, -0.0142898, 0.0212763, 0.0138372, -0.0208507},
	{-0.0290902, -0.01569, 0.02813, -0.0199246, 0.0302406, 0.0126182, -0.0236236, -0.0434847, -0.0152063, 0.024996, -0.00857147, -0.0101997, -0.0026384, 0.00929076, -0.015055, 0.0580417, 0.0458959, 0.0171357, 0.014378, -0.0622961, -0.0292246, -0.048358, 0.0397322, 0.0218151, -0.019813},
	{0.0563024, 0.018937, -0.00971206, -0.00801853, 0.00143062, 0.006022, 0.00443112, 0.0294887, 0.0244427, -0.0230255, -0.0289091, 0.0311675, 0.00905144, 0.0363307, 0.0145566, 0.0113851, -0.0314173, 0.0249212, -0.0294786, 0.0348534, -0.000949238, -0.0199628, 0.0013897, 0.00338979, -0.0234036},
	{0.0484324, 0.0258846, -0.0184155, 0.0360965, 0.00568627, -0.0219668, -0.00512253, 0.0291519, 0.00276191, -0.0244532, 0.0335476, 0.0158775, 0.0338696, 0.0113571, 0.0686216, 0.016508, -0.0064248, 0.0343864, -0.0284893, 0.0180187, -0.0247785, -0.0221749, -0.0407591, -0.032681, -0.00998293},
	{0.0171082, -0.00747188, -0.0368651, 0.0322444, -0.00872035, -0.0255547, 0.0379574, 0.0335138, 0.0265132, 0.0124154, -0.00385949, 0.00834419, -0.0300193, 0.0271282, -0.0387549, 0.000551658, 0.0153973, -0.0252251, -0.0274943, -0.0209816, -0.0390447, -0.0101955, -0.0300487, 0.0144528, 0.0393809},
	{-0.0171698, -0.0195101, -0.00250023, -0.0302676, -0.0098444, -0.00802408, 0.0312661, -0.0380559, 0.00592677, -0.0112843, 0.0184426, -0.0311219, -0.0460441, -0.00588051, -0.00381638, 0.0104004, 0.0136953, -0.0106519, -0.0211822, -0.0432725, 0.0346975, -0.0165274, 0.00171704, 0.0300101, 0.0109962},
	{-0.0764476, -0.0426341, 0.0237456, -0.0527624, -0.000527162, -0.0122775, 0.00347113, -0.0885783, -0.0308718, -0.0127337, -0.0217452, -0.0372107, -0.0239128, -0.0548889, -0.0410932, -0.0127184, -0.0239529, 0.023229, 0.00125016, -0.0256632, 0.0285225, -0.021746, 0.0480983, 0.0540593, -0.006389},
	{-0.0194716, -0.0232943, -0.00271601, -0.023239, 0.00201809, -0.00313363, 0.0187427, 0.0194644, -0.0324877, -0.0064231, -0.0292079, -0.0125942, -0.0287972, -0.0248338, 0.0271692, 0.0130984, 0.0233801, 0.033016, 0.017103, 0.00309775, -0.0323165, -0.00771617, 0.0100955, 0.0292915, 0.00638394},
	{0.0250614, 0.038453, 0.00900779, 0.0320185, 0.016805, -0.0106531, -0.0062054, 0.00548029, 0.0165678, -0.0253487, 0.0260418, -0.00223144, 0.0369993, 0.0030136, 0.00308899, 0.0259966, -0.0178625, -0.0207018, -0.0130219, 0.038247, -0.0384354, 0.026574, -0.0346492, -0.0167223, 0.00258412},
	{0.0357296, 0.014487, 0.00554994, 0.0178115, -0.0248129, 0.00512894, -0.00496151, 0.00180153, -0.0284718, 0.0186923, 0.0337324, 0.0353554, -0.00606877, -0.0141939, 0.0119635, -0.0198038, 0.0151446, -0.00518561, 0.0283354, -0.00452073, -0.019202, -0.0301807, -0.0147991, -0.0152772, -0.0297572},
	{0.0193655, -0.000418184, 0.0376286, 0.0242256, 0.0292228, 0.0135261, -0.0170302, -0.00967413, 0.0102221, -0.0155582, -0.0325629, -0.00874616, 0.0103385, 0.0512309, 0.0406233, -0.00720043, 0.0181306, 0.00595241, -0.0432563, 0.026188, -0.00934016, -0.0235387, 0.00161957, -0.055888, -0.0046315},
	{0.00732968, -0.0242043, -0.021073, -0.0392872, 0.0174421, -0.0119982, 0.0362384, -0.0187173, 0.0268143, 0.0294886, -0.0107278, -0.0491816, 0.0146429, 0.00988231, 0.00140775, 0.0112721, 0.0230865, 0.0268754, -0.00551993, 0.0217444, 0.0280122, -0.0253964, 0.00182311, -0.00105666, 0.0134183},
	{0.0259745, 0.0490759, -0.0151336, 0.0492861, 0.0154096, -0.0122598, -0.019971, -0.00749546, -0.00022035, -0.00616906, -0.00824502, 0.00594162, 0.0324698, 0.0115386, -0.000974434, 0.0288228, -0.0162397, -0.0179024, 0.00269334, -0.0254735, 0.00890179, -0.00942586, -0.0187468, -0.00643826, -0.0206361},
	{0.0102792, 0.0153563, -0.0125149, -0.0405343, 0.0126281, 0.0279463, -0.0342259, -0.0324122, 0.00993613, -0.00511996, 0.0212687, 0.0241875, 0.0117973, -0.0190792, -0.0128965, 0.00927872, -0.0142163, 0.0222507, 0.00907079, 0.0102628, -0.0150324, -0.0126621, 0.0442423, 0.0335644, 0.0326215},
	{-0.0391638, 0.0132183, 0.0315857, -0.00539677, -0.0261108, -0.0190662, -0.014782, -0.038842, -0.0313954, 0.024517, -0.019822, -0.00351386, -0.00590663, -0.0151514, -0.0341498, -0.00862939, -0.0229286, 0.0330707, 0.0355175, -0.0302436, 0.0317389, 0.00306686, -0.00938479, -0.00872381, -0.0267642},
	{0.0256674, 0.0493997, 0.0434119, 0.0140642, 0.0462957, 0.0104972, -0.0169295, 0.0212489, -0.019064, 0.00789203, -0.0404131, 0.0288901, 0.0522458, 0.0211249, 0.00920342, 0.0377513, 0.0709127, -0.0106318, -0.018967, -0.0393439, 0.00132258, -0.0374875, -0.0191863, -0.0391994, -0.0258527},
	{0.01614, 0.042622, 0.00359652, -0.00174624, 0.0285722, -0.0215035, 0.00936208, 0.0397999, -0.0238479, -0.00363024, 0.0295822, 0.0188645, -0.0300593, 0.0171424, 0.0252761, -0.0313901, 0.0267782, 0.017032, -0.0227631, 0.0107792, -0.0035297, 0.0103611, -0.0119166, -0.0156288, -0.0157299},
	{0.0322237, 0.0608354, 0.0155704, 0.0542329, 0.00793109, 0.00928243, -0.0173246, 0.0529155, -0.0150823, 0.000520026, 0.020091, 0.00474429, -0.00914011, -0.00162221, 0.00175162, -0.0120881, 0.0139032, 0.0218693, -0.0239648, 0.0460289, -0.0241606, -0.0295585, -0.0220687, -0.0618009, 0.0286417},
	{0.0129522, -0.0213566, -0.0366826, 0.0155532, -0.0363266, -0.0186469, 0.0293306, -0.0304414, -0.031764, 0.0221538, -0.018697, 0.00902944, -0.0410052, -0.0325248, -0.014434, 0.0110962, 0.00933818, 0.0193586, 0.0165289, -0.0294484, -0.0133504, 0.0130186, 0.0157651, 0.0258446, 0.0288159},
	{-0.0269718, -0.0222859, -0.0242397, -0.0525559, -0.017736, -0.0298495, -0.0109494, -0.0584115, 0.0216192, -0.00202178, -0.0158093, -0.0511706, -0.0164562, -0.00234618, -0.0112873, -0.0515208, -0.0270804, -0.0050527, 0.0222545, -0.0358072, 0.00490909, -0.0207116, 0.0101168, 0.053505, 0.0144363},
	{-0.0855241, -0.0841846, -0.0265594, -0.0919806, -0.00319234, -0.00753667, 0.00916004, -0.0867256, -0.0121345, -0.0202231, -0.0209604, -0.00910287, -0.00805792, -0.0665858, -0.0268804, 0.0142188, -0.00292861, -0.00694183, 0.0276997, -0.023344, 0.0932533, -0.0145375, 0.040194, 0.0962562, 0.00707426},
	{0.0150794, -0.01411, 0.000912156, 0.0174631, 0.0116183, 0.000944542, 0.0140661, 0.0268822, -0.010751, -0.0137996, -0.0284087, 0.0161933, 0.00032269, 0.0159683, -0.0290989, -0.0285966, 0.0273127, -0.0265518, 0.0235069, -0.0360189, -0.0175704, 0.0290217, -0.0157117, 0.020313, 0.0375516},
	{0.020303, 0.00963536, 0.0137233, 0.0588686, -0.0155687, 0.0398346, -0.00165855, 0.0524081, -0.0305411, 0.0188702, 0.00120146, 0.0336912, 0.00924282, 0.0567535, 0.0220988, -0.00646636, -0.00242791, -0.016084, -0.0225596, -0.0143215, -0.000831214, 0.00831247, -0.0591378, -0.0408551, -0.00562206},
	{0.0177131, -0.00732091, 0.036918, -0.018967, -0.0157088, 0.0332232, 0.00226415, 0.0339041, -0.0305057, 0.00332466, 0.0284021, 0.0161151, 0.0243993, -0.0191206, -0.0181022, 0.0177409, 0.0162609, -0.0128099, 0.000680607, -0.0238115, 0.0207531, 0.00516221, -0.0191628, -0.00425611, -0.00278265},
	{0.0286556, -0.00722743, -0.0151204, 0.0562191, -0.0171039, 0.0215365, -0.00677512, 0.0263159, 0.014296, -0.0396511, -0.0258315, -0.00731895, 0.0258734, 0.054897, 0.035648, -0.00671685, 0.0180884, -0.0167338, 0.0184344, -0.0212385, 0.00406308, -0.0304909, -0.0364544, -0.0524308, -0.0370282},
	{0.000787743, -0.058773, 0.0124243, -0.0171326, -0.0295881, 0.0177954, 0.0118804, -0.0467636, -0.0311469, 0.002744, -0.00936447, -0.0373294, -0.0395334, -0.0316044, -0.0500223, -0.00258601, -0.00215069, 0.0153863, 0.00110295, -0.00321312, 0.0220478, -0.0239477, 0.0523083, 0.0109948, -0.025151},
	{0.0233729, -0.00602935, 0.00775524, 0.0102559, 0.0305326, 0.0101128, -0.0237768, 0.0199617, 0.0233281, -0.0037136, 0.00383545, 0.0291812, 0.0389761, 0.00371294, 0.0271922, 0.007014, 0.0153533, 0.0283086, -0.0360981, -0.0377019, -0.0245075, 0.00252108, -0.0200282, -0.0123237, -0.00184311},
	{-0.0168132, -0.0438862, 0.0101633, -0.0234865, 0.0216978, -0.020545, 0.0153448, 0.0162791, 0.0158516, 0.0358279, 0.0192055, 0.0207849, 0.0169872, -0.0340147, 0.0059531, 0.0143416, -0.0120544, 0.0277425, 0.0199456, 0.00425781, -0.00922165, 0.00828549, 0.0368198, 0.0196743, 0.0162668},
	{0.00492163, -0.0368081, 0.030383, 0.00875028, 0.0151044, -0.0333983, 0.019548, -0.0193412, -0.0226261, -0.0258383, -0.0238899, -0.0154233, -0.01084, -0.00242434, -0.0020641, 0.0251658, 0.0259257, 0.0306063, -0.0208217, 0.00405221, -0.0157586, 0.0190947, 0.0300288, -0.0154132, -0.000911943},
	{0.00278922, -0.0117206, -0.0146636, -0.00508683, 0.0374669, 0.00310356, -0.029052, 0.00554804, 0.012415, 0.0637385, -0.0031299, 0.0363357, 0.0214533, -0.00100236, -0.0118698, 0.0144098, 0.0301767, -0.0301104, 0.017931, -0.0384744, 0.00380834, -0.0340807, -0.00877566, -0.0104095, -0.0337242},
	{0.0333289, 0.0419956, 0.0240202, 0.0548306, -0.0255868, 0.0217786, 0.00106622, 0.0491637, -0.0337917, -0.0274264, 0.0109697, 0.0390672, -0.02404, 0.0272735, 0.0083012, -0.037873, 0.00577671, 0.0179463, -0.0426442, 0.0122151, -0.0139112, -0.00688905, -0.026377, -0.0390715, 0.0274127},
	{0.0570131, 0.0608925, 0.0168055, 0.0619783, 0.00427788, 0.0202472, -0.0136455, 0.0490942, -0.00944157, -0.0417412, -0.0280381, -0.0135196, -0.0410454, 0.0629362, 0.0424033, -0.0355236, -0.0393674, 0.0173903, -7.38422e-07, -0.00855097, -0.0521412, 0.000319186, -0.0401676, -0.0467861, 0.00503329},
	{-0.0158432, 0.015193, 0.0168653, 0.0144297, 0.0136887, -0.0249483, 0.0124831, -0.0190901, -0.0339924, 0.0510172, 0.0218644, -0.0057929, -0.0414575, 0.00842981, 0.00290177, -0.0377658, 0.0314877, -0.0107729, -0.0252081, -0.00721736, -0.0351522, 0.0199057, -0.0149159, -0.0104971, 0.0239279},
	{-0.0389628, -0.00240406, -0.0363129, -0.0382124, -0.0224602, -0.00192304, 0.00045232, -0.0578487, 0.0339626, 0.00186476, -0.00424238, -0.0466994, 0.00654124, -0.0188992, -0.00861686, 0.00350814, -0.00692026, -0.0226878, 0.0347407, 0.0252927, 7.77742e-05, 0.00927014, -0.00820646, 0.0494165, 0.031021},
	{-0.0786367, -0.0426559, -0.00293111, -0.0554298, 0.0142431, 0.0127581, -0.00883258, -0.0915247, 0.0274262, -0.0252595, -0.0285005, -0.0113427, 0.000143914, -0.0763147, -0.0154778, -0.0403847, -9.21191e-06, -0.026532, 0.0293742, 0.025989, 0.0754249, 0.000718615, 0.0806959, 0.0595043, 0.0400737},
	{-0.0162318, 0.0172046, -0.00158434, 0.00639791, 0.0174734, 0.0154825, 0.0331992, 0.00863913, -0.010505, 0.01416, 0.0328585, 0.00865258, -0.0185849, 0.00790993, -0.0016117, -0.0201933, 0.0156637, -0.0315962, -0.0321275, -0.0283141, 0.0205014, 0.011064, -0.00298069, 0.00407638, -0.0108443},
	{0.0100359, 0.0113851, 0.0192036, 0.0558687, -0.0158604, -0.0207135, -0.0349318, 0.0158591, -0.026377, -0.0269642, -0.0303486, 0.0504535, 0.0442414, -0.00107548, 0.0356734, -0.0154589, 0.0122822, -0.0116148, -0.0168544, -0.0203759, -0.0374116, -0.0240698, -0.0054683, -0.0445022, 0.0166274},
	{-0.0206668, -0.0107958, 0.00903662, -0.0107097, 0.0314553, 0.0260899, 0.0132469, 0.0170707, -0.0292544, -0.0217544, -0.0160282, -0.0132867, 0.0240519, 0.00227807, 0.0264245, 0.0316005, 0.00719993, 0.0160163, -0.00908909, -0.0212087, 0.0323719, -0.00983899, 0.0244699, -0.0201005, -0.0107323},
	{0.0354703, 0.00328882, -0.0173366, 0.0523784, 0.014438, -0.0285125, -0.00389994, 0.0183282, 0.00698108, 0.00823376, 0.0214105, 0.0108117, -0.0264861, 0.0507187, -0.0131757, -0.0173745, -0.0211678, -0.020376, 0.0179572, 0.0208736, -0.0537081, 0.0172197, 0.000662521, -0.0416171, -0.02929},
	{-0.0267454, -0.0446519, -0.0280098, -0.0346395, -0.0318528, -0.0325783, -0.0254577, -0.00475684, -0.0158824, -0.0326843, 0.00191819, -0.0378, -0.00378665, -0.0225575, -0.0227632, 0.0119021, -0.0141597, -0.00516078, 0.0306404, -0.0101414, 0.0231239, 0.031009, 0.000131329, 0.00895297, -0.00666153},
	{0.00920352, 0.031465, -0.0264691, 0.0348151, 0.0306667, 0.0160457, -0.0145474, 0.0363022, -0.00958522, 0.0166363, -0.0121801, 0.00844313, -0.0122202, -0.00370392, 0.0222904, 0.0246384, -0.0138509, -0.00615014, 0.019929, -0.0201297, -0.0305203, 0.00674182, -0.0142998, -0.00294362, 0.0303229},
	{-0.0246994, -0.0430955, -0.00592835, 0.0162619, -0.0125982, 0.0158923, -0.012677, 0.0156736, -0.0117252, -0.0311883, -0.00507763, -0.0386429, -0.010909, -0.00425451, -0.0158984, 0.00659911, -1.04557e-05, -0.00994112, 0.0343527, -0.0173173, 0.0546772, -0.0201299, 0.0543664, 0.0480351, -0.0254451},
	{-0.0343283, -0.0255031, -0.0129957, -0.0275605, 0.00125487, -0.0154435, -0.0131358, 0.000734337, 0.0132053, -0.0167653, 0.00178483, -0.0159481, -0.0308132, 0.024461, 0.00558682, -0.0281796, 0.0285787, -0.0148606, 0.036525, 0.00621462, 0.0241771, 0.00406963, 0.0180221, -0.0156502, 0.0310151},
	{0.00661983, 0.0346985, 0.00473935, 0.01726, 0.0249173, 0.0148244, 0.0068706, 0.0232419, -0.0380492, 0.0817931, -0.0154819, 0.00899528, -0.00600437, -0.0165255, -0.0151239, -0.00880595, 0.0437584, -0.0199139, 0.00494658, -0.0881595, -0.0308969, -0.0388669, -0.0293527, 0.0325522, -0.0075686},
	{0.000243072, 0.0501658, -0.025855, 0.0402335, -0.0281494, 0.00190642, -0.0250335, 0.00587084, -0.0173985, -0.0139376, 0.0169816, 0.0128686, 0.0202503, 0.0300758, 0.029893, -0.0212133, -0.00504133, 0.00715059, 0.0105436, -0.024689, -0.0290008, -0.00408401, -0.0652143, -0.0408309, 0.0273784},
	{0.0491498, 0.0779614, -0.00352485, 0.0282248, 0.016502, 0.00132469, 0.0163886, -0.0009441, -0.00751993, 0.00494746, 0.0244517, 0.00317751, 0.0126023, 0.0360019, 0.00919676, -0.00086483, -0.0300959, 0.0271448, -0.0229738, 0.0106373, -0.0284973, 0.0334102, -0.0397022, -0.0538713, -0.012698},
	{-0.00269421, 0.0264029, -0.0329779, 0.020614, 0.0184037, -0.00827808, -0.0153297, 6.04433e-05, 0.0309977, 0.0114379, -0.0121436, -0.0279225, -0.0110747, -0.00148239, 0.0206134, -0.0285834, -0.00262871, -0.0110967, 0.00775207, 0.0091365, -0.00546147, -0.00752994, 0.00505363, 0.0221334, 0.00405061},
	{-0.0653388, -0.00282772, 0.00524088, -0.0273245, -0.0332106, 0.0215393, -0.0159377, 0.0035643, -0.0277727, -0.0143412, -0.00216578, 0.00930113, -0.0328065, 0.00143957, 0.0101649, -0.0360071, 0.00795717, -0.02362, 0.0261692, -0.0309168, 0.0168821, 0.019702, 0.0352669, 0.0642882, 0.00167433},
	{-0.0983602, -0.0367542, -0.0287559, -0.0532664, 0.00470507, -0.00136892, 0.0406909, -0.0379017, -0.0152674, -0.0258126, 0.0192763, -0.0673684, -0.0121202, -0.0361123, -0.0317412, -0.0274176, 0.0141693, 0.0150921, 0.0320597, 0.029378, 0.0457737, -0.00617507, 0.0776852, 0.0930855, -0.010814},
	{-0.0182977, -0.00332146, -0.0113048, 0.0441372, -0.0266044, 0.00996071, 0.0191574, 0.0172748, -0.00845707, 0.00957737, 0.0248259, 0.0301254, -0.0343296, 0.026647, -0.0227988, -0.0360239, 0.0107588, 0.0251727, -0.0304738, 0.0158166, -0.0390727, -0.0105287, 0.0178223, -0.016816, 0.00265642},
	{0.0351949, 0.0286659, 0.0278653, 0.0388635, -0.00751975, 0.00607933, 0.00492998, 0.0342389, 0.0228735, -0.0174786, -0.0256457, -0.0036641, 0.03731, 0.0390269, 0.014218, 0.043797, 0.0125321, -0.0145858, -0.0413093, 0.0240596, 0.00284778, -0.00372837, -0.0604629, -0.0159435, 0.00866915},
	{-0.00359703, -0.00804689, -0.0211396, -0.00634776, 0.023339, 0.0101236, 0.0125759, 0.0214728, 0.030802, 0.0242866, 0.0317149, 0.00434194, 0.00901407, 0.0304074, -0.00970612, -0.00878276, -0.0251923, 0.02747, 0.012539, -0.0130838, -0.00996579, 0.00289961, 0.0015128, 0.0024263, 0.0073931},
	{0.0125306, 0.0252083, -0.0111814, 0.0483063, 0.0319864, 0.00553461, -0.0151277, 0.0401061, 0.012253, 0.00408648, 0.00696838, 0.0312752, 0.0325045, 0.00479971, 0.029086, 0.0235428, 0.0196924, -0.0203681, 0.0147627, -0.00940439, -0.0522582, 0.00821424, 0.0086626, 0.0117734, -0.0170382},
	{-0.0541228, -0.0493123, -0.00596734, -0.0539501, -0.0149863, -0.0270122, 0.019342, -0.0388933, 0.0321002, 0.00628919, 0.0304397, -0.0261114, -0.00769983, -0.00330679, -0.00710331, -0.0303911, 0.023433, 0.00228689, 0.0190765, 0.027802, 0.0125119, 0.0346367, 0.00763942, 0.070497, -0.0113614},
	{0.0242227, 0.0262014, 0.0254816, 0.0198622, -0.00414358, 0.0108332, 0.0120401, 0.00367145, 0.00689682, 0.0315999, -0.0311803, 0.0322248, -0.0198464, 0.0224885, -0.00314668, -0.007442, 0.0347242, -0.0192103, 0.0159053, 0.0154774, -0.000657441, 0.0014212, -0.0473507, -0.0305576, 0.00995519},
	{-0.041847, -0.0360372, -0.0261516, -0.0340495, -0.0221349, -0.0096839, 0.00502764, -0.00277328, 0.0128709, 0.0017874, 0.00279814, 0.020569, -0.0164605, -0.0273001, -0.00651874, 0.0164455, -0.0151627, 0.0161055, -0.00201411, -0.0118225, 0.0132866, -0.0182163, 0.0377135, 0.0208821, -0.0275802},
	{-0.0424873, -0.000651226, -0.0237187, -0.026561, -0.00308523, -0.0106277, 0.029316, -0.0311418, -0.00202238, 0.00144166, -0.00957072, -0.0254825, 0.0038574, -0.00886551, -0.00686008, -0.0283257, 0.000101762, -0.00885973, -0.0061293, -0.0146136, -0.00291633, 0.00791987, 0.00932493, 0.0220379, 0.000258008},
	{-0.000962208, 0.0106688, 0.00670225, 0.00612199, 0.0130282, -0.0142515, -0.0133896, 0.0281608, -0.0427088, 0.0206741, 0.0216852, 0.00933817, 0.0201903, -0.00614196, -0.0115197, 0.00313167, 0.0157582, -0.00656525, -0.0250369, -0.0207237, -0.013449, -0.0173725, -0.0383069, -0.00267921, -0.00492532},
	{0.00854262, 0.0640264, -0.0232933, 0.0147487, -0.0133433, 0.00530678, 0.0241461, 0.0199356, 0.0257466, -0.0083128, 0.0166438, -0.0139119, -0.0293658, -0.00201291, -0.00122098, -0.0229197, -0.0327857, -0.0205067, -0.0331315, 0.0141321, -0.0338088, -0.00889297, -0.0626583, -0.00528833, -0.00274302},
	{-0.00391337, 0.0451289, -0.0342541, 0.00881766, 0.00861357, 0.00918157, -0.00580489, 0.00883247, -0.0229212, -0.0168435, 0.0265705, -0.0165191, -0.0449425, 0.0523915, -0.00399619, -0.0549152, -0.0389123, 0.0334526, -0.045264, -0.00370379, -0.0432497, 0.0209014, -0.0472906, -0.00251295, -0.00284892},
	{0.0205562, 0.0204494, -0.00249604, -0.0217586, -0.0301312, -0.0102868, 0.000246087, -0.0277699, -0.0310256, -0.00718099, -0.0298379, 0.0279547, -0.0260133, 0.0214571, -0.0193901, 0.000318284, 0.00171176, -0.0203108, -0.0095616, -0.0377929, 0.0278826, -0.0172104, -0.00262791, 0.0267151, -0.023297},
	{-0.0730506, -0.00245746, -0.00532575, -0.0118668, -0.0131053, -0.0197451, 0.00777936, -0.000505205, -0.00563609, 0.0083804, -0.0254362, -0.00695397, -0.0213726, -0.0482648, -0.0406314, -0.0122314, 0.015701, -0.0175465, 0.000577252, -0.02337, -0.00203406, 0.0111428, 0.018665, 0.0310516, 0.00478125},
	{-0.0600783, -0.083147, -0.0254227, -0.0759897, -0.017371, -0.0210853, -0.0248119, -0.0828803, -0.0120888, -0.0041075, -0.012224, -0.0292298, 0.000993543, -0.0288958, -0.0081987, -0.0273874, 0.0242118, -0.0182748, 0.0413797, -0.000959424, 0.063419, 0.0282296, 0.0770624, 0.0475383, -0.00572713},
	{0.0232876, 0.0330919, -0.0106745, -0.00411906, 0.0107676, 0.0130537, -0.00144672, 0.0346591, 0.028798, -0.00218347, 0.0189925, -0.0145845, -0.0106288, -0.00018204, 0.0309136, 0.0125934, 0.0238899, 0.009013, -0.00811354, -0.0058272, -0.0354305, -0.0227433, 0.00942169, 0.0211077, 0.0321291},
	{0.059192, 0.0621551, 0.0265945, 0.0720363, -0.0192367, 0.0120145, -0.0211438, 0.0275796, 0.0300594, -0.0242083, -0.030964, 0.038017, 0.0121204, 0.0205982, 0.0286655, 0.00587633, -0.0143693, -0.0189994, 0.00669529, 0.0052405, -0.0544326, -0.0397856, -0.00796288, -0.0502194, -0.0384508},
	{-0.000510461, 0.027891, -0.0154546, 0.0217226, 0.0262314, -0.0197002, 0.00213259, 0.0179934, 0.00105793, -0.0254652, -0.0139781, 0.0138164, -0.00598488, 0.00939825, 0.00703538, 0.000847526, 0.0193924, 0.0212285, 0.00207528, 0.00716179, 0.0304615, 0.0186209, 0.0304023, -0.0248778, -0.0206812},
	{-0.0176103, 0.00416833, -0.0126929, -0.0216294, -0.0182751, -0.0123061, 0.0320875, -0.0140308, -0.0287801, 0.013403, -0.0330723, -0.0133377, 0.025004, -0.00749266, -0.00752788, 0.030993, -0.034353, 0.0276783, -0.0175908, 0.0172109, -0.0454257, -0.0105271, 0.016722, 0.0113405, 0.0181299},
	{-0.0639948, -0.0204941, -0.0220824, -0.0711143, -0.0136807, -0.00549976, -0.0193389, -0.0523447, 0.0185923, 0.00945445, 0.00084457, -0.0184081, 0.0031223, -0.0138676, -0.0134967, -0.0106982, -0.02382, -0.00445621, 0.00203215, 0.0391275, 0.0137965, -0.0106513, 0.00467956, 0.0128251, -0.0258473},
	{0.0035739, 0.0346057, -0.013134, 0.0390215, -0.00699712, -0.0289236, 0.0294534, 0.0298195, -0.0135456, 0.0308266, -0.0310833, -0.00569997, 0.00329586, 0.0414411, 0.0142866, -0.0175443, -0.00785043, -0.0266174, -0.0133666, -0.00324674, -0.046817, 0.0274165, -0.0168659, -0.0112704, 0.0177208},
	{-0.0182244, -0.0162997, 0.033475, -0.0197249, 0.0326965, 0.00347987, -0.00544578, -0.000965279, 0.0215885, -0.0231822, -0.00332441, -0.00614803, -0.0246506, 0.00776887, -0.0173797, 0.00668948, 0.0096635, -0.0013798, 0.0102727, -0.0283643, 0.00625177, -0.00484281, -0.00521876, 0.00517651, 0.022433},
	{0.00919981, -0.0172133, 0.01708, -0.0434447, -0.00292409, 1.06327e-05, -0.00871387, 0.00868141, -0.0320702, -0.0344297, 0.0188956, -0.0445322, -0.00512131, -0.021656, 0.0178091, -0.0244943, -0.0224771, 0.0197268, 0.0241564, 0.0285605, 0.0109176, -0.00504438, -0.0211405, 0.0456351, 0.0325983},
	{-0.039194, 0.0112872, 0.015106, 0.0107881, 0.00365803, 0.0122684, 0.0280003, -0.000514903, -0.0100816, 0.0351358, -0.0366509, 0.00564143, -0.0233489, 0.0286018, -0.0310304, -0.0216058, 0.0551358, -0.0438831, -0.0177148, -0.0409297, -0.0246618, -0.00959987, -0.00548862, -4.86426e-05, 0.00109783},
	{0.00808777, 0.0440817, -0.0376075, 0.0169721, -0.0325929, -0.00824707, 0.0225717, 0.0286951, -0.0105081, 0.00186714, -0.00837193, -0.0303598, 0.00834696, 0.0103924, -0.0204448, -0.0360011, -0.0066546, -0.0212276, 0.0158255, -0.0131244, -0.0454624, -0.0117349, -0.0345857, 0.0142251, 0.000868796},
	{0.0162693, 0.0595629, -0.029254, -0.0254943, -0.0301286, -0.0481911, 0.0394095, 0.0244627, -0.0211886, 0.00228614, 0.0082122, -0.00951279, -0.0142909, 0.00591756, -0.00219714, -0.0500793, -0.0361642, 0.00784614, -0.0427645, 0.0121614, -0.0651807, 0.0629728, -0.0145514, -0.0204144, 0.044498},
	{0.00259353, 0.0132212, -0.00290155, -0.0261794, 0.0170944, -0.0100022, 0.0150937, -0.0331443, -0.0232887, 0.0284373, 0.0132971, -0.0198196, 0.0226518, -0.0180437, -0.0323336, -0.0306335, -0.0194306, -0.0112794, 0.0364964, -0.0186483, 0.0319865, 0.00829871, 0.0244852, 0.0362701, 0.00161311},
	{-0.0785543, -0.0107951, -0.0181385, -0.0343142, 0.0106224, 0.00536672, 0.0148844, -0.0416044, -0.0171338, 0.0188966, -0.0174119, -0.0568198, 0.0051476, -0.00459562, -0.0492497, -0.0444196, 0.00106968, -0.000484281, -0.020562, 0.0293361, 0.00829796, -0.0159105, -0.00524601, 0.0517739, -0.0166814},
	{-0.0703607, -0.0309324, 0.0156314, -0.0650564, -0.00456542, -0.0190524, 0.00870192, -0.0667396, -0.0229551, 0.0172665, 0.0194094, -0.0430025, -0.039658, -0.0597892, -0.0638415, -0.0226843, 0.0312514, -0.0258731, 0.00154477, 0.00801796, 0.0388691, -0.00914175, 0.0307166, 0.0426534, 0.0405628},
	{0.0127372, 0.00790638, 0.00785638, 0.0219667, -0.000419986, 0.00869353, 0.0123886, -0.00229436, 0.0327095, -0.0275724, -0.00394713, 0.0205636, -0.037521, -0.0160311, -0.00983699, 0.00493697, 0.0396784, 0.0196017, -0.0190283, 0.00567815, 0.0141335, 0.00324678, -0.0388412, -0.0022402, -0.00838584},
	{0.0505072, 0.0546713, -0.014513, 0.0329355, 0.0123615, -0.0168691, -0.0308208, 0.0349951, 0.0222604, -0.00862189, -0.0293577, -0.00912799, 0.00405439, 0.0541128, 0.0200486, 0.0396585, -0.00258811, 0.0161139, -0.0452596, -0.0297275, -0.0221796, -0.0271519, -0.0605526, -0.0396622, 0.0285252},
	{-0.0105164, 0.016426, 0.00562194, -0.00712625, -0.0146259, -0.00686283, 0.00652381, 0.00644674, 0.00705632, 0.00857564, -0.0254908, 0.0255724, 0.0169099, 0.00874062, -0.0218693, 0.00939953, -0.0146766, 0.0152173, -0.0307081, -0.0230019, -0.0182254, 0.0273996, -0.0237191, -0.00160373, -0.00160533},
	{-0.0199358, -0.0179238, -0.0199488, 0.023226, -0.033401, -0.0211191, 0.0205735, 0.018702, -0.0133165, 0.00411568, -0.0275262, 0.00739201, -0.0204665, -0.0209487, 0.0185046, 0.0206715, 0.0135171, -0.0253686, -0.0266564, 0.0363421, -0.0191079, -0.00885721, -0.0249013, 0.0354341, -0.0152592},
	{-0.013358, -0.0225518, 0.0113281, -0.0395176, -0.0294118, 0.013977, -0.00192625, -0.0170773, 0.0350406, 0.0173338, 0.0307011, -0.0125154, -0.0106992, -0.00666351, -0.0234454, -0.033418, -0.0114999, 0.0159178, 0.0451197, -0.0259147, 0.0358932, 0.032235, 0.0596941, 0.0477098, 0.00421458},
	{0.0206479, 0.00472809, 0.00922154, 0.00714174, 0.019964, -0.00867011, 0.0360913, -0.0231123, 0.00991354, 0.00320947, 0.0190042, -0.00478095, 0.0243059, 0.0165581, 0.0286332, 0.0092812, 0.00366882, 0.00787247, 0.00980903, 0.0214623, -0.00348742, -0.0041159, -0.000300266, -0.0142705, -0.00694291},
	{0.0276112, -0.0107318, 0.0170009, -0.0198671, 0.0333319, -0.0197354, 0.0226002, 0.0199906, -0.0117331, 0.0284427, -0.0264949, 0.0182856, 0.0376559, -0.0183789, 0.030282, 0.0087161, 0.0268795, -0.0174799, 0.0275075, 0.00806338, -0.0245991, -0.0248006, 0.00687519, -0.0254129, 0.0181815},
	{0.0146407, -0.0160525, -0.019203, -0.00327031, 0.0105796, -0.0271029, -0.0296707, -0.0461684, 0.0224789, -0.0298915, -0.00312543, 0.019268, -0.0328018, 0.00621715, 0.0146053, -0.0351128, 0.0135456, 0.00318317, 0.00246971, 0.0392447, 0.0380404, 0.0405777, 0.00456864, -0.00840116, -0.00324541},
	{0.0393542, 0.0396996, 0.00905659, 0.0265634, 0.0328526, 0.0338911, -0.0311462, 0.0482993, -0.00125462, 0.0296179, 0.00671749, 0.0499208, 0.0194764, -0.000738117, 0.0211376, 0.0216518, 0.0219886, -0.044217, -0.033714, -0.0543094, 0.00302035, -0.0298278, -0.0244954, -0.00214617, -0.0313898},
	{-0.0317169, 0.032693, -0.00558243, 0.00204394, -0.0128538, 0.0214701, -0.0186522, -0.0131087, 0.032303, 0.0139169, 0.0237098, -0.0126889, 0.00186475, 0.0170434, -0.0358463, -0.0116058, 0.0333352, -0.0103144, 0.020102, 0.0132905, -0.0141441, -0.00984291, -0.0154182, 0.0375813, -0.00718486},
	{-0.0116222, 0.0105542, -0.0329204, -0.0546835, -0.0523776, -0.0314767, 0.0491937, -0.00254725, -0.00249104, 0.0162632, -0.0221599, -0.0423099, -0.0486856, 0.0160315, 0.00224336, -0.0746847, -0.0301266, -0.0162633, -0.0199611, 0.00887734, -0.00086943, 0.0590528, -0.0215526, 0.0238331, 0.0397457},
	{0.00339041, -0.023573, -0.00121946, -0.0289096, -0.00701446, -0.0159962, -0.0310748, 0.00703609, 0.000527794, 0.0130051, 0.00413688, -0.00776618, 0.0262602, -0.0302721, 0.00271569, 0.0160632, 0.0263522, -0.0034845, 0.0146066, -0.0256076, 0.0279489, 0.00357507, 0.0137585, 0.00703104, 0.000893755},
	{-0.0198403, 0.0037701, -0.017651, -0.0104527, 0.00955184, -0.00274738, 0.0358921, -0.0454324, 0.00808085, 0.000238462, -0.0149309, -0.0411688, -0.0550004, 0.0068337, -0.0377625, -0.0150973, 0.00245959, -0.0133529, 0.00767172, -0.0182875, 0.0571812, 0.02328, 0.0277775, 0.0767478, 0.000978841},
	{-0.0384602, -0.0383488, -0.00392324, -0.0757835, 0.0260133, 0.032019, 0.013204, -0.0508881, 0.0273569, 0.00959793, -0.00695446, -0.0651504, 0.0128547, -0.0497383, -0.0270965, -0.0227383, 0.00302416, -0.00697186, 0.0410139, 0.0265995, 0.0619431, -0.00546364, 0.081674, 0.0814828, 0.00483689},
	{-0.0120918, 0.00980101, -0.0251849, -0.00371362, 0.0220466, 0.0283791, 0.0360605, 0.0111892, -0.00303798, 0.00863357, -0.0322094, -0.000666134, -0.0280625, 0.00425407, -0.0108732, 0.00834331, -0.00720757, 0.0241462, -0.0361522, -0.0298274, 0.0145004, -0.00783219, -0.0446404, -0.0188697, -0.017687},
	{0.0624299, 0.0359907, -0.0207575, 0.0662029, 0.00803975, -0.0226947, 0.0120455, 0.0263041, 0.0202261, 0.0339785, -0.0086079, 0.0358044, 0.00135257, 0.0160348, -0.00426189, -0.0259374, -0.00120803, -0.0248098, -0.0307977, -0.0109979, 0.0025511, -0.00563279, -0.0164868, -0.00973028, -0.00241289},
	{-0.0135962, 0.0143248, -0.0104493, -0.0115185, -0.000108169, -0.0315018, 0.0281084, -0.0284807, -0.0195175, 0.0254345, -0.0225432, -0.0123741, -0.0273887, 0.0115535, -0.0251226, 0.00705018, 0.00315802, -0.0043847, -0.028021, 0.0315937, 0.007724, 0.012952, -0.00652366, -0.0137233, -0.00748495},
	{-0.000426792, -0.0231314, 0.0174542, -0.0475526, -0.0386504, 0.0183141, 0.0302175, -0.0317604, -0.0215296, -0.0211339, 0.0182047, -0.0290153, 0.00496246, 0.0170931, 0.0198047, -0.0341698, -0.0402421, -0.0152865, -0.0169203, -0.0155024, 0.0335712, 0.00182981, 0.020328, 0.0044116, 0.0346428},
	{-0.0309873, -0.0399601, 0.00165333, -0.036317, 0.00187995, 0.0265571, 0.0389899, -0.0450524, -0.0142173, -0.00348945, 0.0302145, -0.057662, -0.0197548, -0.0492819, -0.0439924, -0.0340202, -0.011206, 0.0320382, 0.0366399, 0.0278564, 0.057908, 0.0381581, 0.0545947, 0.051309, 0.0162612},
	{-0.00542834, 0.00713047, 0.0286262, -0.0195552, -0.0213892, 0.0250978, 0.00115048, -0.0175202, -0.0323218, -0.0329221, -0.00687289, -0.00352831, -0.00509763, 0.0201407, 0.0150183, -0.0393595, -0.023408, -0.0121233, 0.0257335, -0.00835694, -0.00390765, 0.0147361, -0.0231754, 0.035583, 0.000232185},
	{-0.00843841, 0.0309326, 0.0278792, 0.00782898, -0.000507788, -0.0302589, 0.0170395, 0.00519713, 0.0309596, -0.0333118, -0.0226752, 0.00141187, 0.00701665, 0.00280958, 0.0401096, -0.0224718, -0.0172064, -0.00980648, -0.00278963, 0.00756841, -0.00377146, -0.0274949, 0.00818518, 0.00531422, 0.0279741},
	{-0.00594424, -0.0155441, 0.00490651, 0.0120666, 0.0229666, 0.0019132, 0.0333842, 1.25329e-05, 0.0296077, 0.0177675, 0.00616626, 0.0210314, 0.00978839, -0.00937865, -0.0106047, -0.0201453, 0.00281554, -0.0119819, 0.0150096, 0.0049296, -0.0086164, -0.00830692, 0.0292984, 0.0149113, -0.0112649},
	{0.0185599, -0.00412158, 0.0108451, 0.0502166, 0.0247306, 0.0156997, -0.044153, 0.0378533, -0.0133886, 0.0331178, -0.0153948, 0.0456837, 0.0535896, -0.0254698, 0.026372, 0.0620751, -0.00453126, -0.0235173, 0.00175709, -0.012877, -0.012021, -0.0231969, 0.00596383, -0.0141298, -0.045897},
	{-0.0218691, 0.0287034, -0.0175642, 0.00112852, 0.0182505, -0.0289491, 0.0399166, -0.0241605, 0.00212241, 0.00775127, 0.0116271, -0.00968641, 0.00699071, -0.0288313, 0.0196354, -0.0157129, 0.00308124, 0.0324875, 0.0112522, -0.0316425, -0.0112606, -0.019867, 0.0101913, -0.00663389, 0.0277499},
	{-0.0251818, 0.0263529, -0.0432167, -0.0406766, -0.0537296, -0.0386188, 0.0613434, -0.0246877, -0.0239989, 0.0275361, 0.00871586, -0.0444356, -0.0216595, -0.0292942, -0.00220606, -0.0219476, 0.0131047, 0.0166076, 0.00837468, -0.00427687, 0.0136052, 0.0496954, -0.0228349, 0.0400878, 0.0528123},
	{-0.0583472, -0.0384332, -0.0290856, -0.00263832, -0.0158724, -0.00925327, 0.000259196, -0.00286991, -0.00597453, -0.0117526, 0.0056283, 0.010572, 0.0140886, -0.0356973, -0.035972, 0.00868636, 0.0250616, 0.0210933, 0.0295953, 0.0167108, 0.0288127, -0.00289634, 0.00825882, 0.0340643, 0.0223333},
	{-0.064038, -0.0193033, -0.0330731, -0.0281327, -0.0171383, 0.0258891, -0.00797875, -0.040064, 0.00437645, 0.0363006, 0.000867109, -0.000842541, -0.0468715, -0.000579635, -0.00708398, -0.0333093, -0.00367749, 0.0320796, 0.032018, -3.98273e-05, -0.00367668, 0.0299593, 0.0145545, 0.066396, 0.0215371},
	{-0.0259138, -0.00431458, 0.0219343, -0.00924114, 0.00318075, 0.0157797, -0.0250581, -0.0242205, 0.0254857, -0.017087, -0.0224622, -0.0337321, -0.020172, -0.0273873, -0.0304639, 0.0100182, 0.0327819, 0.0155949, 0.0350639, 0.0104082, 0.0351512, 0.00404608, 0.0447467, 0.0328695, 0.00189144},
	{-0.0143432, -0.0199606, -0.0167477, -0.0177513, -0.0044269, -0.00621215, -0.00479383, 0.041393, -0.0131333, -0.00903264, -0.0252984, -0.0253743, 0.0183216, 0.0253928, -0.00624908, 0.0281939, 0.0338838, 0.0210422, 0.0141296, -0.0153262, 0.000655435, -0.0288032, 0.00650991, -0.00793697, 0.0286508},
	{-0.00856773, 0.0214635, 0.0344966, 0.0367485, -0.00613319, -0.00273096, -0.0134666, 0.0136636, -0.0176629, 0.0285295, -0.00858236, 0.0290281, -0.0109519, 0.0081253, 0.0128367, 0.00757875, -0.00128932, 0.000282002, 0.0187825, 0.0176924, -0.0283666, 0.0279624, -0.0145227, -0.0439419, -0.0204913},
	{0.000891596, -0.00411256, -0.0139382, 0.0237153, 0.0265032, 0.0114175, 0.0222339, -0.013771, 0.0109567, 0.0324466, 0.00967126, 0.00992747, 0.0260457, 0.00162002, 0.0226988, 0.0222286, -0.00662947, -0.0306287, -0.0298656, 0.0174946, 0.00146723, -0.0237562, 0.0175519, 0.032533, -0.0337024},
	{-0.0195687, 0.0262293, -0.0084125, -0.00406139, -0.0317924, 0.00724786, 0.0248252, -0.0429228, 0.030658, -0.00306483, 0.0308146, -0.00584472, 0.0230781, 0.0101592, 0.00867191, -0.0113287, 0.0154757, -0.00793817, -0.0105087, 0.0397537, -0.0151843, -0.0107061, -0.00846572, -0.0032501, 0.0147434},
	{-0.0643223, -0.0113713, -0.0209915, -0.046126, -0.0310003, -0.0197, 0.00183138, -0.0555467, -0.0177292, 0.00113481, 0.0199379, -0.00189501, -0.0226387, -0.0268524, -0.0333074, -0.0153091, -0.0204036, -0.0037486, 0.0383998, 0.0115603, 0.00121925, 0.00687717, 0.0550439, 0.0349743, -0.0102033},
	{0.0246519, 0.0170049, -0.0161258, -0.0178854, -0.0146917, -0.0058308, 0.0225381, 0.00738519, 0.0132605, 0.00581499, -0.016573, -0.00275075, -0.0342186, 0.0263534, 0.0132768, -0.0279585, -0.0272354, 0.00227536, -0.00390517, 0.00529542, -0.0143933, 0.00386057, -0.0166503, 0.0147823, 0.0289962},
	{0.0203147, 0.0442628, -0.0111708, 0.0134289, -0.00317762, 0.00312149, -0.0236874, 0.022786, -0.0131238, 0.0243083, 0.0236334, -0.00453482, 0.0207461, 0.0448375, 0.0453329, -0.00378032, -0.0257523, -0.00740405, 0.0167278, 0.00784153, -0.0472228, -0.0303736, -0.00549436, -0.0525995, -0.0374917},
	{0.00947428, -0.00997353, -0.00495882, -0.0376804, -0.0231315, -0.0121285, -0.000448529, -0.00192814, -0.0239107, -0.018937, 0.0286745, -0.0283844, 0.00339625, -0.00596734, -0.00253012, -0.00385279, 0.0121955, -0.0150724, 0.0123365, 0.022809, -0.0125465, -0.0210387, -0.00139769, -0.0212366, 0.0274069},
	{-0.0276811, 0.00897581, 0.00800389, -0.0123555, 0.0361408, 0.00779, -0.0121799, 0.00257238, 0.0145693, 0.0266396, -0.00622239, 0.00262608, 0.00245688, -0.0391487, 0.025036, 0.0173506, 0.0169633, -0.0110535, 0.0203128, -0.0019235, -0.0248765, -0.0179521, -0.0117233, 0.00795499, -0.00238134},
	{-0.0198545, -0.0356931, -0.0341778, 0.00940078, -0.0346425, 0.0265424, -0.00202739, -0.0120935, -0.00756439, 0.0349754, -0.0171186, -0.0175704, -0.0223353, -0.0106145, -0.0302983, -0.0210904, 0.00361174, -0.00468521, -0.00141218, 0.000443393, -0.01415, -0.0147084, -0.0304597, 0.0337263, 0.0184649},
	{-0.0280494, -2.12432e-05, -0.018458, -0.0109177, -0.0617825, -0.0488401, 0.00897431, 0.00194365, -0.0226282, -0.00366953, -0.0101849, -0.0139824, -0.0514037, 0.000948251, -0.0129295, -0.0233509, -0.0140197, 0.0252402, -0.0287195, 0.0290858, -0.0187302, 0.00352211, 0.00866343, 0.0366565, 0.0229805},
	{-0.0282342, -0.0274862, 0.0180136, 0.0113368, 0.0321158, 0.0275199, 0.015051, -0.0132884, -0.0131766, -0.0218684, -0.0184684, 0.0205126, -0.0139953, 0.00685992, -0.0213389, -0.014762, -0.019193, -0.00396344, 0.0364777, 0.00369442, 0.0567465, -0.00657434, 0.0423153, 0.00159202, -0.021714},
	{0.00343247, -0.0158613, -0.0173432, -0.00141632, 0.013895, 0.0133989, 0.0351493, -0.0275868, 0.0353768, 0.0257232, -0.0125388, 0.00304821, 0.00151841, -0.0195598, -0.0078545, 0.00307538, 0.0142221, 0.00417565, -0.000628833, -0.00256459, 0.0169837, -0.0255015, -0.00619229, 0.058151, 0.0365698},
	{-0.0423869, -0.0384028, -0.0305353, -0.000996335, -0.00141246, -0.0113824, 0.0319656, -0.024746, 0.0119238, 0.0239645, -0.00266906, -0.0265392, 0.00823293, 0.00680944, 0.0122554, 0.0305744, 0.0113793, -0.0140359, -0.00654415, -0.0268602, 0.0619492, -0.00344303, 0.051901, 0.0620444, -0.00607889},
	{0.0307301, 0.0139256, -0.00954994, 0.0438195, 0.025346, 0.0185443, -0.011324, -0.00198157, 0.0250419, 0.021051, 0.0210687, 0.0221871, -0.0234601, 0.00257731, -0.00401977, -0.000113314, 0.0250958, -0.0103225, -0.0290335, -0.0249754, -0.0329536, 0.014332, 0.00531896, -0.00405823, 0.0305125},
	{0.0147487, -0.00489225, 0.0257557, 0.0422723, 0.0333701, -0.0165937, 0.00570863, 0.0510817, -0.0227168, 0.0334466, 0.0249328, 0.0115395, 0.0182917, 0.0270369, 0.0361129, -5.78343e-05, -0.00181713, 0.00419222, 0.00376862, -0.0113036, 0.00302707, -0.0165921, -0.0170481, -0.000424218, 0.0309633},
	{-0.0153824, 0.00379707, -0.0239149, 0.0119875, 0.00563843, 0.00514679, -0.0162064, 0.00525134, 0.000417814, 0.0304584, -0.0224068, -0.0213037, -0.033725, -0.0269437, 0.0252294, -0.0346987, -0.00269021, -0.00530994, 0.0215846, -0.021848, -0.0150581, -0.00684139, -0.0237019, -0.0085489, 0.0044765},
	{0.00455933, -0.0342648, -0.0208464, -0.0152794, -0.011493, 0.0111905, -0.0232164, -0.0548436, 0.0279269, 0.0108347, 0.0102224, -0.0164894, -0.00973075, -0.0286478, -0.0127412, 0.0216914, -0.0147684, -0.0126737, -0.0260132, -0.0217011, -0.00164092, -0.0139715, -0.014759, 0.0323449, 0.0300624},
	{-0.0487478, -0.0346353, 0.0073579, -0.00795575, 0.0031624, 0.010795, 0.0289828, -0.0357543, -0.000735662, -0.0383091, 0.0229019, -0.0415989, -0.0364268, 0.00456482, -0.00999621, -0.0180344, 0.0225644, -0.0267008, -0.000447509, -0.00942847, -0.000189429, 0.000166156, 0.00479111, 0.0167623, -0.00712214},
	{0.0187259, 0.0105252, 0.0234926, 0.0230391, 0.0077655, -0.0197753, 0.0293848, 0.00773287, 0.0252726, -0.0196156, -0.0240964, -0.0262841, -0.0255316, 0.000701036, 0.00818297, -0.0266367, 0.0149502, 0.0162918, 0.0119072, -0.0198098, -0.0194835, 0.0129175, -0.0344947, 0.0210638, 0.0265599},
	{0.0580269, 0.02893, 0.0161843, 0.0311221, 0.0277878, -0.0309603, -0.0248686, 0.0548808, -0.00781525, 0.0217464, 0.0019312, 0.0188676, -0.00535107, -0.00829226, 0.0528729, 0.0121554, 0.00878684, -0.030328, -0.0301885, 0.0197985, -0.0566162, -0.00287419, -0.0310362, -0.0420173, 0.00379454},
	{0.00544174, 0.00818614, -0.025703, -0.0233489, -0.0327074, -0.0336655, -0.0224713, -0.00203099, 0.0158802, -0.000745383, 0.0300738, -0.0272625, -0.0196817, 0.0229239, -0.0247902, 0.00662913, -0.0167127, 0.0189629, -0.0309856, 0.0362708, -0.013583, -0.0094837, 0.010384, -0.00726452, -0.00114728},
	{-0.0494284, 0.015395, -0.0107664, -0.0431685, -0.0398022, 0.0254569, 0.0311013, -0.0220819, -0.0383753, 0.0328931, 0.00248951, -0.06453, -0.0516845, -0.00627531, 0.00289282, -0.0657571, 0.00978151, -0.00390901, 0.0142637, 0.0181045, 0.0334852, 0.0283497, 0.0293627, 0.0619064, -0.00385793},
	{-0.00766936, 0.00960453, 0.0092086, 0.00174759, -0.000838092, 0.00676618, -0.00667487, -0.0393195, 0.033521, -0.025228, 0.000754428, -0.0176316, -0.0111974, 0.0171572, -0.0121743, 0.00878155, -0.025103, 0.0123928, -0.0084896, 0.0174931, 0.0136945, -0.0111297, 0.041766, 0.037399, 0.0149986},
	{-0.0021038, 0.000799299, -0.0115964, -0.00861429, -0.0269493, -0.0392533, -0.000720145, 0.00841167, 0.0265856, 0.0329344, 0.00801429, -0.0160042, -0.0171899, 0.00183255, 0.0214903, -0.0152344, 0.00707954, 0.000626207, 0.0182257, 0.0109002, -0.0113749, 0.0402636, -0.0228407, -0.0109235, 0.0200917},
	{-0.0222355, -0.0686972, -0.00704659, -0.0250076, 0.0248826, 0.0296544, 0.0104945, -0.0449554, -0.00574092, -0.0133138, 0.00956854, -0.033582, 0.0224074, -0.0215971, -0.00189118, 0.0209026, 0.0157032, 0.0171274, 0.0364604, -0.00101218, 0.051281, -0.0171765, 0.0324965, -0.000624797, 0.0185878},
	{-0.0208099, -0.015453, -0.0313627, -0.00169208, 0.026419, 0.00320102, 0.028032, -0.0473057, -0.00244344, 0.0252932, 0.0185325, -0.0222498, -0.0321362, -0.015381, -0.0301285, -0.0244782, 0.0110777, -0.0100476, 0.0301163, 0.00234748, 0.0228761, -0.0297025, 0.0248069, 0.015851, 0.0277986},
	{-0.0273748, -0.0311068, 0.0240644, -0.0329718, 0.016116, -0.015846, -0.00963854, -0.000278277, -0.00778582, 0.00272199, 0.017462, -0.0176397, -0.0144893, 0.0122337, 0.0215307, -0.0316827, -0.0344917, -0.0185624, -0.014798, 0.0354584, 0.045866, 0.035126, -0.0191114, 0.00281383, -0.00358853},
	{0.0252638, 0.0470386, 0.0292994, 0.00769757, 0.0309146, -0.0153529, -0.0164257, 0.0249133, -0.0220544, -0.0258471, -0.00385878, 0.00768378, 0.0246965, -0.0101684, -0.00526338, -0.00460322, 0.00206434, 0.0225836, -0.0250432, 0.0108555, -0.00163239, -0.0126875, 0.00108814, -0.0157798, -0.0282079},
	{-0.00572679, 0.0129165, -0.0301735, 0.00260254, -0.017523, 0.0319483, 0.000901466, 0.0252652, 0.0285424, -0.0139602, 0.00947467, -0.0136883, 0.00699877, -0.00584675, 0.0364269, -0.0242935, 0.00906174, 0.0219405, 0.0261377, -0.00329568, -0.039986, 0.0322323, 0.00533386, 0.0184704, -0.024807},
	{-0.0326039, -0.0233654, -0.00362149, -0.00949903, 0.00786823, -0.0302855, 0.0129441, -0.0339677, 0.0104634, -0.00288345, -0.012862, 0.0060174, 0.0329887, 0.0330745, -0.0337459, -0.010942, -0.0259771, 0.0182688, -0.00280218, -0.00287223, 0.0116055, -0.0205717, 0.0125458, 0.0327161, -0.027159},
	{-0.0326375, -0.0553068, -0.00584931, -0.00362189, -0.00897493, 0.00326207, -0.0258965, -0.0170188, 0.00649549, -0.0119527, -0.0126379, -0.0079662, -0.00139205, 0.00379079, -0.0319968, -0.0363386, 0.00331959, -0.00440268, 0.0185045, -0.0132267, 0.0241656, 0.0436943, 0.0171537, 0.0101417, 0.0325085},
	{-0.0329385, -0.0273281, 0.0307799, -0.0230998, -0.0244512, 0.00387639, 0.00443426, 0.00288659, -0.0291726, -0.0127464, 0.0207419, -0.0360346, 0.0240091, 0.0214441, 0.00548759, -0.0164468, 0.00950273, 0.0264213, 0.00283514, 0.0168034, -0.00936828, 0.0135123, 0.00220127, -0.0167755, -0.020965},
	{-0.0243517, 0.0379075, 0.0037742, -0.00634992, 0.00704659, 0.0318054, -0.0224704, 0.0343347, 0.0322348, -0.00537727, 0.0119505, -0.0324582, -0.0328079, 0.0374874, 0.0159194, 0.0259148, -0.0255186, 0.0198322, 0.022187, -0.0106943, -0.0390881, 0.0287894, 0.0259133, 0.017622, -0.0204},
	{0.0506459, 0.00235583, -0.0165878, 0.0309717, 0.00624579, 0.0257873, -0.00780453, 0.034183, 0.029689, -0.0213659, -0.0232971, 0.0417679, -0.00351831, 0.0379023, 0.0205093, -0.000405792, 0.0167481, -0.00161604, -0.0494505, 0.0256143, -0.0275742, 0.0342661, -0.0689107, -0.0444636, -0.0139207},
	{0.0150595, -0.0105097, 0.0025393, 0.00906445, 0.0201911, -0.0181608, 0.0299253, -0.0178737, 0.0332535, -0.0177021, 0.0292229, 0.0122128, -0.0219089, -0.00578526, 0.0192035, -0.0378382, -0.0317142, -0.0154836, -0.00473445, -0.0109841, 0.0191126, 1.90352e-05, -0.0219321, 0.0195531, -0.0061938},
	{0.0511809, -0.00418622, 0.0472507, 0.0439321, 0.0320178, 0.0290448, -0.0364368, 0.0190442, -0.0303514, -0.0547426, -0.0335186, 0.0459677, 0.06929, 0.0167005, 0.0578913, 0.0506807, -0.0340382, 0.00530157, -0.000966844, 0.0105319, -0.0234994, 0.00580032, -0.0316359, -0.0365834, -0.0341442},
	{-0.0430029, -0.0190686, 0.0166782, -0.0047576, -0.0226466, 0.00978793, 0.0222545, -0.013103, 0.000382329, -0.0154666, 0.0296874, -0.0353371, 0.019675, -0.0416976, 0.0111288, -0.00915959, 0.0255679, 0.0260271, 0.0451236, -0.0156632, 0.044742, 0.0153975, 0.0477651, 0.00425142, -0.0116424},
	{-0.0297232, -0.00247467, -0.0328559, -0.0259743, -0.0234317, -0.000605084, 0.0320248, -0.0171029, 0.00388417, 0.0287219, -0.0256852, -0.0542956, -0.0326913, -0.0435257, -0.0431423, -0.022941, 0.00675096, 0.028892, -0.0143976, -0.0199056, 0.02805, 0.0356305, -0.00245395, 0.0112264, 0.0365503},
	{-0.0339924, -0.0448631, 0.0348192, -0.00773224, 0.013738, 0.0158575, 0.0131953, -0.00309709, 0.0265635, 0.0187836, 0.0288453, 0.00392381, 0.0218269, -0.0140556, -0.0224272, 0.0127798, -0.00642108, 0.00996769, 0.0461114, -0.0148621, 0.0251515, -0.041879, 0.0392926, 0.00819605, -0.0182766},
	{-0.00449497, -0.0265428, 0.000931981, -0.0202288, -0.0224717, 0.0139254, 0.0109753, -0.00583576, 0.0147623, -0.00496284, 0.0137415, 0.0121734, -0.0273577, 0.0183717, 0.00286526, -0.0175021, 0.032821, 0.0288566, 0.0363586, -0.00239542, 0.00888122, 0.0277885, 0.0333012, 0.00358739, 0.000530004},
	{0.0145416, 0.00354726, 0.0038936, -0.0169387, -0.0277361, -0.00238719, 0.0111193, -0.00747897, -0.0288735, 0.00357895, -0.015908, -0.0137912, -0.0296437, 0.00112573, 0.00909638, 0.0223912, 0.00288487, -0.00512964, -0.0275976, 0.0087256, 0.0114641, -0.0241354, -0.00964701, 0.00507767, 0.0064519},
	{-0.0258821, -0.0117461, -0.00407624, 0.00559429, -0.0233067, 0.0217214, -0.0221869, -0.00552739, 0.0310321, 0.03316, 0.0257367, 0.00225966, 0.0282303, 0.0289272, -0.0297175, -0.000164551, -0.0217204, -0.00774881, 5.78177e-05, -0.0425423, 0.0112263, -0.00329546, -0.0119045, 0.0182758, -0.0184317},
	{-0.0122933, 0.019182, 0.0145014, 0.0191052, -0.0258883, -0.0146448, -0.0205125, -0.0101588, -0.0136696, -0.00412928, 0.0291176, 0.0151528, -0.0298982, 0.0200423, -0.0152671, 0.0253758, -0.00132634, 0.00454287, 0.0201875, -0.0101919, -0.0411906, 0.037943, 0.011153, -0.0141987, 0.0100826},
	{0.0143241, 0.0236694, 0.00850318, -0.00541088, 0.0103474, -0.0117243, -0.0155225, -0.0205523, 0.00920582, -0.0121045, 0.0313617, -0.00879821, -0.00725833, -0.0272778, 0.00994183, -0.00830903, 0.00658881, 0.0279512, 0.00162684, -0.0147127, -0.0290024, 0.0340046, 0.0202185, -0.0175021, -0.00370348},
	{-0.0335561, -0.060989, -0.0127513, -0.0415052, -0.0356637, -0.00296759, 0.0307115, -0.00728398, 0.0131861, 0.0206572, -0.0208038, -0.0558425, -0.034663, 0.00281721, -0.043748, 0.0204522, 0.0181556, 0.00756875, 0.00781159, 0.0137993, 0.0603555, 0.0017148, 0.0175124, 0.0508619, -0.0032398},
	{0.0156364, -0.029947, -0.0129117, 0.000667361, -0.0202765, -0.0182545, 0.0275095, -0.019702, 0.00833991, 0.0203405, 0.0346221, -0.0395407, 0.00980749, 0.0206231, 0.0109885, -0.0300637, 0.00370571, -0.0135441, 0.021067, 0.00970849, 0.0413004, 0.0170451, 0.0440436, 0.0116938, 0.00677097},
	{-0.0192746, -0.0140415, 0.0240746, -0.0163051, -0.00233922, 0.0168047, -0.0204984, 0.0125214, -0.0267356, -0.0130768, 0.0322786, -0.0165408, 0.0161525, 0.0288706, 0.00258587, 0.00285928, 0.0194376, -0.0285127, 0.0208238, -0.00446814, 0.0197443, 0.0408843, 0.030668, -0.000406293, 0.0136257},
	{0.0129139, 0.0397611, 0.02569, 0.0426874, 0.00725057, -0.0059423, 0.00838705, 0.0585176, -0.0173718, -0.00998575, -0.0106414, -0.0183492, 0.00885498, -0.000776984, 0.0331611, 0.00194298, 0.000927157, -0.00218224, -0.0341214, -0.000230559, -0.0410881, -0.0100964, -0.0162182, -0.0388498, 0.00785338},
	{-0.0370383, -0.031547, -0.0270053, -0.012665, -0.00499908, -0.0135128, -0.0196828, -0.0188064, -0.0218674, 0.0103041, -0.0273705, -0.009917, -0.00920531, 0.019926, -0.0198855, 0.0170696, 0.013674, 0.0243703, 0.0332058, 0.0327351, 0.0527663, 0.00105569, 0.0494043, 0.0121099, -0.0244484},
	{0.0138775, -0.0115533, 0.0538042, 0.00519424, 0.0527323, 0.0246235, -0.0179237, -0.000659943, -0.0304215, -0.0587507, -0.0239383, 0.00466676, 0.0124717, 0.0214295, 0.0115872, 0.0602622, -0.0433367, -0.000441166, -0.00378342, 0.00953546, 0.0152754, 0.0181936, 0.0133176, -0.00617107, -0.0251855},
	{-0.062111, -0.00703179, -0.00730019, -0.00621979, 0.0224637, -0.0303011, 0.0242873, -0.0396094, 0.00310148, 0.0026136, -0.00986547, -0.00499652, -0.0158156, -0.0501264, 0.0031823, 0.024432, -0.00493638, 0.0307952, -0.00369456, 0.0157114, 0.0119054, -0.0219337, 0.0199631, 0.0298598, -0.0276675},
	{-6.68604e-05, -0.0666381, -0.00233826, -0.0317823, 0.00683945, 0.00478114, 0.0391959, -0.0119094, 0.0172686, 0.0124407, 0.0277218, -0.0479524, -0.030205, -0.00944506, -0.0110713, 0.00198614, -0.0359789, 0.00321814, 0.0356056, -0.0225721, 0.0184752, 0.0452528, 0.0153006, 0.0486327, 0.0206427},
	{-0.0247081, -0.0166973, 0.0167478, -0.00356875, -0.00339034, -0.0162633, -0.0163527, -0.00881885, -0.00879465, -0.00878395, 0.0160876, -0.0322635, 0.0341508, -0.0550311, -0.0433145, 0.0500822, 0.016486, -0.00196042, 0.0165527, -0.0356794, 0.025696, 0.00425736, 0.0194133, 0.0589241, -0.0205947},
	{0.00143117, -0.0164895, 0.00575095, 0.0136076, -0.0289369, -0.0270275, 0.0293261, -0.0140356, 0.0228176, -0.00203091, -0.0105501, -0.0105149, 0.0106222, -0.040011, 0.00938356, -0.0133059, -0.000918802, 0.0363264, -0.0131139, -0.00739893, 0.0337299, -0.019482, 0.0181504, 0.0106907, -0.0116907},
	{0.0282691, 0.020253, 0.0103426, 0.0100162, 0.0157495, 0.000757108, -0.00541813, 0.0261502, -0.0217617, 0.0196991, -0.00339985, -0.0106668, -0.0256223, 0.0418725, 0.0227328, 0.026477, -0.0196088, -0.0227634, -0.0236168, -0.00598854, -0.00836383, 0.0178126, -0.0337614, -0.00831623, 0.0311699},
	{-0.0052993, 0.043862, 0.0112491, 0.040747, -0.0237771, -0.00624582, -0.0227333, 0.001174, 0.0101044, 0.0153338, -0.0296118, -0.0146066, -0.00660158, 0.0290498, 0.029639, 0.0150929, 0.0270639, -0.0205511, 0.0189169, 0.00473795, -0.0281108, 0.0174653, 0.0130039, -0.0420087, -0.0232687},
	{0.0362112, 0.018434, -0.0141928, 0.0176946, 0.0081729, 0.0157703, 0.028347, 0.0101805, 0.0319978, 0.00987759, 0.0135751, 0.0315965, 0.0183054, 0.0378747, 0.0137295, 0.0214551, -0.00221056, -0.0179274, -0.0191677, 0.0261779, -0.038111, -0.0230359, -0.00379385, -0.0290671, 9.50022e-05},
	{0.00937288, -0.0313533, 0.0218888, -0.0184361, -0.0295223, 0.0299871, 0.0219056, 0.00540529, 0.0213401, -0.00899921, -0.00834568, -0.00338902, -0.0219895, 0.0180336, -0.00629213, 0.0226543, -0.0294371, -0.00372788, -0.0185458, 0.00535375, 0.00600739, -0.0253151, 0.0132043, 0.0257857, -0.00581166},
	{-0.038659, -0.021997, 0.0261696, -0.0362363, -0.00357199, -0.00793024, -0.00346164, -0.0297434, 0.0204443, 0.0124281, -0.0155688, -0.00624001, -0.00203642, 0.00231931, -0.0504276, -0.0110904, 0.011312, 0.00815873, 0.0257654, -0.0109902, 0.0146485, -0.0177391, 0.0633692, 0.00139362, -0.0133839},
	{-0.0110061, -0.00305572, -0.013608, 0.0287185, -0.0248002, -0.0216717, 0.0339043, -0.0079828, 0.0102384, -0.0348197, 0.0316738, -0.00415678, 0.0295805, -0.028546, -0.0127204, 0.0132121, -0.0162615, 0.00647891, 0.0214265, 0.0249903, 0.0114761, -0.0145415, -0.0230138, -0.0208063, -0.00797211},
	{-0.00833049, 0.0142061, -0.00850632, -0.032148, 0.0202295, 0.00911471, 0.0338476, 0.0152296, -0.00095507, -0.00836969, 0.0336938, -0.0279518, 0.0291966, -0.00328563, 0.0242934, 0.0308239, 0.0209524, 0.0268112, 0.032334, 0.0402596, -0.0139629, -0.00746846, 0.0292522, -0.017502, 0.00379936},
	{0.0553118, 0.066314, 0.0173649, 0.0580355, 0.0106933, -0.0284377, 0.00529261, 0.0661317, -0.00454735, -0.0222701, -0.0153905, 0.0221269, -0.0171196, 0.00662771, 0.0348354, 0.0137796, 0.00846852, 0.0174126, -0.0425463, 0.0084261, -0.0669236, -0.0257613, -0.042998, -0.00967532, 0.00287552},
	{0.0148359, -0.0138561, 0.0191795, -0.00550978, 0.0312883, -0.0117728, -0.00430457, -0.0307433, 0.00587278, 0.00707875, 0.00436036, -0.0388713, 0.0175077, -0.0128634, -0.00233227, 0.0311918, -0.0201364, 0.0153514, -0.0112047, 0.00232307, 0.0141606, 0.000937122, 0.0328307, -0.00853442, -8.84971e-05},
	{0.00259673, -0.0203978, -0.00229401, -0.021396, 0.0287409, 0.025893, -0.0227035, -0.0261906, 0.0194474, -0.0042213, 0.0175865, -0.0187376, 0.0346451, -0.0155508, 0.0070431, 0.026805, -0.0108877, -0.00817728, 0.0128626, 0.0510265, 0.0333893, 0.0139161, 0.017177, 0.00179412, -0.0470156},
	{-0.0687212, -0.0702566, -0.00885172, -0.0689985, 0.0140918, -0.00754448, -0.0107107, -0.0409597, 0.000448835, -0.00124127, -0.0197935, -0.0442177, -0.0005555, -0.0590241, -0.0560345, -0.000262049, 0.00203657, 0.0291734, 0.0204376, 0.0240371, 0.0714712, 0.00448435, 0.0391768, 0.0365201, -0.000920253},
