882
25
20
-0.0238649
-0.0234591
0.000968199
0.0251273
-0.0228867
0.00422968
0.0154644
-0.0322192
0.0119973
-0.0357082
-0.0252039
0.00568082
0.0181684
-0.0124952
-0.024219
0.00893298
-0.00363972
-0.0294698
-0.0251075
-0.00123855
0.0375432
0.0224497
0.0425509
0.0222961
0.0395755
-0.010354
0.0261741
-0.0273242
0.00217339
-0.0239187
1.12993e-05
-0.0121645
0.0327201
0.0184816
-0.0130221
0.018188
0.00678391
-0.0258208
0.0281984
0.0318351
-0.0217387
0.0114169
-0.0186315
-0.0115545
-0.00982154
-0.00222891
-0.037624
0.00671062
0.0195856
0.0260975
-0.0215829
0.00607486
0.0192954
-0.00912628
0.0262299
-0.0158764
0.0383192
0.0174917
-0.00412105
-0.0160136
-0.00624834
0.0103922
-0.00464485
0.0260881
0.00255634
-0.00897697
0.000633265
0.0301384
-0.000297277
-0.0294849
-0.0152106
-0.0540487
-0.0241714
0.0269062
0.0260797
0.00473791
0.00154111
-0.0326524
-0.0200063
0.0127693
-0.0054523
0.0225326
0.0147327
0.010325
-0.00102233
0.00209037
0.0082696
-0.0302367
0.0199645
0.00639856
-0.0217598
0.0126115
-0.00824422
0.0115925
-0.00364619
0.0275566
0.0480383
0.00893729
-0.0186509
0.0295034
0.00759162
-0.0227134
0.00505993
-0.0125345
0.0154515
-4.0285e-05
0.0288882
0.0207198
-0.0290057
-0.028328
0.00102553
0.0379877
-0.00609771
-0.0174919
0.0117311
0.0300042
0.0178231
0.0349828
0.0316471
-0.0281326
0.00512184
-0.0311001
0.0119894
0.0065428
-0.0105181
-0.0222155
-0.00951514
0.0230936
0.0216741
-0.0248418
-0.0143648
0.0255181
-0.0161403
0.0199349
-0.0189484
-0.000699961
0.0154167
0.0105932
-0.0139954
-0.007924
-0.0195502
0.0196693
-0.00895918
0.00854481
0.033441
-0.0309628
0.0119258
-0.0125836
-0.000555903
-0.0311474
-0.00903985
-0.0238042
0.0136426
-0.0288165
-0.0228039
-0.03
0.016652
-0.030469
-0.0071302
-0.0319883
-0.0211592
0.00712417
0.0259837
0.0315383
-0.0294611
0.0111428
-0.00428181
0.026373
-0.013461
0.0156914
-0.0171329
0.0074758
-0.00239779
-0.0251273
0.0100829
-0.00150786
0.0135259
-0.0184361
-0.0167644
-0.0191952
0.0183042
0.0102495
0.0237163
-0.00188371
-0.0182843
0.0345862
0.0215549
0.0305571
-0.0277373
-0.00640499
0.0325737
0.0133799
0.00791151
-0.00698527
0.0113074
0.0100309
0.0184438
-0.0277043
-0.0306347
-0.0104497
0.0203568
0.0227983
-0.00775701
0.020972
0.0317359
-0.0303552
-0.0140952
-0.0221507
0.0192243
-0.0278612
-0.0073923
-0.00368977
0.0147494
-0.0182874
0.0316719
-0.000845829
0.0133297
0.0307363
-0.00442273
0.0168862
0.0219907
0.0306754
0.0303005
0.0329282
-0.0148161
0.00793343
0.00835925
-0.00947787
0.0122462
-0.021242
0.013341
-0.0305299
0.0334071
-0.0274709
0.023267
-0.0015616
0.0069115
0.00862305
0.00907883
-0.00969231
0.0146774
-0.000751441
0.0248253
0.0308671
-0.0180335
-0.0122557
-0.00483999
0.0291309
0.020382
0.0212078
-0.0202871
0.00843309
0.015042
0.0201121
0.00575904
0.00155369
-0.0139095
0.0150547
-0.0141783
0.0015904
0.0265761
-0.0217276
0.00362949
-0.0135412
0.00967845
-0.00718705
-0.00831202
-0.018063
0.00285346
0.00102653
-0.0279161
-0.0256991
-0.0332029
0.0250568
-0.0217299
0.0165346
0.0205288
0.00630693
-0.0219773
0.00466798
0.0285725
0.0281754
0.0132884
-0.0221583
0.0058207
-0.0152265
-0.0242959
-0.0081571
-0.000921158
0.0048268
0.0276864
0.0256014
-0.0234495
-0.00260693
0.0212365
0.017044
-0.00554792
-0.0224414
0.00264877
0.0257057
0.0120975
0.0063079
0.00961059
-0.0202994
-0.0300994
0.0210239
0.0297344
0.0223467
0.0264211
0.0108612
-0.00784448
-0.0126254
0.00373985
-0.0298239
0.0323974
0.0109817
0.0226773
-0.0227641
-0.0308623
0.0231896
-0.0183795
0.0287037
0.0153151
-0.0102258
0.0267828
0.00191221
-0.0256589
0.0186018
-0.0262864
-0.0241345
0.0101893
0.0272892
0.0151419
-0.00894995
0.00776371
-0.0142113
0.00573381
-0.0289749
-0.0220532
-0.0325679
0.0148356
-0.0332279
-0.0117177
0.0198866
0.00530785
-0.0137859
-0.00399717
0.0287729
0.0386548
-0.00228192
0.0196865
-0.0313689
0.0190286
-0.0399434
-0.00471256
0.0113979
-0.0361506
-0.0281411
0.00658837
-0.0210118
-0.0225699
0.0227889
-0.0149644
0.00807732
-0.00618413
0.00799458
0.0328324
-0.0334484
0.0140597
0.0216079
0.020043
-0.0348308
0.00576481
0.0303657
0.0281666
0.00225528
0.0171398
-0.0140135
-0.0108931
-0.0177751
-0.0157992
0.0168408
-0.00554782
-0.0169995
0.0170311
0.0293935
0.0343986
0.0193585
0.0114197
-0.0300674
-0.0294023
0.0266793
0.0184853
0.0162706
-0.00410225
-0.0153116
-0.0378735
0.0171954
0.0341067
-0.0102618
-0.0219008
0.00748172
-0.000564109
-0.00585728
0.0370866
-0.0119011
-0.0189072
0.0189609
-0.0210169
-0.0212249
0.0349353
0.0252259
0.0190926
0.0296014
0.0368234
0.010709
-0.0192481
0.00118927
0.0317046
0.0330556
-0.0069186
0.0170681
0.0177825
-0.000169989
-0.0249974
0.0203569
-0.0319781
-0.022832
0.00650817
0.028619
-0.000222163
0.0145516
-0.00344516
-0.00600596
0.023646
-0.00590222
-0.0235694
-0.0315771
0.0100216
0.0142826
0.00713376
-0.0217171
0.000547972
-0.00333157
-0.000110274
0.00198869
-0.0222826
0.0249625
0.0269195
-0.00169957
0.0176944
-0.00292646
-0.00569843
-0.0242802
-0.0186971
-0.0268437
-0.00275118
-0.0155861
-0.0166063
0.00194898
-0.0187241
-0.00876945
-0.0191377
-0.0235909
-0.0139315
0.00947937
-0.0266384
-0.0013693
-0.0221895
-0.0116771
-0.0226542
0.0120392
0.0293211
0.0170666
-0.0173116
-0.00194853
0.0138854
0.0211761
-0.00932701
-0.0227783
-0.0157409
0.00472504
0.00557042
-0.0251931
-0.0188173
-0.0141177
-0.0163196
0.0112562
0.00202117
-0.0322606
-0.0236678
-0.014637
0.0228317
0.0267705
0.0299645
-0.0249628
0.00172486
0.00700855
0.00112197
0.0118904
0.0259099
-0.0148835
-0.00315532
-0.00906544
-0.000548794
0.0138497
0.0220799
0.01465
-0.031687
0.00911819
0.0261144
-0.0221497
0.0144207
0.0332061
-0.00107044
0.0313494
-0.0164814
0.015654
-0.0248968
-0.0105546
-0.0173213
-0.00564239
-0.0281424
-0.0275432
0.0127327
0.00386889
-0.019587
-0.0184495
-0.0297268
-0.0152918
-0.00597597
-0.0321313
0.00147399
0.027997
-0.008145
0.00128394
-0.044687
0.013924
-0.0122459
-0.0283103
0.0249166
0.00596147
0.0260703
0.00585213
0.00507115
-0.0107841
0.0172625
-0.0107826
0.00807065
0.00844135
0.0111377
0.0231406
-0.00462241
-0.0168749
0.028929
-0.024585
0.0228275
-0.0256517
-0.00872003
0.0313228
0.0272425
-0.0189665
-0.0012306
0.0311752
-0.0271362
-0.0070805
-0.00646363
0.00957401
-0.026806
-0.0228973
-0.0206495
-0.00255187
0.0158005
-0.0250192
-0.0322244
0.0220043
0.0309831
0.00356305
-0.0262025
0.00182818
0.0129772
-0.00950302
-0.0102608
-0.0238454
0.00854725
0.0187951
0.013011
-0.00433591
-0.00474819
0.00544317
-0.00659238
-0.0166887
0.0216395
-0.0066172
-0.0211786
0.0245009
0.0214159
-0.0271119
-0.0286718
-0.00922684
0.0187399
-0.0175702
0.0219171
-0.0232277
0.0227381
0.0233476
0.0245567
0.0185276
0.0199209
-0.0320538
0.0208941
-0.0212182
0.0250161
-0.0311395
0.0130558
-8.78083e-05
-0.0066148
-0.00575005
0.0285437
0.0200283
0.0316786
0.0140271
-0.0307633
0.0128853
-0.0204628
0.015889
-0.0206267
-0.000533693
0.0249635
0.0154425
0.0237752
0.00866939
-0.00219898
-0.0220775
-0.0217364
-0.0131962
-0.000228523
-0.0330421
0.00238776
0.0290443
0.00407324
-0.00993832
0.0343051
-0.00471104
-0.000268994
0.0109999
0.0303233
-0.00618269
0.00728349
-0.0119339
-0.0202992
0.00559295
-0.0242156
0.020257
0.0250084
0.0236918
-0.0323132
0.00405509
-0.0124934
0.0241816
-0.0151876
0.0105456
0.0328292
0.0141086
-0.00858034
0.0115864
-0.0331251
0.0256382
0.0121526
0.00486507
0.0199701
0.0173883
0.0288445
-0.014086
0.0113636
0.0294346
9.98353e-05
0.00450404
0.02147
-0.0267189
-0.00654683
-0.0292579
-0.0205495
-0.0271379
-0.0103886
-0.0295223
0.0282425
-0.00952124
0.00826188
0.0165897
0.0156136
-0.00711527
0.0293111
-0.017109
-0.0256018
-0.0145824
0.0244328
0.00917644
-0.0171741
-0.027232
0.0163609
-0.0093591
0.0134616
-0.0137367
0.0124153
-0.00804558
0.00172288
-0.021449
-0.00310388
-0.00673148
-0.0167292
0.00595132
-0.0234541
-0.0300503
-0.00513928
0.0186294
-0.0158004
0.0227124
-0.0242589
-0.022742
-0.0105689
-0.00575946
-0.0145454
-0.0373314
-0.0118096
-0.015216
0.0281631
-0.0228211
-0.0129274
-0.0280126
0.0176521
-0.0242917
-0.0284289
0.0111944
0.0216585
0.0226417
0.0127249
-0.00551511
0.0105404
-0.0227959
-0.00594315
0.000214363
0.009661
-0.00192865
0.00469481
0.0115839
-0.0161423
-0.0197004
0.0150817
-0.0250511
-0.00436635
-0.00723324
-0.0182785
-0.0072944
-0.000402685
-0.00236545
-0.00357595
-0.00594533
-0.0180147
0.0236365
0.0340944
0.027493
-0.00885837
0.00506362
-0.00385811
-0.0124288
0.0190543
0.00312478
-0.0167984
0.00342148
-0.0303028
-0.0049301
0.028343
0.00284037
-0.0350251
-0.0274924
0.0300144
0.0251124
-0.00872019
-0.0282777
0.00083636
-0.0182549
-0.00670364
0.00611752
-0.0105242
-0.0110313
0.00104193
-0.015579
-0.0213185
0.00564284
-0.033654
0.014474
-0.0081817
0.0297621
-0.0215352
-0.0118294
0.0182008
-0.027206
-0.0204224
0.0272344
-0.0280984
-0.00363265
-0.00103838
-0.0266246
0.0156096
0.0350911
0.0134059
-0.0196313
-0.00750633
0.0322394
-0.0125998
0.0328845
0.0132465
-0.0216134
-0.0241198
-0.027529
0.00295635
0.0140614
-0.0114321
-0.0116186
-0.0160136
0.0182353
0.0307107
-0.0181562
-0.0118669
-0.0221142
-0.0336055
-0.031374
0.0214222
-0.0153474
-0.00420278
0.0215126
0.012207
-0.00972645
-0.00533125
0.0269863
0.032214
-0.0264963
-0.029518
-0.0120674
0.00457073
0.0274059
0.0180324
0.0199184
-0.027287
0.0281117
0.0238936
-0.0199575
-0.0306416
0.0139781
-0.00102845
0.0277898
-0.0280638
0.032642
-0.0262894
-0.00584307
0.0113465
0.00862453
0.0302588
-0.0062712
0.0272218
-0.0121717
0.0160952
-0.0267604
-0.00991824
-0.0213277
0.0320792
-0.0146562
0.0195803
0.00738481
-0.027344
0.0316213
-0.00231911
0.0249759
0.0114836
-0.0270635
-0.0134789
-0.0286855
-0.0204822
-0.00743236
0.0179225
-0.0146783
0.0202922
0.026808
-0.0169075
0.0271521
0.00586496
0.0270718
-0.0259421
0.0134019
0.0212324
-0.00440976
0.00776478
0.00374245
0.00149311
-0.00312055
-0.00522358
-0.031971
0.0180632
0.0018099
-0.0245293
-0.00939027
-0.00683809
0.00457578
0.0173319
0.00625435
-0.0183786
0.00452266
0.0128824
-0.000505493
-0.00181298
-0.0128712
-0.0152186
-0.0126301
0.0166592
-0.0300476
0.00986887
-0.00196225
-0.00268332
0.0134448
0.00987046
-0.0108054
-0.0264026
-0.0121193
-0.0126219
-0.0237329
0.014674
-0.0281674
0.00769896
0.0307632
-0.0255105
0.0221138
0.021394
0.00342993
0.0307325
0.0039219
-0.0312604
-0.0231776
-0.023503
-0.0181648
-0.0214657
0.00243605
0.00812306
0.0317309
0.0199354
0.023339
0.0360408
-0.00412612
0.0259679
-0.0045013
0.00998178
-0.00057626
-0.0191912
0.0204014
-0.0163115
-0.0297499
0.0272207
-0.00169984
-0.0297278
-0.026043
0.0296954
-0.0166588
0.0276689
0.0139941
-0.0192371
0.0249066
-0.016083
0.019875
0.00295257
0.026149
-0.0335585
-0.0227755
0.0291023
-0.0279948
-0.0225089
-0.0170909
0.000815723
-0.0222301
-0.020357
-0.0115219
-0.024866
0.0240678
0.0199736
-0.0111227
-0.0251828
-0.030861
-0.0119031
0.00131814
7.27682e-05
0.0330048
0.00942118
0.0288068
0.0139989
0.00395628
0.0119534
-0.00564339
0.0322009
-0.00414338
0.0164419
0.031149
0.0234781
0.0157743
-0.0214524
0.0218398
-0.00792292
-0.00999486
0.00271184
0.0249492
-0.034801
0.0162091
-0.0205679
-0.0246822
-0.0272588
-0.00274927
0.0316647
-0.0194039
0.00126263
-0.0120531
0.0161711
0.00215488
0.0213443
-0.00936
-0.00288315
-0.0347214
-0.00550637
0.00924247
-0.00295348
0.0247949
-0.0275416
-0.0211592
0.0218664
0.0293178
-0.00504003
0.0336418
-0.0184273
-0.0124546
0.0275851
0.0171389
0.0116041
-0.00715091
-0.000323267
0.0251361
0.00177763
0.00645316
0.0257341
-0.00186368
-0.0166273
-0.00787955
-0.0118979
-0.0313198
-0.00308409
0.00117749
0.0189958
0.00533612
-0.0276624
-0.0198115
-0.0375939
0.00253496
-0.0294352
0.00346531
-0.0203368
-0.00137344
0.0111906
-0.0189903
-0.0394011
0.0101325
-0.017571
0.0184552
-0.00629482
0.0121923
0.0296172
0.00545281
-0.0145845
0.0070202
0.0141513
-0.0307642
0.0202282
0.030494
-0.0124365
-0.0259095
0.0319279
-0.00812909
-0.0156078
0.0310398
-0.0132848
-0.00411513
0.0246139
-0.0123655
0.00697138
-0.00505558
0.0311283
-0.00602429
0.0292627
-0.0308573
0.0115192
0.0297383
0.0119449
-0.015686
-0.00347811
0.0226437
-0.0327215
-0.0204304
0.0324655
-0.0328701
0.0328027
0.0059557
-0.0143142
0.0190508
0.00589996
-0.0192282
-0.00603287
0.00807261
-0.0360325
-0.0250998
0.0255
-0.00771925
-0.00358729
0.00593729
-0.0180878
0.0136807
-0.00955349
-0.006981
-0.0350096
0.00690268
0.00582413
-0.0166027
-0.0129906
0.0290425
0.00378372
0.00943398
-0.0147307
0.000594133
-0.0154898
-0.0251881
0.0129718
-0.0212432
0.00837464
-0.00280852
-0.00390636
-0.0268505
0.0042125
-0.0115676
-0.0318135
-0.0268226
-0.00870617
0.0259412
-0.000577698
-0.00169341
0.0208217
0.00643961
-0.0279897
-0.00940827
-0.0190734
-0.0194584
0.0157394
-0.00923004
0.0288805
0.00458121
-0.0175852
-0.004739
0.0165234
0.0123865
-0.00518935
-0.0375778
0.020133
0.0137219
0.0135563
-0.000692512
-0.0248901
-0.021607
-0.0276086
-0.0254493
-0.00583317
-0.0234412
-0.0119153
-0.0105397
0.000900588
0.0171599
0.028969
-0.00722488
0.023428
0.0241422
-0.0182076
-0.00250367
0.00139767
-0.00325301
0.0312803
-0.00444292
0.0270739
-0.0225933
0.021457
-0.0164373
-0.0150355
0.0191593
-0.0178514
0.00650918
-0.00361008
-0.000512441
-0.000861468
0.00528622
0.00840435
0.012939
-0.012768
0.00393389
-0.00952024
0.00955862
0.028108
0.0253929
0.0282854
-0.0191966
0.0196545
-0.0188725
-0.028818
-0.0313573
0.023156
0.00751569
0.0321315
0.0148438
0.00399515
0.000552034
-0.00771088
0.0295045
0.0146197
-0.0196608
0.0115672
-0.00154882
0.0187203
-0.0242122
0.023754
0.0241269
-0.0178963
0.00479259
0.00206412
0.00778489
0.0105813
0.0249722
0.00218888
-0.0272523
-0.0111802
-0.0275461
-0.0140252
-0.0326492
-0.00993652
0.0258484
0.003381
0.0125228
0.0441114
-0.030401
0.0321295
0.0025655
0.00232722
0.023148
-0.00464687
-0.0167956
-0.0317309
0.00899071
0.016728
-0.0122376
0.0195046
0.0130926
-0.0219272
0.0235919
0.0175274
-0.0171202
0.0347538
0.0312373
0.00498936
0.0108733
0.00412161
0.02294
0.0137665
0.0309039
-0.00970865
0.00786839
-0.0187736
-0.00494794
-0.0156978
-0.0180762
-0.0100347
0.0132731
-0.0148665
0.0342967
0.00124754
0.0174731
0.019399
-0.030643
0.0191172
-0.0312491
-0.00442785
0.0048891
-0.0169359
-0.000837009
-0.0303393
0.0021035
-0.0184967
-0.0317276
-0.000774607
0.0195308
-0.0149746
0.0331668
0.0080135
-0.00329941
-0.00969958
0.0343981
-0.0324325
0.0051424
-0.00642921
0.0198583
-0.0168956
-0.00772779
0.0335861
0.00820227
-0.00875445
-0.00170424
0.0169795
0.0120048
0.000844974
0.00433696
0.0137076
-0.00753712
-0.026778
-0.00821442
0.0250656
0.00824124
0.0313739
0.00727625
0.0134724
0.0300777
-0.00848873
-0.00552905
-0.00213202
-0.0326224
0.0232206
0.0211376
0.000956541
-0.00872657
0.0237857
-0.00602386
0.0121856
-0.0216909
0.0207716
0.00876613
-0.0172096
0.0132116
-0.0251065
0.0315307
-0.00679817
-0.0234357
0.00241208
0.00433253
0.00203246
-0.0235729
-0.0331538
0.0300236
-0.0114577
-0.000774674
0.00123949
0.00194675
-0.00658758
0.0275101
0.0289847
0.0258348
-0.00411132
0.0163133
-0.0209997
-0.00274274
0.00966292
0.00529027
-0.00755774
-0.0140999
-0.0161376
-0.0220846
0.0289999
-0.00307884
-0.00805098
0.00398344
0.0324657
-0.0165629
0.014715
0.000942363
-0.011432
-0.0172929
-0.0220101
0.0226907
0.0117583
-0.000650338
-0.00680123
-0.0210779
-0.0339126
0.0175384
0.00760076
-0.00271505
-0.0234143
-0.0307994
0.0162111
0.0234405
-0.0367947
-0.00893236
-0.0053969
-0.00694457
0.0123783
0.00141018
-0.0377849
-0.00824205
0.00385707
-0.0118124
0.00317285
0.00295572
-0.0286625
0.0190971
0.00138789
0.0165493
0.0161373
0.0125616
-0.0160146
-0.0244743
0.0343549
-0.025886
0.0237987
-0.015981
0.0120223
-0.00402204
0.0312615
-0.00870742
-0.0173353
0.00337733
-0.000108263
-0.0224444
-0.0123342
-0.00484722
0.00339944
0.00674042
0.00731924
0.0126161
0.0129263
-0.0159374
0.00760571
0.0224312
0.0298485
0.0226967
-0.0181662
0.00230637
0.0269349
0.0239404
0.0264998
0.0188232
0.00957338
0.0141852
-0.0261162
0.00761711
0.00454905
0.0084659
-0.013487
0.0120116
0.0184469
-0.00454542
0.00196703
0.0177817
0.00884525
-0.0025536
-0.0200868
0.000904816
0.0280446
0.0211402
-0.0172356
-0.0153084
0.0237757
-0.00945622
0.00803068
-0.00411806
0.000925575
0.0151747
0.0219582
0.0149086
-0.0316948
-0.0108632
0.0189425
0.012688
-0.0261341
0.0207757
-0.0138901
-0.0257095
0.0235258
-0.0339942
-0.0306385
0.00202255
0.0334549
-0.0304843
-0.0185458
0.0245983
-0.00717888
-0.00577916
-0.00602653
0.0267604
0.00479118
-0.0238112
0.000810528
-0.0268548
-0.0116426
-0.0229684
-0.00437786
0.00365114
-0.00558817
0.0289633
0.00439038
0.000263849
-0.0189716
-0.00959986
0.0101318
0.0181204
-0.0211049
0.0100136
0.0235578
-0.0367054
-0.0243481
-0.00167342
-0.0289436
-0.0316664
1.77677e-06
-0.00866044
0.0255959
-0.0107899
-0.0200959
-0.01157
-0.0119617
0.0212146
0.0303333
0.0290822
0.0032179
0.0236221
0.00581932
0.0213108
-0.00888388
0.0244711
0.0127038
0.0268978
0.0359631
-0.00560188
-0.0253618
0.0110561
-0.0244466
0.0288602
0.0158321
0.00215038
-0.00444083
0.0254694
0.0328479
0.00295939
0.0168733
-0.002007
-0.00775809
-0.0139237
0.025579
0.00733526
-0.0242955
0.0156493
0.0301111
-0.0271371
0.0122973
-0.0112155
0.0306035
0.0166375
0.0107798
0.0225968
0.0176793
0.0271187
0.0146764
0.0148385
-0.0135047
-0.000669171
0.0259442
0.0304458
-0.00900387
-0.021604
-0.000579065
-0.0111261
-0.0329891
-0.00119798
-0.0149224
-0.00748718
-0.00226683
0.0183008
0.0108751
-0.00526067
0.0260385
0.0197072
-0.00636511
0.0218733
-0.000952114
0.0162528
0.0111109
0.022478
0.000381431
-0.0110573
0.0114542
-0.0177862
-0.00953419
0.0273327
0.00217803
-0.0332051
-0.00785412
0.0267281
0.0318924
-0.0165408
-0.0309651
-0.00243613
0.00803755
0.00466724
-0.00129665
0.0334457
0.0305329
0.0198188
-0.0162329
-0.0233279
0.0166289
-0.0226185
-0.00725909
-0.0139343
0.000142411
0.020207
-0.0340062
-0.0166105
-0.024665
-0.0299972
-0.00335468
0.0205743
0.0186574
-0.020733
0.00488673
-0.0183829
0.0147366
0.0080757
0.00800366
0.0178213
0.0268588
-0.0226286
0.00572451
-0.000945075
0.0210173
0.00689682
0.0335483
-0.0237995
-0.000730024
0.0189889
-0.0158305
0.0140279
0.0303924
0.0107843
0.00810794
-0.00725181
0.0316712
-0.0304277
-0.0299986
-0.0231748
-0.0298017
-0.0313469
-0.0044572
0.0211447
-0.0235565
0.0111042
0.00318954
0.000704814
-0.0167555
0.00845582
-0.0282125
-0.0238475
0.0211377
-0.0187052
-0.0234138
-0.0305042
0.0197129
0.00458611
-0.0212442
0.0170116
-0.00560364
0.030874
-0.0317079
0.0241969
-0.026927
0.00257408
0.0181563
0.00913501
0.0043448
0.0206186
0.0158605
-0.0248601
0.0208864
0.011522
-0.00191972
0.00310407
-0.010787
0.0315597
0.0307228
-0.0264593
0.00980848
0.00199239
-0.014805
0.0311196
0.0168598
0.0265552
0.0337525
-0.029788
0.00246164
0.0160297
-0.00952437
-0.00208073
0.00991727
-0.00824116
-0.0147799
0.0193163
0.0270128
-0.0287894
-0.00596456
0.0309789
-0.00823998
0.0100765
0.00761766
-0.0210151
0.0227046
-0.0303201
-0.0174279
0.0122421
0.00283946
-0.0236383
0.0189686
0.0128326
0.0147996
0.00216074
-0.0227638
0.0331472
-0.00539801
-0.0227482
0.00416004
-0.00260562
-0.00851385
0.028236
0.00264977
-0.033049
-0.0143335
-0.0148204
-0.0127143
0.0134162
0.0242436
-0.0181066
-0.0208527
-0.0183218
-0.0113525
0.0201721
0.0289608
-0.0182677
-0.00639934
-0.0336489
-0.0158077
0.0107635
-0.0187559
-0.0306863
-0.0353138
-0.00183062
-0.0292744
-0.0234954
-0.0382618
-0.0114686
0.0374245
-0.00424952
-0.00133546
-0.0255511
-0.0159365
-0.00229911
0.0104502
-0.0172587
0.00532645
-0.0294041
0.0148425
-0.0335223
0.0306637
0.0166251
0.0340055
-0.0161959
-0.0382102
0.0284553
0.0338997
0.029802
-0.0282266
-0.00058573
-0.0104871
0.0294088
-0.0246326
0.028137
-0.026209
-0.00925036
0.0135946
0.00682747
0.00148
-0.0244513
-0.0163703
0.00915947
-0.00997725
0.021266
0.0246265
0.0127655
-0.02424
-0.0156567
0.0273461
-0.0328968
-0.00110697
-0.0155997
0.00573427
-0.00338575
0.00422974
0.00861618
0.026155
0.0276632
0.0280579
0.00322895
0.0280422
0.0294029
0.0139494
0.0346323
0.0237681
0.0279763
0.0119388
-0.0106649
-0.00896668
0.00052115
-0.00122557
-0.0173134
-0.00508503
-0.0057677
-0.0233889
-0.0206423
-0.0268141
0.0144589
-0.010349
-0.00864909
-0.00124916
0.0154001
0.016886
0.0352712
0.00393943
-0.000831998
-0.0315368
-0.00102957
0.0280906
-0.0319739
0.0200805
0.0200937
0.0201273
0.0126401
0.00760335
-0.0212989
-0.0333614
0.000292397
0.00785587
0.0388164
-0.0131166
0.011687
0.0173528
0.0166382
0.00222921
0.0207803
0.0314924
-0.00751592
-0.0330475
-0.01915
0.0160362
0.00435912
0.0027744
0.0248678
-0.0290039
0.0169695
0.0243329
-0.0324173
0.0102333
0.0198146
0.0116217
-0.0318422
0.0052763
0.00407852
-0.00939624
0.0187344
0.0144205
-0.0226407
0.0171858
0.0142414
0.0118456
-0.0317282
0.0362356
-0.00493682
-0.0242486
-0.0261934
0.0139442
-0.0179504
-0.00844391
0.015508
-0.0327346
0.00953874
0.0232451
-0.0259576
0.0236203
0.0243623
0.021298
0.0252827
-0.000534205
-0.031458
0.0134992
-0.0219524
-0.0310842
0.0200379
-0.0165358
-0.0198013
0.00570713
0.0330512
0.0255431
-0.0131798
-0.0105307
0.00561103
0.0251477
0.0236282
0.0330458
-0.0222078
0.0298851
0.0110463
0.0252767
0.0248178
0.0303844
-0.00579105
-0.00175785
-0.0151618
-0.0378071
-0.00397385
0.00934791
-0.00850437
0.0217456
-0.0202206
-0.00818303
0.000288253
-0.026807
-0.00657943
0.0261595
0.00100233
0.00652538
-0.0100693
0.0335295
-0.000817595
-0.0200878
0.0217772
0.0142119
-0.0287999
-0.015945
0.00235445
0.0169481
-0.0231492
0.0170277
-0.0239002
0.00198298
-0.0185858
0.00533313
0.000637987
0.0357847
0.0070505
0.0305932
-0.000738449
0.0309286
-0.0120631
-0.0162869
-0.00980004
0.0163965
-0.0320378
-0.0153251
0.00404434
-0.0332914
-1.73564e-05
-0.00649719
-0.031254
-0.010803
-0.0253395
-0.00958133
0.028449
0.00525651
0.00253912
0.0316826
-0.000638558
-0.0202384
-0.0122022
-0.0229949
0.0138185
-0.0119907
0.0138695
-0.012293
-0.0051293
0.0228406
0.00842635
0.00339014
-0.0119573
0.0272528
0.0172806
-0.0184712
-0.0229501
0.0249946
-0.00662918
-0.0181372
0.0199937
0.0183801
-0.0199052
-0.0123482
-0.0260703
-0.0139616
0.0102877
-0.00174444
-0.0327403
0.0138679
0.00272148
0.0330917
0.0229933
0.0127143
-0.0239035
-0.0278439
0.00814827
0.0229564
-0.0151058
-0.0326858
-0.025604
-0.00498864
0.000440827
-0.00149354
-0.0122673
-0.0114957
0.00999532
-0.0359321
0.00731146
-0.0304082
-0.0177863
-0.00773203
-0.0117016
-0.00701685
0.0127335
0.03225
-0.0214637
-0.00967444
-0.00167637
-0.0202897
-0.032956
-0.00163798
0.0139272
-0.00567161
-0.0242539
0.0210812
-0.00125789
0.0185968
-0.0219437
-0.0153136
-0.014321
-0.00962524
0.0149239
-0.0102049
-0.0102154
0.00186091
-0.0216894
0.0299782
-0.0304448
0.0188177
0.00542082
-0.0153455
-0.0252691
0.0233711
-0.0222842
0.0224295
0.01939
-0.0102706
0.0113673
0.0189435
-0.033866
-0.0200752
-0.0201984
0.0163225
0.00676209
0.0270712
-0.0280469
0.00687234
-0.0220232
-0.0160834
0.0244253
0.031818
-0.0268229
-0.0286345
-0.012718
0.00104851
-0.0264115
-0.000269861
0.0315011
-0.0234674
-0.0163895
4.0883e-05
0.0290848
0.0283373
0.0239309
0.00479474
-0.0162857
0.00860981
-0.00143431
0.0321332
0.0175624
-0.00998929
0.0203563
0.00373159
0.00732855
0.00754685
-0.00267479
-0.0231101
-0.0185167
-0.0275904
0.0256326
0.0236245
-0.0273329
-0.0271942
-0.0254392
0.0151123
0.00526538
-0.0179353
-0.00627752
0.0256725
-0.0384173
-0.00236731
-0.00465582
0.0396548
-0.019946
0.00508103
0.00681859
-0.0110886
0.0156775
-0.0285247
0.0279531
0.0109898
-0.0198654
0.00228395
0.0244154
-0.00909758
0.0180393
0.034967
0.0187761
-0.0260304
-0.0221648
0.0280162
-0.0108631
-0.00618923
-0.02389
0.00730218
-0.00582327
0.00117731
-0.000903195
-0.00447331
0.0148553
0.0101587
0.00169878
-0.00700894
-0.0246134
0.00351423
0.0293854
-0.011289
0.00134934
-0.0209116
0.0106806
-0.0165002
0.0246712
0.0261844
-0.00212049
-0.0360461
0.0190214
-0.0176961
-0.0276991
-0.0118332
0.0137486
-0.0275303
0.0413185
-0.0340242
-0.0250525
-0.0355091
-0.0235114
0.0121921
0.0271336
-0.0231945
0.0309998
0.000818938
0.0060247
-0.0174308
0.0202824
0.0318329
0.016392
-0.0297808
-0.0109659
-0.0256853
-0.0109323
-0.0309242
-0.0356206
0.000354781
0.0264143
0.0158954
0.0102851
-0.0388096
-0.0296947
0.00769093
-0.0306497
-0.0116729
-0.00250134
0.0259613
0.0278721
-0.00351482
0.0253853
-0.0356854
-0.000776323
0.0214485
-0.00808913
0.0302194
0.0140608
0.00181397
-0.0165125
-0.0229058
0.0201416
-0.00141226
-0.00593457
-0.0241977
0.000701379
-0.0227424
-0.0211706
-0.0254187
-0.0177538
0.00579761
-0.0330734
0.00204589
0.00912228
0.00428087
-0.00257792
0.008961
0.0155535
0.0190692
-0.0331787
0.0154301
0.0167591
-0.0156303
-0.0127993
-0.0210892
-0.0206176
-0.0274076
0.0114206
0.000899225
-0.0234227
0.0342479
0.0145749
0.0183423
-0.0078824
0.00649542
0.0071116
0.000858323
0.0196531
0.0222257
0.00966555
0.00186168
0.0294385
0.00955554
0.0246472
-0.0266152
0.0145914
-0.012241
-0.0177712
0.00823843
0.0103686
-0.0172088
0.0263397
-0.00801476
0.0108035
0.0137659
-0.0242732
-0.0124501
0.020481
0.0176294
0.0230616
-0.00176614
-0.0198302
-0.00734777
-0.0086981
0.00476954
0.0111062
-0.00173138
0.013208
-0.00481595
-0.014326
0.00100339
-0.00181068
0.0244679
-0.0081761
0.0234601
0.0202426
0.00874309
0.0134368
-0.0301169
-0.0187246
0.000403402
0.0216128
0.0142144
-0.0199544
-0.0026572
-0.0102859
0.0218155
0.0179224
0.0121709
0.00587476
-0.0228424
-0.0241959
0.0203099
-0.0191626
-0.0317987
0.0144663
0.0235221
0.00084075
0.0289827
0.0212881
-0.0174692
0.00917264
-0.0152251
0.0323739
-0.00186759
-0.0212358
-0.0153525
-0.0239608
0.0180472
0.0237665
0.0242242
0.00833039
-0.00020734
-0.00208537
0.0216837
0.0115686
-0.0127263
-0.0157255
0.0316264
0.0314785
0.00835353
-0.0266194
0.0163078
0.0326602
-0.0121237
0.00568506
-0.0113233
-0.0219538
0.00573529
0.0151496
0.0329991
0.0213755
-0.00141185
0.0148273
-0.0120162
0.0233343
0.0217343
0.0100854
-0.0022995
-0.0261598
0.0317641
-0.0133197
0.0105297
0.00971334
-0.0152553
-0.0264665
-0.0146928
0.000831683
-0.0231596
0.0183952
-0.0311712
-0.00877657
0.0249291
0.009072
0.0239023
-0.0265796
0.0166041
0.0104258
0.0228184
-0.0122552
-0.00494253
-0.0130248
0.00818903
-0.0136551
-0.0318367
0.0326632
-0.0252853
-0.00740997
-0.0272491
-0.0270568
-0.00216782
-0.0300079
-0.00584545
0.0124328
-0.0190875
0.00898646
-0.0178898
-0.0319949
0.0144947
-0.00861568
0.0176652
0.0156926
-0.0120597
0.0090976
0.0265219
0.00929239
-0.0123685
0.0101456
-0.0122133
0.0112253
-0.00289725
-0.0170086
0.0293832
-0.0256916
0.00178372
0.034879
0.00747109
-0.0237279
-0.0124093
0.0132867
-0.0172439
-0.0144061
-0.0157488
-0.0250065
0.0312147
-0.00510167
-0.0146308
-0.0229663
0.0338761
0.0330647
-0.0286959
0.0183822
-0.0184429
0.0237757
0.0283647
-0.0254709
-0.00125782
0.0170083
0.0164077
-0.0127173
-0.00277739
0.0146022
-0.0278836
0.026131
-0.00997186
0.00650198
-0.00806656
0.0310743
0.017612
-0.0197159
-0.0249966
0.00053927
0.000433133
-0.00477447
0.0134983
0.0178055
-0.0188012
0.0279228
0.000434328
-0.0178662
-0.0148464
0.00653284
-0.0319851
0.00245486
-0.0401929
0.0207286
0.0278679
-0.0313915
-0.0223745
-0.0437727
0.0413523
-0.0252911
-0.0273688
0.0237903
-0.00912231
-0.00298277
0.0171089
-0.00930957
0.0110615
0.0224449
0.0163672
0.0148733
-0.0202319
0.0169745
0.0102305
0.00027902
0.013646
-0.0232663
-0.0056519
-0.0103158
0.0300114
-0.0127999
0.0118184
-0.0237284
-0.000692383
-0.0239471
-0.0159031
-0.016434
-0.0178127
0.00584074
0.0189855
-0.0258738
0.0324803
-0.03382
-0.0301265
0.0103041
0.0137053
-0.036013
-0.0236968
0.0168134
0.0391248
-0.00834934
0.00185269
0.0293063
0.00974574
-0.00152555
-0.0166884
-0.00756823
0.00992027
-0.0104913
-0.0358912
0.00607593
0.0109745
-0.0177228
-0.0321633
-0.0335846
0.0155838
0.00821845
0.0144731
-0.0277536
-0.00243393
-0.0315434
0.0267006
0.0238043
-0.0317509
-0.0147928
-0.00792026
-0.0332199
0.03232
0.0299082
0.0343304
0.0344486
0.00744697
0.00779522
0.020267
-0.00769893
-0.0254564
-0.0240833
-0.029193
0.0156124
-0.0164372
0.0155957
0.00356443
0.00190481
-0.00914534
-0.00685724
-0.0277811
-0.0066665
-0.0143722
0.0245847
0.0200007
0.0179423
0.0184256
-0.000153657
-0.0221208
0.00719547
-0.0151153
-0.0410181
0.0118975
-0.0116699
-0.033778
-0.00072017
0.0214519
-0.00988056
0.0086334
0.00330612
0.00878564
0.0139103
-0.0126489
-0.015736
-0.0331234
-0.0176891
0.0440156
0.0130893
-0.0156556
-0.0147397
0.00418758
-0.0213536
-0.0338195
0.0217982
-0.0255191
0.0201395
-0.0374246
0.00422867
0.0190556
-0.0174389
-0.0299443
-0.0288435
-0.015797
-0.01614
0.036134
0.021821
-0.0293058
0.0136746
-0.0245299
0.0269286
0.0239018
-0.0113081
0.0129719
0.013234
-0.026983
0.0133964
0.0282382
-0.0318144
0.0295088
-0.0194094
0.0218893
-0.0348746
0.00294005
0.0246033
0.0215383
-0.0193165
0.0095613
0.0290549
-0.014754
0.0290086
0.00958129
0.0244982
-0.033654
0.0277141
-0.0260862
-0.00492016
-0.0296111
-0.0113847
-0.0255529
-0.00768337
0.0151787
0.00729349
-0.0201929
-0.00628073
-0.0387376
-0.0145797
0.0182823
0.00729954
0.0220617
-0.0322524
0.0202798
0.0107824
-0.0308354
0.0216568
-0.0194489
-0.0080336
0.0109188
-0.0240348
0.0208975
-0.00907978
-0.0273327
0.000114651
-0.0182306
0.00775058
0.0282957
-0.0107804
-0.0312161
-0.0231855
-0.0210983
-0.00167652
-0.0316963
-0.0052459
-0.0262751
-0.0172538
-0.0132529
0.01719
0.00155022
0.0282909
-0.0132857
0.0324144
-0.00381612
0.00830715
-0.0021329
-0.0334375
0.0314586
0.0346727
-0.0200936
0.000571507
-0.0234907
0.0156443
0.0236613
-0.00995818
-0.0201121
0.00573746
0.0176657
0.00719755
0.00346694
-0.00973574
0.0173639
0.00440248
0.0324736
0.0198017
0.000231297
0.00378651
0.0022739
0.0201041
0.0323392
0.0020448
0.0150014
-0.0238137
-0.00868836
0.0186192
-0.0144648
-0.00928464
-0.0194466
-0.0180846
-0.014553
0.00622234
-0.0172782
0.0083341
0.0210904
-0.0347105
-0.0197506
0.0339086
-0.0224855
0.00196215
0.00672668
0.00568
0.023984
0.0157893
0.0112848
-0.0137231
-0.0236029
-0.0222968
-0.00453331
0.0116296
0.027858
-0.0164409
0.0148781
-0.0199498
0.0271693
-0.0255299
0.0260021
-0.0221611
-0.00250529
-0.028511
-0.00435691
-0.012829
-0.0214797
0.00876133
-0.012829
0.033762
-0.0186447
0.000439978
-0.00216995
-0.00825711
0.00796686
0.00854108
-0.00175643
-0.00635048
0.0332661
-0.023579
-0.015631
-0.0238594
-0.0137004
0.0125855
-0.0127297
-0.016335
0.0285824
-0.0280115
-0.00250267
-0.0116509
0.00906382
0.0233187
0.0011236
0.00637546
0.0286267
-0.00551163
0.0272801
0.00442277
0.00430985
0.01416
-0.0246947
-0.0133737
-0.01877
-0.0227822
0.011221
0.0183224
0.01883
0.0108128
0.0134672
-0.0148316
0.0197233
0.0309529
-0.00411776
-0.02846
-0.0226559
-0.0157511
-0.0114147
0.00676838
0.0221432
-0.0134894
0.0290379
0.0322992
-0.0244385
0.030248
0.00522932
0.00602785
-0.00534118
0.0179885
0.00121355
0.0437257
0.00243725
0.0107311
-0.029005
-0.0136279
0.0143597
-0.0156036
0.00115869
-0.00774183
-0.0200734
0.0141658
-0.00847215
0.0092048
0.00813867
-0.0101421
-0.0173115
-0.00559501
0.00195458
-0.012237
0.0238308
-0.0130252
0.0122802
0.0050027
0.00911249
-0.0179643
-0.0108083
0.0143807
0.020509
-0.00571987
0.0130717
0.0107644
-0.0115973
0.02622
0.0259427
-0.0324232
0.0301993
0.0252944
-0.00526718
-0.031527
0.0118865
0.0327827
0.0313829
0.0149187
0.0159568
-0.0112755
0.0293693
0.0132546
-0.00908761
-0.0211313
0.0388332
-0.0522648
0.0196183
-0.0254162
-0.0186522
0.0275157
0.000717952
0.0154256
0.00859856
-0.0276844
-0.0370028
0.0295608
-0.0246269
0.0307182
-0.0347683
0.0325491
0.0318893
0.0335161
-0.0247386
0.00860813
0.023992
0.0512094
0.0130374
0.0294832
-0.0251931
-0.0325592
0.0337213
0.0269406
0.0142193
-0.0237433
-0.0014329
-0.032522
0.014748
0.0124347
-0.00595815
0.0267252
-0.0102065
-0.00581862
-0.0347069
0.00965136
0.0299427
0.00328257
-0.0153124
-0.0287224
-0.0116124
-0.00268127
-0.018035
0.0250045
-0.0118413
0.0147008
0.0111946
0.0316235
-0.0251904
0.0300651
-0.0164242
-0.0151179
-0.00836641
-0.0312764
0.0163609
0.0237485
0.0119405
0.00702885
0.0342312
-0.00214718
-0.00550886
0.0181312
-0.012243
0.00292007
-0.0217433
0.0188112
-0.0289801
0.00894228
-0.00656521
0.0285803
-0.0174358
-0.00954859
0.0025957
0.00964633
-0.0199147
-0.0241861
0.0224143
-0.0185107
-0.00320686
0.03045
0.0086358
0.0147661
0.00717656
-0.0162888
-0.0175386
0.0307778
-0.0322588
0.0285842
0.0112912
0.00370468
0.0440299
0.00934124
-0.0275738
0.0142424
-0.0245269
-0.0318656
0.00371969
0.0205856
0.0156371
0.0312429
0.0121047
0.0315812
-0.0143032
0.000583568
-0.0239056
-0.0298592
-0.0232024
0.0292938
0.0285596
0.0103536
0.0271577
0.0136563
0.0250193
-0.0228625
-0.00250229
-0.0284742
-0.0287026
-0.00199549
-0.0323349
-0.0159603
0.00344735
-0.00354712
0.0152768
-0.00999473
-0.0243976
0.00381672
-0.00968565
0.0204273
-0.0132921
0.00562105
-0.0348799
-0.00119227
0.0112781
0.0320426
-0.000327534
0.00963152
0.00203305
0.0107031
-0.0241467
-0.00594127
0.0277532
-0.0308341
-0.0178868
0.00964016
0.0143112
0.00641882
0.0169405
0.0205837
0.006714
-0.013197
0.00600989
0.0113815
0.0160418
-0.00234751
0.0347173
0.0166261
0.000637804
-0.00981107
-0.0311668
0.0217481
-0.0058076
0.0115907
0.0209285
-0.00133513
0.00624308
0.024347
0.00774859
-0.0240188
-0.00473004
0.017849
0.00298805
0.0177153
0.00838608
-0.0224152
-0.00624567
-0.030151
-0.0161109
0.0190771
-0.00926439
0.0223095
0.0282404
0.0282039
0.00664901
-0.0219026
-0.00777557
0.0321785
0.00202523
-0.00518621
0.0230469
-0.031061
-0.0212557
-0.0167555
0.0234379
0.00148173
0.0149134
0.0219939
-0.0113622
-0.00524022
0.0298632
-0.0145827
-0.026169
0.033086
-0.03641
-0.00469087
0.0111493
0.033591
-0.0023549
0.0222671
0.00545175
0.0211874
-0.0178471
-0.0315479
-0.0167109
-0.0171995
-0.0218673
-0.0277395
-0.0191497
-0.0238488
0.00265289
-0.0295909
-0.0168193
-0.0154432
-0.0184898
0.0299527
0.0200114
0.00352773
0.0176517
0.0118919
-0.00562685
-0.0197983
0.000975792
0.000514967
0.0168676
0.0312936
-0.00360219
-0.0092515
0.0266695
-0.00477521
-0.0167236
0.0336523
0.00967245
-0.00130242
0.0077678
0.0336005
0.0142955
0.0138139
-0.0252995
-0.00220259
-0.004225
0.0104416
-0.000200431
0.0119431
0.0277621
-0.0122927
-0.0246501
0.0169665
0.0244575
0.0254605
0.0246375
0.018542
0.00789419
-0.0144614
-0.015092
-0.0129402
0.0192816
-0.0194884
0.0110713
0.0104699
0.011646
-0.00530377
-0.021688
-0.00535915
-0.0075933
0.0141534
-0.00615325
0.00943445
0.0296121
-0.0295286
-0.0281845
-0.00893214
0.0156429
-0.0275566
0.00525696
0.00858902
-0.00674083
0.0129297
0.0241456
0.0188433
-0.0275896
0.0149465
-0.0296758
0.0128636
0.00326055
0.0249199
0.0373838
-0.0287465
-0.0395427
-0.00505563
-0.0119909
-0.0278708
-0.0373245
-0.0314132
-0.00491796
-0.00752626
0.0118909
0.0250617
0.0206104
0.000822328
-0.00285851
0.00136253
0.0294064
0.0148387
-0.0238833
-0.0260773
0.0176764
-0.0265497
0.0431012
-0.0299721
0.0105664
-0.0333025
0.00745318
0.00721773
-0.0309915
-0.0254826
-0.00266311
0.0156358
0.0290709
0.01221
0.0265357
0.0279857
-0.00925396
0.0304304
-0.0202992
0.00557893
0.032256
0.0285707
-0.0193316
0.00828079
-0.0158977
-0.00845803
0.0196682
-0.00346395
-0.00442124
-0.0242896
0.0112533
-0.00553106
0.0339026
-0.046542
0.017352
0.000389402
0.0159471
0.0237916
0.0495207
0.0296444
0.0316808
0.0333007
0.000527126
0.00315365
-0.0262722
0.0385305
-0.0277293
-0.00365292
0.00240315
-0.0105178
0.0200926
-0.014378
0.0085933
0.0306979
-0.0021284
0.00199387
-0.00070461
0.0240486
0.0490469
-0.0141267
0.00112346
0.00783729
0.00590942
-0.0189613
-0.0151468
0.0176547
0.0357825
0.0326323
-0.0105272
-0.0131519
-0.0133672
0.0351931
0.0193599
0.0255516
-0.0171191
0.0257143
-0.0137317
0.0367413
-0.0366684
0.0263239
0.0191143
-0.0243357
0.0212235
-0.0222271
-0.0157998
-0.0101323
0.00309419
0.019234
-0.0268354
-0.032163
-0.0258563
-0.012403
-0.0243131
0.00750211
0.0170203
0.000143425
-0.0352434
-0.0255026
-0.00409618
0.00700455
0.0299835
-0.0146949
-0.0317854
0.0137379
-0.0220746
-0.012031
0.00764114
0.00506541
0.0318698
-0.0131973
0.0307251
0.00645858
0.0281092
0.0112141
-0.0242896
-0.022702
-0.00966597
-0.0196187
0.0252144
-0.0138051
-0.020314
0.0022718
0.00505953
-0.0094402
-0.0196841
-0.0120573
0.043132
0.0157444
0.0186881
0.0180981
-0.0137439
0.0274495
-0.0313124
-0.00676159
-0.0193127
0.0158034
-0.0202319
-0.0101679
0.0199901
0.00255634
0.0111385
-0.0116462
0.00975531
0.00150021
-0.0300835
0.0219092
0.0137424
-0.0240511
0.0344286
-0.0221017
-0.0065112
-0.0223629
0.0103235
-0.000813795
-0.0290115
-0.007764
-0.0109404
-0.00494964
-0.0360397
-0.0167002
0.0128801
0.0293341
0.0111206
0.0213231
0.0199281
0.023264
0.0250264
0.0317607
-0.0149425
-0.0144294
-5.14785e-05
0.0214155
0.00507154
-0.0231845
0.0268924
0.0065683
-0.000236422
-0.024426
-0.00950427
-0.00303996
-0.0145884
0.0116585
-0.0215063
-0.00139593
-0.0215406
-0.0167856
0.0241831
0.000583218
0.0100964
-0.00156219
-0.0153378
-0.0152147
-0.00809192
0.0275191
0.00426144
-0.0208787
0.0165149
0.0342741
0.0114279
-0.00276125
-0.0164996
0.0136823
0.0187144
0.0231293
-0.0120243
0.0117892
0.030391
0.0201122
0.00989752
-0.021178
0.0184507
0.00805015
-0.00954923
0.0371862
0.00673692
-0.0317977
0.0112572
0.0303255
-0.0240522
-0.0107248
-0.00532167
-0.0140778
-0.0211499
-0.0114996
0.0148729
-0.0180572
-0.0338584
0.0327458
-0.00898734
0.0109981
-0.00407513
-0.0324283
-0.0113142
-0.0157222
-0.00993095
0.0112351
-0.00591833
0.0209978
0.0285931
0.0160794
0.00126601
0.0136427
-0.0110575
0.021579
0.0106697
0.0293822
-0.007225
-0.0111629
-0.00715506
-0.00433862
-0.0227053
0.0229704
0.014338
0.0210797
-0.0257427
-0.00372772
-0.0279534
-0.0258644
-0.00751355
0.0222859
-0.0140154
-0.0088592
0.0220987
-0.024318
0.00556747
-0.0221953
-0.00161621
0.000726865
-0.000840057
-0.0162326
-0.017996
0.0341652
0.0324891
-0.0279593
0.0234525
-0.0231419
-0.0101319
-0.0170833
0.0349054
0.0284842
0.0109699
0.0112728
0.013921
0.0287784
0.0018442
-0.0109428
0.0234112
-0.0250542
0.0307869
0.0187062
0.0307559
-0.0134246
-0.023416
-0.0149562
-0.00621922
-0.0176847
0.0333111
0.0146868
0.0159843
-0.000800175
0.00094262
0.0299167
-0.00121333
-0.0345977
-0.0294819
-0.0119957
-0.0237116
0.00535374
-0.0285027
0.0100441
-0.000806465
-0.0168987
-0.0128743
0.0136109
0.0107885
0.0220939
-0.0309493
2.17095e-05
-0.00143533
-0.0325819
-0.0155064
-0.00453033
0.0207549
0.0288782
0.0148304
-0.0193612
-0.0200016
-0.0180314
-0.00342824
0.0269766
0.0187308
-0.0175603
0.0103603
-0.0161599
-0.0135378
-0.0189391
-0.0431188
-0.00273596
-0.0435285
-0.00153267
0.00353243
-0.0223521
0.0340447
-0.0332962
-0.00119797
-0.0151202
0.0131219
0.00484882
-0.0128688
0.0171517
0.00474572
-0.016281
0.0374329
-0.0422308
-0.00954213
-0.0297737
0.0224909
-0.00796197
-0.0261418
0.02011
0.0197971
0.0329463
-0.0162569
-0.0144114
-0.022099
0.0140356
0.00847499
0.0124988
0.0283081
-0.0251145
-0.0145566
0.00545775
-0.0243968
-0.0250631
0.0108516
0.0230595
-0.0293973
0.00572198
-0.0137249
-0.0247448
0.0311095
0.00254702
0.00112467
0.00148221
-0.024039
0.013868
0.0291753
0.0302226
0.0138651
-0.0196742
0.0166731
-0.00744456
0.00362728
0.0372765
0.0027623
-0.00773857
0.000469269
0.00933877
0.0376137
0.034942
0.00414106
-0.0291933
-0.00289064
0.00913662
0.0218026
0.0160021
0.00986389
-0.00147042
0.00489284
0.0190029
0.00753848
0.0180047
0.0154473
-0.0450321
0.00501102
-0.0134547
-0.00874106
0.033099
-0.0321091
0.00998562
-0.0292489
-0.00418242
-0.00269572
-0.019395
-0.0155424
0.000397108
-0.00539986
-0.00265294
-0.0491173
0.00333877
0.0264598
-0.0181121
-0.0123878
0.00637019
0.00173049
-0.0199181
0.0125942
-0.020426
0.00450202
-0.000638955
0.00286555
-0.0109551
-0.0175735
-0.0217645
0.0288929
0.0267186
-0.0294639
-0.0259454
0.0230113
-0.0117094
-0.0160874
-0.00172046
-0.0225828
-0.0201308
0.0108634
-0.000786447
0.0171145
0.0146278
0.00318661
0.0164395
-0.0173576
0.0213187
0.029531
-0.0338453
-0.0177317
0.0316849
-0.0404524
-0.00341649
-0.0256207
0.0258388
0.0278697
0.00944782
0.0148309
-0.0226635
-0.00675827
-0.0245488
0.0299545
-0.000677558
-0.0279
0.0260129
-0.0131155
-0.0304294
0.023249
0.00422672
-0.00979678
-0.0313049
0.000636965
-0.0269724
0.0133519
-0.00343134
-0.00771322
0.00412518
-0.01724
-0.0175003
0.00271119
-0.0299717
-0.0172457
0.0163012
-0.0013047
0.0283497
-0.0266679
0.0227901
-0.0313931
-0.0121158
0.00465291
0.030899
-0.00262839
-0.0253894
-0.0125407
-0.0201834
0.000253322
-0.0159876
-0.0180283
-0.00548558
0.0179926
-0.0292273
-0.00897392
0.0184445
0.0157127
-0.0293672
-0.0206914
-0.0305759
-0.0283288
0.0323449
0.0238745
0.007819
-0.0375389
0.00974475
0.0309554
0.0329016
0.002457
-0.000566902
0.0262854
-0.0246081
-0.0101165
-0.00201731
-0.0297127
0.0207626
-0.0292181
-0.000836301
0.00214486
0.00715006
-0.01679
-0.016712
0.0283243
-0.0323458
-0.0123809
0.0180565
-0.0135494
0.0341727
-0.0117396
-0.0356282
-0.0316692
-0.00675363
0.0318832
-0.00633046
0.00268264
0.000549642
-0.042333
-0.00766766
-0.00143609
-0.0269903
-0.00822449
0.0332511
-0.0206067
0.0127856
0.0249928
-0.0189037
0.005075
0.0290211
-0.0191928
0.033268
-0.0315502
-0.00163569
-0.0169854
-0.00360058
0.0268508
-0.0276312
-0.0100401
-0.015861
-0.0279172
0.00287861
-0.0150397
0.0108987
0.0299458
0.0182997
-0.0306176
0.0333331
-0.016979
0.00682137
-0.00852073
-0.0222996
0.0117187
-0.0173633
0.0103915
0.0248671
0.0280251
-0.000788947
0.00657157
0.0301439
0.0273533
0.0258681
0.028137
-0.0038791
-0.0165425
0.0139096
0.0264293
-0.0179207
-0.0150654
0.0072721
-0.0323276
0.0266845
-0.0252141
-0.0146757
-0.0302489
0.0052768
0.0149636
0.00768629
0.00472139
0.0200194
-0.0208049
-0.00273598
0.00407981
-0.00788692
0.0118346
0.0153798
-0.0295595
0.00800126
0.0156257
-0.00970606
-0.0296039
-0.0242379
-0.0242657
0.000552693
0.0059386
-0.00666532
-0.0209506
0.0335928
-0.0233713
-0.0331398
0.00674527
-0.0232316
0.0270487
-0.017255
0.0324692
0.0302451
-0.01007
0.00275379
0.00338158
-0.00475752
0.0242698
-0.0141926
0.024818
0.0299264
0.00945812
-0.0289484
0.0106257
-0.00686327
-0.0219393
-0.00880624
0.0159702
-0.0176106
-0.0324246
0.0250987
0.0154418
0.00728926
0.0173596
-0.00399288
-0.023799
0.0286168
-0.00412459
0.0151442
0.00720452
0.0234396
0.0309575
-0.0267868
-0.0111092
-0.0133451
-0.0226132
-0.00870687
-0.0121807
-0.0489513
-0.00740478
-0.0128932
-0.0141744
-0.0313095
0.00101938
-0.00159649
-0.00602613
0.015279
-0.0135811
0.0331847
0.0196995
-0.00933784
-0.000291173
0.00992939
0.0299035
-0.0433527
-0.0278313
0.00899705
0.0186586
-0.0132389
0.014498
-0.0454925
-0.0168654
0.0303684
-0.0200769
0.0281676
0.00883609
-0.0102904
-0.0148963
0.0340632
0.024519
0.0315571
0.00885438
0.0224697
0.0181856
-0.0138372
0.00363646
0.0214193
0.0120708
0.000406958
0.0142014
0.0211181
-0.031085
0.0329171
0.00110815
0.0128096
-0.0228535
0.0300491
0.030753
0.00815591
0.0196436
-0.0196601
-0.018967
-0.00836169
0.0328429
0.0276849
-0.00916602
-0.0162757
0.0187227
0.0134305
-0.0266272
0.0130824
0.0308297
-0.0077388
0.0213514
-0.0250667
-0.0207434
-0.00389169
0.0183837
-0.00144073
-0.0116774
-0.00953381
0.00202673
-0.00222042
-0.0301404
0.015704
0.026681
0.00713286
0.0118355
0.00605045
0.00964418
0.0134384
0.00447105
-0.0140101
-0.00704426
0.00120146
-0.0361017
-0.00854776
0.0101486
0.0277983
-0.00834578
-0.0104503
0.0285177
0.0230653
0.00436568
0.0258411
0.00908146
0.021942
0.0161669
0.0176202
-0.0250373
-0.0151016
0.0227085
-0.0172695
-0.0242956
-0.00544834
0.0260494
0.0184541
-0.0295792
-0.0223679
0.0247764
-0.0241338
-0.0247819
0.00101517
-0.00188179
-0.0110812
0.000913375
-0.0190993
-0.0201537
0.0158454
-0.0327545
-0.0288228
0.00330645
0.000232374
0.0305328
-0.0177355
-0.00530202
0.0192751
0.00419354
0.00740783
0.000147228
-0.0214646
-0.0155856
0.0229861
-8.93294e-05
-0.00605557
-0.0156779
0.02422
0.0115834
0.0174843
0.00337614
0.00377354
-0.00267912
-0.0220211
0.0340454
-0.000608728
0.0274362
0.0036183
0.0112763
-0.0169788
-0.0173486
-0.0123982
0.0278744
0.0202794
0.0167247
0.0241421
-0.00106952
0.00734677
0.0109224
0.0131711
-0.0206305
0.00566412
0.0200653
0.000133224
-0.0332288
0.0120429
-0.00616057
0.0175832
-0.0318436
-0.0335751
-0.0332467
-0.0304768
-0.0248681
-0.00174227
-0.0168967
-0.0197531
0.0248957
-0.0170443
0.0160871
0.00792754
0.0327847
0.00211766
0.0237759
0.0244592
0.0256022
-0.0266117
-0.0155152
-0.0117222
0.0120388
-0.00539091
-0.00184453
0.0265925
0.00556184
0.019709
0.0200371
0.00747436
0.03569
-0.0132087
0.0247222
0.00148912
0.0262657
0.0274068
0.00803358
-0.0322383
-0.0101866
-0.00755442
-0.0211205
0.0213757
-0.0234128
0.0317142
0.0290543
-0.0264745
0.0316791
-0.0127696
0.0002493
0.0173403
-0.00680515
-0.01429
0.00639007
-0.0291105
0.0114304
-0.0297547
-0.00176104
-0.0161461
-0.00890254
0.0273885
-0.0172428
-0.0118134
-0.0212043
-0.0170622
0.022574
0.0107009
-0.0253525
0.029384
0.0127913
0.0309452
-0.00815402
-0.0131478
0.0169743
-0.00288517
0.018769
-0.0193314
-0.0278836
0.0155127
-0.0113085
-0.025394
0.00693992
0.0254433
-0.00789551
-0.0274594
-0.00143641
-0.029942
0.0118694
0.0304296
0.0234312
-0.0310784
-0.00868719
0.0157581
-0.00992924
-0.00437711
0.0305849
0.0135841
-0.0257835
0.00596627
0.00708522
-0.0195217
0.00269165
-0.0022001
-0.00108854
0.0268442
0.0267478
-0.0151107
0.00151202
0.0334982
0.000340701
-0.0321541
-0.0276207
0.032157
-0.00598329
-0.00103364
0.00433917
0.0243016
-0.0290958
-0.0189022
-0.000930067
-0.00520182
-0.0177367
0.0111431
-0.0247527
0.00653049
0.0148224
0.00684469
0.0185927
-0.0101087
-0.0320645
-0.00615682
0.00300567
-0.0184217
0.0234298
0.00279442
0.00256296
-0.0142275
-0.0122905
-0.0287188
-0.0169759
0.0221075
0.00731997
0.0245154
-0.0117459
-0.0382807
0.0256972
0.0267162
-0.00496026
-0.0025312
-0.0262804
-0.0153574
0.0249103
-0.00930993
0.0295226
0.00813799
-0.00286324
-0.0231107
-0.0256212
-0.0181787
0.00128392
0.0207221
-0.0244842
0.00391371
-0.0323298
-0.000227192
0.00783549
-0.0283793
0.017187
-0.003312
-0.0282903
0.00205646
-0.0132983
0.0160044
0.027758
-0.0260638
-0.0155701
-0.0136326
0.0330451
0.0122773
0.0223574
-0.0275436
0.0296545
-0.0248693
0.0368944
-0.0235251
-0.00712582
0.0519795
-0.00850399
-0.0317807
-0.0355037
-0.0050591
-0.0494531
0.0107007
-0.00340952
0.0146724
0.0348372
0.00430833
-0.00654068
-0.010059
0.00348611
0.00628367
-0.0064506
-0.0406589
-0.0102379
-0.0174513
-0.00751794
-0.0386624
0.000831357
-0.0253459
0.0338171
-0.0270264
0.00826034
-0.0029062
0.0153522
0.0125103
0.0231842
0.0293468
0.00755451
-0.00650901
-0.0128926
-0.0158989
0.00444876
0.0158124
0.00663966
-0.021181
-0.0107155
-0.00516835
0.0328244
-0.0330066
-0.0128857
0.0175035
-0.00526534
0.00995132
0.018145
-0.00189781
0.0190014
0.0173537
-0.014258
-0.0271767
0.00795599
0.0189818
0.014107
0.0234476
-0.0176298
0.0444503
0.0264603
0.0378508
0.0218323
-0.0225335
0.0211959
0.0308816
-0.00525549
-0.000607551
0.00163184
-0.0310954
0.00240034
0.0113999
0.0209919
-0.0238329
-0.00393812
0.0244291
0.00907158
-0.014393
0.000466109
-0.0234791
-0.0219489
-0.03159
0.00584337
-0.00806744
0.0292814
0.0127611
-0.038947
-0.0115996
-0.00603767
-0.012052
-0.0204414
-0.00834728
0.0190992
0.00204691
-0.010021
0.0164403
-0.0214036
-0.00843465
-0.0250945
0.00356896
0.0229288
-0.00635138
0.00130772
0.0139256
0.0297392
0.032395
-0.00160313
-0.0117633
0.0215135
0.00398189
-0.003599
0.027506
0.0240083
0.00919344
-0.0109544
0.00657368
-0.0144174
-0.0311985
-0.00609896
0.0153197
0.0183363
-0.025899
-0.0291774
0.0059945
0.0112712
0.0040925
-0.0111195
0.00266641
0.0285859
0.0304686
0.0043491
-0.0160771
-0.0193528
-0.0288939
-0.037137
0.0112493
-0.0278677
0.000839168
0.0311751
0.0192098
-0.0267982
0.0302083
-0.0154213
0.0283765
0.0378651
0.00934985
0.0300795
-0.0127695
-0.0223463
-0.00296542
0.0339063
0.0371368
0.00896165
0.00742024
-0.0277249
-0.0142779
-0.0276887
0.0269652
0.0222905
0.0132277
-0.0104834
-0.013874
0.0219389
-0.026151
-0.00493525
-0.0169209
0.0174002
0.0316131
0.0146752
0.00889809
-0.0176678
0.0173174
-0.0234565
-0.030389
-0.0178466
-0.0199682
-0.0236807
-0.0179717
-0.000441612
-0.0105037
0.0110052
-0.0315246
0.022348
0.0188869
0.0182245
-0.00488766
-0.0299791
0.0160449
-0.0137729
-0.00496853
0.0241725
0.0101624
-0.0134682
-0.0189999
0.00843118
-0.0151645
-0.00302229
-0.0317569
0.0154016
0.0123289
-0.0169527
0.00342663
-0.032361
-0.00673065
0.00180334
-0.0164217
0.00390823
0.0145671
2.10879e-05
0.0107316
-0.0309809
0.00842792
0.00930146
-0.00613553
-0.00289558
-0.0178102
0.0213358
-0.029741
-0.000114756
0.00529557
-0.00403789
-0.0111378
0.0205136
-0.0151372
-0.0287622
0.00410484
-0.037617
0.000729718
0.00396354
0.0176922
0.0128739
-0.00885734
-0.0161542
0.0116898
0.0284497
-0.0146469
0.031126
0.0207696
0.0314807
0.0299743
-0.00510938
0.00324424
-0.0259778
0.00587229
0.0108079
0.00591064
0.0262707
-0.0159988
0.00816306
0.022375
0.0268402
0.00435543
0.0139987
0.0135157
-0.00747433
0.0194691
0.0191056
-0.00570834
0.0209784
0.0159697
-0.0227029
0.000834103
-0.0217156
0.0294523
0.0118823
-0.00743793
-0.0195273
-0.0237269
0.0131369
0.0180128
-0.0297707
-0.023352
-0.018122
-0.0209524
-0.0195219
0.0121565
-0.0144204
0.00238975
-0.00352429
-0.0057638
-0.0104624
0.0213984
0.00125625
0.00364488
-0.0144663
0.0266416
-0.0140802
0.0197983
-0.0142311
0.0108485
-0.0230109
0.0316867
-0.0259906
0.0237574
-0.019569
0.021016
0.0149407
0.00790559
0.0287123
-0.00473273
0.0214973
0.0016681
-0.029137
-0.0300984
-0.0196325
-0.0142047
-0.0170776
-0.00165354
0.0219454
0.00790318
-0.00589204
0.0124892
0.00443497
0.0284601
-0.0174923
0.00824397
-0.0114026
-0.0275347
0.0294925
-0.0161424
0.0153745
0.00590044
0.00868751
-0.00873871
0.0315386
-0.0311183
-0.0227737
0.0125957
-0.0229055
0.00720599
-0.026466
0.0322484
0.00846475
-0.0214992
-0.000118459
0.0223606
-0.00104591
0.0194433
0.0216151
0.0197235
-0.0330173
0.0160488
0.0323383
0.00418776
-0.0182151
-0.018832
0.0122262
7.5599e-05
0.0272698
-0.0415966
-0.00896232
0.0351222
-0.0291785
-0.0343821
0.0142462
-0.0292205
0.0017061
-0.00560809
0.0118816
0.0345044
0.0272231
-0.0554784
0.00903954
0.00651698
0.00214691
-0.0183341
-0.00394977
-0.0317529
0.0387741
-0.0259043
0.0167284
-0.00577049
-0.00378937
-0.00304599
0.0222628
-0.0044181
-0.0249156
-0.0306576
0.0279804
0.0340068
0.0137035
-0.028405
-0.0288745
0.0309504
0.0364543
-0.00157245
-0.0197493
0.00702315
0.00435111
0.0106847
0.00385757
-0.015402
0.012546
0.033106
-0.0445866
-0.00592336
0.0338243
-0.0141496
-0.0282165
0.0203521
0.0267092
-0.00192861
0.0375015
-0.0237671
-0.0284552
-0.00730914
-0.0306609
0.0185366
-0.00473626
0.0537468
0.00844559
-0.0296651
0.0374043
0.021919
-0.00500013
-0.00767884
0.020939
0.0195738
0.0216405
-0.0458713
-0.013103
0.0398402
-0.0320801
0.00698313
0.0304504
0.011255
0.0147221
0.0274551
-0.00136293
0.00502689
-0.0244708
0.0106223
-0.0243722
0.00816088
0.00395351
0.0134555
0.0202182
-0.00795027
-0.00974534
-0.00966396
-0.0128118
0.0040636
0.0245536
0.0248581
0.0154474
-0.00387756
-0.0358534
0.00692161
0.00990049
0.00851429
-0.00441452
-0.0242377
0.00623089
0.000800829
-0.0225388
0.0036301
-0.027634
0.0105647
0.0353914
-0.024541
-0.0205605
0.00701799
-0.0302519
0.0298855
-0.017323
-0.00324096
-0.0255381
0.0208156
0.0189677
0.0371732
-0.030509
0.00646677
0.00293402
-0.00133069
-0.032544
0.0291875
0.0256382
0.0115379
-0.0312761
-0.0300573
-0.0171756
-0.00188717
0.0063389
-0.0112241
-0.00534556
0.0165477
0.0302262
0.00560158
0.0265698
-0.0103102
0.0171169
0.00876752
0.000162947
-0.0156212
0.0374948
-0.0136907
0.0118445
-0.0257155
-0.0290099
-0.0314567
0.00900295
0.0180169
0.0137265
0.0147257
-0.0223042
-0.0176577
0.00291334
0.00483476
0.0276522
0.021113
0.00637684
0.00460192
-0.0280039
-0.0187778
0.0307961
-0.000850267
-0.00211808
-0.0108729
0.00333658
-0.0186045
-0.0221937
0.0165861
0.0304488
0.0121658
-0.0297233
0.0321965
0.0312693
0.0168401
-0.0284723
0.00270767
-0.0148048
0.0132862
-0.018887
0.0306558
0.0108139
-0.00805238
0.0112442
0.00288121
0.0268002
-0.023398
-0.0199872
-0.0319311
0.0179479
0.0227179
-0.0328966
-0.0146396
0.021242
0.0136342
-0.0263682
-0.00912209
0.00336152
-0.011073
-0.0221661
8.53244e-05
-0.0015844
-0.0170835
-0.00571281
0.0306874
0.00156027
0.00737705
-0.00154198
0.0168054
0.0206754
0.0149153
-0.0156852
0.0159853
-0.0284881
0.0335736
-0.0148647
-0.00264244
0.00800935
-0.0353286
-0.0300725
-0.00640119
0.0215066
0.0213147
-0.0250542
0.00794723
-0.000948663
-0.0148464
-0.000753565
0.00537098
-0.0284953
0.00807998
-0.0147169
-0.0299557
0.0231921
-0.000328066
0.0319565
0.0268592
0.00538059
-0.0017375
-0.0207753
-0.00717942
-0.00678669
-0.00115918
0.0117267
-0.0144706
0.0317162
0.0277554
-0.0128718
0.00595447
-0.00414599
-0.00868293
0.00195076
-0.0162442
-0.0213904
-0.0191765
-0.00667441
-0.0296109
0.0332
0.0262674
0.0166064
-0.0290045
-0.0331902
0.0187882
-0.0256025
-0.00557049
0.0185351
0.0148363
-0.0149516
-0.00819102
0.00608714
-0.000726503
-0.0169527
-0.0149332
0.00189894
0.0244561
0.00373782
0.0304868
-0.0152737
0.0197854
-0.0291749
0.0121827
0.0309798
-0.0263457
-0.00877615
0.0250691
-0.0143469
-0.00788415
-0.0299023
-0.014885
0.0162915
0.0206562
0.00904918
0.0185062
-0.0309288
-1.52599e-05
-0.0230948
0.0233625
-0.0277552
0.0324696
-0.0197571
0.0129085
0.0308275
0.0322139
0.0315701
0.0292871
0.0231916
-0.038496
0.0264967
-0.0255818
-0.00440034
-0.00124885
-0.0112694
-0.0235021
0.00469094
0.0195612
-0.0310224
0.00382322
-0.0235398
0.00656871
0.011403
-0.00609413
0.0280866
-0.030517
-0.0227824
0.0327199
0.00205395
0.0226921
-0.0102817
-0.0231114
0.0197963
-0.0281241
0.0161668
-0.0152723
-0.0292549
-0.013415
-0.0194286
-0.00583084
0.0248947
0.007314
-0.0316459
-0.0140997
-0.0225463
-0.0100558
-0.00513203
-0.0221403
0.0156444
0.013576
-0.0153371
0.0252311
-0.00900082
-0.00242169
0.000523933
-0.0441316
-0.00549889
0.0133031
-0.0153825
0.0190776
-0.00396813
-0.00220281
-0.0212488
-0.0154379
0.0195569
-0.0308408
0.00387442
-0.0100743
-0.00552273
0.0102441
0.013813
-0.0061331
0.0221141
-0.00301867
-0.0175952
-0.0180336
0.0177604
-0.0214021
-0.00770284
0.0312141
-0.0227912
-0.00248125
-0.0149899
-0.016897
-0.0042123
0.0317121
-0.0164693
-0.0022815
-0.0103674
-0.0122279
0.0200136
-0.028242
-0.021213
-0.0153333
-0.0129896
-0.0226913
-0.0267175
0.0277307
-0.0227627
-0.0175025
0.0346685
0.000417699
0.0130716
0.00920183
-0.0258718
-0.0048083
0.022377
-0.00532145
0.00788915
0.042111
-0.0175363
-0.0199018
-0.018982
-0.0224015
0.0260182
0.026641
0.0101144
0.0229025
-0.0206395
-0.0387301
-0.0325584
-0.0190875
-0.00229433
0.0211141
0.0227449
-0.0281479
0.0446683
0.0270483
0.000407237
-0.0263652
0.00406158
-0.0140955
-0.0180604
0.0132327
0.0131227
-0.0130387
-0.0406395
-0.0150536
-0.0243466
-0.0222694
-0.000335125
0.0306217
0.0240621
0.0122162
-0.037607
-0.00634056
-0.0131058
0.0107308
-0.0238097
-0.0120711
-0.0263465
0.0240606
0.0266164
0.00839814
-0.0257478
0.0165451
-0.0234574
-0.0296694
-0.0204213
-0.0194794
0.00952931
-0.0207139
-0.015895
0.0313803
0.0268509
0.0192163
0.0170664
-0.0295326
0.00127679
0.0273979
0.00895468
-0.0308571
0.021658
0.0026776
-0.0175865
-0.00513346
0.0279981
-0.01943
-0.0293458
0.00561368
-0.00169379
0.0135175
-0.0111479
0.0250234
-0.0181433
-0.00440293
-0.0203757
-0.00187176
0.0326024
-0.0177037
0.0137363
-0.0215834
-0.00255751
0.0282982
0.0442765
-0.00627181
0.0111702
-0.0115305
0.0303394
0.0174127
0.0150036
0.0146497
0.0226058
-0.0281134
0.0127291
0.00526907
-0.00709123
-0.0255697
0.0204477
0.0142758
0.0116709
0.0112189
-0.0212165
0.00499751
0.00760291
0.0281431
0.000595638
0.0148532
-0.0103371
-0.0109832
-0.00425815
0.000275443
-0.0227445
0.0283771
-0.00275069
0.0170808
0.0244889
0.00933175
0.00587864
-0.0149116
-0.00813552
-0.0155654
0.026681
0.0131372
0.00785798
-0.0260632
-0.0207081
0.0229809
-0.0216556
0.00694475
0.0270052
-0.00714862
-0.0103878
-0.0257723
0.0155767
0.00154523
-0.00155252
-0.00241946
0.0153054
-0.00707495
-0.00320262
-0.0190482
-0.00127237
0.00753597
0.00656651
-0.00217799
0.0232565
0.0294381
-0.0253379
-0.000604645
-0.0205247
-0.0347381
-0.0116211
0.00957457
0.0139369
0.0141257
0.0153797
0.00132229
-0.0290759
-0.00502004
-0.0284778
0.0306546
0.0216611
-0.00368733
0.00589566
0.0185191
-0.00542986
0.00781588
0.0159207
-0.0223882
0.0334791
0.0134482
-0.010501
0.0310853
0.000908259
-0.00354208
-0.00768746
0.0124017
-0.00966972
-0.0295722
-0.022233
0.00426589
-0.0309502
0.000873819
-0.00262394
-0.0139468
0.0159728
-0.00498269
0.0188924
0.0196194
-0.00798857
0.0231436
0.0180992
-0.02006
0.0221093
-0.00957139
0.00111224
0.0192398
0.0325671
-0.0283297
0.0297434
0.00126191
0.0293123
0.020959
-0.00423316
0.0161831
-0.0174917
-0.00690614
0.0285488
-0.016981
-0.00485849
0.0114179
0.0114615
-0.000814275
-0.0258549
0.0263802
-0.0117083
-0.0105466
0.0219106
-0.0300276
-0.025977
-0.0250246
-0.00405507
-0.00873757
0.00731919
0.0187285
-0.0219098
-0.00929441
0.00181693
0.0170367
-0.0264124
-0.00198951
-0.0201031
0.00511256
0.00371452
-0.0212331
-0.0177093
0.00325676
0.00309794
0.0160736
0.00935997
0.0315264
-0.00892451
0.0223578
0.0321601
-0.0331019
0.0163375
-0.0171586
-0.00978533
-0.00766167
0.0216552
0.0355858
0.0170808
-0.0166605
-0.00932834
0.00952407
0.002003
-0.0248368
-0.0323254
-0.0154041
0.0242175
-0.0253838
-0.0297058
0.00528555
0.0119548
0.0227497
-0.0163732
-0.0016053
0.0263247
-0.011645
0.0153385
0.00275621
0.0211596
-0.0275303
-0.0183785
0.0197133
-0.0255222
-0.0288709
0.00353818
-0.00449496
-0.0242247
-0.00949214
0.0282878
0.0256868
-0.0156707
0.0195285
-0.0314431
0.00944308
0.0341153
-0.0497475
-0.0382224
0.0268686
-0.00261602
0.00144204
0.01085
0.0131802
-0.0483578
-0.0378418
0.00809356
-0.0302739
0.0461914
-0.0243015
-0.0156261
0.00112672
0.0347647
-0.0227296
-0.0443949
-0.0261892
0.0202784
0.0159661
0.000436787
-0.0282752
0.0130555
-0.0245966
-0.0329623
-0.0240255
0.0266399
-0.030693
-0.0142266
0.0219762
0.00706298
9.62722e-05
-0.0257154
0.0195925
0.038682
-0.000598999
0.0089391
0.0296058
-0.0256498
-0.0292678
0.030981
-0.0280067
0.0106321
-0.0323344
0.000689139
0.023581
-0.00408226
0.0283196
-0.0269307
0.000464856
-0.0235864
-0.0177492
0.00800946
0.0096429
0.00151975
0.0071529
0.0160647
0.0299763
-0.0228124
0.028718
-0.0243366
-0.0209087
0.0387786
-0.00720137
0.0254103
0.023742
-0.00753252
0.0152434
-0.0250961
-0.0443007
-0.0229606
0.0207385
-0.0362179
0.0285823
0.0126468
-0.00979414
-0.00461287
0.00886229
0.0191832
0.0262013
-0.0316383
0.0159642
-0.0192886
0.00383777
0.0400215
-0.0192345
-0.00150643
-0.0262708
0.00449306
-0.0162203
0.00645669
0.0178665
-0.00629909
-0.0234345
3.00507e-05
-0.00429926
-0.0136997
0.0295314
0.00508884
0.0130348
0.0270946
-0.00707656
-0.00834282
-0.00423747
-0.0148344
0.00590586
0.0155127
-0.0295242
-0.0169215
-0.000401086
0.0270091
0.0175989
0.0334869
0.0153371
-0.0145423
0.0281867
-0.00496266
0.00153859
-0.0366129
0.0368508
0.0107857
-0.0263904
0.015479
0.00933622
-0.0163737
-0.0092648
0.00370746
0.0106886
0.0205248
0.0108061
0.0209842
0.0150102
-0.0342399
0.0122588
-0.0691074
0.0193717
0.0253977
-0.0114593
0.0211779
0.0300817
0.0257534
0.0159851
-0.018859
0.0215885
0.0728205
-0.0283552
-0.0200514
-0.0121192
0.00411705
0.0166066
-0.0141465
0.024675
0.0252284
-0.0310545
-0.00486383
0.00920542
0.0212705
0.0329289
0.02163
0.0276133
-0.0239655
-0.0304694
0.0259674
-0.0214692
0.0200147
-0.0043673
0.0300882
0.00406985
0.0155018
0.00453483
-0.0336914
-0.0294053
0.0325557
-0.0180538
-0.00422058
-0.00609645
-0.00961508
0.00994251
0.0145406
-0.0103343
-0.00897697
-0.00297896
-0.0247619
0.0157841
-0.00978491
-0.0279721
0.0188769
0.0310774
0.00324332
0.0158691
-0.0210141
0.0135706
0.0226209
0.0086268
0.00796621
-0.0205025
-0.0362563
-0.010395
0.0146526
-0.013788
0.00616145
-0.0137409
-0.00599139
-0.0274755
0.0321369
0.0247236
-0.00368968
0.0192541
-0.0307911
0.0186584
-0.025859
0.0257337
-0.0136891
0.019759
-0.0211523
-0.00814171
0.0241161
-0.0269031
0.0240299
0.0287395
-0.0136676
0.00248533
0.00886819
-0.023111
-0.0222666
-0.0314863
0.0226181
-0.021171
0.0247127
0.0031739
-0.00292405
-0.00380578
-0.0134031
-0.00928492
0.0169279
0.0193423
0.0130028
0.00238778
0.0025725
0.0189509
-0.013541
-0.0206493
-0.020047
0.00691228
0.014453
-0.00590761
-0.00135454
-0.0109881
-0.00119832
0.0243096
0.0188313
0.0160295
-0.00427505
0.0296819
-0.00223527
0.00717439
0.0342481
-0.0138796
-0.0119544
-0.0218165
-0.0106203
-0.00973511
0.0210805
-0.0221598
0.00947516
0.0241733
0.0295795
-0.00691716
-0.00826874
0.0108233
0.0113642
-0.0168882
0.0108895
-0.00609159
0.019556
-0.0239419
0.0233952
0.0185387
0.0328373
0.0198687
0.00839328
0.0131652
-0.0268927
-0.0314019
0.0288115
0.00370288
-0.0280764
-0.0246982
-0.0108342
-0.00131607
-0.000696371
-0.0200499
0.0156746
0.0218964
-0.0273872
-0.00659089
0.00741807
-0.0136348
-0.0142918
0.00415305
-0.0146668
-0.00181745
0.0174825
-0.00256952
0.0255028
-0.0290354
0.0068487
0.011368
0.0238442
-0.00156287
0.032192
0.0352116
0.0249894
-0.0288205
-0.0316891
0.00281939
-0.0242031
0.0142225
-0.0195178
0.0084323
-0.022328
0.0128705
-0.0196332
0.0275414
0.000374971
0.00440602
0.0201545
-0.0235101
-0.00907356
-0.0274972
-0.0187912
-0.0227627
-0.0275602
0.0318302
0.000658755
0.0308209
-0.029217
0.0150326
-0.0238911
-0.00721187
0.0218282
-0.0260048
-0.00793822
0.011804
-0.0157195
0.0278986
0.0160365
0.0213688
0.0145093
0.00993757
-0.031462
0.0494306
-0.00616897
-0.0499874
-0.032304
-0.00250428
-0.0499391
-0.0439924
-0.0314823
0.00714962
-0.011395
-0.0218001
-0.0435818
-0.0387106
0.0205016
-0.00138313
-0.00480183
-0.0436884
0.0156172
0.0174629
0.0134028
-0.0241237
0.00578228
-0.0125972
-0.0044506
0.00449882
-0.0205651
0.0125064
-0.00799115
-0.00887816
0.00783574
-0.0196805
0.0121194
0.0165068
0.0320156
0.0248552
-0.00995918
0.0206387
0.0255752
0.01151
0.0177339
-0.000234388
-0.0216173
0.0246516
-0.0438257
-0.0224292
-0.0256378
0.021444
-0.0224677
-0.0253415
-0.0200772
-0.0322443
0.0230336
0.0059852
-0.00039614
0.0180129
0.0105691
-0.018506
-0.00331662
0.0231286
-0.036702
0.0319413
-0.0163635
0.0185109
0.00610907
0.0300457
-0.0228392
0.011522
0.00405398
-0.0393598
-0.0212991
0.004562
0.026199
0.0324784
0.018648
0.00771547
-0.0111581
0.0243572
0.0302853
0.0215838
0.025047
-0.0381713
0.0297438
0.0088708
-0.0220046
0.0273942
-0.0226037
-0.0246074
0.00277792
0.016044
0.00665654
0.00454091
-0.0217058
0.0198697
0.0181717
-0.00387717
-3.24083e-05
0.0253641
-0.0334525
0.0252209
-0.00955179
-0.00994529
0.0192765
0.0221613
-0.0149216
0.0052009
0.0290951
0.0281677
0.0333247
0.0177694
0.013516
-0.0113261
0.00128946
0.0160118
0.0292922
-0.0271425
-0.0252743
0.0253603
-0.02279
0.0192419
-0.033042
0.0231837
-0.0202342
0.0174101
-0.0265549
-0.0338208
-0.0224307
-0.0170285
-0.0073207
-0.0216895
-0.0296125
-0.0138215
0.0316068
-0.0100182
-0.0360109
0.0173367
0.00207367
-0.00376615
0.0102283
-0.0107623
-0.0115615
-0.00852092
0.0114816
-0.0126713
0.0477455
-0.0220644
-0.00726267
-0.0214238
0.00205678
0.00657863
0.0221968
-0.0195545
0.0292668
0.0048109
0.0248021
-0.0318478
-0.0339058
-0.0311389
0.0211923
0.0108318
0.0144118
0.0164412
0.0127486
0.0150757
0.0132304
-0.0204687
-0.00217227
-0.0260696
-0.0244667
-0.00306282
0.0294345
-0.00689192
0.0324962
-0.0241154
-0.015562
-0.0294158
0.0256756
0.00927706
-0.0183626
-0.0115658
0.0153503
0.000361227
-0.00514038
-0.0238104
-0.00451237
-0.0132905
0.00730077
-0.0205134
0.0209328
0.00164349
0.0108839
0.00296396
0.0240397
0.0273929
-0.0013956
0.00687713
-4.37449e-05
0.0178163
-0.0210829
0.0159881
-0.00873204
-0.0201747
0.0141825
0.0251257
0.0192474
0.0333879
-0.00724607
0.00633547
-0.0223578
-0.0184676
0.0272196
-0.00981416
0.0205597
0.0251818
0.00376255
0.0295306
0.0112336
-0.0145926
-0.024584
-0.000298323
-0.0157749
-0.0139823
0.00355289
-0.0231167
-0.0201488
0.0233483
-0.0188703
-0.0131223
-0.0262431
-0.00549845
-0.0325034
0.0322993
-0.0288542
0.0137934
0.00319875
0.0233977
-0.0205851
0.0202763
0.0290491
-0.00887659
0.00228896
0.0233254
-0.0152718
-0.0107011
-0.0323369
-0.00822102
0.0181741
0.0260004
-0.0240373
0.0292523
-0.00886087
-0.00684424
0.0185938
-0.00387288
-0.0272864
0.000321502
-0.0127578
-0.0120344
0.0212545
-0.021561
-0.017423
0.025092
-0.00795805
-0.0119605
-0.0317192
0.016067
0.0113061
0.0188043
-0.0311941
0.021458
0.0092035
0.00837094
0.0298256
0.0288293
0.0275034
-0.0223945
-0.0112525
0.0120201
-0.0313538
-0.00489007
-0.0264612
0.0236499
-0.00873352
0.0250044
0.00357207
-0.00334172
0.0203438
-0.0269208
0.0172263
0.0124556
-0.00101125
0.0333777
0.0334813
-0.00821993
0.00636411
0.00428737
0.00454767
-0.001016
-0.0121527
0.0101071
0.00602025
0.0292177
0.0168074
0.00194679
-0.00678004
0.0107512
0.0133414
0.0114292
0.0235579
-0.0213466
0.00737002
0.00136682
-0.0242405
0.031597
0.0250102
0.0322641
0.0289248
0.0168589
-0.0275046
0.0170308
-0.00532808
-0.0270863
-0.0201997
-0.0061782
0.0317371
-0.0321109
-0.00529623
0.00476141
-0.032738
0.0204407
0.0157006
0.00911945
-0.0153939
-0.00128921
-0.0310211
0.0108524
-0.0208062
-0.0116264
0.0237809
-0.000999275
0.00429242
0.0319651
0.0310796
-0.01988
0.0351666
-0.010995
-0.0191952
-0.00824776
-0.0227089
0.0015398
-0.010969
0.0207642
-0.0211494
0.00228489
-0.0167772
-0.0208634
-0.0300811
0.0167596
0.0107111
0.0044134
-0.00527354
-0.00651985
0.0106176
-0.0181034
0.0271769
-0.0127915
-0.00381912
-0.0277901
0.0409736
-0.00701614
0.0341153
-0.00444652
0.00824431
-0.0188223
0.00918897
0.0278304
0.00347879
-0.0109257
-0.0149238
0.00947773
-0.0256535
0.0225882
0.0101552
-0.000534467
-0.0104017
0.00446399
-0.0135222
-0.00523858
0.0321312
0.017313
-0.0174783
0.0135868
0.0277698
-0.026987
-0.0412018
0.00138129
-0.0243843
0.0184487
0.0170368
0.00556042
0.0257048
-0.00327204
0.0325722
-0.0123377
-0.0109287
0.0061378
-0.0234247
0.0253766
0.0289745
0.0498744
0.0250369
-0.00584975
0.0225938
-0.0206077
-0.0108871
0.0286946
0.0166776
0.0245976
0.01017
-0.0539357
-0.00293487
0.0383666
0.0177111
-0.00198688
0.00603781
-0.00220307
0.04077
0.0148972
0.017637
-0.0161337
0.014282
-0.00250343
0.0183001
0.00701168
0.0160782
0.00496141
-0.0307752
-0.00978414
0.0244903
0.000426089
-0.0166876
0.0208091
0.0282077
0.00232784
0.00220352
-0.00671591
0.0181646
0.0091036
0.0116416
0.0113814
0.0201701
-0.0135782
-0.0232843
-0.0236955
-0.0170285
0.0165845
0.00380802
0.0152711
0.0353502
-0.0208765
0.0296921
0.0122321
0.0301476
-0.0108027
0.018796
-0.0195929
0.025207
0.00107285
-0.000342914
0.0283929
0.0270272
-0.0128652
-0.0317027
-0.00731565
-0.0109384
-0.00185454
-0.0113713
-0.0212878
-0.027216
0.0312923
-0.0116111
-0.00805577
0.0138827
-0.00298849
-0.0356595
-0.00189429
-0.0170881
-0.0317757
-0.0222694
-0.0237202
0.0265877
0.0100585
-0.0109705
0.0201974
0.0363229
-0.0216271
0.0273653
-0.0131004
-0.0229017
-0.031638
0.00269701
-0.0191781
0.0245407
-0.0260632
-0.0324548
-0.0203767
-0.0330985
-0.0130062
-0.00622016
0.024357
0.0183774
-0.0241533
-0.0276383
0.00170454
0.0110285
0.00321418
-0.000134953
-0.0085366
-0.0293422
-0.0309524
-0.0339663
0.0262074
0.0210474
-0.0100153
-0.0165196
0.0192062
-0.0279529
-0.0195238
0.00623082
-0.0228584
0.0154979
-0.029106
0.019184
0.00471329
0.0350312
0.02035
-0.0204025
0.0208785
0.00565741
-0.0197607
0.00161285
-0.00895443
-0.0061326
0.00940647
-0.0259773
-0.0257565
0.00680837
0.0271349
-0.00349777
-0.01523
-0.0296724
-0.00105825
-0.0175684
-0.00728545
-0.012507
-0.000395985
-0.0244079
-0.011954
-0.0178829
0.0182526
-0.0338823
-0.00283679
-0.00579937
0.0205015
0.00448618
0.0112912
-0.0272523
0.0250712
-0.00155818
0.012987
-0.0311182
0.00100417
-0.0300612
0.0326229
0.0110864
0.0322588
0.00273049
-0.0117103
0.0240337
-0.030983
-0.0263321
-0.00252216
0.033661
-0.0120429
-0.00481284
0.0220017
0.0212313
0.0335258
0.0106049
0.00346282
-0.0142697
0.0107941
-0.0325875
-0.019318
0.0224501
0.0062461
0.0270178
-0.0307379
-0.00455348
0.0256264
-0.0171507
0.031693
-0.006502
0.0223099
0.0325124
0.00629682
0.0227648
0.0038098
-0.00364512
-0.0378546
-0.0266833
0.0065331
-0.0260504
0.00964017
0.0230068
0.0295496
-0.00358571
-0.0209871
0.0281445
0.0258894
0.0140298
0.0176811
-0.0165767
-0.0164698
-0.00343405
0.0155982
0.0228068
0.0222312
-0.0141002
0.0189473
0.012828
0.000525133
-0.0133234
0.00721127
-0.000160844
0.0196208
-0.0238989
-0.0255194
0.0242625
0.00733351
0.0202204
0.0317498
0.0107191
0.0261883
-0.0361881
-7.84019e-05
0.0204529
-0.029533
-0.0209164
-0.0162098
0.0113592
-0.00750987
4.47604e-05
-0.00412995
0.0107791
0.0296474
-0.0213062
0.0337454
0.0182065
-0.00568389
-0.013471
-0.00120105
-0.00130603
0.00592774
0.00480952
0.020779
-0.00880631
-0.0155235
-0.00394442
-0.016488
0.0257
-0.0173741
0.0134881
-0.0304781
0.00867967
-0.0117784
-0.00300061
-0.00396379
-0.00762098
-0.0164803
-0.0192144
0.00910762
0.0109072
0.0136961
0.028073
0.0230846
0.0139888
0.0122581
0.0226342
-0.00714132
0.00926248
0.00992425
-0.00926282
-0.0267932
-0.0140273
0.0286038
-0.00119828
0.00513589
-0.0154211
-0.0247664
-0.02707
0.0267378
-0.00555346
-0.0481868
-0.00189535
0.00684217
-0.0362457
0.00412954
-0.0381922
0.0196838
0.00994759
0.00386695
0.00398432
-0.00828911
0.0239028
0.00368688
-0.0159148
-0.0295347
0.0123546
-0.00728984
-0.00791562
-0.0332761
0.00549695
-0.000849246
0.0113014
0.0104609
0.0288757
0.00717489
0.0162828
0.0101115
0.0321564
-0.0301838
0.016099
-0.0277683
0.0135725
0.024563
0.0183256
0.027352
0.00335806
-0.000178303
0.0089834
0.000203938
-0.00642699
-0.00904219
-0.0343579
0.0321353
-0.025342
0.00144234
0.0132944
-0.023153
0.0294112
0.0193072
-0.0194175
-0.0105812
-0.00496159
0.0234619
-0.00199827
0.0238961
0.0337066
0.0222233
-0.0109708
0.0226149
0.0187162
0.0181311
0.0214708
0.0230239
0.00803287
0.0214764
0.000290912
-0.00747372
0.0107531
0.0251844
-0.0345007
-0.0222599
-0.0263912
-0.0259074
0.0174555
0.0169575
-0.0229485
-0.00873482
-0.0125725
0.0289446
-0.0180889
-0.00463786
0.0146903
-0.0253043
-0.0216359
-0.0260135
-0.00725713
-0.023733
0.0168638
-0.0115262
-0.00145635
0.0328764
-0.0281925
-0.00382722
0.00825116
0.00309161
0.0108656
0.0268906
-0.0242796
0.03383
0.00902189
0.0146638
-0.0238452
0.0172011
0.020164
0.0199916
0.00310227
-0.0139032
0.00939053
-0.0106619
0.00228661
-0.00068736
0.0155182
-0.014948
0.00492259
0.0038124
0.0231825
0.0140538
-0.0268241
-0.0212224
0.0187562
0.00833755
0.00943411
0.0197219
0.00825616
-0.0110258
0.0232644
-0.0184827
0.0133514
0.0295337
-0.0215784
-0.013223
-0.0552203
0.0229101
0.00699884
0.0272462
-0.0256651
0.0037546
-0.00727026
0.0187644
0.0247329
-0.0055185
0.0512104
0.0100266
-0.0261567
-0.0144058
-0.0235199
-0.0288372
-0.0153885
-0.00882464
0.0178896
-0.0286578
-0.00421243
-0.0069008
0.0188226
0.0334342
0.0167877
0.0243126
-0.0194934
0.02529
-0.0230768
0.0307949
-0.0180093
-0.0155362
-0.0142865
-0.0125566
0.0116851
-0.0184311
-0.010517
0.0033039
0.0122558
-0.0181517
0.0330326
-0.00542132
-0.00568887
-0.0233641
-0.0189982
-0.0321365
0.0142982
-0.0060528
0.0219547
-0.00370291
-0.0106338
-0.0162568
0.0174159
-0.00577245
-0.0182691
-0.0268742
-0.0257086
0.0316786
-0.0315912
0.0205458
-0.0239087
0.0209926
0.000401289
-0.0181257
-0.027763
0.0192727
-0.0250245
0.032233
-0.00871861
0.0210624
-0.0218691
-0.009087
0.0151976
-0.0301209
-0.03053
-0.0014277
0.0051656
0.0160108
-0.000931913
-0.00503254
0.0138586
0.00246111
-0.0211636
-0.027381
0.0300766
0.0298085
-0.0237401
0.00574173
-0.00579225
-0.0207585
0.026837
-0.00916641
-0.00422658
-0.0027595
0.0049208
-0.0260324
-0.0187268
0.015572
-0.0294832
-0.0270915
0.0375196
-0.017884
-0.00173769
0.015854
0.019714
0.0328149
0.0157615
-0.00771598
-0.0176184
-0.0197372
-0.0161656
0.0300411
-0.0153445
-0.00203626
-0.0328161
-0.0195485
0.028021
0.0097417
-0.0125093
-0.0112296
-0.006452
-0.0192222
0.0167875
0.026804
-0.0203852
0.000895156
0.0333133
0.000731302
-0.00435134
-0.0293042
-0.00134506
-0.00537622
0.020092
-0.00279761
0.00910352
-0.00804432
0.0294671
-0.00517716
-0.00249757
-0.0214327
-0.0266163
-0.0143057
0.00800133
-0.0105625
-0.0150368
-0.0211562
0.00302146
-0.0207779
0.0252952
-0.00922765
-0.0234454
0.0193937
0.00349908
0.0119987
0.0124032
0.0155363
0.0300555
-0.0203621
0.0102193
-0.0106371
-0.0259651
0.00965452
0.0171023
0.00251171
-0.0276046
0.0283601
0.00881157
0.0017133
-0.013971
-0.0277153
-0.0174278
-0.0079693
0.0256175
0.025857
-0.0181588
-0.0207686
0.00521795
0.0182259
-0.0128976
0.0307566
0.00938014
-0.0128477
0.0161439
-0.0209094
-0.00068159
0.0239911
-0.00398601
-0.00432561
-0.0262907
-0.0286147
-0.0139952
-0.0101178
0.0104325
0.00364098
0.0254761
-0.0115663
-0.00218733
-0.0294919
0.0247283
0.0165888
0.00463295
0.00800403
0.0113919
-0.000500362
-0.000266044
0.0236917
0.0087391
0.00607736
-0.0246884
0.0275163
0.00650638
0.0169578
0.0189568
0.0190835
0.00286083
-0.0340046
0.00145168
0.0304816
-0.0339694
0.00740098
-0.0086151
-0.0121402
-0.00439924
-0.0260692
0.0167199
0.010659
-0.0177471
-0.017175
-0.0426582
-0.0204047
0.0284579
-0.00191813
-0.0421846
0.0123853
-0.008386
-0.0664529
-0.0044436
-0.00519581
0.0170666
-0.0117001
-0.0217067
0.0118216
0.00758
0.0273077
-0.0025944
0.00671381
0.00927926
-0.0219314
-0.000800715
-0.0128756
0.00269918
0.0313359
0.0131681
-0.0217765
0.0141201
-0.0191209
-0.0192273
0.0170385
-0.0212663
0.0171627
0.00981461
-0.0089189
-0.00693842
0.0129149
0.0132409
-0.0233496
-0.0098838
0.0270156
-0.0081447
0.0302693
0.0237575
0.00176755
-0.0277406
-0.00398767
0.0315706
0.00300185
0.0256031
-0.00267078
-0.0172399
0.0367945
0.0114813
0.0141685
0.00172142
-0.0265458
-0.0224808
-0.0303422
0.011657
-0.0292364
-0.0127853
0.030853
0.0166068
-0.0326502
0.0305065
0.0115691
-0.0182477
0.00335103
-0.0172849
-0.00578843
-0.00186396
0.00217976
0.0196741
-0.0152247
-0.0371462
0.023715
-0.0248414
0.0269271
0.0228334
0.00659644
0.0247958
0.034821
0.0116655
0.013031
-0.0317736
0.0347077
-0.0199764
0.0321464
0.0118839
0.0383354
0.0312117
0.00504423
-0.00175632
-0.0179463
-0.0298449
-0.0137412
-0.00255875
-0.0234086
-0.0120181
0.00875623
-0.00872189
-0.00562976
-0.0227085
0.0157934
0.0101016
0.0177482
0.00118532
0.00153442
-0.0293386
0.0277944
-0.00736325
0.0328058
-0.0043856
0.0314281
-0.0198057
0.00336015
-0.000866558
-0.00884482
0.0329991
0.0093142
0.0245423
-0.00394998
-0.0444533
-0.0115818
0.0120069
-0.017712
-0.0263302
0.00480324
-0.0287332
0.0324272
0.0159671
0.0289287
0.0177714
0.0300455
0.00628578
-0.000967912
-0.0215645
0.0149992
-0.0139612
-0.00756752
0.0105587
0.0144362
-0.0156397
-0.0284126
0.00583133
-0.00485539
-0.02296
0.0216274
-0.0142305
0.00415524
0.0226032
-0.0203881
-0.0293552
0.0336194
-0.0324797
0.0151133
0.0149836
-0.00107809
0.0183362
0.0163619
0.00746367
0.00188978
-0.0177968
-0.00167352
0.0328185
0.0233057
0.0297657
-0.0244749
-0.0292192
-0.0207722
0.0289345
-0.0195539
0.0441871
0.0144391
0.0166111
-0.0276699
-0.0261509
0.0300548
-0.0145851
0.0299596
0.00496255
-0.0249735
-0.0428343
0.0111683
0.00533283
0.0105782
0.0253467
-0.00890468
0.0207786
-0.0207096
0.0121655
0.0300138
0.0132108
0.0273321
-0.0073007
-0.0221295
0.0181648
0.0226974
0.0207506
-0.0107632
0.00747393
0.017995
0.00152036
-0.0310825
-0.00283972
-0.0106294
0.00896254
-0.0268331
0.0178568
0.028264
-0.0327801
-0.0095105
0.00409307
0.0112366
-0.00469886
-0.0222473
0.0219393
0.0286691
-0.0313711
0.0130094
0.00831134
0.0129269
0.00032915
0.0217652
0.0103198
0.0289763
0.0332995
0.0230959
-0.0136478
-0.0115304
-0.0222979
0.0257629
0.00667835
-0.0192432
0.0308845
-0.0324879
0.00219152
0.00391716
0.00846749
-0.0161137
0.0339249
-0.0226806
-0.0205555
-0.028654
0.0258142
-0.0182686
0.0185872
-0.00831402
0.0105627
0.0252569
0.0165684
-0.0145149
-0.00275044
-0.0162128
-0.0270023
0.00515534
0.0111863
0.0234812
0.0282579
0.0351456
0.0265182
0.00729414
0.0239204
-0.000684392
0.0181639
-0.0152119
-0.0323674
0.0254073
-0.0103443
-0.020697
-0.0211423
-0.0109995
-0.00806653
-0.00954596
0.0276905
0.00753638
0.005823
0.00994583
-0.0188745
0.0182025
-0.00392117
-0.00413578
-0.037959
-0.00594682
0.0156588
-0.0272243
0.000128858
-0.00873811
-0.0201802
0.0279589
-0.0112693
0.00784082
0.00276923
-0.022161
-0.0272957
0.025258
0.0307213
0.0149289
0.0153254
-0.0144795
0.0165311
-0.00499941
-0.0247941
-0.031824
-0.0135486
-0.0317177
0.00822072
-0.0162177
0.0129124
-0.00862471
-0.0235424
0.00911909
0.0198433
-0.0221377
-0.00128335
0.0340377
0.019355
-0.02908
-0.00896096
0.0028837
0.0335878
0.0130771
-0.0305156
-0.0312266
-0.00567974
-0.0208578
-0.005048
0.0222607
-0.0121923
0.0114322
-0.0254204
-0.0310351
-0.0239863
-0.0180447
0.00969764
-0.00855765
0.0237931
-0.000856615
-0.0263684
0.0376106
-0.04015
-0.0181532
0.000311477
-0.016712
-0.0112419
-0.0271186
-0.026487
0.0633441
0.0299164
-0.039649
-0.0204889
0.00104183
0.0091738
-0.0141927
-0.0243502
0.00904816
-0.00758025
-0.022373
-0.00949405
0.0116258
-0.001889
-0.0165565
-0.0322978
0.0308776
-0.0332689
-0.0258379
0.023138
0.0202378
0.0221243
-0.0252275
0.0188219
-0.0064378
0.00165755
-0.00867374
-0.0173096
0.00919986
-0.0281625
0.00584041
-0.0319153
0.0218271
0.021927
-0.0105797
-0.0282675
-0.01924
-0.0124843
0.0222056
-0.0003328
0.0395612
0.00822038
0.00825097
0.0349048
-0.00148326
0.000760893
0.00165252
0.0264405
-2.66753e-05
0.0112185
0.00962137
-0.0239628
0.0276827
0.0235579
0.00710116
-0.0225098
0.0253807
0.0318544
0.00727402
-0.0149927
-0.00379195
0.00283681
0.0336179
-0.0195173
0.033005
0.0178129
0.0208273
0.0228127
0.00741575
0.0104482
0.0165452
0.0053618
0.00900881
0.0288503
-0.031161
-0.0378896
-0.0069046
-0.00288907
0.0248054
0.0200558
0.00820606
-0.03132
0.00226908
-0.00231082
0.0223889
-0.0170983
-0.0135541
-0.0321908
-0.0014551
0.0193046
-0.0288053
0.031235
0.035149
0.031258
0.0176023
0.0310815
0.0162105
0.00229299
0.0117905
-0.00727299
0.00282123
-0.00763787
-0.0025411
-0.0010561
0.029175
-0.00305987
0.00331982
-0.0137163
-0.0306468
0.0263167
0.0220818
-0.0292659
0.0323941
0.00959901
0.00531099
-0.0127919
0.0142802
0.0231157
-0.00719225
0.013391
-0.0234539
0.0284217
0.00937394
-0.0263203
0.0243805
0.00421297
-0.0301736
-0.0231961
0.0274929
-0.0181965
-0.00499205
0.00974306
-0.0226067
-0.00806391
-0.0271987
-0.00557748
0.0257863
-0.0271845
0.0224656
-0.00683059
0.00607197
-0.00476205
0.00605137
-0.0273138
-0.0274976
0.00645474
-0.00765093
-0.0170038
-0.00505362
-0.0128938
-0.0249737
-0.0288479
-0.0233912
-0.023919
-0.0191603
0.00510271
0.032757
0.0185962
0.0123866
-0.00775426
-0.00885627
0.00581569
-0.0349384
-0.0213372
0.0319393
0.00901869
-0.0183521
0.024391
0.0172187
0.00507717
0.0167499
-0.0122402
0.0311235
-0.0175588
-0.00789462
0.0204831
0.0220064
-0.0188704
0.0267522
0.0171917
-0.0273675
-0.0055451
-0.00950876
-0.0138124
0.00373273
-0.0441803
0.0258656
-0.0341563
0.0232359
-0.0298004
-0.0030853
0.0251416
0.0106077
0.0339618
-0.0296475
0.00795885
0.0085765
0.0191484
0.0319225
-0.00723042
-0.0111136
0.0129709
-0.0190374
0.0252479
0.0316251
-0.0277947
-0.00323861
-0.0141057
-0.00638934
0.0220849
0.00457418
-0.00344961
-0.016505
0.0269483
-0.0150875
0.0201138
0.0329471
0.00514466
-0.0101195
-0.0108988
0.0153041
-0.0137543
0.0195414
-0.00912269
-0.0153447
0.011268
-0.000905447
0.029828
-0.0311942
-0.00368404
0.0175712
0.0269936
-0.0228253
-0.00078577
-0.0168098
0.0122694
-0.026062
-0.0153942
0.025284
-0.000460455
-0.0295403
0.0308752
-0.00708912
-0.0130297
0.0244399
-0.0150719
0.00778494
-0.00465872
0.0290923
-0.00102616
-0.00203585
-0.0233064
0.02359
-0.0089905
0.00154616
-0.0332373
0.00671165
0.0329696
-0.00484521
-0.0265883
0.0437982
0.0126798
0.006614
-0.028804
0.0139071
0.0188381
0.0128715
0.0163112
0.0321525
-0.0283206
0.022816
-0.0324734
-0.0293933
-0.0129344
0.0220402
-0.00518547
-0.0286786
0.0312031
-0.017876
0.00175165
-0.00776799
0.0255768
0.0121514
0.0117415
0.0145758
0.00627112
-0.0208929
0.0259433
-0.0220235
0.00756128
-0.00219113
-0.0264685
0.0181959
0.0324397
-0.0220837
0.00136644
-0.0154657
-0.00812904
-0.0111337
0.0162295
0.040865
-0.023618
0.0179931
0.0304205
0.0304131
-0.0273196
0.0231404
-0.0319126
0.00322957
-0.0292804
-0.0445645
-0.00228643
-4.68748e-05
0.0149724
-0.0258722
0.0127381
-0.00627876
-0.0189183
-0.0308006
-0.026731
-0.00425271
0.000378683
-0.0161152
0.0186696
0.0327931
0.0200293
-0.0146724
0.0218587
-0.0155143
-0.0248661
0.000973779
-0.0191452
-0.0150218
0.0194825
0.0123707
0.0219617
-0.00765674
-0.0255675
-0.0144783
0.0328179
-0.00535774
-0.0212403
-0.0161248
-0.0388954
-0.00701916
-0.0396625
-0.0225311
-0.00851265
-0.0165715
-0.0280368
0.0299351
-0.00463867
-0.0218219
0.0081986
-0.0448754
0.0339823
-0.0310661
0.0130928
-0.00376574
0.0114996
0.00290731
-0.0142451
-0.0284813
0.0231851
-0.00782041
-0.00818501
-0.00101428
0.0177717
-0.00564801
0.0183094
0.0141433
-0.031057
0.00888484
0.00730735
0.00769067
-0.0243711
0.00692895
0.0233753
0.0131101
-0.00264602
-0.0243543
-0.015243
0.0156837
0.0319771
0.00286351
0.0232742
0.0179949
0.0158467
0.00343221
-0.0123666
0.0201523
-0.0259914
0.0301327
-0.00236506
0.0230184
-0.00681517
0.0211686
-0.0181763
0.0113388
0.0187646
-0.000697095
-0.0186842
-0.0213447
-0.0213278
-6.26034e-05
-0.0187495
-0.00938553
-0.0270033
-0.0166666
0.0223747
-0.00241481
0.0169079
0.0187628
-0.0265388
0.022375
-0.0166299
-0.00675417
0.0148062
0.000440319
-0.00176352
-0.00517559
-0.0198256
-0.00403132
0.0260113
0.00581275
0.0070979
0.0179361
0.0205337
-0.00217369
-0.0116685
0.0051741
0.0306224
-0.0240987
-0.0163846
0.00792904
0.0219966
0.0086527
-0.0148288
0.00663275
0.0180844
0.0258155
0.00610409
-0.0185631
0.00601445
-0.0150946
0.0316422
-0.00879755
0.00772396
-0.0292661
0.0277335
0.00405218
-0.00307418
-0.030418
0.0161813
0.0301131
0.0102029
0.000404866
0.0117268
-0.026249
-0.00344622
0.0442335
0.00484601
-0.00461895
-0.0244689
-0.00690002
0.00393057
-0.0178913
0.0308095
0.0279733
-0.0108124
-0.0150937
0.0165707
0.0283993
-0.00650344
0.0214692
-0.0381379
0.0258642
-0.0184083
-0.0134299
0.0282747
-0.0313875
-0.000894225
0.0287836
-0.0263095
-0.0205884
0.00429076
-0.0119507
-0.0209605
0.0338156
0.0275322
0.0120651
0.0337433
-0.0254264
0.0103501
0.0116376
-0.00495713
-0.0204325
0.0209726
0.0286703
0.00932289
-0.010899
-0.0220709
-0.0135966
0.00858216
-0.0245464
-0.0224912
-0.01561
0.00115374
0.0252082
0.00231838
0.0212771
0.0245418
-0.035949
-0.00858416
0.000101674
0.0153856
0.0156675
-0.0140428
0.0268546
0.0148917
-0.0180561
-0.0288951
0.0140812
-0.0160718
0.01341
0.032169
-0.0206688
-0.00628521
-0.0152455
-0.0262235
-0.0325683
-0.0328142
0.0210799
-0.00823963
0.00789428
0.0199446
-0.0290642
0.0243273
-0.00532296
0.0280859
0.030167
-0.00849508
-0.0131579
-0.00126716
0.0166234
-0.0108508
0.0146511
-0.00265958
0.0105492
0.00773841
0.0105989
0.024815
-0.0204468
0.0272832
0.0111682
-0.00820547
0.0176084
0.022988
0.0209574
-0.0335616
0.030266
0.0197543
-0.0318614
-0.016702
0.013012
-0.023378
-0.0214265
-0.0211039
0.00284466
-0.0255197
0.0154265
0.0328109
0.0390146
-0.031981
-0.00296038
-0.0263867
-0.0106108
0.0151676
-0.0194987
0.0012322
0.0185844
0.0251508
0.0278114
0.0317023
0.0158769
-0.0206457
-0.0100832
-0.0281276
0.0250619
-0.0240917
-0.0315857
-0.0108544
-0.00690997
0.00389555
0.00618778
0.0126592
-0.0183478
-0.0106383
0.0312995
-0.0147915
-0.0172907
0.011091
-0.0126542
0.0246413
-0.0194954
-0.0211758
-0.0283267
-0.0289755
0.0253805
-0.0178119
-0.0207343
0.00936745
-0.0218198
0.0310861
0.00709149
-0.00887087
-0.0315433
-0.00891613
-0.00826966
-0.00556309
-0.0229408
0.0274937
-0.0119648
0.00807636
-0.00308473
-0.0119588
-0.01451
-0.0173052
0.0076565
-0.0172762
-0.00493504
-0.00141011
-0.00471713
0.0116145
-0.0129635
-0.0269224
-0.0080243
-0.00276895
0.0129748
-0.0167163
-0.0244684
0.0180626
0.0227208
0.0169457
-0.0174643
-0.0329579
-0.0261684
-0.0150889
0.0340822
0.032303
-0.00934624
-0.0242784
0.026428
-0.00531737
0.0161557
0.0233062
0.0177904
0.00309628
-0.0332069
0.0260528
0.000880457
0.0313697
-0.00738872
0.0142819
0.0084888
0.0100962
-0.00965858
-0.00372702
0.00281554
-0.0301935
0.0184979
0.0117
-0.00701259
-0.0218747
0.0294779
-0.00133885
0.0128121
-0.0273444
-0.00959691
0.0121387
0.00242508
0.00233267
0.0218759
-0.00610587
-0.00154894
-0.0230502
-0.0169746
-0.0121116
0.00778625
0.021986
-0.0408566
0.0162575
-0.0137141
0.02124
-0.0379442
0.0175306
0.000265591
0.00148427
-0.0120646
-0.00502054
-0.00352122
0.0231058
0.0252431
-0.0206225
-0.0244869
0.0324318
0.0183763
-0.0410767
-0.0212331
8.18136e-05
-0.052871
0.0386556
-0.00110941
0.0112833
0.0183962
0.0201671
0.00894242
0.00352918
0.00310798
-0.0175086
-0.0121791
-0.0223183
-0.0251307
0.00384047
-0.0253922
-0.0247323
0.028395
-0.0185449
-0.0166858
0.0229112
0.0256129
-0.0153262
9.25478e-05
-0.0164868
0.00646456
0.000267543
-0.0331419
-0.0320569
-0.00934712
0.0219902
0.0298009
-0.0208556
-0.0144695
-0.0185003
0.01616
0.038109
0.000836011
-0.0170324
0.0062749
0.0390635
-0.0416975
0.0174365
0.00832759
0.0161617
0.0330695
0.00973441
-9.74355e-05
0.0266495
0.0366738
0.00248083
0.0182529
-0.014774
0.0267785
0.0051567
-0.0235038
-0.0337087
0.0301231
0.0187261
-0.0307387
0.0224147
-0.000630383
0.0250455
0.026293
0.0143065
0.00235777
-0.0425369
-0.0155358
0.0316906
-0.0110155
0.0173383
0.00207335
-0.0105532
-0.0268951
-0.0258889
0.00460244
-0.00937457
-0.00472952
0.0242108
-0.00877648
0.0255538
0.00832358
0.0343435
0.0265959
0.0356408
-0.0225304
0.0288905
-0.0310876
0.00407297
0.0056272
-0.025397
-0.0110755
0.00425596
-0.00247111
0.0315946
0.0261843
-0.0327421
-0.0292261
-0.026042
0.0068008
-0.00941954
0.0361187
-0.0329436
-0.018279
0.0314383
0.0133697
0.0208145
0.0018286
0.0051402
0.0160008
0.0249036
-0.000714975
0.0228667
0.0252033
0.0187472
0.0220993
-0.00348298
0.0123401
0.0257572
-0.0261224
0.0174323
-0.0045774
0.004623
0.0249025
0.0282582
-0.0320603
0.017099
-0.000565871
-0.0285989
0.0195877
-0.0303982
0.0331083
0.0109839
0.0172115
0.0192477
-0.0219585
0.022086
0.00523939
0.0048105
-0.00480472
0.0228377
0.0117089
-0.00670574
-0.0306306
0.0274262
-0.0197867
0.0318794
-0.00683093
-0.00750578
-0.00981245
-0.0342392
0.00250423
-0.0152715
-0.0344684
0.000112125
-0.0202168
-0.0262183
-0.0192073
-0.0216255
-0.0228346
0.00144795
-0.0172217
0.00965172
0.0123865
0.0238996
-0.00676646
0.030404
0.0108775
-0.00323196
-0.0319536
0.00670631
0.0211371
-0.0280251
-0.0326744
0.0321676
0.0313275
0.00660432
-0.000824585
0.0241905
0.00735767
-0.0110401
0.0263439
-0.0150938
0.00793787
0.0318485
0.0187216
-0.010129
0.00595878
0.00028936
0.00245962
0.0167387
0.0325367
0.0171724
-0.00866807
0.0127174
-0.0237241
-0.0162384
-0.0313571
-0.0126242
0.0177337
-0.0329893
0.0269823
0.00264943
-0.0263016
-0.00610272
-0.0302496
0.00646236
0.0109835
-0.00645487
-0.00314809
-0.0160213
0.0255524
0.0234045
0.008604
-0.0326555
-0.012357
0.00481572
-0.0107929
0.0318686
-0.014656
-0.00743525
-0.0265178
-0.0158214
0.0117163
0.0331879
-0.00574373
0.0345707
-0.0170369
0.0030621
0.00605742
0.00150691
-0.00108573
-0.000572569
-0.0323779
-0.0276513
-0.00520119
0.0107106
0.0113546
-0.0258926
-0.0211181
-0.0255943
-0.0206738
0.00416017
0.00108183
-0.0116915
-0.0268145
-0.0157945
-0.0275242
0.0303774
-0.0229909
0.0225609
-0.00649914
0.0178759
0.0120185
0.0309794
-0.0150484
-0.0305896
-0.0154869
-0.00368355
-0.0016813
0.0238853
0.00592182
-0.00289698
0.0287212
0.0106938
0.00211748
-0.0200515
0.0212777
-0.0178643
0.0222554
0.0330756
0.0195397
0.00927493
-0.0284348
-0.0167456
0.0283418
0.0117353
-0.0314759
0.00835503
0.00632555
0.0137833
-0.00900494
0.0273833
-0.00268165
0.032381
-0.00804021
0.0167896
-0.0330076
0.00897173
0.0204894
0.0323137
0.0145469
-0.00873309
-0.00596775
-0.0121295
0.00133378
-0.000995211
-0.0281264
-0.0111375
0.00984004
0.0274398
0.00308938
0.0321696
0.0034023
-0.00445747
0.0153381
-0.00341732
-0.0266522
0.0117757
0.0316312
0.0129093
-0.00255702
0.0236418
-0.0202718
-0.00330714
0.0214736
-0.0103959
-0.0208205
-0.00528848
-0.024482
6.006e-05
0.0233882
-0.0246356
-0.00787462
-0.0148451
-0.00347355
0.00362763
-0.0156006
0.00852536
0.0172922
0.0303185
0.015163
-0.0371724
-0.00527123
-0.0125621
-0.0101689
-0.0329629
0.0198629
-0.0130393
0.0201152
-0.0234595
0.0246351
0.000329049
0.0263887
0.01763
0.00488754
-0.0134126
0.0194253
-0.0115062
-0.014593
0.0205371
-0.0166453
-0.00239928
0.0285078
0.0309142
-0.0304672
0.0120836
-0.0147311
0.0206707
0.0144893
0.00329093
0.0158997
0.010403
0.0109845
-0.0252378
-0.025531
0.00174803
-0.0187417
0.00263943
0.024246
0.00869365
-0.00615344
-0.0195367
0.0302184
-0.0225357
-0.025666
-0.00118465
-0.0188179
0.00625902
0.0123315
-0.0244115
-0.0155294
-0.0163857
0.0295518
0.029746
0.00764807
0.00334445
0.00569145
0.0187655
-0.00920627
-0.0112757
-0.0210698
-0.00131633
0.0240921
0.00425016
0.0169168
-0.00717108
-0.0166172
-0.00139572
-0.0282851
-0.0041398
-0.0172476
0.0242753
0.0171025
-0.00586054
-0.026687
-0.0110122
-0.0219419
0.0331875
0.0289402
-0.00704694
0.0315505
-0.0274931
-0.0319302
0.025973
0.0316633
-0.0146675
-0.004424
-0.0331752
0.0267694
-0.0193378
0.0219317
-0.0191978
0.016839
-0.0226527
-0.0150547
0.0590848
0.0133381
0.0202694
0.0269146
-0.020787
1.06769e-05
-0.00409417
-0.0161011
-0.0197487
0.0278637
0.0180174
0.00385377
-0.0330999
0.00697448
0.00201337
-0.00967311
0.00310254
0.00360972
-0.025067
-0.0305706
-0.0287251
0.0165796
0.0304526
0.0119408
0.00697045
-0.0105816
-0.00711974
-0.0116731
0.0275421
-0.0255905
0.00819789
0.0264574
0.0157232
0.00279274
-0.0146396
0.000222981
0.0332374
0.0147705
0.00899523
0.0120512
0.00577224
-0.00812773
-0.0175708
-0.0232178
0.0309942
0.0132017
-0.0227275
-0.0300499
0.0217001
-0.0168599
-0.0330117
-0.004133
0.00146042
0.0322037
0.00726243
-0.0248169
0.0109446
0.0125714
-0.0312581
0.00562486
0.0113222
0.00931792
0.0238614
0.0309095
0.0140618
-0.00483286
-0.00535683
-0.0295175
0.0294057
-0.0279619
0.0238629
0.0342113
0.031534
0.00762931
0.00961294
-0.0155477
0.019806
0.0140822
-0.00255166
-0.0236914
0.00563689
0.00104612
-0.0298683
-0.0300637
0.0338415
0.0138596
0.0124468
0.0103941
-0.017041
0.012901
0.023484
-0.00617027
0.0212721
-0.0191052
-0.00952883
-0.0321391
-0.00315769
0.0198884
-0.0188753
0.0258111
-0.0175411
0.00652722
-0.00592873
-0.0122836
0.0137265
-0.0282184
0.0172918
0.000198357
-0.00720234
0.0160804
-0.0214499
-0.00130814
0.0181296
-0.0149351
0.00262946
0.0109849
0.0299943
0.015192
0.0282842
0.0159409
-0.0089624
0.00916469
0.0103887
-0.018645
0.0201431
0.037615
-0.0188641
0.0205019
-0.0142648
0.0310944
-0.020634
0.0113553
-0.0365112
0.00612598
0.000608934
0.0193339
-0.0225211
0.0250428
0.0203818
-0.0298832
-0.017761
0.0317945
0.00773001
-0.0182646
-0.0177802
0.00276212
-0.00189488
0.0142148
-0.0168188
-0.0108994
0.0461288
0.00810027
0.00557108
0.00419537
-0.0103902
0.0222166
0.0040069
-0.0297782
0.00723529
-0.00878518
-0.0290748
-0.0129504
-0.028714
0.010543
-0.00627537
-0.00169707
-0.00578811
0.00551095
-0.0159329
0.0166837
0.00599236
-0.0175374
0.0141101
0.00913715
-0.00548096
-0.00302694
-0.0229742
0.0307094
0.00957391
0.0286999
0.0170117
-0.0266109
-0.0349352
-0.0180609
0.0110011
-0.00578022
0.00426735
0.0197308
-0.0314559
0.0114803
-0.0344085
-0.0283777
0.0353279
0.00794067
-0.0167956
-0.00980665
-0.0258916
-0.0212488
0.0269911
0.0245858
0.0307371
-0.0332894
0.014018
-0.0258908
0.00911409
-0.0311817
-0.0292866
-0.0128728
-0.00397017
0.0142172
-0.0182682
0.0140905
0.0192057
0.0210461
-0.00406922
0.0501576
-0.0188561
0.0311926
-0.0202263
-0.0181202
0.0111561
0.0196301
0.0218138
0.00714696
-0.00616292
-0.0517392
-0.000844958
-0.0314052
0.0184818
0.0267939
-0.00621985
0.0114456
-0.0108036
-0.0324834
0.019613
-0.0303234
0.00471173
-0.00331225
0.0246908
-0.0329883
-0.0404635
0.00825268
-0.0127491
-0.00637188
-0.00528797
0.0115593
0.0264485
-0.0235014
0.0106445
-0.0268736
0.0393591
0.0221864
0.0310787
-0.01696
0.033088
0.00355777
0.00906535
-0.0344868
0.0106991
-0.00874772
0.0146541
-0.026543
0.00308535
-0.0232642
-0.000206696
-0.00377393
0.033059
0.00208544
0.0157398
-0.00304534
0.00519283
-0.0108715
0.00989707
-0.0388628
0.0111952
0.00626704
0.0303222
0.00789104
0.034276
0.0261485
-0.00572343
0.0193665
0.0128222
0.021016
-0.0317907
-0.0220727
0.00744483
0.0243973
-0.0262425
0.0309984
0.0147001
0.029314
0.0145072
-0.019728
-0.0201878
-0.00515378
-0.0149402
0.0010729
0.0164304
0.0136566
0.0371582
0.00425838
-0.0184976
-0.000349548
0.00668416
0.0156116
-0.0121343
0.023979
0.0348097
0.0148794
0.0190636
0.0281507
-0.00829583
0.0334648
-0.0141034
0.0164199
-0.031139
-0.0127744
-0.00795579
-0.0133213
-0.0227643
-0.0122187
0.0157506
0.00105204
0.0253267
0.0161008
0.0199416
-0.0166308
0.0219605
-0.0246467
0.0270059
0.00225261
0.0227695
0.00872964
0.00447338
0.0193998
-0.0153602
-0.01515
0.00830579
0.0162541
0.0102296
-0.00651965
0.0084023
-0.0108956
-0.0132422
-0.0079764
0.0205627
0.0276143
0.00903318
0.0125076
0.0361935
-0.00292374
0.0181907
0.0256561
0.0250667
-0.00527203
-0.0169517
-0.00777021
0.00853434
0.00966278
-0.00627862
-0.0291768
0.00738584
0.00699067
0.0161156
-0.0223554
-0.00894318
-0.0030938
0.00893703
-0.0278652
-0.0179482
0.00641991
0.0310671
-0.00433152
-0.00577652
0.0292147
0.0137292
0.0152659
0.0121076
0.0269354
-0.00393549
0.0267115
-0.0150199
-0.011188
0.0162895
0.0145912
0.0139194
-0.000857271
0.0323053
0.0212901
-0.0240413
0.0248462
-0.0078539
0.0185298
-0.00344669
-0.0292263
0.00431751
0.0232855
-0.0268656
-0.0230129
-0.0136811
-0.00963399
-0.0151334
-0.0116887
-0.0149537
0.0134181
-0.0267992
0.0100242
-0.000942069
-0.0119934
-0.00476559
0.0282255
0.00650293
-0.0154521
0.0178945
0.00996154
0.0298551
0.0233479
-0.00485195
-0.00250154
-0.0145804
-0.000204382
-0.0122396
0.0122037
0.0170554
-0.0292772
-0.0177538
-0.0182739
-0.0267769
-0.0109199
0.0326049
-0.0315534
-0.0228239
-0.0187557
0.0247053
0.0340016
-0.00513884
0.00043464
0.00177294
-0.00705223
0.0247494
0.0298145
0.0209617
0.0340701
-0.0213349
-0.0275868
-0.00479736
0.0109282
-0.0304593
-0.00954692
-0.034338
-0.0105192
-0.00653063
0.0288256
0.000915213
-0.0237303
-0.019181
0.0171143
0.0325154
0.0225716
-0.0262137
0.0310216
0.0237204
0.0222001
0.0138768
0.00836878
0.020537
0.00838861
-0.0205777
-0.0105674
0.000835611
-0.00112616
0.0196368
-0.00929394
-0.00393329
0.00436109
0.0291293
-0.00532549
0.00993971
9.5986e-05
0.0170215
-0.0151171
0.0159013
-0.0263362
-0.0202931
-0.00987204
0.0176854
-0.000291597
0.00793507
0.0154087
-0.00469108
-0.0180958
-0.015588
0.00436002
-0.029889
-0.00863564
0.0188412
-0.0075942
0.0330499
-0.00343185
0.00327013
0.000879282
0.0345087
0.000878655
-0.00836846
0.0271574
0.0337668
-0.0142058
0.0207647
0.0102576
0.0221031
-0.0284036
0.0299671
-0.0217842
-0.0214614
0.00664082
-0.0321679
-0.00348567
0.00152836
-0.0222076
0.0104267
-0.0180818
-0.0067215
0.024011
-0.0158302
0.0302597
-0.0197513
-0.027173
-0.0126637
0.0152377
-0.032618
-0.0303997
-0.0215434
-0.00285484
0.00407765
-0.0249205
-0.0107736
0.00751205
0.0307611
0.0107189
0.00412854
-0.0139284
0.0181481
-0.02527
0.0315796
-0.00659914
0.0156054
0.000725194
0.0228709
0.01684
0.0202709
5.28468e-05
0.0354629
-0.0311019
0.0245942
0.0166777
0.0320666
-0.0268114
-0.0126994
0.0204106
0.0202205
-0.011392
0.0221065
0.00364914
0.0181948
0.0136272
-0.0207639
0.00454368
-0.00251467
-0.0248182
0.0204061
0.0123185
-0.00567701
0.000385081
0.0206464
0.00174198
0.0280184
-0.031277
-0.00641594
-0.0163449
0.018921
-0.0303227
-0.0173988
-0.0170135
-0.027465
-0.0250035
0.0336188
0.00850557
-0.0204473
0.0216914
0.0153526
0.0007676
-0.0212334
-0.0146809
0.00481901
-0.00480194
0.0122597
0.016847
0.00524884
0.0114075
0.00670597
-0.00884179
-0.00803067
0.0208276
0.028663
-0.0036904
-0.031118
-0.0424987
0.00181787
-0.00391075
-0.0052279
0.0242586
0.0344675
-0.0208526
0.00440244
-0.0498156
0.0095174
0.0126809
-0.0178017
-0.0335331
-0.0139518
-0.0261329
-0.0305991
0.00722015
-0.0158059
0.0408691
-0.0100347
0.0285743
0.00705037
-0.0172315
0.0264659
0.0250767
0.00855586
-0.0182096
-0.0203746
-0.0330804
0.0261655
-0.00500441
-0.0138341
-0.0262638
-0.0197621
-0.00958018
0.00954883
-0.0219341
0.0127949
-0.010282
0.0293689
0.0102931
-0.0246652
-0.0158148
0.0482292
-0.0198705
-0.0312606
0.0319908
0.0278464
-0.02431
-0.0137584
0.0116217
-0.00988006
-0.013754
0.027326
-0.0192036
0.00402195
0.0360632
0.0332141
-0.025955
0.0283282
-0.0164717
-0.0151299
0.0245571
0.023552
0.0203194
0.0147991
0.00487004
0.0219926
0.0452965
-0.0120637
-0.00824469
-0.00347438
0.0013544
0.00640209
0.0193742
-0.00519236
-0.024902
0.0181262
-0.0248892
-0.0206721
-0.00402329
-0.0164781
-0.0332321
0.0017881
-0.0228435
0.011553
-0.0111235
-0.0265146
0.0100058
0.0100496
0.00628741
-0.0050296
0.0286299
0.01502
-0.00788342
-0.00294072
-0.0274759
0.025112
-0.0277476
-0.00231811
0.0286448
-0.00488011
0.0313925
-0.0137035
0.00318147
0.00918686
0.00191079
0.0142316
-0.0305675
-0.0238522
-0.0128569
0.00554596
-0.000881235
-0.00742401
-0.0108765
-0.0251065
0.0110865
-0.0230507
0.0181383
0.0154421
0.0181742
-0.0113852
-0.02037
-0.0167274
-0.0149127
-0.00131253
-0.00637237
0.0237102
0.0302255
-0.00349156
-0.0121348
0.0149901
-0.0104242
0.019674
0.000612154
0.0259973
-0.000876745
-0.0331444
-0.0293728
-0.0306473
0.0140033
-0.00196233
-0.0259017
-0.0309384
-0.00631138
-0.00125933
0.0185376
-0.0309126
-0.0235628
0.00233803
0.0275872
0.00048284
-0.00735583
0.000648354
0.0168037
0.00266437
-0.0293688
-0.0240234
-0.0145906
-0.00131799
-0.0376349
-0.0139062
0.0162262
0.0291381
0.00316793
-0.0176596
0.0217027
-0.0340755
-0.0368992
0.0240101
-0.00139923
-0.00455713
0.0240962
0.0120607
0.00631517
0.0138679
0.00818609
0.0263402
0.0211215
0.0170007
-0.00382739
-0.0260012
-0.0182405
-0.0136358
0.00747042
4.87289e-05
0.0293321
-0.0222877
-0.0259017
-0.00252029
0.0110159
0.0147871
-0.0164114
-0.00908776
0.0107524
0.0236028
-0.0257602
-0.00313648
-0.010885
0.0251107
0.0221298
0.0264716
-0.0125507
-0.0181794
-0.0282827
0.0256801
0.0336331
0.0131694
0.0104306
0.0184961
0.0307407
0.0121482
-0.00526238
-0.0234071
0.0316928
0.00272419
-0.0221146
-0.00801491
0.0191641
-0.0159045
-0.00736813
0.0241554
4.80498e-05
0.00854792
0.017581
-0.0306484
-0.00572108
0.0260694
0.00733779
-0.0168804
0.0231958
0.0311443
0.00999242
-0.0600022
-0.0211945
0.0224667
-0.00461832
-0.0224644
0.0268796
0.0133262
-0.00239803
0.0221941
0.0251759
0.0244786
0.00044075
-0.00475678
0.0272606
0.0110803
0.0168091
-0.024928
-0.00555112
-0.0257419
0.000569708
0.0315064
-0.0162699
-0.0147808
-0.0256968
-0.0210573
0.00788548
-0.0186299
-0.00390334
0.0268843
0.0151687
-0.0303106
-0.00483892
-0.0054753
-0.0151521
0.0213987
0.00432465
-0.0235731
-0.0281364
0.00217355
0.000499258
-0.0047927
-0.0041331
-0.0361332
0.0180114
-0.010034
-0.0209518
-4.85681e-05
0.0358496
-0.023134
-0.0255363
-0.0107658
0.00890957
-0.00604127
0.014259
-0.0168529
0.00214121
0.0250246
-0.0013376
-0.00207914
0.0168425
0.0230968
-0.0310799
-0.0188812
-0.0263212
0.0220115
0.000603281
-0.0208559
0.0321535
-0.0294074
-0.0172603
0.033846
-0.00117339
0.0102412
0.0341907
-0.0182295
0.0268822
0.0141186
-0.0209444
0.000314495
0.0237277
-0.00863096
0.0313406
-0.000791437
-0.0177509
0.0124974
-0.0137401
-0.0138898
0.00340919
0.0150371
-0.0156817
-0.0149209
-0.00534366
-0.0161089
0.0301283
-0.030176
-0.0263141
-0.00338256
-0.01556
0.00659989
6.6152e-05
0.0198429
-0.0261643
0.0358836
0.0115618
-0.0261421
0.0149722
-0.0200318
0.020948
0.0314864
0.0141889
-0.00671331
0.0234854
0.013162
0.0106799
0.009758
0.00999097
0.013406
-0.0256576
0.015728
-0.00437054
0.00252027
-0.0296628
0.0280455
-0.0117896
-0.0024811
-0.0213884
-0.0137796
-0.00344287
-0.0171499
-0.0312531
-0.0102146
-0.021151
-0.0216642
-0.00249576
0.014608
0.0247266
0.0339402
0.0250861
-0.00701076
0.0191557
0.0283633
-0.00477391
-0.0214416
-0.0264644
0.0077726
-0.0164089
0.0307577
0.00263469
0.0101975
0.0254886
-0.0132234
0.0221625
0.00712552
-0.020726
-0.0128127
-0.0200632
-0.0131754
0.0276633
0.0210748
-0.0229822
0.00248503
-0.00492324
0.0332708
0.0294141
-0.0345595
0.00464256
0.0288686
-0.00445367
0.017827
-0.0217097
0.0124936
0.0110689
-0.0327771
0.0219674
0.0196678
-0.00537553
-0.0346099
0.0092459
0.0149402
-0.0146731
-0.0341247
-0.00920594
-0.0281685
0.0112351
-0.0358317
0.0517659
-0.0151855
-0.0116024
0.0137682
0.0108134
0.0318039
-0.00991254
-0.0176709
0.0307264
-0.0138495
0.00526365
-0.00331661
0.00822895
0.0278441
-0.0221403
-0.0223633
0.00719765
-0.0133942
-0.00878315
0.0254244
-0.0291719
0.00359653
-0.00474829
-0.0188894
-0.0153547
0.0226478
-0.0130858
-0.0381169
-0.017573
-0.00577405
-0.0239961
0.00707137
-0.00899789
0.0313747
0.0252106
0.0286234
0.0299658
-0.0255119
0.0328148
-0.00353663
-0.0320494
0.00194354
0.0220195
0.0160801
-0.0305551
0.00330639
0.00647094
0.00782914
0.0277452
0.029108
0.00327567
-0.00573529
-0.0343844
-0.00453828
-0.0217694
-0.0140921
-0.0263976
0.0248897
0.0266277
0.0223039
-0.00691377
0.0334219
0.0324733
0.0108133
-0.00365638
0.0202321
0.00336275
0.0290024
0.000491745
-0.0317984
-0.0139427
0.00226596
-0.0258155
0.0134181
0.0185307
-0.0301847
-0.0156207
0.0306741
-0.0185017
0.0115782
0.0228793
-0.0179446
0.0143506
0.0254293
0.0115185
0.020876
0.012077
0.0100435
0.0191424
0.00418666
-0.00896297
0.0108934
-0.0376131
-0.0321797
0.0235992
-0.0335606
-0.0131392
0.0274354
0.0277308
0.0184588
0.0100097
-0.0216851
0.0181834
-0.0328047
0.026123
-0.0251471
0.0100894
0.00725153
0.0329816
0.02492
-0.0106973
-0.0120928
-0.0249272
-0.00202026
0.0133541
0.0159872
-0.0159251
0.0267651
-0.0326876
0.0032832
0.0296122
0.0087982
-0.0187878
0.032918
0.00940844
0.0039204
0.033792
0.0329317
-0.00277606
-0.00644457
-0.0168167
0.0269005
0.00501835
-0.0283236
-0.00401536
0.0341273
-0.0204421
-0.0292459
0.0111308
0.0135412
-0.00878363
2.15777e-06
-0.0315366
-0.0291259
0.0330551
0.0126296
0.0200813
-0.0176801
0.00527246
-0.0128459
-0.00775881
-0.00063443
0.0307677
-0.000572747
-0.0335234
-0.0278376
0.00531212
-0.00368228
0.00235677
0.00353105
0.0288451
0.018804
0.00131802
0.000948176
0.0231467
-0.0317508
-0.0314009
0.0104603
